FANN_FLO_2.1
num_layers=5
learning_rate=0.700000
connection_rate=1.000000
network_type=0
learning_momentum=0.000000
training_algorithm=2
train_error_function=1
train_stop_function=0
cascade_output_change_fraction=0.010000
quickprop_decay=-0.000100
quickprop_mu=1.750000
rprop_increase_factor=1.200000
rprop_decrease_factor=0.500000
rprop_delta_min=0.000000
rprop_delta_max=50.000000
rprop_delta_zero=0.100000
cascade_output_stagnation_epochs=12
cascade_candidate_change_fraction=0.010000
cascade_candidate_stagnation_epochs=12
cascade_max_out_epochs=150
cascade_min_out_epochs=50
cascade_max_cand_epochs=150
cascade_min_cand_epochs=50
cascade_num_candidate_groups=2
bit_fail_limit=3.49999994039535522461e-01
cascade_candidate_limit=1.00000000000000000000e+03
cascade_weight_multiplier=4.00000005960464477539e-01
cascade_activation_functions_count=10
cascade_activation_functions=3 5 7 8 10 11 14 15 16 17 
cascade_activation_steepnesses_count=4
cascade_activation_steepnesses=2.50000000000000000000e-01 5.00000000000000000000e-01 7.50000000000000000000e-01 1.00000000000000000000e+00 
layer_sizes=601 101 101 101 11 
scale_included=0
neurons (num_inputs, activation_function, activation_steepness)=(0, 0, 0.00000000000000000000e+00) (0, 0, 0.00000000000000000000e+00) (0, 0, 0.00000000000000000000e+00) (0, 0, 0.00000000000000000000e+00) (0, 0, 0.00000000000000000000e+00) (0, 0, 0.00000000000000000000e+00) (0, 0, 0.00000000000000000000e+00) (0, 0, 0.00000000000000000000e+00) (0, 0, 0.00000000000000000000e+00) (0, 0, 0.00000000000000000000e+00) (0, 0, 0.00000000000000000000e+00) (0, 0, 0.00000000000000000000e+00) (0, 0, 0.00000000000000000000e+00) (0, 0, 0.00000000000000000000e+00) (0, 0, 0.00000000000000000000e+00) (0, 0, 0.00000000000000000000e+00) (0, 0, 0.00000000000000000000e+00) (0, 0, 0.00000000000000000000e+00) (0, 0, 0.00000000000000000000e+00) (0, 0, 0.00000000000000000000e+00) (0, 0, 0.00000000000000000000e+00) (0, 0, 0.00000000000000000000e+00) (0, 0, 0.00000000000000000000e+00) (0, 0, 0.00000000000000000000e+00) (0, 0, 0.00000000000000000000e+00) (0, 0, 0.00000000000000000000e+00) (0, 0, 0.00000000000000000000e+00) (0, 0, 0.00000000000000000000e+00) (0, 0, 0.00000000000000000000e+00) (0, 0, 0.00000000000000000000e+00) (0, 0, 0.00000000000000000000e+00) (0, 0, 0.00000000000000000000e+00) (0, 0, 0.00000000000000000000e+00) (0, 0, 0.00000000000000000000e+00) (0, 0, 0.00000000000000000000e+00) (0, 0, 0.00000000000000000000e+00) (0, 0, 0.00000000000000000000e+00) (0, 0, 0.00000000000000000000e+00) (0, 0, 0.00000000000000000000e+00) (0, 0, 0.00000000000000000000e+00) (0, 0, 0.00000000000000000000e+00) (0, 0, 0.00000000000000000000e+00) (0, 0, 0.00000000000000000000e+00) (0, 0, 0.00000000000000000000e+00) (0, 0, 0.00000000000000000000e+00) (0, 0, 0.00000000000000000000e+00) (0, 0, 0.00000000000000000000e+00) (0, 0, 0.00000000000000000000e+00) (0, 0, 0.00000000000000000000e+00) (0, 0, 0.00000000000000000000e+00) (0, 0, 0.00000000000000000000e+00) (0, 0, 0.00000000000000000000e+00) (0, 0, 0.00000000000000000000e+00) (0, 0, 0.00000000000000000000e+00) (0, 0, 0.00000000000000000000e+00) (0, 0, 0.00000000000000000000e+00) (0, 0, 0.00000000000000000000e+00) (0, 0, 0.00000000000000000000e+00) (0, 0, 0.00000000000000000000e+00) (0, 0, 0.00000000000000000000e+00) (0, 0, 0.00000000000000000000e+00) (0, 0, 0.00000000000000000000e+00) (0, 0, 0.00000000000000000000e+00) (0, 0, 0.00000000000000000000e+00) (0, 0, 0.00000000000000000000e+00) (0, 0, 0.00000000000000000000e+00) (0, 0, 0.00000000000000000000e+00) (0, 0, 0.00000000000000000000e+00) (0, 0, 0.00000000000000000000e+00) (0, 0, 0.00000000000000000000e+00) (0, 0, 0.00000000000000000000e+00) (0, 0, 0.00000000000000000000e+00) (0, 0, 0.00000000000000000000e+00) (0, 0, 0.00000000000000000000e+00) (0, 0, 0.00000000000000000000e+00) (0, 0, 0.00000000000000000000e+00) (0, 0, 0.00000000000000000000e+00) (0, 0, 0.00000000000000000000e+00) (0, 0, 0.00000000000000000000e+00) (0, 0, 0.00000000000000000000e+00) (0, 0, 0.00000000000000000000e+00) (0, 0, 0.00000000000000000000e+00) (0, 0, 0.00000000000000000000e+00) (0, 0, 0.00000000000000000000e+00) (0, 0, 0.00000000000000000000e+00) (0, 0, 0.00000000000000000000e+00) (0, 0, 0.00000000000000000000e+00) (0, 0, 0.00000000000000000000e+00) (0, 0, 0.00000000000000000000e+00) (0, 0, 0.00000000000000000000e+00) (0, 0, 0.00000000000000000000e+00) (0, 0, 0.00000000000000000000e+00) (0, 0, 0.00000000000000000000e+00) (0, 0, 0.00000000000000000000e+00) (0, 0, 0.00000000000000000000e+00) (0, 0, 0.00000000000000000000e+00) (0, 0, 0.00000000000000000000e+00) (0, 0, 0.00000000000000000000e+00) (0, 0, 0.00000000000000000000e+00) (0, 0, 0.00000000000000000000e+00) (0, 0, 0.00000000000000000000e+00) (0, 0, 0.00000000000000000000e+00) (0, 0, 0.00000000000000000000e+00) (0, 0, 0.00000000000000000000e+00) (0, 0, 0.00000000000000000000e+00) (0, 0, 0.00000000000000000000e+00) (0, 0, 0.00000000000000000000e+00) (0, 0, 0.00000000000000000000e+00) (0, 0, 0.00000000000000000000e+00) (0, 0, 0.00000000000000000000e+00) (0, 0, 0.00000000000000000000e+00) (0, 0, 0.00000000000000000000e+00) (0, 0, 0.00000000000000000000e+00) (0, 0, 0.00000000000000000000e+00) (0, 0, 0.00000000000000000000e+00) (0, 0, 0.00000000000000000000e+00) (0, 0, 0.00000000000000000000e+00) (0, 0, 0.00000000000000000000e+00) (0, 0, 0.00000000000000000000e+00) (0, 0, 0.00000000000000000000e+00) (0, 0, 0.00000000000000000000e+00) (0, 0, 0.00000000000000000000e+00) (0, 0, 0.00000000000000000000e+00) (0, 0, 0.00000000000000000000e+00) (0, 0, 0.00000000000000000000e+00) (0, 0, 0.00000000000000000000e+00) (0, 0, 0.00000000000000000000e+00) (0, 0, 0.00000000000000000000e+00) (0, 0, 0.00000000000000000000e+00) (0, 0, 0.00000000000000000000e+00) (0, 0, 0.00000000000000000000e+00) (0, 0, 0.00000000000000000000e+00) (0, 0, 0.00000000000000000000e+00) (0, 0, 0.00000000000000000000e+00) (0, 0, 0.00000000000000000000e+00) (0, 0, 0.00000000000000000000e+00) (0, 0, 0.00000000000000000000e+00) (0, 0, 0.00000000000000000000e+00) (0, 0, 0.00000000000000000000e+00) (0, 0, 0.00000000000000000000e+00) (0, 0, 0.00000000000000000000e+00) (0, 0, 0.00000000000000000000e+00) (0, 0, 0.00000000000000000000e+00) (0, 0, 0.00000000000000000000e+00) (0, 0, 0.00000000000000000000e+00) (0, 0, 0.00000000000000000000e+00) (0, 0, 0.00000000000000000000e+00) (0, 0, 0.00000000000000000000e+00) (0, 0, 0.00000000000000000000e+00) (0, 0, 0.00000000000000000000e+00) (0, 0, 0.00000000000000000000e+00) (0, 0, 0.00000000000000000000e+00) (0, 0, 0.00000000000000000000e+00) (0, 0, 0.00000000000000000000e+00) (0, 0, 0.00000000000000000000e+00) (0, 0, 0.00000000000000000000e+00) (0, 0, 0.00000000000000000000e+00) (0, 0, 0.00000000000000000000e+00) (0, 0, 0.00000000000000000000e+00) (0, 0, 0.00000000000000000000e+00) (0, 0, 0.00000000000000000000e+00) (0, 0, 0.00000000000000000000e+00) (0, 0, 0.00000000000000000000e+00) (0, 0, 0.00000000000000000000e+00) (0, 0, 0.00000000000000000000e+00) (0, 0, 0.00000000000000000000e+00) (0, 0, 0.00000000000000000000e+00) (0, 0, 0.00000000000000000000e+00) (0, 0, 0.00000000000000000000e+00) (0, 0, 0.00000000000000000000e+00) (0, 0, 0.00000000000000000000e+00) (0, 0, 0.00000000000000000000e+00) (0, 0, 0.00000000000000000000e+00) (0, 0, 0.00000000000000000000e+00) (0, 0, 0.00000000000000000000e+00) (0, 0, 0.00000000000000000000e+00) (0, 0, 0.00000000000000000000e+00) (0, 0, 0.00000000000000000000e+00) (0, 0, 0.00000000000000000000e+00) (0, 0, 0.00000000000000000000e+00) (0, 0, 0.00000000000000000000e+00) (0, 0, 0.00000000000000000000e+00) (0, 0, 0.00000000000000000000e+00) (0, 0, 0.00000000000000000000e+00) (0, 0, 0.00000000000000000000e+00) (0, 0, 0.00000000000000000000e+00) (0, 0, 0.00000000000000000000e+00) (0, 0, 0.00000000000000000000e+00) (0, 0, 0.00000000000000000000e+00) (0, 0, 0.00000000000000000000e+00) (0, 0, 0.00000000000000000000e+00) (0, 0, 0.00000000000000000000e+00) (0, 0, 0.00000000000000000000e+00) (0, 0, 0.00000000000000000000e+00) (0, 0, 0.00000000000000000000e+00) (0, 0, 0.00000000000000000000e+00) (0, 0, 0.00000000000000000000e+00) (0, 0, 0.00000000000000000000e+00) (0, 0, 0.00000000000000000000e+00) (0, 0, 0.00000000000000000000e+00) (0, 0, 0.00000000000000000000e+00) (0, 0, 0.00000000000000000000e+00) (0, 0, 0.00000000000000000000e+00) (0, 0, 0.00000000000000000000e+00) (0, 0, 0.00000000000000000000e+00) (0, 0, 0.00000000000000000000e+00) (0, 0, 0.00000000000000000000e+00) (0, 0, 0.00000000000000000000e+00) (0, 0, 0.00000000000000000000e+00) (0, 0, 0.00000000000000000000e+00) (0, 0, 0.00000000000000000000e+00) (0, 0, 0.00000000000000000000e+00) (0, 0, 0.00000000000000000000e+00) (0, 0, 0.00000000000000000000e+00) (0, 0, 0.00000000000000000000e+00) (0, 0, 0.00000000000000000000e+00) (0, 0, 0.00000000000000000000e+00) (0, 0, 0.00000000000000000000e+00) (0, 0, 0.00000000000000000000e+00) (0, 0, 0.00000000000000000000e+00) (0, 0, 0.00000000000000000000e+00) (0, 0, 0.00000000000000000000e+00) (0, 0, 0.00000000000000000000e+00) (0, 0, 0.00000000000000000000e+00) (0, 0, 0.00000000000000000000e+00) (0, 0, 0.00000000000000000000e+00) (0, 0, 0.00000000000000000000e+00) (0, 0, 0.00000000000000000000e+00) (0, 0, 0.00000000000000000000e+00) (0, 0, 0.00000000000000000000e+00) (0, 0, 0.00000000000000000000e+00) (0, 0, 0.00000000000000000000e+00) (0, 0, 0.00000000000000000000e+00) (0, 0, 0.00000000000000000000e+00) (0, 0, 0.00000000000000000000e+00) (0, 0, 0.00000000000000000000e+00) (0, 0, 0.00000000000000000000e+00) (0, 0, 0.00000000000000000000e+00) (0, 0, 0.00000000000000000000e+00) (0, 0, 0.00000000000000000000e+00) (0, 0, 0.00000000000000000000e+00) (0, 0, 0.00000000000000000000e+00) (0, 0, 0.00000000000000000000e+00) (0, 0, 0.00000000000000000000e+00) (0, 0, 0.00000000000000000000e+00) (0, 0, 0.00000000000000000000e+00) (0, 0, 0.00000000000000000000e+00) (0, 0, 0.00000000000000000000e+00) (0, 0, 0.00000000000000000000e+00) (0, 0, 0.00000000000000000000e+00) (0, 0, 0.00000000000000000000e+00) (0, 0, 0.00000000000000000000e+00) (0, 0, 0.00000000000000000000e+00) (0, 0, 0.00000000000000000000e+00) (0, 0, 0.00000000000000000000e+00) (0, 0, 0.00000000000000000000e+00) (0, 0, 0.00000000000000000000e+00) (0, 0, 0.00000000000000000000e+00) (0, 0, 0.00000000000000000000e+00) (0, 0, 0.00000000000000000000e+00) (0, 0, 0.00000000000000000000e+00) (0, 0, 0.00000000000000000000e+00) (0, 0, 0.00000000000000000000e+00) (0, 0, 0.00000000000000000000e+00) (0, 0, 0.00000000000000000000e+00) (0, 0, 0.00000000000000000000e+00) (0, 0, 0.00000000000000000000e+00) (0, 0, 0.00000000000000000000e+00) (0, 0, 0.00000000000000000000e+00) (0, 0, 0.00000000000000000000e+00) (0, 0, 0.00000000000000000000e+00) (0, 0, 0.00000000000000000000e+00) (0, 0, 0.00000000000000000000e+00) (0, 0, 0.00000000000000000000e+00) (0, 0, 0.00000000000000000000e+00) (0, 0, 0.00000000000000000000e+00) (0, 0, 0.00000000000000000000e+00) (0, 0, 0.00000000000000000000e+00) (0, 0, 0.00000000000000000000e+00) (0, 0, 0.00000000000000000000e+00) (0, 0, 0.00000000000000000000e+00) (0, 0, 0.00000000000000000000e+00) (0, 0, 0.00000000000000000000e+00) (0, 0, 0.00000000000000000000e+00) (0, 0, 0.00000000000000000000e+00) (0, 0, 0.00000000000000000000e+00) (0, 0, 0.00000000000000000000e+00) (0, 0, 0.00000000000000000000e+00) (0, 0, 0.00000000000000000000e+00) (0, 0, 0.00000000000000000000e+00) (0, 0, 0.00000000000000000000e+00) (0, 0, 0.00000000000000000000e+00) (0, 0, 0.00000000000000000000e+00) (0, 0, 0.00000000000000000000e+00) (0, 0, 0.00000000000000000000e+00) (0, 0, 0.00000000000000000000e+00) (0, 0, 0.00000000000000000000e+00) (0, 0, 0.00000000000000000000e+00) (0, 0, 0.00000000000000000000e+00) (0, 0, 0.00000000000000000000e+00) (0, 0, 0.00000000000000000000e+00) (0, 0, 0.00000000000000000000e+00) (0, 0, 0.00000000000000000000e+00) (0, 0, 0.00000000000000000000e+00) (0, 0, 0.00000000000000000000e+00) (0, 0, 0.00000000000000000000e+00) (0, 0, 0.00000000000000000000e+00) (0, 0, 0.00000000000000000000e+00) (0, 0, 0.00000000000000000000e+00) (0, 0, 0.00000000000000000000e+00) (0, 0, 0.00000000000000000000e+00) (0, 0, 0.00000000000000000000e+00) (0, 0, 0.00000000000000000000e+00) (0, 0, 0.00000000000000000000e+00) (0, 0, 0.00000000000000000000e+00) (0, 0, 0.00000000000000000000e+00) (0, 0, 0.00000000000000000000e+00) (0, 0, 0.00000000000000000000e+00) (0, 0, 0.00000000000000000000e+00) (0, 0, 0.00000000000000000000e+00) (0, 0, 0.00000000000000000000e+00) (0, 0, 0.00000000000000000000e+00) (0, 0, 0.00000000000000000000e+00) (0, 0, 0.00000000000000000000e+00) (0, 0, 0.00000000000000000000e+00) (0, 0, 0.00000000000000000000e+00) (0, 0, 0.00000000000000000000e+00) (0, 0, 0.00000000000000000000e+00) (0, 0, 0.00000000000000000000e+00) (0, 0, 0.00000000000000000000e+00) (0, 0, 0.00000000000000000000e+00) (0, 0, 0.00000000000000000000e+00) (0, 0, 0.00000000000000000000e+00) (0, 0, 0.00000000000000000000e+00) (0, 0, 0.00000000000000000000e+00) (0, 0, 0.00000000000000000000e+00) (0, 0, 0.00000000000000000000e+00) (0, 0, 0.00000000000000000000e+00) (0, 0, 0.00000000000000000000e+00) (0, 0, 0.00000000000000000000e+00) (0, 0, 0.00000000000000000000e+00) (0, 0, 0.00000000000000000000e+00) (0, 0, 0.00000000000000000000e+00) (0, 0, 0.00000000000000000000e+00) (0, 0, 0.00000000000000000000e+00) (0, 0, 0.00000000000000000000e+00) (0, 0, 0.00000000000000000000e+00) (0, 0, 0.00000000000000000000e+00) (0, 0, 0.00000000000000000000e+00) (0, 0, 0.00000000000000000000e+00) (0, 0, 0.00000000000000000000e+00) (0, 0, 0.00000000000000000000e+00) (0, 0, 0.00000000000000000000e+00) (0, 0, 0.00000000000000000000e+00) (0, 0, 0.00000000000000000000e+00) (0, 0, 0.00000000000000000000e+00) (0, 0, 0.00000000000000000000e+00) (0, 0, 0.00000000000000000000e+00) (0, 0, 0.00000000000000000000e+00) (0, 0, 0.00000000000000000000e+00) (0, 0, 0.00000000000000000000e+00) (0, 0, 0.00000000000000000000e+00) (0, 0, 0.00000000000000000000e+00) (0, 0, 0.00000000000000000000e+00) (0, 0, 0.00000000000000000000e+00) (0, 0, 0.00000000000000000000e+00) (0, 0, 0.00000000000000000000e+00) (0, 0, 0.00000000000000000000e+00) (0, 0, 0.00000000000000000000e+00) (0, 0, 0.00000000000000000000e+00) (0, 0, 0.00000000000000000000e+00) (0, 0, 0.00000000000000000000e+00) (0, 0, 0.00000000000000000000e+00) (0, 0, 0.00000000000000000000e+00) (0, 0, 0.00000000000000000000e+00) (0, 0, 0.00000000000000000000e+00) (0, 0, 0.00000000000000000000e+00) (0, 0, 0.00000000000000000000e+00) (0, 0, 0.00000000000000000000e+00) (0, 0, 0.00000000000000000000e+00) (0, 0, 0.00000000000000000000e+00) (0, 0, 0.00000000000000000000e+00) (0, 0, 0.00000000000000000000e+00) (0, 0, 0.00000000000000000000e+00) (0, 0, 0.00000000000000000000e+00) (0, 0, 0.00000000000000000000e+00) (0, 0, 0.00000000000000000000e+00) (0, 0, 0.00000000000000000000e+00) (0, 0, 0.00000000000000000000e+00) (0, 0, 0.00000000000000000000e+00) (0, 0, 0.00000000000000000000e+00) (0, 0, 0.00000000000000000000e+00) (0, 0, 0.00000000000000000000e+00) (0, 0, 0.00000000000000000000e+00) (0, 0, 0.00000000000000000000e+00) (0, 0, 0.00000000000000000000e+00) (0, 0, 0.00000000000000000000e+00) (0, 0, 0.00000000000000000000e+00) (0, 0, 0.00000000000000000000e+00) (0, 0, 0.00000000000000000000e+00) (0, 0, 0.00000000000000000000e+00) (0, 0, 0.00000000000000000000e+00) (0, 0, 0.00000000000000000000e+00) (0, 0, 0.00000000000000000000e+00) (0, 0, 0.00000000000000000000e+00) (0, 0, 0.00000000000000000000e+00) (0, 0, 0.00000000000000000000e+00) (0, 0, 0.00000000000000000000e+00) (0, 0, 0.00000000000000000000e+00) (0, 0, 0.00000000000000000000e+00) (0, 0, 0.00000000000000000000e+00) (0, 0, 0.00000000000000000000e+00) (0, 0, 0.00000000000000000000e+00) (0, 0, 0.00000000000000000000e+00) (0, 0, 0.00000000000000000000e+00) (0, 0, 0.00000000000000000000e+00) (0, 0, 0.00000000000000000000e+00) (0, 0, 0.00000000000000000000e+00) (0, 0, 0.00000000000000000000e+00) (0, 0, 0.00000000000000000000e+00) (0, 0, 0.00000000000000000000e+00) (0, 0, 0.00000000000000000000e+00) (0, 0, 0.00000000000000000000e+00) (0, 0, 0.00000000000000000000e+00) (0, 0, 0.00000000000000000000e+00) (0, 0, 0.00000000000000000000e+00) (0, 0, 0.00000000000000000000e+00) (0, 0, 0.00000000000000000000e+00) (0, 0, 0.00000000000000000000e+00) (0, 0, 0.00000000000000000000e+00) (0, 0, 0.00000000000000000000e+00) (0, 0, 0.00000000000000000000e+00) (0, 0, 0.00000000000000000000e+00) (0, 0, 0.00000000000000000000e+00) (0, 0, 0.00000000000000000000e+00) (0, 0, 0.00000000000000000000e+00) (0, 0, 0.00000000000000000000e+00) (0, 0, 0.00000000000000000000e+00) (0, 0, 0.00000000000000000000e+00) (0, 0, 0.00000000000000000000e+00) (0, 0, 0.00000000000000000000e+00) (0, 0, 0.00000000000000000000e+00) (0, 0, 0.00000000000000000000e+00) (0, 0, 0.00000000000000000000e+00) (0, 0, 0.00000000000000000000e+00) (0, 0, 0.00000000000000000000e+00) (0, 0, 0.00000000000000000000e+00) (0, 0, 0.00000000000000000000e+00) (0, 0, 0.00000000000000000000e+00) (0, 0, 0.00000000000000000000e+00) (0, 0, 0.00000000000000000000e+00) (0, 0, 0.00000000000000000000e+00) (0, 0, 0.00000000000000000000e+00) (0, 0, 0.00000000000000000000e+00) (0, 0, 0.00000000000000000000e+00) (0, 0, 0.00000000000000000000e+00) (0, 0, 0.00000000000000000000e+00) (0, 0, 0.00000000000000000000e+00) (0, 0, 0.00000000000000000000e+00) (0, 0, 0.00000000000000000000e+00) (0, 0, 0.00000000000000000000e+00) (0, 0, 0.00000000000000000000e+00) (0, 0, 0.00000000000000000000e+00) (0, 0, 0.00000000000000000000e+00) (0, 0, 0.00000000000000000000e+00) (0, 0, 0.00000000000000000000e+00) (0, 0, 0.00000000000000000000e+00) (0, 0, 0.00000000000000000000e+00) (0, 0, 0.00000000000000000000e+00) (0, 0, 0.00000000000000000000e+00) (0, 0, 0.00000000000000000000e+00) (0, 0, 0.00000000000000000000e+00) (0, 0, 0.00000000000000000000e+00) (0, 0, 0.00000000000000000000e+00) (0, 0, 0.00000000000000000000e+00) (0, 0, 0.00000000000000000000e+00) (0, 0, 0.00000000000000000000e+00) (0, 0, 0.00000000000000000000e+00) (0, 0, 0.00000000000000000000e+00) (0, 0, 0.00000000000000000000e+00) (0, 0, 0.00000000000000000000e+00) (0, 0, 0.00000000000000000000e+00) (0, 0, 0.00000000000000000000e+00) (0, 0, 0.00000000000000000000e+00) (0, 0, 0.00000000000000000000e+00) (0, 0, 0.00000000000000000000e+00) (0, 0, 0.00000000000000000000e+00) (0, 0, 0.00000000000000000000e+00) (0, 0, 0.00000000000000000000e+00) (0, 0, 0.00000000000000000000e+00) (0, 0, 0.00000000000000000000e+00) (0, 0, 0.00000000000000000000e+00) (0, 0, 0.00000000000000000000e+00) (0, 0, 0.00000000000000000000e+00) (0, 0, 0.00000000000000000000e+00) (0, 0, 0.00000000000000000000e+00) (0, 0, 0.00000000000000000000e+00) (0, 0, 0.00000000000000000000e+00) (0, 0, 0.00000000000000000000e+00) (0, 0, 0.00000000000000000000e+00) (0, 0, 0.00000000000000000000e+00) (0, 0, 0.00000000000000000000e+00) (0, 0, 0.00000000000000000000e+00) (0, 0, 0.00000000000000000000e+00) (0, 0, 0.00000000000000000000e+00) (0, 0, 0.00000000000000000000e+00) (0, 0, 0.00000000000000000000e+00) (0, 0, 0.00000000000000000000e+00) (0, 0, 0.00000000000000000000e+00) (0, 0, 0.00000000000000000000e+00) (0, 0, 0.00000000000000000000e+00) (0, 0, 0.00000000000000000000e+00) (0, 0, 0.00000000000000000000e+00) (0, 0, 0.00000000000000000000e+00) (0, 0, 0.00000000000000000000e+00) (0, 0, 0.00000000000000000000e+00) (0, 0, 0.00000000000000000000e+00) (0, 0, 0.00000000000000000000e+00) (0, 0, 0.00000000000000000000e+00) (0, 0, 0.00000000000000000000e+00) (0, 0, 0.00000000000000000000e+00) (0, 0, 0.00000000000000000000e+00) (0, 0, 0.00000000000000000000e+00) (0, 0, 0.00000000000000000000e+00) (0, 0, 0.00000000000000000000e+00) (0, 0, 0.00000000000000000000e+00) (0, 0, 0.00000000000000000000e+00) (0, 0, 0.00000000000000000000e+00) (0, 0, 0.00000000000000000000e+00) (0, 0, 0.00000000000000000000e+00) (0, 0, 0.00000000000000000000e+00) (0, 0, 0.00000000000000000000e+00) (0, 0, 0.00000000000000000000e+00) (0, 0, 0.00000000000000000000e+00) (0, 0, 0.00000000000000000000e+00) (0, 0, 0.00000000000000000000e+00) (0, 0, 0.00000000000000000000e+00) (0, 0, 0.00000000000000000000e+00) (0, 0, 0.00000000000000000000e+00) (0, 0, 0.00000000000000000000e+00) (0, 0, 0.00000000000000000000e+00) (0, 0, 0.00000000000000000000e+00) (0, 0, 0.00000000000000000000e+00) (0, 0, 0.00000000000000000000e+00) (0, 0, 0.00000000000000000000e+00) (0, 0, 0.00000000000000000000e+00) (0, 0, 0.00000000000000000000e+00) (0, 0, 0.00000000000000000000e+00) (0, 0, 0.00000000000000000000e+00) (0, 0, 0.00000000000000000000e+00) (0, 0, 0.00000000000000000000e+00) (0, 0, 0.00000000000000000000e+00) (0, 0, 0.00000000000000000000e+00) (0, 0, 0.00000000000000000000e+00) (0, 0, 0.00000000000000000000e+00) (0, 0, 0.00000000000000000000e+00) (0, 0, 0.00000000000000000000e+00) (0, 0, 0.00000000000000000000e+00) (0, 0, 0.00000000000000000000e+00) (0, 0, 0.00000000000000000000e+00) (0, 0, 0.00000000000000000000e+00) (0, 0, 0.00000000000000000000e+00) (0, 0, 0.00000000000000000000e+00) (0, 0, 0.00000000000000000000e+00) (0, 0, 0.00000000000000000000e+00) (0, 0, 0.00000000000000000000e+00) (0, 0, 0.00000000000000000000e+00) (0, 0, 0.00000000000000000000e+00) (0, 0, 0.00000000000000000000e+00) (0, 0, 0.00000000000000000000e+00) (0, 0, 0.00000000000000000000e+00) (0, 0, 0.00000000000000000000e+00) (0, 0, 0.00000000000000000000e+00) (0, 0, 0.00000000000000000000e+00) (0, 0, 0.00000000000000000000e+00) (0, 0, 0.00000000000000000000e+00) (0, 0, 0.00000000000000000000e+00) (0, 0, 0.00000000000000000000e+00) (0, 0, 0.00000000000000000000e+00) (0, 0, 0.00000000000000000000e+00) (0, 0, 0.00000000000000000000e+00) (0, 0, 0.00000000000000000000e+00) (0, 0, 0.00000000000000000000e+00) (0, 0, 0.00000000000000000000e+00) (0, 0, 0.00000000000000000000e+00) (0, 0, 0.00000000000000000000e+00) (0, 0, 0.00000000000000000000e+00) (0, 0, 0.00000000000000000000e+00) (0, 0, 0.00000000000000000000e+00) (0, 0, 0.00000000000000000000e+00) (0, 0, 0.00000000000000000000e+00) (0, 0, 0.00000000000000000000e+00) (0, 0, 0.00000000000000000000e+00) (0, 0, 0.00000000000000000000e+00) (0, 0, 0.00000000000000000000e+00) (0, 0, 0.00000000000000000000e+00) (0, 0, 0.00000000000000000000e+00) (0, 0, 0.00000000000000000000e+00) (0, 0, 0.00000000000000000000e+00) (0, 0, 0.00000000000000000000e+00) (0, 0, 0.00000000000000000000e+00) (601, 5, 5.00000000000000000000e-01) (601, 5, 5.00000000000000000000e-01) (601, 5, 5.00000000000000000000e-01) (601, 5, 5.00000000000000000000e-01) (601, 5, 5.00000000000000000000e-01) (601, 5, 5.00000000000000000000e-01) (601, 5, 5.00000000000000000000e-01) (601, 5, 5.00000000000000000000e-01) (601, 5, 5.00000000000000000000e-01) (601, 5, 5.00000000000000000000e-01) (601, 5, 5.00000000000000000000e-01) (601, 5, 5.00000000000000000000e-01) (601, 5, 5.00000000000000000000e-01) (601, 5, 5.00000000000000000000e-01) (601, 5, 5.00000000000000000000e-01) (601, 5, 5.00000000000000000000e-01) (601, 5, 5.00000000000000000000e-01) (601, 5, 5.00000000000000000000e-01) (601, 5, 5.00000000000000000000e-01) (601, 5, 5.00000000000000000000e-01) (601, 5, 5.00000000000000000000e-01) (601, 5, 5.00000000000000000000e-01) (601, 5, 5.00000000000000000000e-01) (601, 5, 5.00000000000000000000e-01) (601, 5, 5.00000000000000000000e-01) (601, 5, 5.00000000000000000000e-01) (601, 5, 5.00000000000000000000e-01) (601, 5, 5.00000000000000000000e-01) (601, 5, 5.00000000000000000000e-01) (601, 5, 5.00000000000000000000e-01) (601, 5, 5.00000000000000000000e-01) (601, 5, 5.00000000000000000000e-01) (601, 5, 5.00000000000000000000e-01) (601, 5, 5.00000000000000000000e-01) (601, 5, 5.00000000000000000000e-01) (601, 5, 5.00000000000000000000e-01) (601, 5, 5.00000000000000000000e-01) (601, 5, 5.00000000000000000000e-01) (601, 5, 5.00000000000000000000e-01) (601, 5, 5.00000000000000000000e-01) (601, 5, 5.00000000000000000000e-01) (601, 5, 5.00000000000000000000e-01) (601, 5, 5.00000000000000000000e-01) (601, 5, 5.00000000000000000000e-01) (601, 5, 5.00000000000000000000e-01) (601, 5, 5.00000000000000000000e-01) (601, 5, 5.00000000000000000000e-01) (601, 5, 5.00000000000000000000e-01) (601, 5, 5.00000000000000000000e-01) (601, 5, 5.00000000000000000000e-01) (601, 5, 5.00000000000000000000e-01) (601, 5, 5.00000000000000000000e-01) (601, 5, 5.00000000000000000000e-01) (601, 5, 5.00000000000000000000e-01) (601, 5, 5.00000000000000000000e-01) (601, 5, 5.00000000000000000000e-01) (601, 5, 5.00000000000000000000e-01) (601, 5, 5.00000000000000000000e-01) (601, 5, 5.00000000000000000000e-01) (601, 5, 5.00000000000000000000e-01) (601, 5, 5.00000000000000000000e-01) (601, 5, 5.00000000000000000000e-01) (601, 5, 5.00000000000000000000e-01) (601, 5, 5.00000000000000000000e-01) (601, 5, 5.00000000000000000000e-01) (601, 5, 5.00000000000000000000e-01) (601, 5, 5.00000000000000000000e-01) (601, 5, 5.00000000000000000000e-01) (601, 5, 5.00000000000000000000e-01) (601, 5, 5.00000000000000000000e-01) (601, 5, 5.00000000000000000000e-01) (601, 5, 5.00000000000000000000e-01) (601, 5, 5.00000000000000000000e-01) (601, 5, 5.00000000000000000000e-01) (601, 5, 5.00000000000000000000e-01) (601, 5, 5.00000000000000000000e-01) (601, 5, 5.00000000000000000000e-01) (601, 5, 5.00000000000000000000e-01) (601, 5, 5.00000000000000000000e-01) (601, 5, 5.00000000000000000000e-01) (601, 5, 5.00000000000000000000e-01) (601, 5, 5.00000000000000000000e-01) (601, 5, 5.00000000000000000000e-01) (601, 5, 5.00000000000000000000e-01) (601, 5, 5.00000000000000000000e-01) (601, 5, 5.00000000000000000000e-01) (601, 5, 5.00000000000000000000e-01) (601, 5, 5.00000000000000000000e-01) (601, 5, 5.00000000000000000000e-01) (601, 5, 5.00000000000000000000e-01) (601, 5, 5.00000000000000000000e-01) (601, 5, 5.00000000000000000000e-01) (601, 5, 5.00000000000000000000e-01) (601, 5, 5.00000000000000000000e-01) (601, 5, 5.00000000000000000000e-01) (601, 5, 5.00000000000000000000e-01) (601, 5, 5.00000000000000000000e-01) (601, 5, 5.00000000000000000000e-01) (601, 5, 5.00000000000000000000e-01) (601, 5, 5.00000000000000000000e-01) (0, 5, 0.00000000000000000000e+00) (101, 5, 5.00000000000000000000e-01) (101, 5, 5.00000000000000000000e-01) (101, 5, 5.00000000000000000000e-01) (101, 5, 5.00000000000000000000e-01) (101, 5, 5.00000000000000000000e-01) (101, 5, 5.00000000000000000000e-01) (101, 5, 5.00000000000000000000e-01) (101, 5, 5.00000000000000000000e-01) (101, 5, 5.00000000000000000000e-01) (101, 5, 5.00000000000000000000e-01) (101, 5, 5.00000000000000000000e-01) (101, 5, 5.00000000000000000000e-01) (101, 5, 5.00000000000000000000e-01) (101, 5, 5.00000000000000000000e-01) (101, 5, 5.00000000000000000000e-01) (101, 5, 5.00000000000000000000e-01) (101, 5, 5.00000000000000000000e-01) (101, 5, 5.00000000000000000000e-01) (101, 5, 5.00000000000000000000e-01) (101, 5, 5.00000000000000000000e-01) (101, 5, 5.00000000000000000000e-01) (101, 5, 5.00000000000000000000e-01) (101, 5, 5.00000000000000000000e-01) (101, 5, 5.00000000000000000000e-01) (101, 5, 5.00000000000000000000e-01) (101, 5, 5.00000000000000000000e-01) (101, 5, 5.00000000000000000000e-01) (101, 5, 5.00000000000000000000e-01) (101, 5, 5.00000000000000000000e-01) (101, 5, 5.00000000000000000000e-01) (101, 5, 5.00000000000000000000e-01) (101, 5, 5.00000000000000000000e-01) (101, 5, 5.00000000000000000000e-01) (101, 5, 5.00000000000000000000e-01) (101, 5, 5.00000000000000000000e-01) (101, 5, 5.00000000000000000000e-01) (101, 5, 5.00000000000000000000e-01) (101, 5, 5.00000000000000000000e-01) (101, 5, 5.00000000000000000000e-01) (101, 5, 5.00000000000000000000e-01) (101, 5, 5.00000000000000000000e-01) (101, 5, 5.00000000000000000000e-01) (101, 5, 5.00000000000000000000e-01) (101, 5, 5.00000000000000000000e-01) (101, 5, 5.00000000000000000000e-01) (101, 5, 5.00000000000000000000e-01) (101, 5, 5.00000000000000000000e-01) (101, 5, 5.00000000000000000000e-01) (101, 5, 5.00000000000000000000e-01) (101, 5, 5.00000000000000000000e-01) (101, 5, 5.00000000000000000000e-01) (101, 5, 5.00000000000000000000e-01) (101, 5, 5.00000000000000000000e-01) (101, 5, 5.00000000000000000000e-01) (101, 5, 5.00000000000000000000e-01) (101, 5, 5.00000000000000000000e-01) (101, 5, 5.00000000000000000000e-01) (101, 5, 5.00000000000000000000e-01) (101, 5, 5.00000000000000000000e-01) (101, 5, 5.00000000000000000000e-01) (101, 5, 5.00000000000000000000e-01) (101, 5, 5.00000000000000000000e-01) (101, 5, 5.00000000000000000000e-01) (101, 5, 5.00000000000000000000e-01) (101, 5, 5.00000000000000000000e-01) (101, 5, 5.00000000000000000000e-01) (101, 5, 5.00000000000000000000e-01) (101, 5, 5.00000000000000000000e-01) (101, 5, 5.00000000000000000000e-01) (101, 5, 5.00000000000000000000e-01) (101, 5, 5.00000000000000000000e-01) (101, 5, 5.00000000000000000000e-01) (101, 5, 5.00000000000000000000e-01) (101, 5, 5.00000000000000000000e-01) (101, 5, 5.00000000000000000000e-01) (101, 5, 5.00000000000000000000e-01) (101, 5, 5.00000000000000000000e-01) (101, 5, 5.00000000000000000000e-01) (101, 5, 5.00000000000000000000e-01) (101, 5, 5.00000000000000000000e-01) (101, 5, 5.00000000000000000000e-01) (101, 5, 5.00000000000000000000e-01) (101, 5, 5.00000000000000000000e-01) (101, 5, 5.00000000000000000000e-01) (101, 5, 5.00000000000000000000e-01) (101, 5, 5.00000000000000000000e-01) (101, 5, 5.00000000000000000000e-01) (101, 5, 5.00000000000000000000e-01) (101, 5, 5.00000000000000000000e-01) (101, 5, 5.00000000000000000000e-01) (101, 5, 5.00000000000000000000e-01) (101, 5, 5.00000000000000000000e-01) (101, 5, 5.00000000000000000000e-01) (101, 5, 5.00000000000000000000e-01) (101, 5, 5.00000000000000000000e-01) (101, 5, 5.00000000000000000000e-01) (101, 5, 5.00000000000000000000e-01) (101, 5, 5.00000000000000000000e-01) (101, 5, 5.00000000000000000000e-01) (101, 5, 5.00000000000000000000e-01) (0, 5, 0.00000000000000000000e+00) (101, 5, 5.00000000000000000000e-01) (101, 5, 5.00000000000000000000e-01) (101, 5, 5.00000000000000000000e-01) (101, 5, 5.00000000000000000000e-01) (101, 5, 5.00000000000000000000e-01) (101, 5, 5.00000000000000000000e-01) (101, 5, 5.00000000000000000000e-01) (101, 5, 5.00000000000000000000e-01) (101, 5, 5.00000000000000000000e-01) (101, 5, 5.00000000000000000000e-01) (101, 5, 5.00000000000000000000e-01) (101, 5, 5.00000000000000000000e-01) (101, 5, 5.00000000000000000000e-01) (101, 5, 5.00000000000000000000e-01) (101, 5, 5.00000000000000000000e-01) (101, 5, 5.00000000000000000000e-01) (101, 5, 5.00000000000000000000e-01) (101, 5, 5.00000000000000000000e-01) (101, 5, 5.00000000000000000000e-01) (101, 5, 5.00000000000000000000e-01) (101, 5, 5.00000000000000000000e-01) (101, 5, 5.00000000000000000000e-01) (101, 5, 5.00000000000000000000e-01) (101, 5, 5.00000000000000000000e-01) (101, 5, 5.00000000000000000000e-01) (101, 5, 5.00000000000000000000e-01) (101, 5, 5.00000000000000000000e-01) (101, 5, 5.00000000000000000000e-01) (101, 5, 5.00000000000000000000e-01) (101, 5, 5.00000000000000000000e-01) (101, 5, 5.00000000000000000000e-01) (101, 5, 5.00000000000000000000e-01) (101, 5, 5.00000000000000000000e-01) (101, 5, 5.00000000000000000000e-01) (101, 5, 5.00000000000000000000e-01) (101, 5, 5.00000000000000000000e-01) (101, 5, 5.00000000000000000000e-01) (101, 5, 5.00000000000000000000e-01) (101, 5, 5.00000000000000000000e-01) (101, 5, 5.00000000000000000000e-01) (101, 5, 5.00000000000000000000e-01) (101, 5, 5.00000000000000000000e-01) (101, 5, 5.00000000000000000000e-01) (101, 5, 5.00000000000000000000e-01) (101, 5, 5.00000000000000000000e-01) (101, 5, 5.00000000000000000000e-01) (101, 5, 5.00000000000000000000e-01) (101, 5, 5.00000000000000000000e-01) (101, 5, 5.00000000000000000000e-01) (101, 5, 5.00000000000000000000e-01) (101, 5, 5.00000000000000000000e-01) (101, 5, 5.00000000000000000000e-01) (101, 5, 5.00000000000000000000e-01) (101, 5, 5.00000000000000000000e-01) (101, 5, 5.00000000000000000000e-01) (101, 5, 5.00000000000000000000e-01) (101, 5, 5.00000000000000000000e-01) (101, 5, 5.00000000000000000000e-01) (101, 5, 5.00000000000000000000e-01) (101, 5, 5.00000000000000000000e-01) (101, 5, 5.00000000000000000000e-01) (101, 5, 5.00000000000000000000e-01) (101, 5, 5.00000000000000000000e-01) (101, 5, 5.00000000000000000000e-01) (101, 5, 5.00000000000000000000e-01) (101, 5, 5.00000000000000000000e-01) (101, 5, 5.00000000000000000000e-01) (101, 5, 5.00000000000000000000e-01) (101, 5, 5.00000000000000000000e-01) (101, 5, 5.00000000000000000000e-01) (101, 5, 5.00000000000000000000e-01) (101, 5, 5.00000000000000000000e-01) (101, 5, 5.00000000000000000000e-01) (101, 5, 5.00000000000000000000e-01) (101, 5, 5.00000000000000000000e-01) (101, 5, 5.00000000000000000000e-01) (101, 5, 5.00000000000000000000e-01) (101, 5, 5.00000000000000000000e-01) (101, 5, 5.00000000000000000000e-01) (101, 5, 5.00000000000000000000e-01) (101, 5, 5.00000000000000000000e-01) (101, 5, 5.00000000000000000000e-01) (101, 5, 5.00000000000000000000e-01) (101, 5, 5.00000000000000000000e-01) (101, 5, 5.00000000000000000000e-01) (101, 5, 5.00000000000000000000e-01) (101, 5, 5.00000000000000000000e-01) (101, 5, 5.00000000000000000000e-01) (101, 5, 5.00000000000000000000e-01) (101, 5, 5.00000000000000000000e-01) (101, 5, 5.00000000000000000000e-01) (101, 5, 5.00000000000000000000e-01) (101, 5, 5.00000000000000000000e-01) (101, 5, 5.00000000000000000000e-01) (101, 5, 5.00000000000000000000e-01) (101, 5, 5.00000000000000000000e-01) (101, 5, 5.00000000000000000000e-01) (101, 5, 5.00000000000000000000e-01) (101, 5, 5.00000000000000000000e-01) (101, 5, 5.00000000000000000000e-01) (0, 5, 0.00000000000000000000e+00) (101, 5, 5.00000000000000000000e-01) (101, 5, 5.00000000000000000000e-01) (101, 5, 5.00000000000000000000e-01) (101, 5, 5.00000000000000000000e-01) (101, 5, 5.00000000000000000000e-01) (101, 5, 5.00000000000000000000e-01) (101, 5, 5.00000000000000000000e-01) (101, 5, 5.00000000000000000000e-01) (101, 5, 5.00000000000000000000e-01) (101, 5, 5.00000000000000000000e-01) (0, 5, 0.00000000000000000000e+00) 
connections (connected_to_neuron, weight)=(0, -3.77673172950744628906e+00) (1, 3.23937225341796875000e+02) (2, 1.39080004882812500000e+03) (3, 6.50022506713867187500e+01) (4, 1.56946001052856445312e+01) (5, 7.80018687248229980469e-01) (6, 1.30361330509185791016e+00) (7, 1.98760285973548889160e-01) (8, 1.41228109598159790039e-01) (9, 4.20838505029678344727e-01) (10, 3.95825624465942382812e-01) (11, 1.46995499730110168457e-01) (12, 2.13015720248222351074e-01) (13, 9.68773663043975830078e-01) (14, 1.80765688419342041016e+00) (15, 4.18505370616912841797e-01) (16, 2.50394119262695312500e+02) (17, 5.90265846252441406250e+00) (18, 2.45851969718933105469e+00) (19, 4.44185455322265625000e+02) (20, 7.27527465820312500000e+02) (21, 5.55648565292358398438e+00) (22, -1.99987828731536865234e-01) (23, 1.71435505151748657227e-01) (24, 3.23858529329299926758e-01) (25, 2.99033015966415405273e-01) (26, 3.43104004859924316406e-01) (27, 2.85439699888229370117e-01) (28, 1.72417312860488891602e-01) (29, 1.71695619821548461914e-01) (30, 2.78974235057830810547e-01) (31, 2.69649893045425415039e-01) (32, 3.10699701309204101562e-01) (33, 3.70632350444793701172e-01) (34, 2.80393302440643310547e-01) (35, 2.57825517654418945312e+00) (36, 5.76266884803771972656e-01) (37, 3.62800270318984985352e-01) (38, 3.07637524604797363281e+00) (39, 3.69854122400283813477e-01) (40, -1.53789472579956054688e+00) (41, -2.49483680725097656250e+00) (42, 1.30519509315490722656e-01) (43, 2.65426307916641235352e-01) (44, 2.71902740001678466797e-01) (45, 2.98589468002319335938e-01) (46, 1.70672491192817687988e-01) (47, 1.57356664538383483887e-01) (48, 2.87884294986724853516e-01) (49, 2.05739572644233703613e-01) (50, 2.69765496253967285156e-01) (51, 2.45748266577720642090e-01) (52, 1.94125220179557800293e-01) (53, 3.32739740610122680664e-01) (54, 2.97943383455276489258e-01) (55, 3.71895581483840942383e-01) (56, 5.03022670745849609375e-01) (57, 4.55741673707962036133e-01) (58, 4.72759366035461425781e-01) (59, 3.12911301851272583008e-01) (60, 3.99937897920608520508e-01) (61, 1.40564702451229095459e-02) (62, 1.70646890997886657715e-01) (63, 1.84923589229583740234e-01) (64, 3.33463847637176513672e-01) (65, 2.56272792816162109375e-01) (66, 1.47811964154243469238e-01) (67, 2.31859028339385986328e-01) (68, 3.07696908712387084961e-01) (69, 1.72448068857192993164e-01) (70, 2.35938712954521179199e-01) (71, 2.67874777317047119141e-01) (72, 2.38250866532325744629e-01) (73, 2.91898369789123535156e-01) (74, 1.97443619370460510254e-01) (75, 3.79221618175506591797e-01) (76, 2.44826525449752807617e-01) (77, 2.72771447896957397461e-01) (78, 2.12157502770423889160e-01) (79, 2.11282506585121154785e-01) (80, -3.55750024318695068359e-01) (81, 1.92735165357589721680e-01) (82, 2.04703971743583679199e-01) (83, 2.63321548700332641602e-01) (84, 2.47435152530670166016e-01) (85, 3.86607617139816284180e-01) (86, 2.41763487458229064941e-01) (87, 1.53960138559341430664e-01) (88, 2.19261094927787780762e-01) (89, 1.79136633872985839844e-01) (90, 3.09338331222534179688e-01) (91, 2.03343927860260009766e-01) (92, 2.34546601772308349609e-01) (93, 1.98127478361129760742e-01) (94, 2.46218591928482055664e-01) (95, 2.27574318647384643555e-01) (96, 3.13219696283340454102e-01) (97, 3.20010036230087280273e-01) (98, 3.32251518964767456055e-01) (99, 2.99859464168548583984e-01) (100, 1.39720618724822998047e-01) (101, 1.60760626196861267090e-01) (102, 3.65334868431091308594e-01) (103, 3.53024661540985107422e-01) (104, 3.31720441579818725586e-01) (105, 3.77973020076751708984e-01) (106, 3.45929533243179321289e-01) (107, 4.00452345609664916992e-01) (108, 2.18233793973922729492e-01) (109, 3.63200843334197998047e-01) (110, 1.39327317476272583008e-01) (111, 2.79044896364212036133e-01) (112, 2.56709605455398559570e-01) (113, 2.21142202615737915039e-01) (114, 1.99558779597282409668e-01) (115, 2.20481961965560913086e-01) (116, 2.69140481948852539062e-01) (117, 3.85022997856140136719e-01) (118, 2.61041969060897827148e-01) (119, 2.82015591859817504883e-01) (120, -7.77869272232055664062e+00) (121, 1.09164838790893554688e+01) (122, 1.35490202903747558594e+00) (123, 2.68329307436943054199e-02) (124, 1.14255413413047790527e-01) (125, 4.25070315599441528320e-01) (126, 5.40739834308624267578e-01) (127, 3.31872493028640747070e-01) (128, 3.00467789173126220703e-01) (129, 1.71960234642028808594e-01) (130, 1.41256198287010192871e-01) (131, 2.29982793331146240234e-01) (132, 3.50031048059463500977e-01) (133, 1.61944821476936340332e-01) (134, 3.03130954504013061523e-01) (135, 3.88005048036575317383e-01) (136, 2.14052692055702209473e-01) (137, 2.79103636741638183594e-01) (138, 4.36919987201690673828e-01) (139, 1.67385011911392211914e-01) (140, -1.14631996154785156250e+01) (141, 9.37800586223602294922e-01) (142, 2.77687358856201171875e+00) (143, 5.18993198871612548828e-01) (144, 7.13307917118072509766e-01) (145, 9.53198075294494628906e-01) (146, 2.27627158164978027344e-01) (147, 3.18264245986938476562e-01) (148, 2.41247072815895080566e-01) (149, -8.81752204895019531250e+00) (150, 4.77527044713497161865e-02) (151, -3.59700284898281097412e-02) (152, 3.18124771118164062500e-01) (153, 3.39331388473510742188e-01) (154, 4.56640124320983886719e-01) (155, 3.32615137100219726562e-01) (156, 4.11107003688812255859e-01) (157, 4.46911722421646118164e-01) (158, 3.33023935556411743164e-01) (159, 2.23135948181152343750e-01) (160, 1.26108169555664062500e+00) (161, 1.80967414379119873047e+00) (162, 2.26342034339904785156e+00) (163, 4.01869535446166992188e-01) (164, 4.83490794897079467773e-01) (165, 3.88714134693145751953e-01) (166, 3.37453722953796386719e-01) (167, 5.64409637451171875000e+00) (168, 6.26134097576141357422e-01) (169, 1.49453735351562500000e+00) (170, 9.92801308631896972656e-01) (171, 2.52605915069580078125e-01) (172, 4.72245700657367706299e-02) (173, 4.08280938863754272461e-01) (174, 2.63220429420471191406e-01) (175, 5.66841006278991699219e-01) (176, 4.74315851926803588867e-01) (177, 7.02571809291839599609e-01) (178, 4.33017551898956298828e-01) (179, 3.47836112976074218750e+00) (180, 1.37885403633117675781e+00) (181, 4.58638858795166015625e+00) (182, 1.79601931571960449219e+00) (183, 4.33066517114639282227e-01) (184, 4.52996969223022460938e-01) (185, 3.05606216192245483398e-01) (186, 7.30086624622344970703e-01) (187, 4.79487150907516479492e-01) (188, 6.71819984912872314453e-01) (189, 1.29786229133605957031e+00) (190, 3.56385183334350585938e+00) (191, 1.84648036956787109375e-01) (192, 5.59873208403587341309e-02) (193, 2.82999366521835327148e-01) (194, 5.76740920543670654297e-01) (195, 3.35400074720382690430e-01) (196, 3.40725153684616088867e-01) (197, 5.86976826190948486328e-01) (198, 1.82857501506805419922e+00) (199, 4.62030768394470214844e-01) (200, 1.32632398605346679688e+00) (201, 1.07568836212158203125e+01) (202, 2.34965944290161132812e+00) (203, 1.03637397289276123047e+00) (204, 4.29623574018478393555e-01) (205, 2.73197919130325317383e-01) (206, 2.20515146851539611816e-01) (207, -3.61040091514587402344e+00) (208, -8.76379132270812988281e-01) (209, -4.16860319674015045166e-02) (210, 3.07498604059219360352e-01) (211, 1.75912752747535705566e-01) (212, 2.77322709560394287109e-01) (213, 2.78608828783035278320e-01) (214, 3.54726940393447875977e-01) (215, 2.57125586271286010742e-01) (216, 2.70007908344268798828e-01) (217, 3.35767060518264770508e-01) (218, 3.87580990791320800781e-01) (219, 2.72605806589126586914e-01) (220, 4.44122982025146484375e+00) (221, 4.69619846343994140625e+00) (222, 7.78277492523193359375e+00) (223, 9.62382984161376953125e+00) (224, 4.28820037841796875000e+00) (225, 3.86382281780242919922e-01) (226, 1.86543494462966918945e-01) (227, -6.28281354904174804688e-01) (228, -1.05675630569458007812e+01) (229, 3.15789371728897094727e-01) (230, 1.13510146737098693848e-01) (231, 1.52348384261131286621e-01) (232, 2.53994643688201904297e-01) (233, 2.27466076612472534180e-01) (234, 5.13619720935821533203e-01) (235, 3.24234366416931152344e-01) (236, 2.84625589847564697266e-01) (237, 2.20157161355018615723e-01) (238, 4.97577518224716186523e-01) (239, 1.28510981798171997070e-01) (240, 1.34530782699584960938e+00) (241, 1.38361864089965820312e+01) (242, 1.00725669860839843750e+01) (243, 7.08241224288940429688e-01) (244, 3.57323229312896728516e-01) (245, 2.60500818490982055664e-01) (246, 1.73872813582420349121e-01) (247, -1.83104968070983886719e+00) (248, -6.72632277011871337891e-01) (249, -5.68859636783599853516e-01) (250, -5.40522217750549316406e-01) (251, 1.75507187843322753906e-01) (252, 1.80170238018035888672e-01) (253, 1.47703900933265686035e-01) (254, 2.57507085800170898438e-01) (255, 1.36571541428565979004e-01) (256, 3.52954208850860595703e-01) (257, 4.27547395229339599609e-01) (258, 3.91140520572662353516e-01) (259, 4.53184515237808227539e-01) (260, 6.30737304687500000000e-01) (261, 6.84480524063110351562e+00) (262, 2.19160099029541015625e+01) (263, 2.94048271179199218750e+01) (264, 9.16273057460784912109e-01) (265, 2.67340034246444702148e-01) (266, 1.74704238772392272949e-01) (267, 5.32040968537330627441e-02) (268, -1.59871250391006469727e-01) (269, -2.29527547955513000488e-01) (270, -7.76019096374511718750e-02) (271, 2.21855640411376953125e-01) (272, 1.23635850846767425537e-01) (273, 1.82000353932380676270e-01) (274, 1.53279125690460205078e-01) (275, 3.24651986360549926758e-01) (276, 5.02573132514953613281e-01) (277, 6.97281312942504882812e+00) (278, 1.50449819564819335938e+01) (279, 6.27849006652832031250e+00) (280, 2.30895090103149414062e+00) (281, 6.29732322692871093750e+00) (282, 1.32419691085815429688e+01) (283, 1.17533397674560546875e+01) (284, 5.83538818359375000000e+00) (285, 3.83318096399307250977e-01) (286, 3.68629097938537597656e-01) (287, 2.10474476218223571777e-01) (288, 2.42484375834465026855e-01) (289, 1.59432798624038696289e-01) (290, 1.34971976280212402344e-01) (291, 1.58708736300468444824e-01) (292, 1.95299074053764343262e-01) (293, 2.02872216701507568359e-01) (294, 3.46975684165954589844e-01) (295, 3.99249345064163208008e-01) (296, 2.64300422668457031250e+01) (297, 5.12270317077636718750e+01) (298, 3.86169036865234375000e+02) (299, 2.78540668487548828125e+01) (300, 1.68189048767089843750e+00) (301, 2.20525002479553222656e+00) (302, 8.55313360691070556641e-01) (303, 2.17058205604553222656e+00) (304, 3.94348770380020141602e-01) (305, 2.31528207659721374512e-01) (306, 2.45809078216552734375e-01) (307, 6.19565062224864959717e-02) (308, 6.32911100983619689941e-02) (309, 1.68396517634391784668e-01) (310, 2.84458994865417480469e-01) (311, 2.68919110298156738281e-01) (312, 1.64279133081436157227e-01) (313, 1.61250337958335876465e-01) (314, 2.63536155223846435547e-01) (315, 2.57006198167800903320e-01) (316, 4.34340804815292358398e-01) (317, 3.62045227050781250000e+02) (318, 1.65556167602539062500e+02) (319, 7.00599060058593750000e+02) (320, 1.15214252471923828125e+00) (321, 8.84481668472290039062e-01) (322, 5.09993851184844970703e-01) (323, 3.11031043529510498047e-01) (324, 3.53936731815338134766e-01) (325, 2.22022324800491333008e-01) (326, 7.97301754355430603027e-02) (327, -6.08273804187774658203e-01) (328, 3.33528034389019012451e-03) (329, 1.96692168712615966797e-01) (330, 1.45583808422088623047e-01) (331, 2.96248584985733032227e-01) (332, 2.42628872394561767578e-01) (333, 1.40064284205436706543e-01) (334, 4.40649121999740600586e-01) (335, 1.56322538852691650391e-01) (336, 1.40637919306755065918e-01) (337, 1.17237651348114013672e+00) (338, 3.23200869560241699219e+00) (339, 3.17072467803955078125e+01) (340, 2.52077430486679077148e-01) (341, 4.05027806758880615234e-01) (342, 3.85675519704818725586e-01) (343, 3.36999237537384033203e-01) (344, 3.66224706172943115234e-01) (345, 2.62957364320755004883e-01) (346, 1.81577757000923156738e-01) (347, 2.05405905842781066895e-01) (348, 2.94081449508666992188e-01) (349, 2.40534991025924682617e-01) (350, 1.22437700629234313965e-01) (351, 1.57184362411499023438e-01) (352, 1.41252413392066955566e-01) (353, 2.09629878401756286621e-01) (354, 2.85985529422760009766e-01) (355, 2.47163698077201843262e-01) (356, 2.29434996843338012695e-01) (357, 1.25945103168487548828e+00) (358, 8.08268308639526367188e-01) (359, 1.65278816223144531250e+00) (360, 2.24985957145690917969e-01) (361, 3.21284681558609008789e-01) (362, 2.96989053487777709961e-01) (363, 3.58080595731735229492e-01) (364, 4.87082213163375854492e-01) (365, 2.05600887537002563477e-01) (366, 3.60203325748443603516e-01) (367, 3.39844375848770141602e-01) (368, 1.56370490789413452148e-01) (369, 1.24717496335506439209e-01) (370, 2.78580963611602783203e-01) (371, 1.73405349254608154297e-01) (372, 1.22921146452426910400e-01) (373, 2.46057689189910888672e-01) (374, 2.71523982286453247070e-01) (375, 1.57684698700904846191e-01) (376, 3.75275045633316040039e-01) (377, 4.25366342067718505859e-01) (378, 3.54847043752670288086e-01) (379, 5.67247688770294189453e-01) (380, 3.66497755050659179688e+00) (381, 2.60757863521575927734e-01) (382, 1.98060765862464904785e-01) (383, 3.79655033349990844727e-01) (384, 3.49321991205215454102e-01) (385, 3.77873599529266357422e-01) (386, 2.67248773574829101562e+00) (387, 1.61320364475250244141e+00) (388, 2.10226869583129882812e+00) (389, 9.83188509941101074219e-01) (390, 1.42521202564239501953e+00) (391, 3.29593658447265625000e-01) (392, 4.57896947860717773438e-01) (393, 1.41140234470367431641e+00) (394, 1.22641479969024658203e+00) (395, 4.17071938514709472656e-01) (396, 2.65344470739364624023e-01) (397, 3.29827994108200073242e-01) (398, 2.39523157477378845215e-01) (399, 3.28868240118026733398e-01) (400, 6.07644438743591308594e-01) (401, 3.71875017881393432617e-01) (402, 3.48590821027755737305e-01) (403, 2.99854934215545654297e-01) (404, 2.46908977627754211426e-01) (405, 5.62294006347656250000e-01) (406, 8.82707536220550537109e-01) (407, 4.75044250488281250000e-01) (408, 5.96892058849334716797e-01) (409, 2.98648148775100708008e-01) (410, 2.61955857276916503906e-01) (411, 6.87776505947113037109e-01) (412, 1.71917289495468139648e-01) (413, 3.96420180797576904297e-01) (414, 4.58871543407440185547e-01) (415, 4.02479827404022216797e-01) (416, 3.04890364408493041992e-01) (417, 2.50489979982376098633e-01) (418, 2.94157117605209350586e-01) (419, 2.07047030329704284668e-01) (420, 3.11234295368194580078e-01) (421, 2.22370713949203491211e-01) (422, 1.59511297941207885742e-01) (423, -1.86360217630863189697e-02) (424, 2.31257468461990356445e-01) (425, 3.51101934909820556641e-01) (426, 5.08372843265533447266e-01) (427, 4.49076235294342041016e-01) (428, 6.46022856235504150391e-01) (429, 4.72614109516143798828e-01) (430, 2.08240598440170288086e-01) (431, 1.13575838506221771240e-01) (432, 9.24111485481262207031e-01) (433, 4.50405311584472656250e+01) (434, 7.10918521881103515625e+00) (435, 7.22608327865600585938e-01) (436, 6.77918314933776855469e-01) (437, 5.25396227836608886719e-01) (438, 3.55335026979446411133e-01) (439, 3.47168177366256713867e-01) (440, 2.45745792984962463379e-01) (441, -1.92249685525894165039e-01) (442, -4.80574876070022583008e-01) (443, -8.28925967216491699219e-01) (444, -7.02913999557495117188e-01) (445, 2.14105948805809020996e-01) (446, 5.37994205951690673828e-01) (447, 3.97095084190368652344e-01) (448, 5.33513247966766357422e-01) (449, 4.79469299316406250000e-01) (450, 7.97104537487030029297e-01) (451, 3.14381718635559082031e-01) (452, 5.23418307304382324219e-01) (453, 9.35321211814880371094e-01) (454, 7.28769838809967041016e-01) (455, 2.56178379058837890625e-01) (456, 2.60013610124588012695e-01) (457, 2.11663514375686645508e-01) (458, 3.91673535108566284180e-01) (459, 2.69380748271942138672e-01) (460, -1.16595439612865447998e-02) (461, -5.35997375845909118652e-02) (462, -4.95312511920928955078e-01) (463, -8.91696035861968994141e-01) (464, -5.12270450592041015625e-01) (465, 3.10403883457183837891e-01) (466, -5.09586594998836517334e-02) (467, 3.91253918409347534180e-01) (468, 5.94940125942230224609e-01) (469, 4.58435446023941040039e-01) (470, 8.71212863922119140625e+00) (471, 7.41273343563079833984e-01) (472, 9.11942481994628906250e-01) (473, 6.83045148849487304688e+00) (474, 3.84529501199722290039e-01) (475, 3.53013694286346435547e-01) (476, 2.52197921276092529297e-01) (477, 3.62729191780090332031e-01) (478, 1.76109895110130310059e-01) (479, 1.78462699055671691895e-01) (480, 1.94249778985977172852e-01) (481, 1.50662194937467575073e-02) (482, 4.74373586475849151611e-02) (483, 3.13289761543273925781e-01) (484, 1.83434814214706420898e-01) (485, 2.17818185687065124512e-01) (486, 5.33639967441558837891e-01) (487, 5.41765332221984863281e-01) (488, 5.17566204071044921875e-01) (489, 4.83015567064285278320e-01) (490, 3.23146283626556396484e-01) (491, 1.81730632781982421875e+01) (492, 2.39699974060058593750e+01) (493, 9.61736321449279785156e-01) (494, 5.45147776603698730469e-01) (495, 2.32984632253646850586e-01) (496, 2.71369248628616333008e-01) (497, 1.73823460936546325684e-01) (498, 1.91328212618827819824e-01) (499, 1.08615286648273468018e-01) (500, 5.36831080913543701172e-01) (501, 2.33004793524742126465e-01) (502, 2.77211040258407592773e-01) (503, 2.17311576008796691895e-01) (504, 2.51292705535888671875e-01) (505, 1.97493925690650939941e-01) (506, 1.73979073762893676758e-01) (507, 3.12317192554473876953e-01) (508, 1.81659817695617675781e-01) (509, 1.85760900378227233887e-01) (510, 3.25595110654830932617e-01) (511, 3.13710719347000122070e-01) (512, 2.64910697937011718750e-01) (513, 1.66938796639442443848e-01) (514, 2.78856128454208374023e-01) (515, 2.30241194367408752441e-01) (516, 5.19095778465270996094e-01) (517, 5.66694784164428710938e+00) (518, 1.36194002628326416016e+00) (519, 1.01560139656066894531e+00) (520, 3.41773599386215209961e-01) (521, 2.43061512708663940430e-01) (522, 1.34320527315139770508e-01) (523, 1.78751587867736816406e-01) (524, 3.12592804431915283203e-01) (525, 3.22446018457412719727e-01) (526, 2.26274147629737854004e-01) (527, 2.00504124164581298828e-01) (528, 1.55731856822967529297e-01) (529, 3.26280564069747924805e-01) (530, 2.46838882565498352051e-01) (531, 2.71107375621795654297e-01) (532, 2.61873394250869750977e-01) (533, 1.93428203463554382324e-01) (534, 1.95552870631217956543e-01) (535, 1.84219479560852050781e-01) (536, 1.02247285842895507812e+00) (537, 5.11174023151397705078e-01) (538, 1.49232685565948486328e-01) (539, 4.37079876661300659180e-01) (540, 2.76866550445556640625e+01) (541, 2.71572500467300415039e-01) (542, 2.20909401774406433105e-01) (543, 1.48115992546081542969e-01) (544, 1.80957466363906860352e-01) (545, 2.08658993244171142578e-01) (546, 2.39626526832580566406e-01) (547, 3.13997179269790649414e-01) (548, 1.49731889367103576660e-01) (549, 3.09895694255828857422e-01) (550, 2.15250149369239807129e-01) (551, 2.41254866123199462891e-01) (552, 2.95923262834548950195e-01) (553, 3.06817263364791870117e-01) (554, 3.99647355079650878906e-01) (555, 3.69059950113296508789e-01) (556, 1.75662025809288024902e-01) (557, 1.45158559083938598633e-01) (558, 4.03970241546630859375e-01) (559, 2.99189954996109008789e-01) (560, 3.46022695302963256836e-01) (561, 1.97392761707305908203e-01) (562, 1.52849018573760986328e-01) (563, 2.55976110696792602539e-01) (564, 2.72722154855728149414e-01) (565, 2.01921090483665466309e-01) (566, 3.23049753904342651367e-01) (567, 2.01326951384544372559e-01) (568, 2.49554753303527832031e-01) (569, 3.22623491287231445312e-01) (570, 1.67624279856681823730e-01) (571, 1.51940703392028808594e-01) (572, 3.52072268724441528320e-01) (573, 2.50356554985046386719e-01) (574, -3.24737280607223510742e-02) (575, 4.96437758207321166992e-01) (576, 2.11328804492950439453e-01) (577, 2.17745304107666015625e-01) (578, 4.57048237323760986328e-01) (579, 2.83870488405227661133e-01) (580, 4.61030626296997070312e+00) (581, -6.71638846397399902344e-01) (582, 2.61215835809707641602e-01) (583, 1.66306987404823303223e-01) (584, 2.96678245067596435547e-01) (585, 2.52434790134429931641e-01) (586, 2.92463630437850952148e-01) (587, 2.14873135089874267578e-01) (588, 2.85726934671401977539e-01) (589, 2.88593262434005737305e-01) (590, 1.48037314414978027344e-01) (591, 2.84095883369445800781e-01) (592, -4.84452992677688598633e-02) (593, -1.70539598912000656128e-02) (594, -9.81418907642364501953e-01) (595, 5.05996644496917724609e-01) (596, 5.99656999111175537109e-01) (597, 1.71311569213867187500e+00) (598, 2.92655920982360839844e+00) (599, 1.81195616722106933594e+00) (600, 2.94622033834457397461e-01) (0, -5.18077984452247619629e-03) (1, 5.74787940979003906250e+01) (2, 2.21608781814575195312e+00) (3, 1.27162957191467285156e+00) (4, 7.20480144023895263672e-01) (5, 4.96159829199314117432e-02) (6, 9.10677254199981689453e-01) (7, 2.93952226638793945312e-01) (8, 2.27390125393867492676e-01) (9, 3.00421625375747680664e-01) (10, 2.82578736543655395508e-01) (11, 2.35735028982162475586e-01) (12, 2.20427051186561584473e-01) (13, 3.84793698787689208984e-01) (14, 3.10908645391464233398e-01) (15, 3.65925669670104980469e-01) (16, 2.32601237297058105469e+00) (17, 5.91085100173950195312e+00) (18, 2.61226105690002441406e+00) (19, 7.48436431884765625000e+01) (20, 1.04908871650695800781e+00) (21, 8.41658487915992736816e-02) (22, -7.71842570975422859192e-03) (23, 2.05206799507141113281e+00) (24, -1.49279654026031494141e-01) (25, 5.85335306823253631592e-02) (26, 1.08857654035091400146e-01) (27, 1.58939361572265625000e-01) (28, 1.13189116120338439941e-01) (29, 1.53013527393341064453e-01) (30, 8.56751725077629089355e-02) (31, 2.25549072027206420898e-01) (32, 4.10718135535717010498e-02) (33, 2.14752197265625000000e-01) (34, 8.04872289299964904785e-02) (35, 4.26130563020706176758e-01) (36, 4.93685305118560791016e-01) (37, 7.74311423301696777344e-01) (38, 3.34668540954589843750e+00) (39, 2.74687111377716064453e-01) (40, -4.64203059673309326172e-01) (41, 7.05871105194091796875e-01) (42, -1.28415152430534362793e-01) (43, 7.11741298437118530273e-02) (44, 9.09328684210777282715e-02) (45, 2.12388448417186737061e-02) (46, 1.19460441172122955322e-01) (47, 2.11052708327770233154e-02) (48, 1.55023619532585144043e-01) (49, 8.08307901024818420410e-02) (50, 1.12184196710586547852e-01) (51, 1.21455378830432891846e-01) (52, 4.73158806562423706055e-02) (53, 2.27958366274833679199e-01) (54, 1.35914400219917297363e-01) (55, 1.50188460946083068848e-01) (56, 2.66610085964202880859e-01) (57, 6.71259164810180664062e-01) (58, 7.14395582675933837891e-01) (59, 5.11479198932647705078e-01) (60, 8.94909650087356567383e-02) (61, 2.65226084738969802856e-02) (62, 1.24311521649360656738e-01) (63, 1.48885011672973632812e-01) (64, 9.66559126973152160645e-02) (65, -2.49562785029411315918e-03) (66, 4.16093058884143829346e-02) (67, 1.51279047131538391113e-01) (68, 1.25065907835960388184e-01) (69, 1.61128163337707519531e-01) (70, 7.47132152318954467773e-02) (71, 2.02840596437454223633e-01) (72, 1.41273617744445800781e-01) (73, 6.10507838428020477295e-02) (74, 1.44235521554946899414e-01) (75, 8.29465985298156738281e-02) (76, 1.21915221214294433594e-01) (77, 1.25737473368644714355e-01) (78, 3.82172256708145141602e-01) (79, 3.53208452463150024414e-01) (80, -3.16115684509277343750e+01) (81, 1.83683373034000396729e-02) (82, 5.17997443675994873047e-02) (83, 1.48057073354721069336e-01) (84, 1.28681123256683349609e-01) (85, -3.74497636221349239349e-03) (86, 1.96647346019744873047e-02) (87, -3.54952481575310230255e-03) (88, 1.77218001335859298706e-02) (89, 1.19747407734394073486e-01) (90, 2.14223042130470275879e-01) (91, 2.20756992697715759277e-01) (92, 7.18677863478660583496e-02) (93, 2.02493399381637573242e-01) (94, 2.02276930212974548340e-01) (95, 1.99057593941688537598e-01) (96, 2.38837569952011108398e-01) (97, 1.10497340559959411621e-01) (98, 7.45898663997650146484e-01) (99, 4.40328061580657958984e-01) (100, 2.25084990262985229492e-01) (101, 8.20166543126106262207e-02) (102, 6.61070868372917175293e-02) (103, 6.98883160948753356934e-02) (104, 1.71437367796897888184e-01) (105, -1.00342268124222755432e-02) (106, 9.99829843640327453613e-02) (107, 4.66841422021389007568e-02) (108, 9.10219326615333557129e-02) (109, 2.05631405115127563477e-01) (110, 1.21240034699440002441e-01) (111, 4.23025600612163543701e-02) (112, 1.69782876968383789062e-01) (113, 4.59532253444194793701e-02) (114, 2.00317993760108947754e-01) (115, 1.07616595923900604248e-01) (116, 6.88265264034271240234e-02) (117, 7.67751485109329223633e-02) (118, 1.16147987544536590576e-01) (119, 7.80013427138328552246e-02) (120, -1.83570638298988342285e-01) (121, 1.62039831280708312988e-01) (122, 1.26547515392303466797e-01) (123, 2.48325467109680175781e-01) (124, 1.12109079957008361816e-01) (125, 1.26912191510200500488e-01) (126, 1.83749973773956298828e-01) (127, 1.84306576848030090332e-01) (128, 1.11592665314674377441e-01) (129, 6.05716705322265625000e-02) (130, 1.97481155395507812500e-01) (131, 5.60655966401100158691e-02) (132, 1.62800237536430358887e-01) (133, -2.34967339783906936646e-02) (134, 3.97666357457637786865e-02) (135, 1.73039630055427551270e-01) (136, 9.04557928442955017090e-02) (137, 8.04709643125534057617e-02) (138, 4.48259040713310241699e-02) (139, 1.60557538270950317383e-01) (140, -1.01035404205322265625e+00) (141, 2.22807809710502624512e-01) (142, 2.51360982656478881836e-01) (143, 2.56494671106338500977e-01) (144, 1.74704477190971374512e-01) (145, 2.53074765205383300781e-02) (146, 1.75190269947052001953e-01) (147, 3.68836402893066406250e-01) (148, 2.29717060923576354980e-01) (149, 2.06731617450714111328e-01) (150, 3.09616886079311370850e-03) (151, 1.27746174111962318420e-02) (152, 8.08640241622924804688e-01) (153, 6.42445385456085205078e-01) (154, 6.95143163204193115234e-01) (155, 5.79885840415954589844e-01) (156, 3.35008710622787475586e-01) (157, 2.56188839673995971680e-01) (158, 6.68487012386322021484e-01) (159, 6.72784149646759033203e-01) (160, -1.57261490821838378906e-01) (161, 4.24869731068611145020e-02) (162, 2.54722684621810913086e-01) (163, 9.38441604375839233398e-02) (164, 3.15298289060592651367e-02) (165, 4.89606186747550964355e-02) (166, 2.45954349637031555176e-01) (167, 3.38751763105392456055e-01) (168, 1.87064871191978454590e-01) (169, 2.01343625783920288086e-01) (170, 2.81472772359848022461e-01) (171, 1.62201792001724243164e-01) (172, 6.93284690380096435547e-01) (173, 4.71997022628784179688e-01) (174, 6.18333101272583007812e-01) (175, 7.62126386165618896484e-01) (176, 6.30176961421966552734e-01) (177, 3.42071563005447387695e-01) (178, 6.99549376964569091797e-01) (179, 5.23122847080230712891e-01) (180, 1.98147092014551162720e-02) (181, 2.37291216850280761719e-01) (182, 1.26822471618652343750e-01) (183, 1.43046051263809204102e-01) (184, 2.61030852794647216797e-01) (185, 6.74735456705093383789e-02) (186, 1.67052447795867919922e-01) (187, 1.49673163890838623047e-01) (188, 1.53966680169105529785e-01) (189, 2.09862276911735534668e-01) (190, 1.41277790069580078125e-01) (191, 1.90210655331611633301e-01) (192, 8.06470453739166259766e-01) (193, 6.08684360980987548828e-01) (194, 5.95368206501007080078e-01) (195, 6.32783770561218261719e-01) (196, 2.99603849649429321289e-01) (197, 3.89651268720626831055e-01) (198, 5.27229249477386474609e-01) (199, 7.36029803752899169922e-01) (200, -8.91675651073455810547e-02) (201, 1.72562316060066223145e-01) (202, 1.62142381072044372559e-01) (203, -1.21507113799452781677e-02) (204, 6.23201467096805572510e-02) (205, 6.37210756540298461914e-02) (206, 7.92084038257598876953e-02) (207, 2.06147223711013793945e-01) (208, -9.13263499736785888672e-01) (209, -3.20657768249511718750e+01) (210, 1.70452948659658432007e-02) (211, 7.88306742906570434570e-02) (212, 1.70006468892097473145e-01) (213, 1.04388043284416198730e-01) (214, 1.32270008325576782227e-01) (215, 1.06121554970741271973e-01) (216, 4.21566307544708251953e-01) (217, 5.26378035545349121094e-01) (218, 6.79376900196075439453e-01) (219, 6.00219905376434326172e-01) (220, -1.21231719851493835449e-01) (221, 1.22414447367191314697e-01) (222, 2.60164290666580200195e-01) (223, 2.08146274089813232422e-01) (224, 1.91673845052719116211e-01) (225, 2.28947028517723083496e-01) (226, 9.60007682442665100098e-02) (227, 1.57745912671089172363e-01) (228, 3.17040324211120605469e-01) (229, 8.57901930809020996094e-01) (230, 2.10352689027786254883e-01) (231, 5.45267772674560546875e+00) (232, 1.62542114257812500000e+02) (233, 2.27064323425292968750e+00) (234, 1.63725101947784423828e+00) (235, 2.12778970599174499512e-01) (236, 1.03440888226032257080e-01) (237, 2.34823778271675109863e-01) (238, 1.77368655800819396973e-01) (239, 3.03190611302852630615e-02) (240, 4.81008887290954589844e-01) (241, 3.23163121938705444336e-01) (242, 3.64964790642261505127e-02) (243, 1.29838481545448303223e-01) (244, 4.00593727827072143555e-02) (245, 2.12552651762962341309e-01) (246, 3.24946254491806030273e-01) (247, 2.03346654772758483887e-01) (248, 1.68019831180572509766e-01) (249, 1.29436686635017395020e-01) (250, 9.14662063121795654297e-01) (251, 1.46684026718139648438e+00) (252, 1.93259372711181640625e+01) (253, 3.65170806646347045898e-01) (254, 2.31239467859268188477e-01) (255, 5.07196307182312011719e-01) (256, 2.17329174280166625977e-01) (257, 1.14318773150444030762e-01) (258, 1.44813388586044311523e-01) (259, 1.40222132205963134766e-01) (260, -1.53207197785377502441e-01) (261, 1.12167321145534515381e-01) (262, 4.49076108634471893311e-02) (263, 7.33918696641921997070e-03) (264, 7.94175341725349426270e-02) (265, 4.75226528942584991455e-02) (266, 2.62610405683517456055e-01) (267, 1.66972920298576354980e-01) (268, 2.80894458293914794922e-01) (269, 1.43454238772392272949e-01) (270, 2.72001624107360839844e-01) (271, 3.35038542747497558594e-01) (272, 3.27301889657974243164e-01) (273, 2.75335937738418579102e-01) (274, 7.46052414178848266602e-02) (275, 2.78058677911758422852e-01) (276, 2.59917736053466796875e-01) (277, 1.80373206734657287598e-01) (278, 1.95020437240600585938e-01) (279, 1.91538110375404357910e-01) (280, 2.03250423073768615723e-01) (281, 1.49409592151641845703e-01) (282, 7.94675648212432861328e-02) (283, 1.96271970868110656738e-01) (284, 1.67823672294616699219e-01) (285, 2.08632051944732666016e-01) (286, 1.23031497001647949219e-01) (287, 1.79794415831565856934e-01) (288, 1.76134228706359863281e-01) (289, 2.56252676248550415039e-01) (290, 1.36898964643478393555e-01) (291, 1.08894065022468566895e-01) (292, 4.91414099931716918945e-01) (293, 1.38776823878288269043e-01) (294, 1.02537773549556732178e-01) (295, 1.59513366222381591797e+00) (296, 5.54802834987640380859e-01) (297, 1.83968320488929748535e-01) (298, 2.15411618351936340332e-01) (299, 2.10936456918716430664e-01) (300, 1.10695548355579376221e-01) (301, 1.68119296431541442871e-01) (302, 1.95077508687973022461e-02) (303, 1.04160189628601074219e-01) (304, 7.80590325593948364258e-02) (305, 1.33080422878265380859e-01) (306, 1.63948938250541687012e-01) (307, 1.56230896711349487305e-01) (308, 7.00327381491661071777e-02) (309, 1.41186773777008056641e-01) (310, 2.67114229500293731689e-02) (311, 1.24123387038707733154e-01) (312, 7.45061710476875305176e-02) (313, 4.14787232875823974609e-01) (314, 1.99100077152252197266e-01) (315, 2.49122405052185058594e+00) (316, 1.36618423461914062500e+00) (317, 9.69511127471923828125e+00) (318, 1.60110846161842346191e-01) (319, 3.08260381221771240234e-01) (320, -4.32916939258575439453e-01) (321, 1.01578310132026672363e-01) (322, 2.41538330912590026855e-01) (323, 4.37372140586376190186e-02) (324, 1.51135161519050598145e-01) (325, 1.99210852384567260742e-01) (326, -1.48740708827972412109e-01) (327, 9.86224114894866943359e-02) (328, -3.34073277190327644348e-03) (329, 1.40909641981124877930e-01) (330, 1.13482087850570678711e-01) (331, 1.89804449677467346191e-01) (332, 1.97593808174133300781e-01) (333, 1.95033162832260131836e-01) (334, 3.57493758201599121094e-01) (335, 5.21528899669647216797e-01) (336, 1.55822300910949707031e+00) (337, 5.07533371448516845703e-01) (338, 2.98197567462921142578e-01) (339, 3.15682351589202880859e-01) (340, 3.98980331420898437500e+00) (341, 1.89662739634513854980e-01) (342, 1.16825709119439125061e-02) (343, -1.08972847461700439453e-01) (344, -5.82389347255229949951e-02) (345, 1.72746628522872924805e-01) (346, -6.34648352861404418945e-02) (347, 1.53024598956108093262e-01) (348, 8.61824825406074523926e-02) (349, 5.46212047338485717773e-02) (350, 5.80008029937744140625e-02) (351, 1.29474788904190063477e-01) (352, 1.03235319256782531738e-01) (353, 9.87822860479354858398e-02) (354, 1.62308007478713989258e-01) (355, 8.26119706034660339355e-02) (356, 2.24402844905853271484e-02) (357, -1.83536484837532043457e-02) (358, 2.15646862983703613281e-01) (359, 3.65966767072677612305e-01) (360, 3.06382458657026290894e-02) (361, -1.48596875369548797607e-02) (362, -1.90502051264047622681e-02) (363, -2.99199577420949935913e-03) (364, 2.30093523859977722168e-02) (365, 1.44037008285522460938e-01) (366, 1.57295763492584228516e-01) (367, 1.64761528372764587402e-01) (368, 1.30033031105995178223e-01) (369, 1.00192435085773468018e-01) (370, 1.72176942229270935059e-01) (371, 1.45189583301544189453e-01) (372, 4.34331335127353668213e-02) (373, 3.30899842083454132080e-02) (374, 1.42781078815460205078e-01) (375, 9.69821140170097351074e-02) (376, -1.32594360038638114929e-02) (377, 1.18443153798580169678e-01) (378, 1.50660201907157897949e-01) (379, 2.86086678504943847656e-01) (380, 1.26886695623397827148e-01) (381, 1.31832316517829895020e-01) (382, 2.81295813620090484619e-02) (383, -6.11512601375579833984e-01) (384, -3.97348761558532714844e-01) (385, 9.60567072033882141113e-02) (386, 1.68682321906089782715e-01) (387, 2.60533183813095092773e-01) (388, 6.64671421051025390625e-01) (389, 6.74330890178680419922e-01) (390, 7.27963924407958984375e-01) (391, 7.43622779846191406250e-01) (392, 1.91555619239807128906e-02) (393, 1.82677522301673889160e-01) (394, 1.00963979959487915039e-01) (395, 2.40097939968109130859e-01) (396, 1.46173104643821716309e-01) (397, 1.78016182035207748413e-02) (398, 1.76505699753761291504e-01) (399, 1.53818950057029724121e-01) (400, -4.04382823035120964050e-03) (401, 3.38342003524303436279e-02) (402, -1.51510521769523620605e-01) (403, -2.22751468420028686523e-01) (404, 1.04500412940979003906e-01) (405, 1.23241439461708068848e-01) (406, 9.16761383414268493652e-02) (407, 7.84766256809234619141e-01) (408, 7.04836726188659667969e-01) (409, 7.19243943691253662109e-01) (410, 9.95050728321075439453e-01) (411, 7.84633040428161621094e-01) (412, 4.54653978347778320312e-01) (413, -1.31275281310081481934e-01) (414, 1.59634873270988464355e-01) (415, 1.76723599433898925781e-01) (416, 9.41940024495124816895e-03) (417, 7.28077217936515808105e-02) (418, 2.17172086238861083984e-01) (419, 1.45952194929122924805e-01) (420, 7.54439830780029296875e-02) (421, -3.14810685813426971436e-02) (422, 1.12881168723106384277e-01) (423, -4.57172781229019165039e-01) (424, -8.09289813041687011719e-02) (425, -3.68346869945526123047e-02) (426, 8.30165147781372070312e-01) (427, 8.00405323505401611328e-01) (428, 6.51581823825836181641e-01) (429, 6.36933803558349609375e-01) (430, 6.26129984855651855469e-01) (431, 1.95713913440704345703e+00) (432, 6.75184965133666992188e-01) (433, 5.97043614834547042847e-03) (434, 3.44548910856246948242e-01) (435, 6.87735974788665771484e-02) (436, 1.66106864809989929199e-01) (437, 2.11088657379150390625e-01) (438, 1.74804717302322387695e-01) (439, 3.52802515029907226562e-01) (440, 1.09967198222875595093e-02) (441, -5.01313470304012298584e-02) (442, 6.16774298250675201416e-02) (443, -1.64414152503013610840e-01) (444, -1.41508644446730613708e-02) (445, -4.83244024217128753662e-02) (446, 1.65713474154472351074e-01) (447, 7.29500889778137207031e-01) (448, 7.42713153362274169922e-01) (449, 6.58711373805999755859e-01) (450, 3.72276163101196289062e+00) (451, 1.15095116198062896729e-01) (452, 2.04226112365722656250e+00) (453, -5.31003111973404884338e-03) (454, 5.31195759773254394531e-01) (455, 1.42908975481986999512e-01) (456, 3.09893012046813964844e-01) (457, 1.77883923053741455078e-01) (458, 2.73514723777770996094e+00) (459, 7.90545701980590820312e-01) (460, -4.56785149872303009033e-02) (461, 6.96408329531550407410e-03) (462, 1.35496780276298522949e-01) (463, -1.00406885147094726562e-01) (464, -5.24702072143554687500e-02) (465, -2.18506623059511184692e-02) (466, 1.68721511960029602051e-01) (467, 6.38714253902435302734e-01) (468, 8.39763522148132324219e-01) (469, 7.50355958938598632812e-01) (470, 5.08592319488525390625e+00) (471, 2.23876905441284179688e+00) (472, 1.02092516422271728516e+00) (473, 2.07590252161026000977e-01) (474, 2.36053436994552612305e-01) (475, 5.72893433272838592529e-02) (476, 2.38502293825149536133e-01) (477, 1.62471920251846313477e-01) (478, 2.34312319755554199219e+00) (479, 6.53401076793670654297e-01) (480, 8.01264405250549316406e-01) (481, 6.67000189423561096191e-02) (482, 7.26626515388488769531e-02) (483, 1.47100895643234252930e-01) (484, 1.55664160847663879395e-01) (485, 2.32268329709768295288e-02) (486, 6.47340267896652221680e-02) (487, 3.18808078765869140625e-01) (488, 1.64024263620376586914e-01) (489, 1.58999383449554443359e-01) (490, 1.26886546611785888672e-01) (491, 3.89853678643703460693e-02) (492, 2.14677155017852783203e-01) (493, 4.90601584315299987793e-02) (494, 1.01280562579631805420e-01) (495, 4.03583943843841552734e-02) (496, 4.97710496187210083008e-01) (497, 2.35352963209152221680e-01) (498, 1.52797555923461914062e+00) (499, 1.01084613800048828125e+00) (500, 3.90875601768493652344e+00) (501, 9.78125557303428649902e-02) (502, 2.76841551065444946289e-01) (503, 2.19887450337409973145e-01) (504, 1.10519759356975555420e-01) (505, 2.11220517754554748535e-01) (506, 2.65115410089492797852e-01) (507, 2.73765593767166137695e-01) (508, 1.93951115012168884277e-01) (509, 1.13576114177703857422e-01) (510, 4.56143766641616821289e-02) (511, 1.29700928926467895508e-01) (512, 1.95688471198081970215e-01) (513, 1.48582503199577331543e-01) (514, 1.13589353859424591064e-01) (515, 2.47987747192382812500e-01) (516, 1.48805332183837890625e+00) (517, 4.09391403198242187500e+00) (518, 2.38589787483215332031e+00) (519, 1.41515493392944335938e+00) (520, 8.74380874633789062500e+00) (521, 1.52568325400352478027e-01) (522, 9.35109108686447143555e-02) (523, 2.35821023583412170410e-01) (524, 8.49544480443000793457e-02) (525, 2.08574607968330383301e-01) (526, 2.66727149486541748047e-01) (527, 2.12284520268440246582e-01) (528, 1.49712190032005310059e-01) (529, 9.48476046323776245117e-03) (530, 1.94076180458068847656e-01) (531, 1.32121160626411437988e-01) (532, 1.16477362811565399170e-01) (533, 1.95853292942047119141e-01) (534, 6.66853412985801696777e-02) (535, 1.65682271122932434082e-01) (536, 1.10968530178070068359e+00) (537, 2.17852973937988281250e+00) (538, 4.66090828180313110352e-01) (539, 8.33747625350952148438e-01) (540, 1.60915145874023437500e+01) (541, 1.09752893447875976562e-01) (542, 2.67686396837234497070e-01) (543, 1.79840654134750366211e-01) (544, 1.12463861703872680664e-01) (545, 1.50620698928833007812e-01) (546, 1.26491919159889221191e-01) (547, 2.44621604681015014648e-01) (548, 1.94053024053573608398e-01) (549, 1.69089198112487792969e-01) (550, 1.63429781794548034668e-01) (551, 3.66750098764896392822e-02) (552, 5.14399260282516479492e-02) (553, 2.21614241600036621094e-01) (554, 2.20035076141357421875e-01) (555, 1.29731190204620361328e+00) (556, 3.26722192764282226562e+00) (557, 1.06488978862762451172e+00) (558, 4.38317984342575073242e-01) (559, 4.82283145189285278320e-01) (560, -6.42981410026550292969e-01) (561, 1.26739948987960815430e-01) (562, 1.43370568752288818359e-01) (563, 1.56159356236457824707e-01) (564, 1.86793625354766845703e-01) (565, 2.76854723691940307617e-01) (566, 2.46138691902160644531e-01) (567, 2.84022122621536254883e-01) (568, 9.40249860286712646484e-02) (569, 1.34845733642578125000e-01) (570, 8.34238752722740173340e-02) (571, 1.69678434729576110840e-01) (572, 1.98020607233047485352e-01) (573, 1.31587848067283630371e-01) (574, 1.21140427887439727783e-01) (575, 1.46875846385955810547e+00) (576, 1.76245546340942382812e+00) (577, 5.76447248458862304688e-01) (578, 4.10527497529983520508e-01) (579, 5.55988848209381103516e-01) (580, -2.26568341255187988281e-01) (581, 6.44462287425994873047e-01) (582, 7.25050926208496093750e-01) (583, 7.26490616798400878906e-02) (584, 1.09587162733078002930e-01) (585, 1.02181859314441680908e-01) (586, 1.82156905531883239746e-01) (587, 1.68430626392364501953e-01) (588, 3.29487882554531097412e-02) (589, 1.28837853670120239258e-01) (590, 2.45740115642547607422e-02) (591, 2.32818260788917541504e-01) (592, 1.04620076715946197510e-01) (593, 3.53933453559875488281e-01) (594, 4.02035981416702270508e-01) (595, 5.56500256061553955078e-01) (596, 8.57365429401397705078e-01) (597, 5.34279584884643554688e-01) (598, 4.12415564060211181641e-01) (599, 8.50507080554962158203e-01) (600, 6.61079883575439453125e-02) (0, -7.49868869781494140625e+00) (1, 2.84215793609619140625e+01) (2, -1.07430434226989746094e+00) (3, 8.06870579719543457031e-01) (4, -9.42473888397216796875e+00) (5, -2.03975737094879150391e-01) (6, 3.31299453973770141602e-01) (7, 2.66347140073776245117e-01) (8, 6.75721108913421630859e-01) (9, 1.33811667561531066895e-01) (10, 9.47112888097763061523e-02) (11, 2.39801052957773208618e-02) (12, 5.03599345684051513672e-02) (13, -6.30293548107147216797e-01) (14, -3.35430431365966796875e+00) (15, -1.83909273147583007812e+00) (16, -1.47112679481506347656e+00) (17, -7.49024301767349243164e-02) (18, 2.08361133933067321777e-01) (19, 7.03522026538848876953e-01) (20, -2.82495975494384765625e-01) (21, 3.70990127325057983398e-01) (22, 1.08741354942321777344e+00) (23, 8.30645501613616943359e-01) (24, 5.59121482074260711670e-02) (25, 1.70458219945430755615e-02) (26, 1.92268770188093185425e-02) (27, 1.01501084864139556885e-02) (28, 1.52654320001602172852e-01) (29, -2.62036360800266265869e-02) (30, 4.98829558491706848145e-02) (31, -1.00825168192386627197e-02) (32, 8.69442746043205261230e-02) (33, 6.35504722595214843750e-02) (34, 8.58241543173789978027e-02) (35, 3.73744615353643894196e-03) (36, 8.39383825659751892090e-02) (37, 1.39762356877326965332e-01) (38, 4.91864919662475585938e-01) (39, 2.22725361585617065430e-01) (40, 5.51410205662250518799e-02) (41, 1.10325247049331665039e-01) (42, 8.23856145143508911133e-02) (43, 1.36314213275909423828e-01) (44, 2.21403539180755615234e-01) (45, 4.83722276985645294189e-02) (46, 7.52983018755912780762e-02) (47, -3.66903981193900108337e-03) (48, 1.27570226788520812988e-01) (49, 7.65167772769927978516e-02) (50, -1.68889351189136505127e-02) (51, 5.06058940663933753967e-03) (52, 1.65245477110147476196e-02) (53, -1.24258147552609443665e-02) (54, -8.16665664315223693848e-02) (55, 5.72964139282703399658e-02) (56, 8.35376456379890441895e-02) (57, 5.73495961725711822510e-02) (58, 1.56456351280212402344e-01) (59, 8.03647413849830627441e-02) (60, -7.09498971700668334961e-02) (61, 6.96510151028633117676e-02) (62, 3.99531602859497070312e-01) (63, 2.03144475817680358887e-02) (64, 1.90480738878250122070e-01) (65, -5.03795929253101348877e-02) (66, 4.18025217950344085693e-02) (67, 4.47709299623966217041e-02) (68, 1.47201001644134521484e-01) (69, 5.01189194619655609131e-02) (70, 1.04209035634994506836e-01) (71, 2.52720732241868972778e-02) (72, -9.59755033254623413086e-02) (73, -4.04522456228733062744e-02) (74, -8.16126018762588500977e-02) (75, 8.64406153559684753418e-02) (76, 7.28483945131301879883e-02) (77, 6.54124096035957336426e-02) (78, -1.84443332254886627197e-02) (79, -4.90273768082261085510e-03) (80, -7.30185151100158691406e-01) (81, -4.98182028532028198242e-02) (82, 4.43052798509597778320e-01) (83, 7.44094699621200561523e-02) (84, 1.39436781406402587891e-01) (85, 1.54779270291328430176e-01) (86, 7.86065608263015747070e-02) (87, 4.04914841055870056152e-03) (88, 4.34119552373886108398e-02) (89, 7.38897472620010375977e-02) (90, 1.08844466507434844971e-01) (91, 1.55879691243171691895e-01) (92, 9.59880352020263671875e-02) (93, -1.87368560582399368286e-02) (94, -5.67586235702037811279e-02) (95, 7.48778283596038818359e-02) (96, 2.35855914652347564697e-02) (97, 7.88277164101600646973e-02) (98, 8.91703926026821136475e-03) (99, 3.60139645636081695557e-02) (100, 5.05988560616970062256e-02) (101, -1.74409627914428710938e-01) (102, 5.73062002658843994141e-02) (103, -8.90497341752052307129e-02) (104, 5.03267277963459491730e-04) (105, 1.50935858488082885742e-01) (106, 1.50245800614356994629e-01) (107, 1.23859949409961700439e-01) (108, 6.93019628524780273438e-02) (109, -2.64132451266050338745e-02) (110, 5.74298342689871788025e-03) (111, 1.14078655838966369629e-01) (112, 1.11842397600412368774e-02) (113, -1.90624836832284927368e-02) (114, 1.65198780596256256104e-02) (115, 7.88924023509025573730e-02) (116, -8.68111923336982727051e-02) (117, -1.08177848160266876221e-02) (118, -3.10877058655023574829e-02) (119, -6.26699924468994140625e-02) (120, -5.32221317291259765625e-01) (121, 1.26557782292366027832e-01) (122, 3.72434742748737335205e-02) (123, 9.70657318830490112305e-02) (124, 3.73857619706541299820e-06) (125, 3.72115224599838256836e-02) (126, 3.64653505384922027588e-02) (127, 1.01894952356815338135e-01) (128, -2.60526001453399658203e-01) (129, 8.62285867333412170410e-02) (130, 6.20291307568550109863e-02) (131, 7.01178088784217834473e-02) (132, 1.58804312348365783691e-01) (133, -4.66188341379165649414e-02) (134, -4.00886498391628265381e-02) (135, -7.93345347046852111816e-02) (136, -6.74174800515174865723e-02) (137, 1.50469057261943817139e-02) (138, 1.56668558716773986816e-01) (139, 1.03916898369789123535e-01) (140, -3.36351186037063598633e-01) (141, 3.71103048324584960938e-01) (142, 6.13483227789402008057e-02) (143, 1.87252134084701538086e-01) (144, 2.43489798158407211304e-02) (145, -3.25542800128459930420e-02) (146, 5.37471547722816467285e-02) (147, -1.08625716529786586761e-03) (148, -4.66202646493911743164e-01) (149, -8.03802311420440673828e-01) (150, -1.93022042512893676758e-01) (151, 4.67619419097900390625e+00) (152, 2.56652431488037109375e+01) (153, -2.82034456729888916016e-01) (154, 7.93684273958206176758e-02) (155, 9.78010073304176330566e-02) (156, 1.51707932353019714355e-01) (157, -3.30150639638304710388e-03) (158, 6.40220120549201965332e-02) (159, 1.68545264750719070435e-03) (160, -2.13971704244613647461e-01) (161, -1.00471988320350646973e-01) (162, 2.76381056755781173706e-02) (163, 1.24853648245334625244e-01) (164, -9.05187986791133880615e-03) (165, 7.55112320184707641602e-02) (166, 4.63566742837429046631e-02) (167, -1.36248812079429626465e-01) (168, 2.63996779918670654297e-01) (169, 3.11059296131134033203e-01) (170, -1.47525640204548835754e-02) (171, 1.61482810974121093750e+00) (172, 1.13357079029083251953e+00) (173, -1.91709920763969421387e-01) (174, 1.26734659075736999512e-01) (175, -1.39908613637089729309e-02) (176, 6.94765076041221618652e-02) (177, 2.31481343507766723633e-03) (178, 4.47375774383544921875e-02) (179, 1.00659087300300598145e-01) (180, -1.37311697006225585938e-01) (181, -2.06339269876480102539e-01) (182, 4.24168109893798828125e-02) (183, 9.71964597702026367188e-02) (184, 4.17123846709728240967e-02) (185, -4.20844703912734985352e-02) (186, -1.46854421473108232021e-04) (187, -9.08002853393554687500e-02) (188, 1.38699173927307128906e-01) (189, 1.89040422439575195312e-01) (190, 1.63053333759307861328e-01) (191, 6.21936035156250000000e+00) (192, 3.18501532077789306641e-01) (193, -1.48385018110275268555e-01) (194, 5.15693910419940948486e-02) (195, 2.10964128375053405762e-01) (196, 1.65464617311954498291e-02) (197, -4.04466427862644195557e-02) (198, -6.24385252594947814941e-02) (199, -8.09610337018966674805e-02) (200, -9.53435525298118591309e-02) (201, -9.23049375414848327637e-02) (202, -2.39392220973968505859e-02) (203, 2.09969043731689453125e-01) (204, 7.34279528260231018066e-02) (205, 7.30410739779472351074e-02) (206, 7.40957185626029968262e-02) (207, 1.14192314445972442627e-01) (208, -7.47406184673309326172e-01) (209, -3.79227161407470703125e+00) (210, 1.60060197114944458008e-01) (211, 2.39712327718734741211e-01) (212, 1.50343847274780273438e+00) (213, 1.87900178134441375732e-02) (214, 7.50833079218864440918e-02) (215, 2.08756268024444580078e-01) (216, 1.94316753186285495758e-03) (217, -9.17775407433509826660e-02) (218, -6.99330687522888183594e-01) (219, -1.22937299311161041260e-01) (220, 6.59265458583831787109e-01) (221, 3.42486910521984100342e-02) (222, -9.28087458014488220215e-02) (223, 2.91435793042182922363e-02) (224, 9.73514243960380554199e-02) (225, -3.08100394904613494873e-02) (226, -1.01283229887485504150e-02) (227, -4.19233320280909538269e-03) (228, -2.79755979776382446289e-01) (229, 2.53532771021127700806e-02) (230, -7.59332329034805297852e-02) (231, 5.11690750718116760254e-02) (232, 1.63317069411277770996e-01) (233, -1.04590944945812225342e-01) (234, -5.46841993927955627441e-02) (235, -3.02920434623956680298e-02) (236, -5.85119100287556648254e-03) (237, -5.74472546577453613281e-02) (238, -6.24425671994686126709e-02) (239, -1.48898899555206298828e-01) (240, 6.85044765472412109375e-01) (241, 4.37046170234680175781e-01) (242, 1.04780465364456176758e-01) (243, 1.48450613021850585938e-01) (244, 1.56392753124237060547e-01) (245, 4.50529269874095916748e-02) (246, 1.48630708456039428711e-01) (247, -2.38394699408672749996e-04) (248, 2.52800602465867996216e-02) (249, 1.77019342780113220215e-01) (250, 2.11461391299962997437e-02) (251, 8.34172889590263366699e-02) (252, -1.96146368980407714844e-02) (253, -2.15378496795892715454e-02) (254, 1.63416951894760131836e-01) (255, 5.52806928753852844238e-02) (256, 7.90640115737915039062e-02) (257, 8.48419815301895141602e-02) (258, -8.02818685770034790039e-02) (259, -5.02559207379817962646e-02) (260, 7.06364810466766357422e-01) (261, 1.23730397224426269531e+00) (262, 1.60048738121986389160e-01) (263, 1.58175921440124511719e+00) (264, 6.05418622493743896484e-01) (265, 3.91433276236057281494e-02) (266, 1.33470177650451660156e-01) (267, 6.78326711058616638184e-02) (268, 4.48862910270690917969e-02) (269, 4.39845435321331024170e-02) (270, 2.36244335770606994629e-01) (271, 9.74009409546852111816e-02) (272, -5.62071390450000762939e-02) (273, 8.36985334753990173340e-02) (274, 1.33880108594894409180e-01) (275, 1.70628651976585388184e-02) (276, 3.77998128533363342285e-02) (277, 7.56318569183349609375e-02) (278, -1.21846385300159454346e-01) (279, 5.13226166367530822754e-03) (280, -1.90628960728645324707e-01) (281, -4.99137789011001586914e-02) (282, -3.03800910711288452148e-01) (283, 3.83798450231552124023e-01) (284, 3.29323381185531616211e-01) (285, 1.25864325091242790222e-02) (286, 2.79170498251914978027e-02) (287, 1.35726183652877807617e-01) (288, 1.45059926435351371765e-02) (289, 3.53320240974426269531e-02) (290, -4.75108111277222633362e-03) (291, 7.70929232239723205566e-02) (292, 8.74106884002685546875e-02) (293, 5.81495389342308044434e-02) (294, -2.88734417408704757690e-02) (295, -7.66194090247154235840e-02) (296, -2.11496297270059585571e-02) (297, -1.50873810052871704102e-01) (298, -1.31384789943695068359e-01) (299, -1.87756210565567016602e-01) (300, 7.00445353984832763672e-01) (301, -5.51021285355091094971e-02) (302, -3.04694801568984985352e-01) (303, 3.31592112779617309570e-01) (304, -7.55707472562789916992e-02) (305, 2.94231951236724853516e-01) (306, 8.50094854831695556641e-02) (307, 4.73749116063117980957e-02) (308, 5.98122663795948028564e-02) (309, 9.16638597846031188965e-02) (310, 2.31206305325031280518e-02) (311, 2.56241336464881896973e-02) (312, 2.37532287836074829102e-01) (313, 1.84331029653549194336e-01) (314, 1.19937881827354431152e-01) (315, 3.56722585856914520264e-02) (316, -1.01675771176815032959e-01) (317, -9.71173271536827087402e-02) (318, -1.32363691926002502441e-01) (319, -2.45266675949096679688e-01) (320, -7.67474994063377380371e-05) (321, 4.99593466520309448242e-02) (322, 6.91907778382301330566e-02) (323, -8.53734165430068969727e-02) (324, -5.54273091256618499756e-03) (325, -3.93048748373985290527e-02) (326, 3.28614469617605209351e-03) (327, -1.52074350044131278992e-02) (328, 3.25567610561847686768e-02) (329, 4.31261993944644927979e-02) (330, 1.45858526229858398438e-01) (331, 1.31620898842811584473e-01) (332, -4.28902022540569305420e-02) (333, 1.08350925147533416748e-01) (334, 4.16053943336009979248e-02) (335, -9.15362909436225891113e-02) (336, -6.65243491530418395996e-02) (337, 6.24108761548995971680e-02) (338, -2.56058275699615478516e-02) (339, 8.10643564909696578979e-03) (340, 4.11037877202033996582e-02) (341, 9.05046015977859497070e-02) (342, -9.34805124998092651367e-02) (343, -4.91418614983558654785e-02) (344, 7.53093063831329345703e-02) (345, -1.71168431639671325684e-01) (346, 2.16391474008560180664e-01) (347, -2.67598107457160949707e-02) (348, -1.19375050067901611328e+00) (349, -4.44027483463287353516e-01) (350, -3.24728712439537048340e-02) (351, 8.71493965387344360352e-02) (352, 6.69512152671813964844e-02) (353, -8.91199111938476562500e-02) (354, 2.14855875819921493530e-02) (355, 3.12617570161819458008e-02) (356, -5.35618029534816741943e-02) (357, 6.42495378851890563965e-02) (358, -1.31535995751619338989e-02) (359, -7.54166208207607269287e-03) (360, -1.61954108625650405884e-02) (361, 1.83550082147121429443e-02) (362, -6.84933736920356750488e-02) (363, 2.24176775664091110229e-02) (364, -1.17478050291538238525e-01) (365, -2.78675258159637451172e-01) (366, -3.59908379614353179932e-02) (367, -3.99709939956665039062e-01) (368, -4.72332417964935302734e-01) (369, -2.26093038916587829590e-01) (370, -9.36180427670478820801e-02) (371, 2.86405891180038452148e-01) (372, 6.11867427825927734375e-01) (373, 9.90205444395542144775e-03) (374, -7.09435669705271720886e-04) (375, -8.21570977568626403809e-02) (376, -8.33532065153121948242e-02) (377, -1.63087900727987289429e-02) (378, -1.10252350568771362305e-01) (379, -1.26955941319465637207e-01) (380, 3.72138954699039459229e-02) (381, -6.66917115449905395508e-02) (382, -6.03659451007843017578e-02) (383, 3.36687415838241577148e-02) (384, -6.19065482169389724731e-03) (385, 5.85121773183345794678e-02) (386, 5.86178526282310485840e-02) (387, -1.58339068293571472168e-01) (388, 1.09216511249542236328e-01) (389, 3.40385399758815765381e-02) (390, 4.08466383814811706543e-02) (391, 1.56659081578254699707e-01) (392, 1.39378562569618225098e-01) (393, 2.83575579524040222168e-02) (394, -4.99954596161842346191e-02) (395, 1.33995860815048217773e-02) (396, 5.35851679742336273193e-02) (397, 1.48004874587059020996e-01) (398, 2.51399055123329162598e-02) (399, 2.25585307925939559937e-02) (400, -8.29147323966026306152e-02) (401, -3.80022637546062469482e-02) (402, -9.91410240530967712402e-02) (403, -8.76578465104103088379e-02) (404, 3.92850767821073532104e-03) (405, 1.43864855170249938965e-01) (406, 1.50585547089576721191e-04) (407, 2.66718208789825439453e-01) (408, -2.94057279825210571289e-02) (409, 6.34064897894859313965e-02) (410, 1.71128943562507629395e-01) (411, 1.31181463599205017090e-01) (412, 7.61878415942192077637e-02) (413, -3.29148530960083007812e-01) (414, 1.56619995832443237305e-02) (415, -1.50101393461227416992e-01) (416, -1.82159449905157089233e-02) (417, 1.71194151043891906738e-02) (418, 7.86130055785179138184e-02) (419, 1.07695408165454864502e-01) (420, -2.40778531879186630249e-02) (421, -4.99137714505195617676e-02) (422, 7.17675387859344482422e-02) (423, -6.64648637175559997559e-02) (424, -3.00258006900548934937e-02) (425, 6.95754215121269226074e-02) (426, 1.23567230999469757080e-01) (427, 1.38977821916341781616e-02) (428, -1.82553231716156005859e-01) (429, 8.49168077111244201660e-02) (430, 2.28972852230072021484e-01) (431, -7.93181210756301879883e-02) (432, 5.57483546435832977295e-02) (433, -2.52726431936025619507e-02) (434, -2.53810603171586990356e-02) (435, -4.76581096649169921875e-01) (436, -9.74794030189514160156e-02) (437, 1.23529620468616485596e-01) (438, 1.40996143221855163574e-01) (439, 3.51600013673305511475e-02) (440, -9.63167920708656311035e-02) (441, 1.67884435504674911499e-02) (442, 4.67097386717796325684e-02) (443, 6.99545517563819885254e-02) (444, 5.87022341787815093994e-02) (445, 1.35730504989624023438e-01) (446, 8.17288607358932495117e-02) (447, 4.11329371854662895203e-03) (448, 9.70745533704757690430e-02) (449, 1.34461045265197753906e-01) (450, -2.11498364806175231934e-01) (451, -5.58506287634372711182e-02) (452, -1.33312433958053588867e-01) (453, 3.48852068185806274414e-01) (454, 4.80263158679008483887e-02) (455, 6.84600472450256347656e-02) (456, 1.24915085732936859131e-01) (457, 8.47992673516273498535e-02) (458, 1.49675562977790832520e-01) (459, 1.96356341242790222168e-01) (460, -1.39480028301477432251e-02) (461, -5.92466890811920166016e-02) (462, 8.73201563954353332520e-02) (463, 1.44841983914375305176e-01) (464, 1.21819399297237396240e-01) (465, 1.28426149487495422363e-01) (466, -8.77646058797836303711e-02) (467, 6.74292668700218200684e-02) (468, 6.30682916380465030670e-05) (469, 1.51069223880767822266e-01) (470, -1.89516603946685791016e+00) (471, 3.22128906846046447754e-02) (472, -1.82620733976364135742e-01) (473, 4.70936506986618041992e-01) (474, -3.63690890371799468994e-02) (475, -2.53238379955291748047e-02) (476, 1.30820825695991516113e-01) (477, 9.97508466243743896484e-02) (478, 9.93464067578315734863e-02) (479, 1.25435248017311096191e-01) (480, -4.09150242805480957031e-01) (481, -4.07972261309623718262e-02) (482, 3.97475361824035644531e-02) (483, 2.17911880463361740112e-02) (484, 8.53217914700508117676e-02) (485, -4.45809140801429748535e-02) (486, -5.11718355119228363037e-02) (487, 1.10164925456047058105e-01) (488, 1.09941989183425903320e-01) (489, -2.54619140177965164185e-02) (490, 6.14926069974899291992e-02) (491, 1.34877398610115051270e-01) (492, -4.07150313258171081543e-02) (493, 2.59385108947753906250e-02) (494, 5.18337003886699676514e-02) (495, 2.01425515115261077881e-02) (496, 1.67953431606292724609e-01) (497, 1.48855537176132202148e-01) (498, 6.94433078169822692871e-02) (499, -3.28723876737058162689e-03) (500, 1.28068804740905761719e-01) (501, -8.76688957214355468750e-02) (502, 3.57480943202972412109e-02) (503, 3.25588323175907135010e-02) (504, 7.00882077217102050781e-02) (505, -3.46593707799911499023e-01) (506, -8.68767965584993362427e-03) (507, 3.80180031061172485352e-02) (508, -2.39025373011827468872e-02) (509, 3.36692184209823608398e-02) (510, 1.60567492246627807617e-01) (511, 8.30558240413665771484e-02) (512, 2.08410564810037612915e-02) (513, 3.05359922349452972412e-02) (514, 9.90767846815288066864e-04) (515, -3.44823598861694335938e-02) (516, -8.51801782846450805664e-02) (517, 1.13890424370765686035e-01) (518, 1.60550395958125591278e-03) (519, -1.26368165016174316406e-01) (520, 6.09963014721870422363e-02) (521, -1.05249844491481781006e-02) (522, 1.81134920567274093628e-02) (523, -8.67478623986244201660e-02) (524, -5.32645732164382934570e-02) (525, -6.06858730316162109375e-02) (526, -7.22129717469215393066e-02) (527, 1.96145512163639068604e-02) (528, -9.74466875195503234863e-02) (529, 4.08672774210572242737e-03) (530, -1.68452821671962738037e-02) (531, 6.30898997187614440918e-02) (532, 2.01813299208879470825e-02) (533, 7.75906220078468322754e-02) (534, -7.75686800479888916016e-02) (535, -9.66065526008605957031e-02) (536, 7.60749429464340209961e-02) (537, 1.20394386351108551025e-01) (538, 8.76020863652229309082e-02) (539, 1.66837603319436311722e-03) (540, 8.21714522317051887512e-04) (541, -6.46393671631813049316e-02) (542, 1.54183685779571533203e-01) (543, 1.92694306373596191406e-01) (544, 6.79410934448242187500e-01) (545, 2.78148278594017028809e-02) (546, 2.62358766049146652222e-02) (547, -2.68728062510490417480e-02) (548, 3.41232717037200927734e-02) (549, 1.14865712821483612061e-01) (550, 1.95796471089124679565e-02) (551, -8.28402340412139892578e-02) (552, -2.29676924645900726318e-02) (553, 9.28404480218887329102e-02) (554, -6.04457370936870574951e-02) (555, 9.31077376008033752441e-02) (556, -2.51490026712417602539e-02) (557, -1.51880115270614624023e-01) (558, -1.48819565773010253906e-01) (559, -2.23160177469253540039e-01) (560, 8.63587409257888793945e-02) (561, -9.76865068078041076660e-02) (562, 2.93519586324691772461e-01) (563, 7.72746950387954711914e-02) (564, 3.44838686287403106689e-02) (565, -7.32485204935073852539e-03) (566, 6.65905103087425231934e-02) (567, 1.47390022873878479004e-01) (568, 1.62547796964645385742e-01) (569, -2.51116044819355010986e-02) (570, 1.36780381202697753906e-01) (571, -6.93840906023979187012e-02) (572, 1.00418189540505409241e-02) (573, 2.40263938903808593750e-02) (574, 8.93715396523475646973e-02) (575, 5.79001083970069885254e-02) (576, -6.69820129871368408203e-01) (577, -4.12782728672027587891e-01) (578, -1.25515967607498168945e-01) (579, -3.69648128747940063477e-01) (580, -1.61799415946006774902e-01) (581, 1.62383151054382324219e+00) (582, 3.37431222200393676758e-01) (583, 6.41247723251581192017e-03) (584, -7.08005297929048538208e-03) (585, 2.65914779156446456909e-02) (586, 8.31299424171447753906e-02) (587, 1.02244922891259193420e-02) (588, 1.62668138742446899414e-01) (589, 1.72088980674743652344e-01) (590, 1.01717427372932434082e-01) (591, 4.47131395339965820312e-02) (592, -1.97291430085897445679e-02) (593, 2.36944612115621566772e-02) (594, -8.01829621195793151855e-02) (595, -4.27625358104705810547e-01) (596, -5.40772438049316406250e-01) (597, -3.02191019058227539062e-01) (598, -4.82721477746963500977e-01) (599, -4.98538851737976074219e-01) (600, 3.94342690706253051758e-02) (0, -2.04536533355712890625e+00) (1, 2.67744481563568115234e-01) (2, 4.34525281190872192383e-01) (3, -3.96866470575332641602e-01) (4, -1.68877112865447998047e+00) (5, -3.62337768077850341797e-01) (6, -4.06455326080322265625e+00) (7, -1.92640149593353271484e+00) (8, -4.65130805969238281250e+00) (9, -4.69311475753784179688e+00) (10, -4.56761312484741210938e+00) (11, -3.74166011810302734375e+00) (12, -2.45101594924926757812e+00) (13, -2.89744043350219726562e+00) (14, -7.80425727367401123047e-01) (15, -2.42275372147560119629e-01) (16, 1.41729521751403808594e+00) (17, 7.46030998229980468750e+00) (18, 5.60978412628173828125e+00) (19, 1.50000000000000000000e+03) (20, -9.16466653347015380859e-01) (21, 1.76184192299842834473e-01) (22, 4.26342397928237915039e-01) (23, 1.64284899830818176270e-01) (24, 1.71657994389533996582e-01) (25, 1.59693777561187744141e-01) (26, -5.23969307541847229004e-02) (27, -6.95716887712478637695e-02) (28, 1.20092697441577911377e-01) (29, 8.40231254696846008301e-02) (30, 6.03105686604976654053e-02) (31, -3.80032733082771301270e-02) (32, 5.58659881353378295898e-02) (33, 2.46476501226425170898e-01) (34, 2.22563043236732482910e-01) (35, 5.55656373500823974609e-01) (36, 1.28380429744720458984e+00) (37, 6.56613409519195556641e-01) (38, 1.09166793823242187500e+02) (39, 1.69006252288818359375e+01) (40, 1.37718260288238525391e-01) (41, 2.16248095035552978516e-01) (42, 3.02030563354492187500e-01) (43, 1.79808095097541809082e-01) (44, 2.71999150514602661133e-01) (45, 2.99212764948606491089e-02) (46, -5.92280998826026916504e-02) (47, -4.64409999549388885498e-02) (48, 4.00044061243534088135e-02) (49, 5.70424534380435943604e-02) (50, 1.38094294816255569458e-02) (51, 2.26990133523941040039e-03) (52, -7.01389908790588378906e-02) (53, -7.07803592085838317871e-02) (54, 2.10787668824195861816e-01) (55, 1.97464764118194580078e-01) (56, 6.02091848850250244141e-01) (57, 1.48340690135955810547e+00) (58, 1.53272593021392822266e+00) (59, 2.74991846084594726562e+00) (60, -1.10865654423832893372e-02) (61, 4.28175106644630432129e-02) (62, 2.43321076035499572754e-01) (63, 7.27519346401095390320e-03) (64, -4.80944551527500152588e-02) (65, 1.28359599038958549500e-02) (66, -8.04072096943855285645e-02) (67, -5.02959042787551879883e-02) (68, -1.17357037961483001709e-02) (69, 5.84558248519897460938e-02) (70, 1.14740833640098571777e-01) (71, 9.74121391773223876953e-02) (72, 3.86152276769280433655e-03) (73, 1.08235411345958709717e-01) (74, -1.52925290167331695557e-02) (75, 1.19434468448162078857e-01) (76, 1.63934096693992614746e-01) (77, 3.15395325422286987305e-01) (78, 1.26863098144531250000e+00) (79, 8.81032466888427734375e-01) (80, -1.03144966065883636475e-01) (81, 2.48676434159278869629e-01) (82, 1.56439810991287231445e-01) (83, -4.35383059084415435791e-02) (84, -7.12715089321136474609e-02) (85, -3.83025072515010833740e-02) (86, 5.15230558812618255615e-02) (87, 4.07393425703048706055e-02) (88, -4.81931120157241821289e-02) (89, -2.75219846516847610474e-02) (90, -5.89462146162986755371e-02) (91, 1.15673393011093139648e-01) (92, 3.47439721226692199707e-02) (93, -7.23086893558502197266e-02) (94, 7.71037768572568893433e-03) (95, 2.01281920075416564941e-01) (96, 1.84935629367828369141e-01) (97, 3.75493705272674560547e-01) (98, 1.24591791629791259766e+00) (99, 9.82475340366363525391e-01) (100, -5.36970905959606170654e-02) (101, 2.32518389821052551270e-01) (102, 2.33043149113655090332e-01) (103, 3.66932861506938934326e-02) (104, 7.49261304736137390137e-02) (105, -4.67361472547054290771e-02) (106, 1.18532776832580566406e-01) (107, -2.25937925279140472412e-02) (108, 1.45024970173835754395e-01) (109, 1.71104267239570617676e-01) (110, 6.30555972456932067871e-02) (111, 1.33796587586402893066e-01) (112, 6.78386613726615905762e-02) (113, 1.27650573849678039551e-01) (114, -2.40460652858018875122e-02) (115, 5.94952851533889770508e-02) (116, -8.40836539864540100098e-02) (117, 4.81418184936046600342e-02) (118, 1.75506740808486938477e-01) (119, 2.07389280200004577637e-01) (120, -9.78838205337524414062e-02) (121, 5.40696419775485992432e-02) (122, 4.55225370824337005615e-02) (123, 3.26714694499969482422e-01) (124, 2.44044810533523559570e-01) (125, 3.28356385231018066406e-01) (126, 3.06338667869567871094e-01) (127, 3.69700700044631958008e-01) (128, 2.57027298212051391602e-01) (129, 2.60033100843429565430e-01) (130, 3.72493803501129150391e-01) (131, 2.62826234102249145508e-01) (132, -1.44208267331123352051e-01) (133, 1.29540637135505676270e-02) (134, -1.71155750751495361328e-01) (135, -1.79113391786813735962e-02) (136, -5.84950111806392669678e-02) (137, -2.27224808186292648315e-02) (138, 4.00922000408172607422e-01) (139, 5.29908202588558197021e-02) (140, -1.98844838887453079224e-02) (141, 8.10892581939697265625e+00) (142, 4.11849319934844970703e-02) (143, 