FANN_FLO_2.1
num_layers=5
learning_rate=0.700000
connection_rate=1.000000
network_type=0
learning_momentum=0.000000
training_algorithm=2
train_error_function=1
train_stop_function=0
cascade_output_change_fraction=0.010000
quickprop_decay=-0.000100
quickprop_mu=1.750000
rprop_increase_factor=1.200000
rprop_decrease_factor=0.500000
rprop_delta_min=0.000000
rprop_delta_max=50.000000
rprop_delta_zero=0.100000
cascade_output_stagnation_epochs=12
cascade_candidate_change_fraction=0.010000
cascade_candidate_stagnation_epochs=12
cascade_max_out_epochs=150
cascade_min_out_epochs=50
cascade_max_cand_epochs=150
cascade_min_cand_epochs=50
cascade_num_candidate_groups=2
bit_fail_limit=3.49999994039535522461e-01
cascade_candidate_limit=1.00000000000000000000e+03
cascade_weight_multiplier=4.00000005960464477539e-01
cascade_activation_functions_count=10
cascade_activation_functions=3 5 7 8 10 11 14 15 16 17 
cascade_activation_steepnesses_count=4
cascade_activation_steepnesses=2.50000000000000000000e-01 5.00000000000000000000e-01 7.50000000000000000000e-01 1.00000000000000000000e+00 
layer_sizes=601 11 11 11 11 
scale_included=0
neurons (num_inputs, activation_function, activation_steepness)=(0, 0, 0.00000000000000000000e+00) (0, 0, 0.00000000000000000000e+00) (0, 0, 0.00000000000000000000e+00) (0, 0, 0.00000000000000000000e+00) (0, 0, 0.00000000000000000000e+00) (0, 0, 0.00000000000000000000e+00) (0, 0, 0.00000000000000000000e+00) (0, 0, 0.00000000000000000000e+00) (0, 0, 0.00000000000000000000e+00) (0, 0, 0.00000000000000000000e+00) (0, 0, 0.00000000000000000000e+00) (0, 0, 0.00000000000000000000e+00) (0, 0, 0.00000000000000000000e+00) (0, 0, 0.00000000000000000000e+00) (0, 0, 0.00000000000000000000e+00) (0, 0, 0.00000000000000000000e+00) (0, 0, 0.00000000000000000000e+00) (0, 0, 0.00000000000000000000e+00) (0, 0, 0.00000000000000000000e+00) (0, 0, 0.00000000000000000000e+00) (0, 0, 0.00000000000000000000e+00) (0, 0, 0.00000000000000000000e+00) (0, 0, 0.00000000000000000000e+00) (0, 0, 0.00000000000000000000e+00) (0, 0, 0.00000000000000000000e+00) (0, 0, 0.00000000000000000000e+00) (0, 0, 0.00000000000000000000e+00) (0, 0, 0.00000000000000000000e+00) (0, 0, 0.00000000000000000000e+00) (0, 0, 0.00000000000000000000e+00) (0, 0, 0.00000000000000000000e+00) (0, 0, 0.00000000000000000000e+00) (0, 0, 0.00000000000000000000e+00) (0, 0, 0.00000000000000000000e+00) (0, 0, 0.00000000000000000000e+00) (0, 0, 0.00000000000000000000e+00) (0, 0, 0.00000000000000000000e+00) (0, 0, 0.00000000000000000000e+00) (0, 0, 0.00000000000000000000e+00) (0, 0, 0.00000000000000000000e+00) (0, 0, 0.00000000000000000000e+00) (0, 0, 0.00000000000000000000e+00) (0, 0, 0.00000000000000000000e+00) (0, 0, 0.00000000000000000000e+00) (0, 0, 0.00000000000000000000e+00) (0, 0, 0.00000000000000000000e+00) (0, 0, 0.00000000000000000000e+00) (0, 0, 0.00000000000000000000e+00) (0, 0, 0.00000000000000000000e+00) (0, 0, 0.00000000000000000000e+00) (0, 0, 0.00000000000000000000e+00) (0, 0, 0.00000000000000000000e+00) (0, 0, 0.00000000000000000000e+00) (0, 0, 0.00000000000000000000e+00) (0, 0, 0.00000000000000000000e+00) (0, 0, 0.00000000000000000000e+00) (0, 0, 0.00000000000000000000e+00) (0, 0, 0.00000000000000000000e+00) (0, 0, 0.00000000000000000000e+00) (0, 0, 0.00000000000000000000e+00) (0, 0, 0.00000000000000000000e+00) (0, 0, 0.00000000000000000000e+00) (0, 0, 0.00000000000000000000e+00) (0, 0, 0.00000000000000000000e+00) (0, 0, 0.00000000000000000000e+00) (0, 0, 0.00000000000000000000e+00) (0, 0, 0.00000000000000000000e+00) (0, 0, 0.00000000000000000000e+00) (0, 0, 0.00000000000000000000e+00) (0, 0, 0.00000000000000000000e+00) (0, 0, 0.00000000000000000000e+00) (0, 0, 0.00000000000000000000e+00) (0, 0, 0.00000000000000000000e+00) (0, 0, 0.00000000000000000000e+00) (0, 0, 0.00000000000000000000e+00) (0, 0, 0.00000000000000000000e+00) (0, 0, 0.00000000000000000000e+00) (0, 0, 0.00000000000000000000e+00) (0, 0, 0.00000000000000000000e+00) (0, 0, 0.00000000000000000000e+00) (0, 0, 0.00000000000000000000e+00) (0, 0, 0.00000000000000000000e+00) (0, 0, 0.00000000000000000000e+00) (0, 0, 0.00000000000000000000e+00) (0, 0, 0.00000000000000000000e+00) (0, 0, 0.00000000000000000000e+00) (0, 0, 0.00000000000000000000e+00) (0, 0, 0.00000000000000000000e+00) (0, 0, 0.00000000000000000000e+00) (0, 0, 0.00000000000000000000e+00) (0, 0, 0.00000000000000000000e+00) (0, 0, 0.00000000000000000000e+00) (0, 0, 0.00000000000000000000e+00) (0, 0, 0.00000000000000000000e+00) (0, 0, 0.00000000000000000000e+00) (0, 0, 0.00000000000000000000e+00) (0, 0, 0.00000000000000000000e+00) (0, 0, 0.00000000000000000000e+00) (0, 0, 0.00000000000000000000e+00) (0, 0, 0.00000000000000000000e+00) (0, 0, 0.00000000000000000000e+00) (0, 0, 0.00000000000000000000e+00) (0, 0, 0.00000000000000000000e+00) (0, 0, 0.00000000000000000000e+00) (0, 0, 0.00000000000000000000e+00) (0, 0, 0.00000000000000000000e+00) (0, 0, 0.00000000000000000000e+00) (0, 0, 0.00000000000000000000e+00) (0, 0, 0.00000000000000000000e+00) (0, 0, 0.00000000000000000000e+00) (0, 0, 0.00000000000000000000e+00) (0, 0, 0.00000000000000000000e+00) (0, 0, 0.00000000000000000000e+00) (0, 0, 0.00000000000000000000e+00) (0, 0, 0.00000000000000000000e+00) (0, 0, 0.00000000000000000000e+00) (0, 0, 0.00000000000000000000e+00) (0, 0, 0.00000000000000000000e+00) (0, 0, 0.00000000000000000000e+00) (0, 0, 0.00000000000000000000e+00) (0, 0, 0.00000000000000000000e+00) (0, 0, 0.00000000000000000000e+00) (0, 0, 0.00000000000000000000e+00) (0, 0, 0.00000000000000000000e+00) (0, 0, 0.00000000000000000000e+00) (0, 0, 0.00000000000000000000e+00) (0, 0, 0.00000000000000000000e+00) (0, 0, 0.00000000000000000000e+00) (0, 0, 0.00000000000000000000e+00) (0, 0, 0.00000000000000000000e+00) (0, 0, 0.00000000000000000000e+00) (0, 0, 0.00000000000000000000e+00) (0, 0, 0.00000000000000000000e+00) (0, 0, 0.00000000000000000000e+00) (0, 0, 0.00000000000000000000e+00) (0, 0, 0.00000000000000000000e+00) (0, 0, 0.00000000000000000000e+00) (0, 0, 0.00000000000000000000e+00) (0, 0, 0.00000000000000000000e+00) (0, 0, 0.00000000000000000000e+00) (0, 0, 0.00000000000000000000e+00) (0, 0, 0.00000000000000000000e+00) (0, 0, 0.00000000000000000000e+00) (0, 0, 0.00000000000000000000e+00) (0, 0, 0.00000000000000000000e+00) (0, 0, 0.00000000000000000000e+00) (0, 0, 0.00000000000000000000e+00) (0, 0, 0.00000000000000000000e+00) (0, 0, 0.00000000000000000000e+00) (0, 0, 0.00000000000000000000e+00) (0, 0, 0.00000000000000000000e+00) (0, 0, 0.00000000000000000000e+00) (0, 0, 0.00000000000000000000e+00) (0, 0, 0.00000000000000000000e+00) (0, 0, 0.00000000000000000000e+00) (0, 0, 0.00000000000000000000e+00) (0, 0, 0.00000000000000000000e+00) (0, 0, 0.00000000000000000000e+00) (0, 0, 0.00000000000000000000e+00) (0, 0, 0.00000000000000000000e+00) (0, 0, 0.00000000000000000000e+00) (0, 0, 0.00000000000000000000e+00) (0, 0, 0.00000000000000000000e+00) (0, 0, 0.00000000000000000000e+00) (0, 0, 0.00000000000000000000e+00) (0, 0, 0.00000000000000000000e+00) (0, 0, 0.00000000000000000000e+00) (0, 0, 0.00000000000000000000e+00) (0, 0, 0.00000000000000000000e+00) (0, 0, 0.00000000000000000000e+00) (0, 0, 0.00000000000000000000e+00) (0, 0, 0.00000000000000000000e+00) (0, 0, 0.00000000000000000000e+00) (0, 0, 0.00000000000000000000e+00) (0, 0, 0.00000000000000000000e+00) (0, 0, 0.00000000000000000000e+00) (0, 0, 0.00000000000000000000e+00) (0, 0, 0.00000000000000000000e+00) (0, 0, 0.00000000000000000000e+00) (0, 0, 0.00000000000000000000e+00) (0, 0, 0.00000000000000000000e+00) (0, 0, 0.00000000000000000000e+00) (0, 0, 0.00000000000000000000e+00) (0, 0, 0.00000000000000000000e+00) (0, 0, 0.00000000000000000000e+00) (0, 0, 0.00000000000000000000e+00) (0, 0, 0.00000000000000000000e+00) (0, 0, 0.00000000000000000000e+00) (0, 0, 0.00000000000000000000e+00) (0, 0, 0.00000000000000000000e+00) (0, 0, 0.00000000000000000000e+00) (0, 0, 0.00000000000000000000e+00) (0, 0, 0.00000000000000000000e+00) (0, 0, 0.00000000000000000000e+00) (0, 0, 0.00000000000000000000e+00) (0, 0, 0.00000000000000000000e+00) (0, 0, 0.00000000000000000000e+00) (0, 0, 0.00000000000000000000e+00) (0, 0, 0.00000000000000000000e+00) (0, 0, 0.00000000000000000000e+00) (0, 0, 0.00000000000000000000e+00) (0, 0, 0.00000000000000000000e+00) (0, 0, 0.00000000000000000000e+00) (0, 0, 0.00000000000000000000e+00) (0, 0, 0.00000000000000000000e+00) (0, 0, 0.00000000000000000000e+00) (0, 0, 0.00000000000000000000e+00) (0, 0, 0.00000000000000000000e+00) (0, 0, 0.00000000000000000000e+00) (0, 0, 0.00000000000000000000e+00) (0, 0, 0.00000000000000000000e+00) (0, 0, 0.00000000000000000000e+00) (0, 0, 0.00000000000000000000e+00) (0, 0, 0.00000000000000000000e+00) (0, 0, 0.00000000000000000000e+00) (0, 0, 0.00000000000000000000e+00) (0, 0, 0.00000000000000000000e+00) (0, 0, 0.00000000000000000000e+00) (0, 0, 0.00000000000000000000e+00) (0, 0, 0.00000000000000000000e+00) (0, 0, 0.00000000000000000000e+00) (0, 0, 0.00000000000000000000e+00) (0, 0, 0.00000000000000000000e+00) (0, 0, 0.00000000000000000000e+00) (0, 0, 0.00000000000000000000e+00) (0, 0, 0.00000000000000000000e+00) (0, 0, 0.00000000000000000000e+00) (0, 0, 0.00000000000000000000e+00) (0, 0, 0.00000000000000000000e+00) (0, 0, 0.00000000000000000000e+00) (0, 0, 0.00000000000000000000e+00) (0, 0, 0.00000000000000000000e+00) (0, 0, 0.00000000000000000000e+00) (0, 0, 0.00000000000000000000e+00) (0, 0, 0.00000000000000000000e+00) (0, 0, 0.00000000000000000000e+00) (0, 0, 0.00000000000000000000e+00) (0, 0, 0.00000000000000000000e+00) (0, 0, 0.00000000000000000000e+00) (0, 0, 0.00000000000000000000e+00) (0, 0, 0.00000000000000000000e+00) (0, 0, 0.00000000000000000000e+00) (0, 0, 0.00000000000000000000e+00) (0, 0, 0.00000000000000000000e+00) (0, 0, 0.00000000000000000000e+00) (0, 0, 0.00000000000000000000e+00) (0, 0, 0.00000000000000000000e+00) (0, 0, 0.00000000000000000000e+00) (0, 0, 0.00000000000000000000e+00) (0, 0, 0.00000000000000000000e+00) (0, 0, 0.00000000000000000000e+00) (0, 0, 0.00000000000000000000e+00) (0, 0, 0.00000000000000000000e+00) (0, 0, 0.00000000000000000000e+00) (0, 0, 0.00000000000000000000e+00) (0, 0, 0.00000000000000000000e+00) (0, 0, 0.00000000000000000000e+00) (0, 0, 0.00000000000000000000e+00) (0, 0, 0.00000000000000000000e+00) (0, 0, 0.00000000000000000000e+00) (0, 0, 0.00000000000000000000e+00) (0, 0, 0.00000000000000000000e+00) (0, 0, 0.00000000000000000000e+00) (0, 0, 0.00000000000000000000e+00) (0, 0, 0.00000000000000000000e+00) (0, 0, 0.00000000000000000000e+00) (0, 0, 0.00000000000000000000e+00) (0, 0, 0.00000000000000000000e+00) (0, 0, 0.00000000000000000000e+00) (0, 0, 0.00000000000000000000e+00) (0, 0, 0.00000000000000000000e+00) (0, 0, 0.00000000000000000000e+00) (0, 0, 0.00000000000000000000e+00) (0, 0, 0.00000000000000000000e+00) (0, 0, 0.00000000000000000000e+00) (0, 0, 0.00000000000000000000e+00) (0, 0, 0.00000000000000000000e+00) (0, 0, 0.00000000000000000000e+00) (0, 0, 0.00000000000000000000e+00) (0, 0, 0.00000000000000000000e+00) (0, 0, 0.00000000000000000000e+00) (0, 0, 0.00000000000000000000e+00) (0, 0, 0.00000000000000000000e+00) (0, 0, 0.00000000000000000000e+00) (0, 0, 0.00000000000000000000e+00) (0, 0, 0.00000000000000000000e+00) (0, 0, 0.00000000000000000000e+00) (0, 0, 0.00000000000000000000e+00) (0, 0, 0.00000000000000000000e+00) (0, 0, 0.00000000000000000000e+00) (0, 0, 0.00000000000000000000e+00) (0, 0, 0.00000000000000000000e+00) (0, 0, 0.00000000000000000000e+00) (0, 0, 0.00000000000000000000e+00) (0, 0, 0.00000000000000000000e+00) (0, 0, 0.00000000000000000000e+00) (0, 0, 0.00000000000000000000e+00) (0, 0, 0.00000000000000000000e+00) (0, 0, 0.00000000000000000000e+00) (0, 0, 0.00000000000000000000e+00) (0, 0, 0.00000000000000000000e+00) (0, 0, 0.00000000000000000000e+00) (0, 0, 0.00000000000000000000e+00) (0, 0, 0.00000000000000000000e+00) (0, 0, 0.00000000000000000000e+00) (0, 0, 0.00000000000000000000e+00) (0, 0, 0.00000000000000000000e+00) (0, 0, 0.00000000000000000000e+00) (0, 0, 0.00000000000000000000e+00) (0, 0, 0.00000000000000000000e+00) (0, 0, 0.00000000000000000000e+00) (0, 0, 0.00000000000000000000e+00) (0, 0, 0.00000000000000000000e+00) (0, 0, 0.00000000000000000000e+00) (0, 0, 0.00000000000000000000e+00) (0, 0, 0.00000000000000000000e+00) (0, 0, 0.00000000000000000000e+00) (0, 0, 0.00000000000000000000e+00) (0, 0, 0.00000000000000000000e+00) (0, 0, 0.00000000000000000000e+00) (0, 0, 0.00000000000000000000e+00) (0, 0, 0.00000000000000000000e+00) (0, 0, 0.00000000000000000000e+00) (0, 0, 0.00000000000000000000e+00) (0, 0, 0.00000000000000000000e+00) (0, 0, 0.00000000000000000000e+00) (0, 0, 0.00000000000000000000e+00) (0, 0, 0.00000000000000000000e+00) (0, 0, 0.00000000000000000000e+00) (0, 0, 0.00000000000000000000e+00) (0, 0, 0.00000000000000000000e+00) (0, 0, 0.00000000000000000000e+00) (0, 0, 0.00000000000000000000e+00) (0, 0, 0.00000000000000000000e+00) (0, 0, 0.00000000000000000000e+00) (0, 0, 0.00000000000000000000e+00) (0, 0, 0.00000000000000000000e+00) (0, 0, 0.00000000000000000000e+00) (0, 0, 0.00000000000000000000e+00) (0, 0, 0.00000000000000000000e+00) (0, 0, 0.00000000000000000000e+00) (0, 0, 0.00000000000000000000e+00) (0, 0, 0.00000000000000000000e+00) (0, 0, 0.00000000000000000000e+00) (0, 0, 0.00000000000000000000e+00) (0, 0, 0.00000000000000000000e+00) (0, 0, 0.00000000000000000000e+00) (0, 0, 0.00000000000000000000e+00) (0, 0, 0.00000000000000000000e+00) (0, 0, 0.00000000000000000000e+00) (0, 0, 0.00000000000000000000e+00) (0, 0, 0.00000000000000000000e+00) (0, 0, 0.00000000000000000000e+00) (0, 0, 0.00000000000000000000e+00) (0, 0, 0.00000000000000000000e+00) (0, 0, 0.00000000000000000000e+00) (0, 0, 0.00000000000000000000e+00) (0, 0, 0.00000000000000000000e+00) (0, 0, 0.00000000000000000000e+00) (0, 0, 0.00000000000000000000e+00) (0, 0, 0.00000000000000000000e+00) (0, 0, 0.00000000000000000000e+00) (0, 0, 0.00000000000000000000e+00) (0, 0, 0.00000000000000000000e+00) (0, 0, 0.00000000000000000000e+00) (0, 0, 0.00000000000000000000e+00) (0, 0, 0.00000000000000000000e+00) (0, 0, 0.00000000000000000000e+00) (0, 0, 0.00000000000000000000e+00) (0, 0, 0.00000000000000000000e+00) (0, 0, 0.00000000000000000000e+00) (0, 0, 0.00000000000000000000e+00) (0, 0, 0.00000000000000000000e+00) (0, 0, 0.00000000000000000000e+00) (0, 0, 0.00000000000000000000e+00) (0, 0, 0.00000000000000000000e+00) (0, 0, 0.00000000000000000000e+00) (0, 0, 0.00000000000000000000e+00) (0, 0, 0.00000000000000000000e+00) (0, 0, 0.00000000000000000000e+00) (0, 0, 0.00000000000000000000e+00) (0, 0, 0.00000000000000000000e+00) (0, 0, 0.00000000000000000000e+00) (0, 0, 0.00000000000000000000e+00) (0, 0, 0.00000000000000000000e+00) (0, 0, 0.00000000000000000000e+00) (0, 0, 0.00000000000000000000e+00) (0, 0, 0.00000000000000000000e+00) (0, 0, 0.00000000000000000000e+00) (0, 0, 0.00000000000000000000e+00) (0, 0, 0.00000000000000000000e+00) (0, 0, 0.00000000000000000000e+00) (0, 0, 0.00000000000000000000e+00) (0, 0, 0.00000000000000000000e+00) (0, 0, 0.00000000000000000000e+00) (0, 0, 0.00000000000000000000e+00) (0, 0, 0.00000000000000000000e+00) (0, 0, 0.00000000000000000000e+00) (0, 0, 0.00000000000000000000e+00) (0, 0, 0.00000000000000000000e+00) (0, 0, 0.00000000000000000000e+00) (0, 0, 0.00000000000000000000e+00) (0, 0, 0.00000000000000000000e+00) (0, 0, 0.00000000000000000000e+00) (0, 0, 0.00000000000000000000e+00) (0, 0, 0.00000000000000000000e+00) (0, 0, 0.00000000000000000000e+00) (0, 0, 0.00000000000000000000e+00) (0, 0, 0.00000000000000000000e+00) (0, 0, 0.00000000000000000000e+00) (0, 0, 0.00000000000000000000e+00) (0, 0, 0.00000000000000000000e+00) (0, 0, 0.00000000000000000000e+00) (0, 0, 0.00000000000000000000e+00) (0, 0, 0.00000000000000000000e+00) (0, 0, 0.00000000000000000000e+00) (0, 0, 0.00000000000000000000e+00) (0, 0, 0.00000000000000000000e+00) (0, 0, 0.00000000000000000000e+00) (0, 0, 0.00000000000000000000e+00) (0, 0, 0.00000000000000000000e+00) (0, 0, 0.00000000000000000000e+00) (0, 0, 0.00000000000000000000e+00) (0, 0, 0.00000000000000000000e+00) (0, 0, 0.00000000000000000000e+00) (0, 0, 0.00000000000000000000e+00) (0, 0, 0.00000000000000000000e+00) (0, 0, 0.00000000000000000000e+00) (0, 0, 0.00000000000000000000e+00) (0, 0, 0.00000000000000000000e+00) (0, 0, 0.00000000000000000000e+00) (0, 0, 0.00000000000000000000e+00) (0, 0, 0.00000000000000000000e+00) (0, 0, 0.00000000000000000000e+00) (0, 0, 0.00000000000000000000e+00) (0, 0, 0.00000000000000000000e+00) (0, 0, 0.00000000000000000000e+00) (0, 0, 0.00000000000000000000e+00) (0, 0, 0.00000000000000000000e+00) (0, 0, 0.00000000000000000000e+00) (0, 0, 0.00000000000000000000e+00) (0, 0, 0.00000000000000000000e+00) (0, 0, 0.00000000000000000000e+00) (0, 0, 0.00000000000000000000e+00) (0, 0, 0.00000000000000000000e+00) (0, 0, 0.00000000000000000000e+00) (0, 0, 0.00000000000000000000e+00) (0, 0, 0.00000000000000000000e+00) (0, 0, 0.00000000000000000000e+00) (0, 0, 0.00000000000000000000e+00) (0, 0, 0.00000000000000000000e+00) (0, 0, 0.00000000000000000000e+00) (0, 0, 0.00000000000000000000e+00) (0, 0, 0.00000000000000000000e+00) (0, 0, 0.00000000000000000000e+00) (0, 0, 0.00000000000000000000e+00) (0, 0, 0.00000000000000000000e+00) (0, 0, 0.00000000000000000000e+00) (0, 0, 0.00000000000000000000e+00) (0, 0, 0.00000000000000000000e+00) (0, 0, 0.00000000000000000000e+00) (0, 0, 0.00000000000000000000e+00) (0, 0, 0.00000000000000000000e+00) (0, 0, 0.00000000000000000000e+00) (0, 0, 0.00000000000000000000e+00) (0, 0, 0.00000000000000000000e+00) (0, 0, 0.00000000000000000000e+00) (0, 0, 0.00000000000000000000e+00) (0, 0, 0.00000000000000000000e+00) (0, 0, 0.00000000000000000000e+00) (0, 0, 0.00000000000000000000e+00) (0, 0, 0.00000000000000000000e+00) (0, 0, 0.00000000000000000000e+00) (0, 0, 0.00000000000000000000e+00) (0, 0, 0.00000000000000000000e+00) (0, 0, 0.00000000000000000000e+00) (0, 0, 0.00000000000000000000e+00) (0, 0, 0.00000000000000000000e+00) (0, 0, 0.00000000000000000000e+00) (0, 0, 0.00000000000000000000e+00) (0, 0, 0.00000000000000000000e+00) (0, 0, 0.00000000000000000000e+00) (0, 0, 0.00000000000000000000e+00) (0, 0, 0.00000000000000000000e+00) (0, 0, 0.00000000000000000000e+00) (0, 0, 0.00000000000000000000e+00) (0, 0, 0.00000000000000000000e+00) (0, 0, 0.00000000000000000000e+00) (0, 0, 0.00000000000000000000e+00) (0, 0, 0.00000000000000000000e+00) (0, 0, 0.00000000000000000000e+00) (0, 0, 0.00000000000000000000e+00) (0, 0, 0.00000000000000000000e+00) (0, 0, 0.00000000000000000000e+00) (0, 0, 0.00000000000000000000e+00) (0, 0, 0.00000000000000000000e+00) (0, 0, 0.00000000000000000000e+00) (0, 0, 0.00000000000000000000e+00) (0, 0, 0.00000000000000000000e+00) (0, 0, 0.00000000000000000000e+00) (0, 0, 0.00000000000000000000e+00) (0, 0, 0.00000000000000000000e+00) (0, 0, 0.00000000000000000000e+00) (0, 0, 0.00000000000000000000e+00) (0, 0, 0.00000000000000000000e+00) (0, 0, 0.00000000000000000000e+00) (0, 0, 0.00000000000000000000e+00) (0, 0, 0.00000000000000000000e+00) (0, 0, 0.00000000000000000000e+00) (0, 0, 0.00000000000000000000e+00) (0, 0, 0.00000000000000000000e+00) (0, 0, 0.00000000000000000000e+00) (0, 0, 0.00000000000000000000e+00) (0, 0, 0.00000000000000000000e+00) (0, 0, 0.00000000000000000000e+00) (0, 0, 0.00000000000000000000e+00) (0, 0, 0.00000000000000000000e+00) (0, 0, 0.00000000000000000000e+00) (0, 0, 0.00000000000000000000e+00) (0, 0, 0.00000000000000000000e+00) (0, 0, 0.00000000000000000000e+00) (0, 0, 0.00000000000000000000e+00) (0, 0, 0.00000000000000000000e+00) (0, 0, 0.00000000000000000000e+00) (0, 0, 0.00000000000000000000e+00) (0, 0, 0.00000000000000000000e+00) (0, 0, 0.00000000000000000000e+00) (0, 0, 0.00000000000000000000e+00) (0, 0, 0.00000000000000000000e+00) (0, 0, 0.00000000000000000000e+00) (0, 0, 0.00000000000000000000e+00) (0, 0, 0.00000000000000000000e+00) (0, 0, 0.00000000000000000000e+00) (0, 0, 0.00000000000000000000e+00) (0, 0, 0.00000000000000000000e+00) (0, 0, 0.00000000000000000000e+00) (0, 0, 0.00000000000000000000e+00) (0, 0, 0.00000000000000000000e+00) (0, 0, 0.00000000000000000000e+00) (0, 0, 0.00000000000000000000e+00) (0, 0, 0.00000000000000000000e+00) (0, 0, 0.00000000000000000000e+00) (0, 0, 0.00000000000000000000e+00) (0, 0, 0.00000000000000000000e+00) (0, 0, 0.00000000000000000000e+00) (0, 0, 0.00000000000000000000e+00) (0, 0, 0.00000000000000000000e+00) (0, 0, 0.00000000000000000000e+00) (0, 0, 0.00000000000000000000e+00) (0, 0, 0.00000000000000000000e+00) (0, 0, 0.00000000000000000000e+00) (0, 0, 0.00000000000000000000e+00) (0, 0, 0.00000000000000000000e+00) (0, 0, 0.00000000000000000000e+00) (0, 0, 0.00000000000000000000e+00) (0, 0, 0.00000000000000000000e+00) (0, 0, 0.00000000000000000000e+00) (0, 0, 0.00000000000000000000e+00) (0, 0, 0.00000000000000000000e+00) (0, 0, 0.00000000000000000000e+00) (0, 0, 0.00000000000000000000e+00) (0, 0, 0.00000000000000000000e+00) (0, 0, 0.00000000000000000000e+00) (0, 0, 0.00000000000000000000e+00) (0, 0, 0.00000000000000000000e+00) (0, 0, 0.00000000000000000000e+00) (0, 0, 0.00000000000000000000e+00) (0, 0, 0.00000000000000000000e+00) (0, 0, 0.00000000000000000000e+00) (0, 0, 0.00000000000000000000e+00) (0, 0, 0.00000000000000000000e+00) (0, 0, 0.00000000000000000000e+00) (0, 0, 0.00000000000000000000e+00) (0, 0, 0.00000000000000000000e+00) (0, 0, 0.00000000000000000000e+00) (0, 0, 0.00000000000000000000e+00) (0, 0, 0.00000000000000000000e+00) (0, 0, 0.00000000000000000000e+00) (0, 0, 0.00000000000000000000e+00) (0, 0, 0.00000000000000000000e+00) (0, 0, 0.00000000000000000000e+00) (0, 0, 0.00000000000000000000e+00) (0, 0, 0.00000000000000000000e+00) (0, 0, 0.00000000000000000000e+00) (0, 0, 0.00000000000000000000e+00) (0, 0, 0.00000000000000000000e+00) (0, 0, 0.00000000000000000000e+00) (0, 0, 0.00000000000000000000e+00) (0, 0, 0.00000000000000000000e+00) (0, 0, 0.00000000000000000000e+00) (0, 0, 0.00000000000000000000e+00) (0, 0, 0.00000000000000000000e+00) (0, 0, 0.00000000000000000000e+00) (0, 0, 0.00000000000000000000e+00) (0, 0, 0.00000000000000000000e+00) (0, 0, 0.00000000000000000000e+00) (0, 0, 0.00000000000000000000e+00) (0, 0, 0.00000000000000000000e+00) (0, 0, 0.00000000000000000000e+00) (0, 0, 0.00000000000000000000e+00) (0, 0, 0.00000000000000000000e+00) (601, 5, 5.00000000000000000000e-01) (601, 5, 5.00000000000000000000e-01) (601, 5, 5.00000000000000000000e-01) (601, 5, 5.00000000000000000000e-01) (601, 5, 5.00000000000000000000e-01) (601, 5, 5.00000000000000000000e-01) (601, 5, 5.00000000000000000000e-01) (601, 5, 5.00000000000000000000e-01) (601, 5, 5.00000000000000000000e-01) (601, 5, 5.00000000000000000000e-01) (0, 5, 0.00000000000000000000e+00) (11, 5, 5.00000000000000000000e-01) (11, 5, 5.00000000000000000000e-01) (11, 5, 5.00000000000000000000e-01) (11, 5, 5.00000000000000000000e-01) (11, 5, 5.00000000000000000000e-01) (11, 5, 5.00000000000000000000e-01) (11, 5, 5.00000000000000000000e-01) (11, 5, 5.00000000000000000000e-01) (11, 5, 5.00000000000000000000e-01) (11, 5, 5.00000000000000000000e-01) (0, 5, 0.00000000000000000000e+00) (11, 5, 5.00000000000000000000e-01) (11, 5, 5.00000000000000000000e-01) (11, 5, 5.00000000000000000000e-01) (11, 5, 5.00000000000000000000e-01) (11, 5, 5.00000000000000000000e-01) (11, 5, 5.00000000000000000000e-01) (11, 5, 5.00000000000000000000e-01) (11, 5, 5.00000000000000000000e-01) (11, 5, 5.00000000000000000000e-01) (11, 5, 5.00000000000000000000e-01) (0, 5, 0.00000000000000000000e+00) (11, 5, 5.00000000000000000000e-01) (11, 5, 5.00000000000000000000e-01) (11, 5, 5.00000000000000000000e-01) (11, 5, 5.00000000000000000000e-01) (11, 5, 5.00000000000000000000e-01) (11, 5, 5.00000000000000000000e-01) (11, 5, 5.00000000000000000000e-01) (11, 5, 5.00000000000000000000e-01) (11, 5, 5.00000000000000000000e-01) (11, 5, 5.00000000000000000000e-01) (0, 5, 0.00000000000000000000e+00) 
connections (connected_to_neuron, weight)=(0, 8.57735046386718750000e+02) (1, 8.73940734863281250000e+02) (2, -1.39565698242187500000e+03) (3, -1.50000000000000000000e+03) (4, -1.50000000000000000000e+03) (5, -1.48333874511718750000e+03) (6, -2.10077117919921875000e+02) (7, -1.90687362670898437500e+02) (8, 1.42138671875000000000e+02) (9, 2.22400024414062500000e+02) (10, 2.72400024414062500000e+02) (11, 3.87861480712890625000e+02) (12, 6.23230712890625000000e+02) (13, 4.22974182128906250000e+02) (14, 3.89502197265625000000e+02) (15, -6.45138549804687500000e+02) (16, -1.10919995117187500000e+03) (17, 1.26622390747070312500e+02) (18, -1.03838882446289062500e+02) (19, 1.50000000000000000000e+03) (20, -1.11451257324218750000e+03) (21, -1.08986572265625000000e+03) (22, -3.75904418945312500000e+02) (23, 1.03080322265625000000e+02) (24, 1.05259985351562500000e+03) (25, 1.50000000000000000000e+03) (26, -1.19263647460937500000e+03) (27, -1.36946350097656250000e+03) (28, 5.05037353515625000000e+02) (29, 1.30080505371093750000e+03) (30, 1.30837976074218750000e+03) (31, 1.50000000000000000000e+03) (32, 1.11772558593750000000e+03) (33, 1.50000000000000000000e+03) (34, 1.50000000000000000000e+03) (35, 1.35829919433593750000e+03) (36, 1.00032617187500000000e+03) (37, 1.05402534484863281250e+02) (38, -3.55169281005859375000e+02) (39, -3.55169281005859375000e+02) (40, -1.30115161132812500000e+03) (41, -2.87432739257812500000e+02) (42, -4.42542968750000000000e+02) (43, -5.69701538085937500000e+01) (44, 1.50000000000000000000e+03) (45, -3.62295532226562500000e+02) (46, -1.55508316040039062500e+02) (47, 1.22212878417968750000e+03) (48, -4.73065948486328125000e+02) (49, -2.93199951171875000000e+02) (50, -2.78092365264892578125e+01) (51, 5.89767211914062500000e+02) (52, 1.32483178710937500000e+03) (53, 1.42762756347656250000e+03) (54, 1.49969189453125000000e+03) (55, 1.41766308593750000000e+03) (56, 6.22583679199218750000e+02) (57, 5.02907897949218750000e+02) (58, -2.06214332580566406250e+01) (59, -6.46993286132812500000e+02) (60, -1.52155883789062500000e+02) (61, -2.37322692871093750000e+02) (62, 6.73428100585937500000e+02) (63, 3.60865173339843750000e+02) (64, -9.73206115722656250000e+02) (65, 1.43325012207031250000e+03) (66, 1.29453967285156250000e+03) (67, 4.39393096923828125000e+02) (68, -6.28629089355468750000e+02) (69, -9.94001159667968750000e+02) (70, -1.42225585937500000000e+03) (71, 2.32088058471679687500e+02) (72, -1.17861328125000000000e+03) (73, 1.46583154296875000000e+03) (74, 1.48815173339843750000e+03) (75, 1.33532592773437500000e+03) (76, 9.79176391601562500000e+02) (77, 4.11145355224609375000e+02) (78, 2.86666534423828125000e+02) (79, 1.15387947082519531250e+02) (80, 1.26839990234375000000e+03) (81, 1.50000000000000000000e+03) (82, -3.56135314941406250000e+02) (83, -1.01524664306640625000e+03) (84, -9.58113403320312500000e+02) (85, 1.48687451171875000000e+03) (86, 1.38464343261718750000e+03) (87, 1.47802380371093750000e+03) (88, -5.53578247070312500000e+02) (89, -4.11083679199218750000e+02) (90, -1.31006982421875000000e+03) (91, -1.00512194824218750000e+03) (92, -5.33415405273437500000e+02) (93, -6.67265319824218750000e+01) (94, 1.13662023925781250000e+03) (95, 1.31015722656250000000e+03) (96, 9.79176391601562500000e+02) (97, 4.01890655517578125000e+02) (98, 2.86666534423828125000e+02) (99, 1.15387947082519531250e+02) (100, 1.50000000000000000000e+03) (101, 1.50000000000000000000e+03) (102, 1.50000000000000000000e+03) (103, 2.67826629638671875000e+02) (104, 1.50000000000000000000e+03) (105, 1.50000000000000000000e+03) (106, 1.50000000000000000000e+03) (107, 1.50000000000000000000e+03) (108, 1.49775366210937500000e+03) (109, 1.50000000000000000000e+03) (110, 8.05453430175781250000e+02) (111, -5.32569091796875000000e+02) (112, 1.49921630859375000000e+03) (113, 1.48408532714843750000e+03) (114, 1.43042883300781250000e+03) (115, 1.40111584472656250000e+03) (116, 1.23169848632812500000e+03) (117, 9.18030151367187500000e+02) (118, 3.01890594482421875000e+02) (119, 1.86666473388671875000e+02) (120, 1.50000000000000000000e+03) (121, 1.50000000000000000000e+03) (122, 1.50000000000000000000e+03) (123, 1.50000000000000000000e+03) (124, 1.50000000000000000000e+03) (125, 1.50000000000000000000e+03) (126, 1.43771386718750000000e+03) (127, 1.12870935058593750000e+03) (128, 1.06404809570312500000e+03) (129, 9.70564331054687500000e+02) (130, 1.50000000000000000000e+03) (131, -6.52041625976562500000e+01) (132, -7.75235107421875000000e+02) (133, 3.79168060302734375000e+02) (134, 9.39552856445312500000e+02) (135, -6.94674011230468750000e+02) (136, -3.76257324218750000000e+02) (137, 1.29061853027343750000e+03) (138, 3.91606658935546875000e+02) (139, 3.92569541931152343750e-01) (140, 1.50000000000000000000e+03) (141, 1.50000000000000000000e+03) (142, 1.50000000000000000000e+03) (143, 1.50000000000000000000e+03) (144, 1.50000000000000000000e+03) (145, 1.50000000000000000000e+03) (146, 1.50000000000000000000e+03) (147, 1.49133361816406250000e+03) (148, 1.50000000000000000000e+03) (149, 1.42102319335937500000e+03) (150, -8.82667236328125000000e+02) (151, -1.07979260253906250000e+03) (152, -9.04931518554687500000e+02) (153, -8.70244079589843750000e+02) (154, -4.10736785888671875000e+02) (155, -1.65884750366210937500e+02) (156, -8.56753234863281250000e+01) (157, -3.38600097656250000000e+02) (158, -1.34703198242187500000e+03) (159, -1.48336926269531250000e+03) (160, 1.50000000000000000000e+03) (161, 1.50000000000000000000e+03) (162, 1.50000000000000000000e+03) (163, 1.50000000000000000000e+03) (164, 1.50000000000000000000e+03) (165, 1.50000000000000000000e+03) (166, 1.50000000000000000000e+03) (167, 1.50000000000000000000e+03) (168, 1.50000000000000000000e+03) (169, 1.50000000000000000000e+03) (170, -1.19804992675781250000e+03) (171, -1.48133764648437500000e+03) (172, -1.48133764648437500000e+03) (173, -1.04169470214843750000e+03) (174, -9.09360290527343750000e+02) (175, -5.65247192382812500000e+02) (176, -1.11719934082031250000e+03) (177, -1.12429956054687500000e+03) (178, -1.45274975585937500000e+03) (179, -1.50000000000000000000e+03) (180, 1.50000000000000000000e+03) (181, 1.50000000000000000000e+03) (182, 1.50000000000000000000e+03) (183, 1.50000000000000000000e+03) (184, 1.50000000000000000000e+03) (185, 1.50000000000000000000e+03) (186, 1.50000000000000000000e+03) (187, 1.50000000000000000000e+03) (188, 1.50000000000000000000e+03) (189, 1.50000000000000000000e+03) (190, -1.02320458984375000000e+03) (191, -1.50000000000000000000e+03) (192, -1.48133764648437500000e+03) (193, -1.04169470214843750000e+03) (194, -9.68190551757812500000e+02) (195, -1.28504443359375000000e+03) (196, -1.46094384765625000000e+03) (197, -1.25480004882812500000e+03) (198, -1.03972631835937500000e+03) (199, -1.45164318847656250000e+03) (200, 1.50000000000000000000e+03) (201, 1.49775366210937500000e+03) (202, 1.50000000000000000000e+03) (203, 1.50000000000000000000e+03) (204, 1.50000000000000000000e+03) (205, 1.50000000000000000000e+03) (206, 1.50000000000000000000e+03) (207, 1.50000000000000000000e+03) (208, 1.50000000000000000000e+03) (209, 1.49749633789062500000e+03) (210, -1.50000000000000000000e+03) (211, -1.50000000000000000000e+03) (212, -1.50000000000000000000e+03) (213, -1.48133764648437500000e+03) (214, -1.46094384765625000000e+03) (215, -1.05058178710937500000e+03) (216, -7.88355590820312500000e+02) (217, -1.20580004882812500000e+03) (218, -1.28095520019531250000e+03) (219, -1.50000000000000000000e+03) (220, 1.50000000000000000000e+03) (221, 1.49775366210937500000e+03) (222, 1.50000000000000000000e+03) (223, 1.50000000000000000000e+03) (224, 1.50000000000000000000e+03) (225, 1.50000000000000000000e+03) (226, 1.50000000000000000000e+03) (227, 1.50000000000000000000e+03) (228, 1.50000000000000000000e+03) (229, 1.50000000000000000000e+03) (230, 1.35883496093750000000e+03) (231, 1.38635937500000000000e+03) (232, 1.32142993164062500000e+03) (233, -1.32968664550781250000e+03) (234, 9.40028808593750000000e+02) (235, 1.48500000000000000000e+03) (236, 1.13167224121093750000e+03) (237, 1.21730358886718750000e+03) (238, 1.21730358886718750000e+03) (239, 3.17068023681640625000e+02) (240, 1.50000000000000000000e+03) (241, 1.50000000000000000000e+03) (242, 1.50000000000000000000e+03) (243, 1.50000000000000000000e+03) (244, 1.50000000000000000000e+03) (245, 1.50000000000000000000e+03) (246, 1.50000000000000000000e+03) (247, 1.50000000000000000000e+03) (248, 1.50000000000000000000e+03) (249, 1.50000000000000000000e+03) (250, 1.50000000000000000000e+03) (251, 1.50000000000000000000e+03) (252, 1.50000000000000000000e+03) (253, 1.50000000000000000000e+03) (254, 1.50000000000000000000e+03) (255, 1.49749633789062500000e+03) (256, 1.10358105468750000000e+03) (257, 1.41014514160156250000e+03) (258, 4.85495605468750000000e+02) (259, 3.25328292846679687500e+01) (260, 1.50000000000000000000e+03) (261, 1.50000000000000000000e+03) (262, 1.50000000000000000000e+03) (263, 1.50000000000000000000e+03) (264, 1.50000000000000000000e+03) (265, 1.50000000000000000000e+03) (266, 1.50000000000000000000e+03) (267, 1.50000000000000000000e+03) (268, 1.50000000000000000000e+03) (269, 1.50000000000000000000e+03) (270, 1.50000000000000000000e+03) (271, 9.15081298828125000000e+02) (272, 1.20510827636718750000e+03) (273, 1.47020104980468750000e+03) (274, 1.50000000000000000000e+03) (275, 1.49749633789062500000e+03) (276, 1.10358105468750000000e+03) (277, 1.19894189453125000000e+03) (278, 4.07332794189453125000e+02) (279, 3.92569541931152343750e-01) (280, 1.50000000000000000000e+03) (281, 1.50000000000000000000e+03) (282, 1.50000000000000000000e+03) (283, 1.50000000000000000000e+03) (284, 1.50000000000000000000e+03) (285, 1.50000000000000000000e+03) (286, 1.50000000000000000000e+03) (287, 1.50000000000000000000e+03) (288, 1.50000000000000000000e+03) (289, 1.50000000000000000000e+03) (290, 1.50000000000000000000e+03) (291, 1.50000000000000000000e+03) (292, 1.50000000000000000000e+03) (293, 1.49420458984375000000e+03) (294, 1.49749633789062500000e+03) (295, 1.47680358886718750000e+03) (296, 1.10358105468750000000e+03) (297, 9.02375976562500000000e+02) (298, 7.74439453125000000000e+02) (299, 4.68549011230468750000e+02) (300, 1.50000000000000000000e+03) (301, 1.50000000000000000000e+03) (302, 1.50000000000000000000e+03) (303, 1.50000000000000000000e+03) (304, 1.50000000000000000000e+03) (305, 1.50000000000000000000e+03) (306, 1.50000000000000000000e+03) (307, 1.50000000000000000000e+03) (308, 1.50000000000000000000e+03) (309, 1.50000000000000000000e+03) (310, 1.50000000000000000000e+03) (311, 1.50000000000000000000e+03) (312, 1.10076220703125000000e+03) (313, -1.20339282226562500000e+03) (314, 1.50000000000000000000e+03) (315, 1.50000000000000000000e+03) (316, 1.29525048828125000000e+03) (317, 1.21472290039062500000e+03) (318, 8.30709106445312500000e+02) (319, 6.16107604980468750000e+02) (320, 1.50000000000000000000e+03) (321, 1.50000000000000000000e+03) (322, 1.50000000000000000000e+03) (323, 1.50000000000000000000e+03) (324, 1.50000000000000000000e+03) (325, 1.50000000000000000000e+03) (326, 1.49775366210937500000e+03) (327, 1.50000000000000000000e+03) (328, 1.50000000000000000000e+03) (329, 1.50000000000000000000e+03) (330, 1.50000000000000000000e+03) (331, 1.50000000000000000000e+03) (332, 1.49998034667968750000e+03) (333, 1.27860852050781250000e+03) (334, 1.47068676757812500000e+03) (335, 1.37977758789062500000e+03) (336, 1.50000000000000000000e+03) (337, 1.45634411621093750000e+03) (338, 1.33700085449218750000e+03) (339, 6.16107604980468750000e+02) (340, 1.50000000000000000000e+03) (341, 1.49553906250000000000e+03) (342, 1.49775366210937500000e+03) (343, 1.49775366210937500000e+03) (344, 1.49410424804687500000e+03) (345, 1.43129760742187500000e+03) (346, 1.44089624023437500000e+03) (347, 1.30317712402343750000e+03) (348, 1.48960034179687500000e+03) (349, 1.23966210937500000000e+03) (350, -1.40553552246093750000e+03) (351, -1.37840002441406250000e+03) (352, -1.03520007324218750000e+03) (353, 1.50000000000000000000e+03) (354, 1.50000000000000000000e+03) (355, 1.50000000000000000000e+03) (356, 1.50000000000000000000e+03) (357, 1.50000000000000000000e+03) (358, 1.40149621582031250000e+03) (359, 1.37889379882812500000e+03) (360, 1.50000000000000000000e+03) (361, 1.40481823730468750000e+03) (362, 1.49553906250000000000e+03) (363, 1.49410424804687500000e+03) (364, 1.49410424804687500000e+03) (365, 1.24164965820312500000e+03) (366, 1.28210351562500000000e+03) (367, 1.06118835449218750000e+03) (368, 1.02847412109375000000e+03) (369, 1.47351916503906250000e+03) (370, -1.15649645996093750000e+03) (371, -1.34658862304687500000e+03) (372, -1.08410107421875000000e+03) (373, 4.47857482910156250000e+02) (374, 1.50000000000000000000e+03) (375, 1.50000000000000000000e+03) (376, 1.50000000000000000000e+03) (377, 1.50000000000000000000e+03) (378, 1.48402001953125000000e+03) (379, 1.24461010742187500000e+03) (380, 1.34386853027343750000e+03) (381, 1.44816003417968750000e+03) (382, 1.34493542480468750000e+03) (383, 4.01744445800781250000e+02) (384, 4.01744445800781250000e+02) (385, 1.28049255371093750000e+03) (386, 1.33332592773437500000e+03) (387, 1.30010217285156250000e+03) (388, -1.48802575683593750000e+03) (389, -1.48802575683593750000e+03) (390, -1.47500000000000000000e+03) (391, -1.47500000000000000000e+03) (392, -3.55061401367187500000e+02) (393, -4.50840942382812500000e+02) (394, -7.20244750976562500000e+01) (395, 1.50000000000000000000e+03) (396, 1.50000000000000000000e+03) (397, 1.50000000000000000000e+03) (398, 1.50000000000000000000e+03) (399, 1.50000000000000000000e+03) (400, 1.34386853027343750000e+03) (401, 6.44572937011718750000e+02) (402, 2.74334899902343750000e+02) (403, 2.74334899902343750000e+02) (404, 1.58534912109375000000e+02) (405, 3.65407470703125000000e+02) (406, -5.73338623046875000000e+02) (407, -1.50000000000000000000e+03) (408, -1.50000000000000000000e+03) (409, -1.50000000000000000000e+03) (410, -1.50000000000000000000e+03) (411, -1.47500000000000000000e+03) (412, -1.06211669921875000000e+03) (413, -4.50840942382812500000e+02) (414, -3.74317749023437500000e+02) (415, 1.50000000000000000000e+03) (416, 1.50000000000000000000e+03) (417, 1.50000000000000000000e+03) (418, 1.50000000000000000000e+03) (419, 1.50000000000000000000e+03) (420, 1.46855895996093750000e+03) (421, 2.72339294433593750000e+02) (422, 1.16232360839843750000e+02) (423, 2.74334899902343750000e+02) (424, 2.74334899902343750000e+02) (425, 3.38838745117187500000e+02) (426, -3.00499145507812500000e+02) (427, -1.50000000000000000000e+03) (428, -1.50000000000000000000e+03) (429, -1.50000000000000000000e+03) (430, -1.50000000000000000000e+03) (431, -1.47500000000000000000e+03) (432, -3.55061401367187500000e+02) (433, -3.32136352539062500000e+02) (434, -3.37597656250000000000e+02) (435, 1.50000000000000000000e+03) (436, 1.50000000000000000000e+03) (437, 1.50000000000000000000e+03) (438, 1.50000000000000000000e+03) (439, 1.50000000000000000000e+03) (440, 1.50000000000000000000e+03) (441, 9.85492187500000000000e+02) (442, 1.16232360839843750000e+02) (443, 2.74334899902343750000e+02) (444, 2.74334899902343750000e+02) (445, 5.91775512695312500000e+02) (446, -2.56417236328125000000e+02) (447, -1.50000000000000000000e+03) (448, -1.50000000000000000000e+03) (449, -1.50000000000000000000e+03) (450, -1.50000000000000000000e+03) (451, -1.12889611816406250000e+03) (452, -5.28480957031250000000e+02) (453, 1.79754638671875000000e+01) (454, 1.50000000000000000000e+03) (455, 1.50000000000000000000e+03) (456, 1.50000000000000000000e+03) (457, 1.50000000000000000000e+03) (458, 1.50000000000000000000e+03) (459, 1.50000000000000000000e+03) (460, 1.36845788574218750000e+03) (461, 4.06945800781250000000e+01) (462, 6.59285949707031250000e+02) (463, 3.90134948730468750000e+02) (464, 3.90134948730468750000e+02) (465, 3.38838745117187500000e+02) (466, -4.92460083007812500000e+02) (467, -1.50000000000000000000e+03) (468, -1.50000000000000000000e+03) (469, -1.50000000000000000000e+03) (470, -1.47500000000000000000e+03) (471, -1.07555371093750000000e+03) (472, -6.08405883789062500000e+02) (473, 8.12949462890625000000e+02) (474, 1.44166320800781250000e+03) (475, 1.50000000000000000000e+03) (476, 1.50000000000000000000e+03) (477, 1.50000000000000000000e+03) (478, 1.50000000000000000000e+03) (479, 1.50000000000000000000e+03) (480, 5.17170349121093750000e+02) (481, -1.04304980468750000000e+03) (482, 7.04285766601562500000e+02) (483, 4.02802551269531250000e+02) (484, 4.02802551269531250000e+02) (485, 3.98705627441406250000e+02) (486, 1.09517639160156250000e+02) (487, -9.93009872436523437500e+01) (488, -1.40835205078125000000e+03) (489, -4.57356384277343750000e+02) (490, -4.69101074218750000000e+02) (491, -6.02865722656250000000e+02) (492, -2.72351074218750000000e+01) (493, 1.50000000000000000000e+03) (494, 1.50000000000000000000e+03) (495, 1.50000000000000000000e+03) (496, 1.50000000000000000000e+03) (497, 1.50000000000000000000e+03) (498, 1.50000000000000000000e+03) (499, 1.50000000000000000000e+03) (500, -6.46838378906250000000e+01) (501, -1.27296789550781250000e+03) (502, -1.42134558105468750000e+03) (503, -1.38973779296875000000e+03) (504, -1.37155456542968750000e+03) (505, -5.65381408691406250000e+02) (506, 3.96121673583984375000e+02) (507, 5.05033935546875000000e+02) (508, 2.34554489135742187500e+02) (509, 9.26740844726562500000e+02) (510, -1.39732165527343750000e+03) (511, -1.42963964843750000000e+03) (512, -1.33172912597656250000e+03) (513, -1.29564453125000000000e+03) (514, -1.29183068847656250000e+03) (515, -1.37360485839843750000e+03) (516, -1.45606225585937500000e+03) (517, -1.45688977050781250000e+03) (518, 3.70253173828125000000e+02) (519, -1.09401025390625000000e+03) (520, -7.82122680664062500000e+02) (521, -1.18309631347656250000e+03) (522, 2.08614608764648437500e+02) (523, -1.03850842285156250000e+03) (524, -1.10750378417968750000e+03) (525, -1.28788403320312500000e+03) (526, 1.04401086425781250000e+03) (527, 4.86463531494140625000e+02) (528, 1.50928405761718750000e+02) (529, 4.28459899902343750000e+02) (530, -1.04557543945312500000e+03) (531, -1.41868872070312500000e+03) (532, -1.39453100585937500000e+03) (533, -1.14658007812500000000e+03) (534, -1.38479235839843750000e+03) (535, -8.61526733398437500000e+02) (536, -1.39158935546875000000e+03) (537, -1.40359313964843750000e+03) (538, -1.40835205078125000000e+03) (539, -1.40835205078125000000e+03) (540, -1.17545593261718750000e+03) (541, -1.34645251464843750000e+03) (542, -1.30305749511718750000e+03) (543, 1.37782135009765625000e+02) (544, -8.94844360351562500000e+02) (545, -8.67734252929687500000e+02) (546, -1.42445520019531250000e+03) (547, 9.40888793945312500000e+02) (548, -1.08856941223144531250e+02) (549, -9.31706787109375000000e+02) (550, -1.30066003417968750000e+03) (551, -1.34526281738281250000e+03) (552, -4.40402679443359375000e+02) (553, 1.24474624633789062500e+02) (554, 4.61733795166015625000e+02) (555, -1.47157165527343750000e+03) (556, -1.43198718261718750000e+03) (557, -1.40359313964843750000e+03) (558, -1.40835205078125000000e+03) (559, -1.42070446777343750000e+03) (560, -1.40000000000000000000e+03) (561, -1.29090295410156250000e+03) (562, -1.34754821777343750000e+03) (563, 1.30287316894531250000e+03) (564, 4.34960540771484375000e+02) (565, -1.48910644531250000000e+03) (566, -6.35845397949218750000e+02) (567, -1.22010034179687500000e+03) (568, -6.72370788574218750000e+02) (569, -6.42441772460937500000e+02) (570, -1.34901965332031250000e+03) (571, -1.35603857421875000000e+03) (572, -1.48944433593750000000e+03) (573, -7.86836975097656250000e+02) (574, -1.33692810058593750000e+03) (575, -1.43198718261718750000e+03) (576, -1.38986718750000000000e+03) (577, -1.42070446777343750000e+03) (578, -1.43232800292968750000e+03) (579, -1.45646716308593750000e+03) (580, -1.50000000000000000000e+03) (581, -1.50000000000000000000e+03) (582, -1.50000000000000000000e+03) (583, -1.17870300292968750000e+03) (584, -4.58813354492187500000e+02) (585, -1.08400646972656250000e+03) (586, -1.15852038574218750000e+03) (587, -2.27801635742187500000e+02) (588, -3.80522033691406250000e+02) (589, -2.98638732910156250000e+02) (590, -1.37950964355468750000e+03) (591, -1.37309033203125000000e+03) (592, -1.49469458007812500000e+03) (593, -1.50000000000000000000e+03) (594, -1.43198718261718750000e+03) (595, -1.50000000000000000000e+03) (596, -1.50000000000000000000e+03) (597, -1.50000000000000000000e+03) (598, -1.50000000000000000000e+03) (599, -1.45646716308593750000e+03) (600, 9.59731674194335937500e+00) (0, 1.27428184509277343750e+02) (1, 3.32340209960937500000e+02) (2, -1.99456665039062500000e+02) (3, -1.11580004882812500000e+03) (4, -1.16580004882812500000e+03) (5, 7.65167297363281250000e+02) (6, 1.20259997558593750000e+03) (7, 1.50000000000000000000e+03) (8, 1.50000000000000000000e+03) (9, 1.50000000000000000000e+03) (10, 1.50000000000000000000e+03) (11, 1.50000000000000000000e+03) (12, 1.47599096679687500000e+03) (13, -1.02137573242187500000e+03) (14, -9.75466979980468750000e+02) (15, -1.23315539550781250000e+03) (16, -1.40080676269531250000e+03) (17, -5.94726623535156250000e+02) (18, -6.63436584472656250000e+02) (19, 1.13205310058593750000e+03) (20, -1.50000000000000000000e+03) (21, -1.50000000000000000000e+03) (22, -1.47500000000000000000e+03) (23, -1.40900000000000000000e+03) (24, -1.41523999023437500000e+03) (25, -1.44500000000000000000e+03) (26, -1.42137597656250000000e+03) (27, -1.44500000000000000000e+03) (28, -5.38821411132812500000e+02) (29, -1.47375451660156250000e+03) (30, -1.48821081542968750000e+03) (31, -4.61772094726562500000e+02) (32, 9.86708374023437500000e+01) (33, -9.32038513183593750000e+02) (34, -1.47624218750000000000e+03) (35, -1.48798278808593750000e+03) (36, -8.57927307128906250000e+02) (37, -1.12648046875000000000e+03) (38, -1.20738586425781250000e+03) (39, -5.88834350585937500000e+02) (40, -1.50000000000000000000e+03) (41, -1.44500000000000000000e+03) (42, -1.43028796386718750000e+03) (43, -1.43028796386718750000e+03) (44, -1.37328796386718750000e+03) (45, -1.42137597656250000000e+03) (46, -1.44500000000000000000e+03) (47, -1.37328796386718750000e+03) (48, -1.49388049316406250000e+03) (49, -1.49388049316406250000e+03) (50, -1.49587731933593750000e+03) (51, -1.44558312988281250000e+03) (52, 1.42260607910156250000e+03) (53, 1.59126266479492187500e+02) (54, -6.71090881347656250000e+02) (55, -1.49150085449218750000e+03) (56, -1.48362622070312500000e+03) (57, -1.48925915527343750000e+03) (58, -1.48798278808593750000e+03) (59, -1.47920056152343750000e+03) (60, -1.50000000000000000000e+03) (61, -1.37328796386718750000e+03) (62, -1.44924255371093750000e+03) (63, -1.37328796386718750000e+03) (64, -1.37328796386718750000e+03) (65, -1.37818212890625000000e+03) (66, -1.49118798828125000000e+03) (67, -1.49632824707031250000e+03) (68, -1.49587731933593750000e+03) (69, -1.49587731933593750000e+03) (70, -2.43129837036132812500e+02) (71, 8.62882751464843750000e+02) (72, 3.49880187988281250000e+02) (73, 1.01529534912109375000e+03) (74, 1.16544775390625000000e+03) (75, -1.46225634765625000000e+03) (76, -1.49393994140625000000e+03) (77, -1.49399145507812500000e+03) (78, -1.48658483886718750000e+03) (79, -1.47500000000000000000e+03) (80, -1.47500000000000000000e+03) (81, -1.31951574707031250000e+03) (82, -1.40405053710937500000e+03) (83, -1.37328796386718750000e+03) (84, -1.44924255371093750000e+03) (85, -1.37818212890625000000e+03) (86, -1.49118798828125000000e+03) (87, -1.49632824707031250000e+03) (88, -1.49312890625000000000e+03) (89, -1.49587731933593750000e+03) (90, -6.24703674316406250000e+02) (91, -6.77248596191406250000e+02) (92, -1.80490982055664062500e+02) (93, 1.30538806152343750000e+03) (94, 8.34631195068359375000e+01) (95, -1.43333874511718750000e+03) (96, -1.48545593261718750000e+03) (97, -1.49571582031250000000e+03) (98, -1.48658483886718750000e+03) (99, -1.47500000000000000000e+03) (100, -1.40208837890625000000e+03) (101, -1.42952355957031250000e+03) (102, -1.46910839843750000000e+03) (103, 3.65604461669921875000e+02) (104, -5.31868286132812500000e+02) (105, -1.42382678222656250000e+03) (106, -1.42382678222656250000e+03) (107, -1.49587731933593750000e+03) (108, -1.43404736328125000000e+03) (109, -1.46672583007812500000e+03) (110, 1.39898956298828125000e+02) (111, 1.49885034179687500000e+03) (112, 1.46910778808593750000e+03) (113, 1.46012402343750000000e+03) (114, -1.43923889160156250000e+03) (115, -1.46038500976562500000e+03) (116, -1.49115563964843750000e+03) (117, -1.48531311035156250000e+03) (118, -1.49399145507812500000e+03) (119, -1.49401086425781250000e+03) (120, 1.50000000000000000000e+03) (121, 1.50000000000000000000e+03) (122, 1.50000000000000000000e+03) (123, 1.50000000000000000000e+03) (124, 1.50000000000000000000e+03) (125, 1.49961157226562500000e+03) (126, 1.49894079589843750000e+03) (127, 1.49894079589843750000e+03) (128, 1.50000000000000000000e+03) (129, 1.50000000000000000000e+03) (130, 1.50000000000000000000e+03) (131, 1.50000000000000000000e+03) (132, 1.50000000000000000000e+03) (133, -3.50308456420898437500e+01) (134, -8.31189086914062500000e+02) (135, -1.36705615234375000000e+03) (136, -1.43124023437500000000e+03) (137, -1.49115563964843750000e+03) (138, -1.48362622070312500000e+03) (139, -1.48362622070312500000e+03) (140, 1.50000000000000000000e+03) (141, 1.50000000000000000000e+03) (142, 1.50000000000000000000e+03) (143, 1.50000000000000000000e+03) (144, 1.50000000000000000000e+03) (145, 1.49878466796875000000e+03) (146, 1.45542602539062500000e+03) (147, 1.47810400390625000000e+03) (148, 1.50000000000000000000e+03) (149, 1.50000000000000000000e+03) (150, 1.50000000000000000000e+03) (151, 1.50000000000000000000e+03) (152, 1.50000000000000000000e+03) (153, 1.50000000000000000000e+03) (154, 8.36544067382812500000e+02) (155, -7.95179443359375000000e+02) (156, -1.01675787353515625000e+03) (157, -1.04380627441406250000e+03) (158, -1.48367321777343750000e+03) (159, -1.47500000000000000000e+03) (160, 1.50000000000000000000e+03) (161, 1.49961157226562500000e+03) (162, 1.50000000000000000000e+03) (163, 1.50000000000000000000e+03) (164, 1.50000000000000000000e+03) (165, 1.50000000000000000000e+03) (166, 1.49401538085937500000e+03) (167, 1.49401538085937500000e+03) (168, 1.49780578613281250000e+03) (169, 1.50000000000000000000e+03) (170, 1.50000000000000000000e+03) (171, 1.50000000000000000000e+03) (172, 1.50000000000000000000e+03) (173, 1.50000000000000000000e+03) (174, 4.52760406494140625000e+02) (175, -7.39315795898437500000e+00) (176, -1.42771484375000000000e+03) (177, -1.37667846679687500000e+03) (178, -1.46081567382812500000e+03) (179, -1.47500000000000000000e+03) (180, 1.50000000000000000000e+03) (181, 1.50000000000000000000e+03) (182, 1.50000000000000000000e+03) (183, 1.50000000000000000000e+03) (184, 1.50000000000000000000e+03) (185, 1.50000000000000000000e+03) (186, 1.49750659179687500000e+03) (187, 1.49750659179687500000e+03) (188, 1.50000000000000000000e+03) (189, 1.50000000000000000000e+03) (190, 1.50000000000000000000e+03) (191, 1.50000000000000000000e+03) (192, 1.50000000000000000000e+03) (193, 9.85863159179687500000e+02) (194, 4.52760406494140625000e+02) (195, -1.24246936035156250000e+03) (196, -1.11151257324218750000e+03) (197, -8.02304809570312500000e+02) (198, -1.40504833984375000000e+03) (199, -1.44500000000000000000e+03) (200, 1.50000000000000000000e+03) (201, 1.50000000000000000000e+03) (202, 1.49961157226562500000e+03) (203, 1.50000000000000000000e+03) (204, 1.50000000000000000000e+03) (205, 1.50000000000000000000e+03) (206, 1.50000000000000000000e+03) (207, 1.48827685546875000000e+03) (208, 1.50000000000000000000e+03) (209, 1.50000000000000000000e+03) (210, 1.50000000000000000000e+03) (211, 1.50000000000000000000e+03) (212, 1.50000000000000000000e+03) (213, -1.38131311035156250000e+03) (214, -2.31355224609375000000e+02) (215, -1.43411755371093750000e+03) (216, -1.42899182128906250000e+03) (217, -1.37816430664062500000e+03) (218, -1.46479809570312500000e+03) (219, -1.47356213378906250000e+03) (220, 1.50000000000000000000e+03) (221, 1.50000000000000000000e+03) (222, 1.50000000000000000000e+03) (223, 1.50000000000000000000e+03) (224, 1.50000000000000000000e+03) (225, 1.50000000000000000000e+03) (226, 1.49850378417968750000e+03) (227, 1.49760839843750000000e+03) (228, 1.49713024902343750000e+03) (229, 1.49737475585937500000e+03) (230, 1.49296203613281250000e+03) (231, 1.44225305175781250000e+03) (232, 1.49918383789062500000e+03) (233, 5.67304748535156250000e+02) (234, -1.47897839355468750000e+03) (235, -5.48694885253906250000e+02) (236, -1.45401379394531250000e+03) (237, -7.88079956054687500000e+02) (238, -1.19642749023437500000e+03) (239, -1.39825256347656250000e+03) (240, 1.50000000000000000000e+03) (241, 1.50000000000000000000e+03) (242, 1.50000000000000000000e+03) (243, 1.50000000000000000000e+03) (244, 1.50000000000000000000e+03) (245, 1.50000000000000000000e+03) (246, 1.49953442382812500000e+03) (247, 1.48821362304687500000e+03) (248, 1.36826733398437500000e+03) (249, 1.36826733398437500000e+03) (250, 1.46959606933593750000e+03) (251, 1.49913952636718750000e+03) (252, 2.05884613037109375000e+02) (253, -4.86755462646484375000e+02) (254, 6.92311645507812500000e+02) (255, -1.17641027832031250000e+03) (256, -1.14066748046875000000e+03) (257, -8.63664672851562500000e+02) (258, -7.44405090332031250000e+02) (259, -1.38041552734375000000e+03) (260, 1.50000000000000000000e+03) (261, 1.50000000000000000000e+03) (262, 1.50000000000000000000e+03) (263, 1.50000000000000000000e+03) (264, 1.50000000000000000000e+03) (265, 1.50000000000000000000e+03) (266, 1.50000000000000000000e+03) (267, 1.49988330078125000000e+03) (268, 1.36826733398437500000e+03) (269, 1.45955285644531250000e+03) (270, 1.49950793457031250000e+03) (271, 1.49848767089843750000e+03) (272, 1.52629135131835937500e+02) (273, 2.30338989257812500000e+02) (274, 1.35478039550781250000e+03) (275, -3.72899139404296875000e+02) (276, -1.40986303710937500000e+03) (277, 3.57464942932128906250e+01) (278, -7.12403320312500000000e+02) (279, -1.25495214843750000000e+03) (280, 1.50000000000000000000e+03) (281, 1.50000000000000000000e+03) (282, 1.50000000000000000000e+03) (283, 1.50000000000000000000e+03) (284, 1.50000000000000000000e+03) (285, 1.50000000000000000000e+03) (286, 1.50000000000000000000e+03) (287, 1.50000000000000000000e+03) (288, 1.49084338378906250000e+03) (289, 1.49084338378906250000e+03) (290, 1.44604797363281250000e+03) (291, 1.49728063964843750000e+03) (292, 1.47839819335937500000e+03) (293, -2.97210968017578125000e+02) (294, -1.45376159667968750000e+03) (295, -1.41548620605468750000e+03) (296, 1.49999987792968750000e+03) (297, 1.49999475097656250000e+03) (298, 1.39249243164062500000e+03) (299, -4.94858856201171875000e+02) (300, 1.50000000000000000000e+03) (301, 1.50000000000000000000e+03) (302, 1.50000000000000000000e+03) (303, 1.50000000000000000000e+03) (304, 1.50000000000000000000e+03) (305, 1.50000000000000000000e+03) (306, 1.50000000000000000000e+03) (307, 1.50000000000000000000e+03) (308, 1.49564672851562500000e+03) (309, 1.49707763671875000000e+03) (310, 1.48687939453125000000e+03) (311, 4.44315002441406250000e+02) (312, 3.34018951416015625000e+02) (313, -9.16372802734375000000e+02) (314, 4.47189544677734375000e+02) (315, 1.41631362915039062500e+02) (316, 1.50000000000000000000e+03) (317, 1.50000000000000000000e+03) (318, 1.49979943847656250000e+03) (319, 1.49975012207031250000e+03) (320, 1.23028234863281250000e+03) (321, 1.50000000000000000000e+03) (322, 1.50000000000000000000e+03) (323, 1.37791247558593750000e+03) (324, 3.94625122070312500000e+02) (325, 1.50000000000000000000e+03) (326, 1.50000000000000000000e+03) (327, 1.50000000000000000000e+03) (328, 1.50000000000000000000e+03) (329, -7.15166992187500000000e+02) (330, -1.20265087890625000000e+03) (331, 2.77053375244140625000e+02) (332, 9.65203094482421875000e+00) (333, 1.33385791015625000000e+03) (334, 1.10085037231445312500e+02) (335, 3.06173038482666015625e+01) (336, 2.74601837158203125000e+02) (337, -2.07021835327148437500e+02) (338, 1.43484899902343750000e+03) (339, 1.49700378417968750000e+03) (340, 1.48472094726562500000e+03) (341, 1.50000000000000000000e+03) (342, 1.50000000000000000000e+03) (343, 1.50000000000000000000e+03) (344, 1.50000000000000000000e+03) (345, 1.50000000000000000000e+03) (346, 8.28842712402343750000e+02) (347, -1.10794506835937500000e+03) (348, 1.31135168457031250000e+03) (349, 3.26935821533203125000e+02) (350, -1.84936828613281250000e+02) (351, -1.38284033203125000000e+03) (352, -1.44603723144531250000e+03) (353, 1.49929589843750000000e+03) (354, 1.49904809570312500000e+03) (355, 1.49882397460937500000e+03) (356, 1.49903063964843750000e+03) (357, 1.48421569824218750000e+03) (358, 1.49996606445312500000e+03) (359, 1.49953442382812500000e+03) (360, 1.50000000000000000000e+03) (361, 1.50000000000000000000e+03) (362, 1.50000000000000000000e+03) (363, 1.50000000000000000000e+03) (364, 1.50000000000000000000e+03) (365, 1.50000000000000000000e+03) (366, 1.30862255859375000000e+03) (367, 2.33342514038085937500e+02) (368, -7.87367004394531250000e+02) (369, 7.58741027832031250000e+02) (370, 1.53026916503906250000e+02) (371, -1.43926464843750000000e+03) (372, -1.43202526855468750000e+03) (373, 1.30170361328125000000e+03) (374, 1.47982470703125000000e+03) (375, 1.34251342773437500000e+03) (376, 1.46411535644531250000e+03) (377, 1.13501367187500000000e+03) (378, 1.49545446777343750000e+03) (379, 1.49964416503906250000e+03) (380, 1.50000000000000000000e+03) (381, 1.50000000000000000000e+03) (382, 1.50000000000000000000e+03) (383, 1.50000000000000000000e+03) (384, 1.50000000000000000000e+03) (385, -1.23707690429687500000e+03) (386, 1.49756457519531250000e+03) (387, 1.49129577636718750000e+02) (388, 1.50000000000000000000e+03) (389, 1.03291467285156250000e+03) (390, 1.50000000000000000000e+03) (391, 1.41776538085937500000e+03) (392, -1.95083770751953125000e+01) (393, -3.55053291320800781250e+01) (394, 1.42291845703125000000e+03) (395, 1.49788708496093750000e+03) (396, 1.49903942871093750000e+03) (397, 1.50000000000000000000e+03) (398, 1.50000000000000000000e+03) (399, 1.50000000000000000000e+03) (400, 1.10355371093750000000e+03) (401, 1.49927832031250000000e+03) (402, 1.49549145507812500000e+03) (403, 1.63768737792968750000e+02) (404, 1.49216052246093750000e+03) (405, -6.37918945312500000000e+02) (406, 5.36552734375000000000e+02) (407, 8.75817108154296875000e+01) (408, 1.33340380859375000000e+03) (409, 1.41579528808593750000e+03) (410, 1.15641394042968750000e+03) (411, 1.50000000000000000000e+03) (412, 9.77565856933593750000e+02) (413, 1.50000000000000000000e+03) (414, 1.49863623046875000000e+03) (415, 1.32301269531250000000e+03) (416, 1.50000000000000000000e+03) (417, 1.50000000000000000000e+03) (418, 1.50000000000000000000e+03) (419, 1.50000000000000000000e+03) (420, 1.50000000000000000000e+03) (421, 1.49905419921875000000e+03) (422, 1.49783300781250000000e+03) (423, 1.07049291992187500000e+03) (424, 4.85188934326171875000e+02) (425, -1.06580224609375000000e+03) (426, -6.39387451171875000000e+02) (427, -7.97006591796875000000e+02) (428, 1.32216589355468750000e+03) (429, 1.14473083496093750000e+03) (430, 8.39566345214843750000e+02) (431, 7.83038818359375000000e+02) (432, 1.50000000000000000000e+03) (433, 1.50000000000000000000e+03) (434, 1.50000000000000000000e+03) (435, 1.00428118896484375000e+03) (436, -4.33283233642578125000e+02) (437, 1.50000000000000000000e+03) (438, 1.50000000000000000000e+03) (439, 1.50000000000000000000e+03) (440, 1.50000000000000000000e+03) (441, 1.49965246582031250000e+03) (442, 1.32675463867187500000e+03) (443, -6.63354721069335937500e+01) (444, -1.29748327636718750000e+03) (445, -1.15440759277343750000e+03) (446, -7.82716979980468750000e+02) (447, -6.83362426757812500000e+02) (448, 5.74074951171875000000e+02) (449, 1.11738537597656250000e+03) (450, -7.54676696777343750000e+02) (451, 8.15616638183593750000e+02) (452, 1.50000000000000000000e+03) (453, 1.50000000000000000000e+03) (454, 6.04255004882812500000e+02) (455, 1.50000000000000000000e+03) (456, 1.50000000000000000000e+03) (457, 1.50000000000000000000e+03) (458, 1.50000000000000000000e+03) (459, 1.50000000000000000000e+03) (460, -1.11340808105468750000e+03) (461, -4.22660369873046875000e+01) (462, 1.49822778320312500000e+03) (463, 3.45854553222656250000e+02) (464, -5.81610595703125000000e+02) (465, -9.95461486816406250000e+02) (466, 9.54378051757812500000e+02) (467, -8.28180618286132812500e+01) (468, 7.59763549804687500000e+02) (469, 1.12195300292968750000e+03) (470, -2.31820053100585937500e+02) (471, 1.31221313476562500000e+03) (472, 1.13620458984375000000e+03) (473, 1.50000000000000000000e+03) (474, 1.50000000000000000000e+03) (475, 1.50000000000000000000e+03) (476, 1.50000000000000000000e+03) (477, 1.50000000000000000000e+03) (478, 1.50000000000000000000e+03) (479, 1.50000000000000000000e+03) (480, -1.58858673095703125000e+02) (481, 1.49050634765625000000e+03) (482, -6.39046142578125000000e+02) (483, -8.35390502929687500000e+02) (484, -1.10725842285156250000e+03) (485, 2.81817932128906250000e+02) (486, -1.25329882812500000000e+03) (487, -1.35770764160156250000e+03) (488, 4.45311164855957031250e+01) (489, 1.49788964843750000000e+03) (490, 2.37109481811523437500e+02) (491, 6.45612365722656250000e+02) (492, -1.09383959960937500000e+03) (493, 4.60489807128906250000e+02) (494, 1.19461022949218750000e+03) (495, 1.50000000000000000000e+03) (496, 1.50000000000000000000e+03) (497, 1.50000000000000000000e+03) (498, 1.49612463378906250000e+03) (499, 1.49838537597656250000e+03) (500, -1.44500000000000000000e+03) (501, -7.95048950195312500000e+02) (502, 4.45345001220703125000e+02) (503, 6.86424316406250000000e+02) (504, -7.06111083984375000000e+02) (505, -2.88566436767578125000e+02) (506, 3.24436309814453125000e+02) (507, 1.03859695434570312500e+02) (508, -1.20466845703125000000e+03) (509, 1.23630874633789062500e+02) (510, -1.01865698242187500000e+03) (511, 4.18237945556640625000e+02) (512, 1.27344482421875000000e+03) (513, 1.36994799804687500000e+03) (514, 1.49896142578125000000e+03) (515, 1.49862622070312500000e+03) (516, 1.49988073730468750000e+03) (517, 1.49997680664062500000e+03) (518, 1.49959838867187500000e+03) (519, 1.49994567871093750000e+03) (520, -1.44500000000000000000e+03) (521, -1.44500000000000000000e+03) (522, -4.35173187255859375000e+02) (523, 5.69658142089843750000e+02) (524, 6.80060913085937500000e+02) (525, 7.57100219726562500000e+02) (526, -1.37114465332031250000e+03) (527, -1.42382678222656250000e+03) (528, -1.49587731933593750000e+03) (529, -1.49587731933593750000e+03) (530, 1.20494241714477539062e+01) (531, 1.19426475524902343750e+02) (532, 9.92888610839843750000e+02) (533, 1.39245642089843750000e+03) (534, 1.49950585937500000000e+03) (535, 1.49989782714843750000e+03) (536, 1.49971081542968750000e+03) (537, 1.49981579589843750000e+03) (538, 1.49965673828125000000e+03) (539, 1.49969726562500000000e+03) (540, -1.44500000000000000000e+03) (541, -1.44500000000000000000e+03) (542, -1.39271496582031250000e+03) (543, -4.29261016845703125000e+02) (544, 4.96210876464843750000e+02) (545, 4.35021942138671875000e+02) (546, -2.76788055419921875000e+02) (547, -1.42625280761718750000e+03) (548, 4.86467559814453125000e+02) (549, 2.48695419311523437500e+02) (550, -2.37985260009765625000e+02) (551, 1.72117980957031250000e+02) (552, 1.07993872070312500000e+03) (553, 1.47567260742187500000e+03) (554, 1.49993701171875000000e+03) (555, 1.49993054199218750000e+03) (556, 1.49997253417968750000e+03) (557, 1.49999755859375000000e+03) (558, 1.49984143066406250000e+03) (559, 1.49978613281250000000e+03) (560, -1.44500000000000000000e+03) (561, -1.47500000000000000000e+03) (562, -1.40833959960937500000e+03) (563, -9.43926391601562500000e+02) (564, -2.95542388916015625000e+02) (565, -1.89456756591796875000e+02) (566, 5.46757278442382812500e+01) (567, 6.90679504394531250000e+02) (568, 2.20254760742187500000e+02) (569, 5.25055419921875000000e+02) (570, 1.19426475524902343750e+02) (571, 1.72117980957031250000e+02) (572, 1.08001550292968750000e+03) (573, 1.48994995117187500000e+03) (574, 1.49945849609375000000e+03) (575, 1.49997131347656250000e+03) (576, 1.49997375488281250000e+03) (577, 1.49999890136718750000e+03) (578, 1.49991638183593750000e+03) (579, 1.49991430664062500000e+03) (580, -1.41988659667968750000e+03) (581, -1.47500000000000000000e+03) (582, -1.47500000000000000000e+03) (583, -1.40833959960937500000e+03) (584, -1.40833959960937500000e+03) (585, -1.42137597656250000000e+03) (586, -1.44500000000000000000e+03) (587, -1.19747692871093750000e+03) (588, -6.75891784667968750000e+02) (589, 2.74838409423828125000e+02) (590, -1.40458953857421875000e+02) (591, -6.83620834350585937500e+01) (592, 1.31731945800781250000e+03) (593, 1.49269458007812500000e+03) (594, 1.49990979003906250000e+03) (595, 1.50000000000000000000e+03) (596, 1.49999963378906250000e+03) (597, 1.49865783691406250000e+03) (598, 1.49474938964843750000e+03) (599, 1.49029650878906250000e+03) (600, 1.58598526000976562500e+02) (0, 1.50000000000000000000e+03) (1, 1.50000000000000000000e+03) (2, 1.50000000000000000000e+03) (3, 1.50000000000000000000e+03) (4, 1.50000000000000000000e+03) (5, 1.50000000000000000000e+03) (6, 1.50000000000000000000e+03) (7, 1.50000000000000000000e+03) (8, 1.50000000000000000000e+03) (9, 1.50000000000000000000e+03) (10, 1.50000000000000000000e+03) (11, 1.50000000000000000000e+03) (12, 1.50000000000000000000e+03) (13, 1.34343859863281250000e+03) (14, -1.08975769042968750000e+03) (15, -1.46043896484375000000e+03) (16, -1.46043896484375000000e+03) (17, -1.46043896484375000000e+03) (18, -1.46043896484375000000e+03) (19, -1.46043896484375000000e+03) (20, 1.50000000000000000000e+03) (21, 1.50000000000000000000e+03) (22, 1.50000000000000000000e+03) (23, 1.50000000000000000000e+03) (24, 1.50000000000000000000e+03) (25, 1.50000000000000000000e+03) (26, 1.50000000000000000000e+03) (27, 1.23704650878906250000e+03) (28, 1.46219384765625000000e+03) (29, 1.46104345703125000000e+03) (30, 9.32764221191406250000e+02) (31, -1.44825537109375000000e+03) (32, 1.49992907714843750000e+03) (33, 1.47347119140625000000e+03) (34, 4.22944519042968750000e+02) (35, -1.09158374023437500000e+03) (36, -1.43070495605468750000e+03) (37, -1.40795812988281250000e+03) (38, -1.40638232421875000000e+03) (39, -1.40638232421875000000e+03) (40, 1.50000000000000000000e+03) (41, 1.50000000000000000000e+03) (42, 1.50000000000000000000e+03) (43, 1.50000000000000000000e+03) (44, 1.50000000000000000000e+03) (45, 1.50000000000000000000e+03) (46, -4.12648506164550781250e+01) (47, 1.50000000000000000000e+03) (48, 1.49999194335937500000e+03) (49, 1.49999719238281250000e+03) (50, 1.49999938964843750000e+03) (51, 1.49999975585937500000e+03) (52, 1.49999975585937500000e+03) (53, 1.45147973632812500000e+03) (54, 1.49993554687500000000e+03) (55, 1.49486730957031250000e+03) (56, 1.49557250976562500000e+03) (57, 1.10000036621093750000e+03) (58, -5.73847167968750000000e+02) (59, -4.49616149902343750000e+02) (60, 1.49222399902343750000e+03) (61, 1.50000000000000000000e+03) (62, 1.50000000000000000000e+03) (63, 1.50000000000000000000e+03) (64, 1.50000000000000000000e+03) (65, -8.13498840332031250000e+02) (66, 1.50000000000000000000e+03) (67, 1.50000000000000000000e+03) (68, 1.49621740722656250000e+03) (69, 1.49901013183593750000e+03) (70, 1.49999975585937500000e+03) (71, 1.49836572265625000000e+03) (72, 1.49727355957031250000e+03) (73, 4.51769256591796875000e+02) (74, 1.49392810058593750000e+03) (75, 1.48658483886718750000e+03) (76, 1.49441040039062500000e+03) (77, 1.49441040039062500000e+03) (78, 1.44899133300781250000e+03) (79, 1.48683166503906250000e+03) (80, 9.58232421875000000000e+02) (81, 1.45903051757812500000e+03) (82, 1.50000000000000000000e+03) (83, 1.50000000000000000000e+03) (84, 1.50000000000000000000e+03) (85, -2.45890121459960937500e+02) (86, 1.00398120117187500000e+03) (87, 1.49997412109375000000e+03) (88, 1.49953015136718750000e+03) (89, 1.49946533203125000000e+03) (90, 1.49999963378906250000e+03) (91, 1.49999987792968750000e+03) (92, 1.49073120117187500000e+03) (93, 1.49999987792968750000e+03) (94, 1.49392810058593750000e+03) (95, 1.48658483886718750000e+03) (96, 1.48658483886718750000e+03) (97, 1.48658483886718750000e+03) (98, 1.20859130859375000000e+03) (99, 1.13878063964843750000e+03) (100, 5.23997558593750000000e+02) (101, 1.25276782226562500000e+03) (102, 1.28913647460937500000e+03) (103, -1.96449462890625000000e+02) (104, -1.32683911132812500000e+03) (105, 1.35044555664062500000e+03) (106, -1.37921496582031250000e+03) (107, -5.81337318420410156250e+01) (108, 8.59708190917968750000e+02) (109, 9.90975524902343750000e+02) (110, 1.49950903320312500000e+03) (111, 1.49979882812500000000e+03) (112, 1.49441040039062500000e+03) (113, 1.49441040039062500000e+03) (114, 1.50000000000000000000e+03) (115, 1.50000000000000000000e+03) (116, 1.50000000000000000000e+03) (117, 1.50000000000000000000e+03) (118, 1.50000000000000000000e+03) (119, 1.50000000000000000000e+03) (120, -1.50000000000000000000e+03) (121, -1.50000000000000000000e+03) (122, -1.50000000000000000000e+03) (123, -1.46043896484375000000e+03) (124, -1.46043896484375000000e+03) (125, -1.47354528808593750000e+03) (126, -1.48656921386718750000e+03) (127, -1.48656921386718750000e+03) (128, -1.47501147460937500000e+03) (129, -1.47501147460937500000e+03) (130, -1.44344433593750000000e+03) (131, -1.20551135253906250000e+03) (132, 1.49895678710937500000e+03) (133, 1.50000000000000000000e+03) (134, 1.50000000000000000000e+03) (135, 1.50000000000000000000e+03) (136, 1.50000000000000000000e+03) (137, 1.50000000000000000000e+03) (138, 1.50000000000000000000e+03) (139, 1.50000000000000000000e+03) (140, 2.78302856445312500000e+02) (141, 2.61199462890625000000e+02) (142, 1.16272399902343750000e+03) (143, -9.41611576080322265625e+00) (144, -1.36187597656250000000e+03) (145, -1.41471472167968750000e+03) (146, -1.49328442382812500000e+03) (147, -1.49328442382812500000e+03) (148, -1.48388293457031250000e+03) (149, -1.48388293457031250000e+03) (150, -1.47262915039062500000e+03) (151, -1.48528881835937500000e+03) (152, 1.49996508789062500000e+03) (153, 1.49749645996093750000e+03) (154, 1.47000000000000000000e+03) (155, 1.50000000000000000000e+03) (156, 1.50000000000000000000e+03) (157, 1.50000000000000000000e+03) (158, 1.50000000000000000000e+03) (159, 1.50000000000000000000e+03) (160, 1.43973254394531250000e+03) (161, -2.08744262695312500000e+02) (162, 1.27608007812500000000e+03) (163, -6.69411849975585937500e+01) (164, -1.36961169433593750000e+03) (165, -1.27273693847656250000e+03) (166, -1.49328442382812500000e+03) (167, -1.49328442382812500000e+03) (168, -1.47262915039062500000e+03) (169, -1.47262915039062500000e+03) (170, -1.47262915039062500000e+03) (171, -1.45209753417968750000e+03) (172, 1.49749645996093750000e+03) (173, 1.49499279785156250000e+03) (174, 1.50000000000000000000e+03) (175, 1.50000000000000000000e+03) (176, 1.50000000000000000000e+03) (177, 1.50000000000000000000e+03) (178, 1.50000000000000000000e+03) (179, 1.50000000000000000000e+03) (180, -4.65680145263671875000e+02) (181, -1.44577734375000000000e+03) (182, 5.95682434082031250000e+02) (183, -1.06539306640625000000e+03) (184, -1.36961169433593750000e+03) (185, -1.27273693847656250000e+03) (186, -1.47536743164062500000e+03) (187, -1.48388293457031250000e+03) (188, -1.48234631347656250000e+03) (189, -1.47262915039062500000e+03) (190, -1.47262915039062500000e+03) (191, -1.41896728515625000000e+03) (192, 1.25231201171875000000e+03) (193, 1.49499279785156250000e+03) (194, 1.50000000000000000000e+03) (195, 1.50000000000000000000e+03) (196, 1.50000000000000000000e+03) (197, 1.50000000000000000000e+03) (198, 1.50000000000000000000e+03) (199, 1.50000000000000000000e+03) (200, 9.43394470214843750000e+02) (201, -1.25811364746093750000e+03) (202, 1.09689562988281250000e+03) (203, -1.30051098632812500000e+03) (204, -1.35459265136718750000e+03) (205, -1.40797680664062500000e+03) (206, -1.49194165039062500000e+03) (207, -1.48234631347656250000e+03) (208, -1.47262915039062500000e+03) (209, -1.47501147460937500000e+03) (210, -1.47262915039062500000e+03) (211, -1.44910583496093750000e+03) (212, -1.00745880126953125000e+03) (213, 1.49963781738281250000e+03) (214, 1.48658483886718750000e+03) (215, 1.49441040039062500000e+03) (216, 1.50000000000000000000e+03) (217, 1.50000000000000000000e+03) (218, 1.50000000000000000000e+03) (219, 1.50000000000000000000e+03) (220, 1.42571728515625000000e+03) (221, -1.47501147460937500000e+03) (222, -1.21912971496582031250e+02) (223, -1.28152368164062500000e+03) (224, -1.35459265136718750000e+03) (225, -1.49194165039062500000e+03) (226, -1.48065979003906250000e+03) (227, -1.47501147460937500000e+03) (228, -1.47501147460937500000e+03) (229, -1.46043896484375000000e+03) (230, -1.43773046875000000000e+03) (231, -1.43162902832031250000e+03) (232, -1.25273046875000000000e+03) (233, -5.47235595703125000000e+02) (234, 1.49959570312500000000e+03) (235, 1.49767102050781250000e+03) (236, 1.50000000000000000000e+03) (237, 1.49902954101562500000e+03) (238, 1.49812805175781250000e+03) (239, 1.49959570312500000000e+03) (240, -2.24729370117187500000e+02) (241, 6.88923454284667968750e+00) (242, 7.69364379882812500000e+02) (243, -1.35459265136718750000e+03) (244, -1.35459265136718750000e+03) (245, 1.11190515136718750000e+03) (246, -1.45180541992187500000e+03) (247, -1.34440161132812500000e+03) (248, -1.04460046386718750000e+03) (249, -1.04460046386718750000e+03) (250, -1.19212084960937500000e+03) (251, -1.36290246582031250000e+03) (252, -1.46187731933593750000e+03) (253, 3.43571380615234375000e+02) (254, 1.48396179199218750000e+03) (255, 1.49924121093750000000e+03) (256, 1.49758801269531250000e+03) (257, 1.49495910644531250000e+03) (258, 1.49498925781250000000e+03) (259, 1.49956530761718750000e+03) (260, 1.71995788574218750000e+02) (261, 1.00376080322265625000e+03) (262, 4.39099609375000000000e+02) (263, -1.49194165039062500000e+03) (264, -1.49194165039062500000e+03) (265, 5.94546508789062500000e+02) (266, -1.46975830078125000000e+03) (267, -1.41041601562500000000e+03) (268, -1.43707543945312500000e+03) (269, -1.25360168457031250000e+03) (270, -1.44826281738281250000e+03) (271, -9.85887573242187500000e+02) (272, 1.31551550292968750000e+03) (273, 1.49872375488281250000e+03) (274, 1.47152575683593750000e+03) (275, 1.44545507812500000000e+03) (276, 1.49774218750000000000e+03) (277, 1.49774218750000000000e+03) (278, 1.49774218750000000000e+03) (279, 1.49948632812500000000e+03) (280, 5.13586364746093750000e+02) (281, -2.28450134277343750000e+02) (282, -6.31231933593750000000e+02) (283, -2.79004325866699218750e+01) (284, -6.87375366210937500000e+02) (285, -1.48065979003906250000e+03) (286, -1.47501147460937500000e+03) (287, -6.39096069335937500000e+02) (288, -1.45748303222656250000e+03) (289, -1.38852355957031250000e+03) (290, -8.50511474609375000000e+02) (291, 3.45261260986328125000e+02) (292, 1.36524865722656250000e+03) (293, -1.12875097656250000000e+03) (294, -1.13129223632812500000e+03) (295, -1.09524682617187500000e+03) (296, 1.17021875000000000000e+03) (297, 1.02448449707031250000e+03) (298, 8.97987060546875000000e+02) (299, 9.49257568359375000000e+02) (300, 7.18778991699218750000e+02) (301, -1.47501147460937500000e+03) (302, 4.29358024597167968750e+01) (303, -1.49194165039062500000e+03) (304, -1.33496044921875000000e+03) (305, -9.11405517578125000000e+02) (306, -3.78988575935363769531e+00) (307, 1.47437194824218750000e+03) (308, 1.66991897583007812500e+02) (309, -7.80039978027343750000e+02) (310, -4.75087707519531250000e+02) (311, 1.92027244567871093750e+01) (312, 1.44085388183593750000e+03) (313, -1.07003601074218750000e+03) (314, -1.47157421875000000000e+03) (315, -1.45257946777343750000e+03) (316, 1.46702600097656250000e+03) (317, 2.21918228149414062500e+02) (318, -1.33926538085937500000e+03) (319, -4.26319824218750000000e+02) (320, 1.49905273437500000000e+03) (321, -1.47501147460937500000e+03) (322, 2.07379257202148437500e+02) (323, 6.35810485839843750000e+02) (324, -1.01644171142578125000e+03) (325, -1.30051098632812500000e+03) (326, -9.68572387695312500000e+02) (327, -2.99145080566406250000e+02) (328, -1.43726892089843750000e+03) (329, -1.19035620117187500000e+03) (330, 7.70001281738281250000e+02) (331, 1.50000000000000000000e+03) (332, 1.50000000000000000000e+03) (333, 9.74654907226562500000e+02) (334, 8.08604919433593750000e+02) (335, -5.12700622558593750000e+02) (336, 1.46894885253906250000e+03) (337, -1.05230859375000000000e+03) (338, -6.28988586425781250000e+02) (339, -7.02529846191406250000e+02) (340, 6.63206848144531250000e+02) (341, -1.48065979003906250000e+03) (342, -1.48839611816406250000e+03) (343, -1.48065979003906250000e+03) (344, -1.48065979003906250000e+03) (345, -3.38908447265625000000e+02) (346, 9.12356506347656250000e+02) (347, 1.48790380859375000000e+03) (348, 1.49128918457031250000e+03) (349, 1.49128918457031250000e+03) (350, 1.50000000000000000000e+03) (351, 1.50000000000000000000e+03) (352, 1.50000000000000000000e+03) (353, 1.49597546386718750000e+03) (354, 1.47781579589843750000e+03) (355, 1.48191381835937500000e+03) (356, 1.48614526367187500000e+03) (357, 1.49999780273437500000e+03) (358, -7.89797119140625000000e+02) (359, 1.14355529785156250000e+03) (360, 8.36864379882812500000e+02) (361, -1.48065979003906250000e+03) (362, -1.48065979003906250000e+03) (363, -1.48065979003906250000e+03) (364, -1.48065979003906250000e+03) (365, 1.16581390380859375000e+02) (366, 8.74940368652343750000e+02) (367, 1.47983959960937500000e+03) (368, 1.49128918457031250000e+03) (369, 1.49128918457031250000e+03) (370, 1.48963098144531250000e+03) (371, 1.47546667480468750000e+03) (372, 1.49930126953125000000e+03) (373, -6.76332641601562500000e+02) (374, -6.90836303710937500000e+02) (375, 1.49869152832031250000e+03) (376, 1.44676867675781250000e+03) (377, 1.13561169433593750000e+03) (378, -8.57663940429687500000e+02) (379, 8.23680648803710937500e+01) (380, 3.06108337402343750000e+02) (381, -1.48839611816406250000e+03) (382, -1.48065979003906250000e+03) (383, -1.48065979003906250000e+03) (384, -1.48065979003906250000e+03) (385, 4.82705230712890625000e+02) (386, -5.56775878906250000000e+02) (387, 8.70967529296875000000e+02) (388, 1.49205737304687500000e+03) (389, 1.49205737304687500000e+03) (390, 1.48963098144531250000e+03) (391, 1.47622375488281250000e+03) (392, 1.26433215332031250000e+03) (393, -4.36510681152343750000e+02) (394, 1.49832287597656250000e+03) (395, -3.08803375244140625000e+02) (396, 1.11027172851562500000e+03) (397, 1.49959631347656250000e+03) (398, 6.73253112792968750000e+02) (399, -5.12667846679687500000e+02) (400, 1.27794519042968750000e+03) (401, -1.48065979003906250000e+03) (402, -1.45453308105468750000e+03) (403, 3.54347503662109375000e+02) (404, -2.52446868896484375000e+02) (405, -1.17457092285156250000e+03) (406, -5.64071960449218750000e+02) (407, 1.20887107849121093750e+01) (408, 1.15953527832031250000e+03) (409, 1.00476354980468750000e+03) (410, 1.49021582031250000000e+03) (411, 1.31022131347656250000e+03) (412, 1.40180468750000000000e+03) (413, -1.46404321289062500000e+03) (414, 8.98039611816406250000e+02) (415, -1.37592626953125000000e+03) (416, 9.11978759765625000000e+02) (417, 1.49956530761718750000e+03) (418, 7.88729064941406250000e+02) (419, -6.05610290527343750000e+02) (420, 7.68853912353515625000e+01) (421, -1.48183422851562500000e+03) (422, -1.48065979003906250000e+03) (423, -1.48065979003906250000e+03) (424, -7.10920837402343750000e+02) (425, 6.83210815429687500000e+02) (426, -5.70519348144531250000e+02) (427, -7.71995391845703125000e+01) (428, -2.50509490966796875000e+02) (429, 5.33072326660156250000e+02) (430, 1.11092602539062500000e+03) (431, -4.30700500488281250000e+02) (432, -1.09573071289062500000e+03) (433, -1.50000000000000000000e+03) (434, -1.48081579589843750000e+03) (435, -8.34443176269531250000e+02) (436, 8.59270751953125000000e+02) (437, 1.49956530761718750000e+03) (438, 3.67326385498046875000e+02) (439, -2.44815246582031250000e+02) (440, 1.49891064453125000000e+03) (441, -1.18801086425781250000e+03) (442, 5.86995544433593750000e+02) (443, -4.08254669189453125000e+02) (444, 1.57676696777343750000e+02) (445, -5.20541564941406250000e+02) (446, -6.92966918945312500000e+02) (447, -3.43934173583984375000e+02) (448, 1.05408020019531250000e+02) (449, 5.41033386230468750000e+02) (450, 7.48940063476562500000e+02) (451, -1.50000000000000000000e+03) (452, -1.50000000000000000000e+03) (453, -1.50000000000000000000e+03) (454, -1.48804235839843750000e+03) (455, -6.54702819824218750000e+02) (456, -3.11404876708984375000e+02) (457, -6.73918228149414062500e+01) (458, 2.78416015625000000000e+02) (459, -6.50868530273437500000e+02) (460, 1.45830712890625000000e+03) (461, 1.24715710449218750000e+03) (462, 6.53493591308593750000e+02) (463, -9.46617370605468750000e+02) (464, -4.46917877197265625000e+02) (465, -4.75678131103515625000e+02) (466, -5.98885131835937500000e+02) (467, -1.53889007568359375000e+02) (468, -2.45894794464111328125e+01) (469, 4.39049224853515625000e+02) (470, 8.62314636230468750000e+02) (471, -9.78154846191406250000e+02) (472, -1.50000000000000000000e+03) (473, -1.50000000000000000000e+03) (474, -6.98203063964843750000e+02) (475, -8.63061096191406250000e+02) (476, -1.04885705566406250000e+03) (477, -3.63272308349609375000e+02) (478, 1.09198144531250000000e+03) (479, -1.46191882324218750000e+03) (480, 1.49734155273437500000e+03) (481, 1.49385668945312500000e+03) (482, -5.76398773193359375000e+01) (483, 6.57803894042968750000e+02) (484, -3.34015319824218750000e+02) (485, -1.39041357421875000000e+03) (486, -2.62108551025390625000e+02) (487, -6.71046142578125000000e+02) (488, -1.45978540039062500000e+03) (489, -1.47577197265625000000e+03) (490, -1.43818688964843750000e+03) (491, -1.47411523437500000000e+03) (492, -1.47563818359375000000e+03) (493, -1.48866601562500000000e+03) (494, -6.97465026855468750000e+02) (495, -8.63310424804687500000e+02) (496, 1.54772033691406250000e+02) (497, 1.02568884277343750000e+03) (498, -1.62486099243164062500e+02) (499, 4.26981933593750000000e+02) (500, 3.91764404296875000000e+02) (501, 6.02410400390625000000e+02) (502, 1.49987036132812500000e+03) (503, 1.49327929687500000000e+03) (504, 1.49884045410156250000e+03) (505, 1.49690991210937500000e+03) (506, 1.49223266601562500000e+03) (507, 1.44263073730468750000e+03) (508, 1.49727612304687500000e+03) (509, 1.48222436523437500000e+03) (510, 4.82759033203125000000e+02) (511, -4.23947753906250000000e+02) (512, -1.18860473632812500000e+03) (513, -1.39970458984375000000e+03) (514, -1.41603222656250000000e+03) (515, -1.45550195312500000000e+03) (516, -1.48367077636718750000e+03) (517, -1.48666601562500000000e+03) (518, -1.46043896484375000000e+03) (519, -1.46043896484375000000e+03) (520, 1.50000000000000000000e+03) (521, 1.49125952148437500000e+03) (522, 1.50000000000000000000e+03) (523, 1.49205139160156250000e+03) (524, 1.49637023925781250000e+03) (525, 1.49592480468750000000e+03) (526, 1.28968432617187500000e+03) (527, 1.49374291992187500000e+03) (528, 1.49941101074218750000e+03) (529, 1.49989599609375000000e+03) (530, 5.35277282714843750000e+02) (531, -4.61228485107421875000e+02) (532, -1.36101354980468750000e+03) (533, -1.38871191406250000000e+03) (534, -1.39122277832031250000e+03) (535, -1.36642517089843750000e+03) (536, -1.49011230468750000000e+03) (537, -1.49452783203125000000e+03) (538, -1.46977673339843750000e+03) (539, -1.46043896484375000000e+03) (540, 4.67845672607421875000e+02) (541, 1.50000000000000000000e+03) (542, 1.50000000000000000000e+03) (543, 1.50000000000000000000e+03) (544, 1.50000000000000000000e+03) (545, 1.13151342773437500000e+03) (546, 1.16426647949218750000e+03) (547, 2.99162872314453125000e+02) (548, -1.33953491210937500000e+03) (549, -1.49654626464843750000e+03) (550, -1.49624414062500000000e+03) (551, -1.49630053710937500000e+03) (552, -1.46905529785156250000e+03) (553, -1.46603283691406250000e+03) (554, -1.49725500488281250000e+03) (555, -1.41056469726562500000e+03) (556, -1.46922607421875000000e+03) (557, -1.44807958984375000000e+03) (558, -1.46043896484375000000e+03) (559, -1.46043896484375000000e+03) (560, 1.50000000000000000000e+03) (561, 1.50000000000000000000e+03) (562, 1.50000000000000000000e+03) (563, 1.50000000000000000000e+03) (564, 1.50000000000000000000e+03) (565, 1.55537399291992187500e+02) (566, 1.50000000000000000000e+03) (567, 1.49999694824218750000e+03) (568, -1.42841766357421875000e+02) (569, -1.25889758300781250000e+03) (570, -1.46038293457031250000e+03) (571, -1.46127624511718750000e+03) (572, -1.46563342285156250000e+03) (573, -1.49698864746093750000e+03) (574, -1.49485864257812500000e+03) (575, -1.41436816406250000000e+03) (576, -1.34884179687500000000e+03) (577, -1.47262915039062500000e+03) (578, -1.46043896484375000000e+03) (579, -1.46043896484375000000e+03) (580, 1.50000000000000000000e+03) (581, 1.10554882812500000000e+03) (582, 1.50000000000000000000e+03) (583, 1.50000000000000000000e+03) (584, 1.50000000000000000000e+03) (585, 1.50000000000000000000e+03) (586, -6.82272827148437500000e+02) (587, 1.49593957519531250000e+03) (588, -1.20981475830078125000e+02) (589, -1.06633203125000000000e+03) (590, -1.45970129394531250000e+03) (591, -1.47130859375000000000e+03) (592, -1.09413012695312500000e+03) (593, -1.48406835937500000000e+03) (594, -1.49571606445312500000e+03) (595, -1.49579748535156250000e+03) (596, -1.47262915039062500000e+03) (597, -1.47262915039062500000e+03) (598, -1.46043896484375000000e+03) (599, -1.46043896484375000000e+03) (600, 3.80057549476623535156e+00) (0, -7.45023010253906250000e+02) (1, 8.11765197753906250000e+02) (2, 1.22241979980468750000e+03) (3, 9.40800048828125000000e+02) (4, 8.90800048828125000000e+02) (5, 5.49998413085937500000e+02) (6, -7.75999755859375000000e+01) (7, 4.82628051757812500000e+02) (8, 1.33498181152343750000e+03) (9, 1.49958447265625000000e+03) (10, 1.49260144042968750000e+03) (11, 1.46262683105468750000e+03) (12, 1.46507031250000000000e+03) (13, 1.14891296386718750000e+03) (14, 4.24356964111328125000e+02) (15, 2.78757965087890625000e+02) (16, 5.25529785156250000000e+02) (17, -1.26394042968750000000e+02) (18, 8.96154479980468750000e+01) (19, -7.54371704101562500000e+02) (20, 1.50000000000000000000e+03) (21, 8.90800048828125000000e+02) (22, 9.37341186523437500000e+02) (23, 7.11376342773437500000e+02) (24, 1.04035815429687500000e+03) (25, 1.42451403808593750000e+03) (26, 1.11176403808593750000e+03) (27, 1.49363879394531250000e+03) (28, 1.49363879394531250000e+03) (29, 1.49363879394531250000e+03) (30, 1.49999914550781250000e+03) (31, 1.49857470703125000000e+03) (32, 1.49951989746093750000e+03) (33, 1.49999975585937500000e+03) (34, 1.43850842285156250000e+03) (35, 1.49992932128906250000e+03) (36, 2.25408294677734375000e+02) (37, 5.60258789062500000000e+02) (38, 2.24951614379882812500e+02) (39, 1.13913378906250000000e+03) (40, 1.50000000000000000000e+03) (41, 9.43518432617187500000e+02) (42, 9.37341186523437500000e+02) (43, 8.33759338378906250000e+02) (44, 1.42540356445312500000e+03) (45, 1.48243957519531250000e+03) (46, 1.46335937500000000000e+03) (47, 1.49889562988281250000e+03) (48, 1.72421997070312500000e+02) (49, -6.18409851074218750000e+02) (50, -1.25779321289062500000e+03) (51, -1.41071875000000000000e+03) (52, -1.22976928710937500000e+03) (53, 1.42406433105468750000e+03) (54, 1.35897424316406250000e+03) (55, 1.41686279296875000000e+03) (56, 1.48291369628906250000e+03) (57, 1.34397021484375000000e+03) (58, 1.49339392089843750000e+03) (59, 1.50000000000000000000e+03) (60, 1.50000000000000000000e+03) (61, 1.01497381591796875000e+03) (62, -2.11942443847656250000e+02) (63, -4.91421661376953125000e+02) (64, 1.38120336914062500000e+03) (65, 1.49953979492187500000e+03) (66, 1.49953979492187500000e+03) (67, -1.27286499023437500000e+03) (68, -8.58688964843750000000e+02) (69, -1.15816333007812500000e+03) (70, 8.43049987792968750000e+02) (71, 7.79459472656250000000e+02) (72, -1.21985351562500000000e+03) (73, -1.01777832031250000000e+03) (74, -3.44942871093750000000e+02) (75, 1.49696459960937500000e+03) (76, 3.83042938232421875000e+02) (77, 1.49486914062500000000e+03) (78, 1.49942163085937500000e+03) (79, 1.50000000000000000000e+03) (80, 5.49998413085937500000e+02) (81, 1.39359020996093750000e+03) (82, 1.23192272949218750000e+03) (83, 3.32331176757812500000e+02) (84, 1.48143090820312500000e+03) (85, 1.49953979492187500000e+03) (86, 1.32986914062500000000e+03) (87, -1.11711547851562500000e+03) (88, -9.79521972656250000000e+02) (89, -1.16554321289062500000e+03) (90, 2.52251144409179687500e+02) (91, 9.70637634277343750000e+02) (92, -7.56142028808593750000e+02) (93, 1.13922622680664062500e+02) (94, 1.80861755371093750000e+02) (95, 1.49376818847656250000e+03) (96, 1.49964904785156250000e+03) (97, 1.49635510253906250000e+03) (98, 1.44039599609375000000e+03) (99, 1.50000000000000000000e+03) (100, -6.83566772460937500000e+02) (101, -1.11290881347656250000e+03) (102, -1.50000000000000000000e+03) (103, 6.84581604003906250000e+01) (104, -1.40504653930664062500e+02) (105, -4.87281372070312500000e+02) (106, -8.37375793457031250000e+02) (107, 1.49872558593750000000e+03) (108, 1.49852416992187500000e+03) (109, 1.44473791503906250000e+03) (110, 1.30312695312500000000e+03) (111, 2.90579528808593750000e+02) (112, 1.49238195800781250000e+03) (113, 2.15769592285156250000e+02) (114, -1.48982312011718750000e+03) (115, -9.20498107910156250000e+02) (116, 1.94304946899414062500e+02) (117, 5.28757690429687500000e+02) (118, 4.78739562988281250000e+02) (119, 1.38594262695312500000e+03) (120, 1.41848669433593750000e+03) (121, -6.31468750000000000000e+02) (122, -5.49838317871093750000e+02) (123, -5.01351196289062500000e+02) (124, -1.58009979248046875000e+02) (125, -1.01185437011718750000e+03) (126, -2.03769515991210937500e+02) (127, -1.43665197753906250000e+03) (128, 1.45772766113281250000e+03) (129, 2.78016357421875000000e+02) (130, -1.47539501953125000000e+03) (131, -1.42921118164062500000e+03) (132, -1.29953100585937500000e+03) (133, -1.00873065185546875000e+03) (134, -1.14176831054687500000e+03) (135, -1.05890454101562500000e+03) (136, -2.50510498046875000000e+02) (137, -9.26990173339843750000e+02) (138, -3.50025817871093750000e+02) (139, 5.28784118652343750000e+02) (140, -1.02772949218750000000e+03) (141, -8.12000274658203125000e+01) (142, -1.24029284667968750000e+03) (143, -1.36368762207031250000e+03) (144, -1.30866992187500000000e+03) (145, -1.31116430664062500000e+03) (146, -1.33575427246093750000e+03) (147, -1.39193811035156250000e+03) (148, -1.40049475097656250000e+03) (149, -1.42098767089843750000e+03) (150, -1.46297961425781250000e+03) (151, -1.50000000000000000000e+03) (152, -1.50000000000000000000e+03) (153, -1.50000000000000000000e+03) (154, -1.50000000000000000000e+03) (155, -2.31807006835937500000e+02) (156, -1.11955200195312500000e+03) (157, 2.03401809692382812500e+02) (158, 1.34905395507812500000e+03) (159, 1.50000000000000000000e+03) (160, 1.49963195800781250000e+03) (161, 1.49956481933593750000e+03) (162, -8.74395874023437500000e+02) (163, -1.36368762207031250000e+03) (164, -1.36368762207031250000e+03) (165, -1.38450024414062500000e+03) (166, -1.07045678710937500000e+03) (167, -1.14397314453125000000e+03) (168, -1.42913488769531250000e+03) (169, -1.44742602539062500000e+03) (170, -1.48897705078125000000e+03) (171, -1.50000000000000000000e+03) (172, -4.01913696289062500000e+02) (173, -4.78783752441406250000e+02) (174, -1.26871557617187500000e+03) (175, -8.77100830078125000000e+01) (176, -6.00097229003906250000e+02) (177, 3.71431182861328125000e+02) (178, 1.39467578125000000000e+03) (179, 1.50000000000000000000e+03) (180, 1.49863208007812500000e+03) (181, 1.49950012207031250000e+03) (182, 8.55784790039062500000e+02) (183, -1.36368762207031250000e+03) (184, -1.30866992187500000000e+03) (185, -1.38450024414062500000e+03) (186, -7.07668823242187500000e+02) (187, -1.40049475097656250000e+03) (188, -1.45557324218750000000e+03) (189, -1.44742602539062500000e+03) (190, -1.47354528808593750000e+03) (191, -1.50000000000000000000e+03) (192, -3.76347259521484375000e+02) (193, 8.60408325195312500000e+01) (194, -1.02310186767578125000e+03) (195, -9.82791564941406250000e+02) (196, 1.31585479736328125000e+02) (197, -6.17616882324218750000e+01) (198, 1.14203405761718750000e+03) (199, 1.49922216796875000000e+03) (200, 1.41435327148437500000e+03) (201, 1.44959985351562500000e+03) (202, 6.39055541992187500000e+02) (203, -1.36368762207031250000e+03) (204, -1.34310998535156250000e+03) (205, -1.38483178710937500000e+03) (206, -1.43000671386718750000e+03) (207, -1.43730041503906250000e+03) (208, -1.46242602539062500000e+03) (209, -1.45890295410156250000e+03) (210, -1.42833728027343750000e+03) (211, -4.27538299560546875000e+02) (212, -2.86769348144531250000e+02) (213, 7.14186584472656250000e+02) (214, -7.16431213378906250000e+02) (215, 4.50861724853515625000e+02) (216, -8.00873718261718750000e+01) (217, 1.00277117919921875000e+03) (218, 1.27048498535156250000e+03) (219, 1.50000000000000000000e+03) (220, -1.26413696289062500000e+03) (221, 8.72039184570312500000e+02) (222, 1.57437530517578125000e+02) (223, -1.26509506225585937500e+02) (224, -8.28249145507812500000e+02) (225, -5.71168060302734375000e+01) (226, -1.43000671386718750000e+03) (227, -1.43000671386718750000e+03) (228, -1.44742602539062500000e+03) (229, -1.47336218261718750000e+03) (230, 1.33875259399414062500e+02) (231, 1.06186401367187500000e+03) (232, 4.50381683349609375000e+02) (233, 1.44039440917968750000e+03) (234, 1.96294052124023437500e+02) (235, -2.70488758087158203125e+01) (236, 1.99795639038085937500e+02) (237, 5.74515228271484375000e+01) (238, 3.18335304260253906250e+01) (239, -1.40285937500000000000e+03) (240, -1.36581921386718750000e+03) (241, 6.80279174804687500000e+02) (242, 1.09806628417968750000e+03) (243, -1.39100830078125000000e+03) (244, -1.39100830078125000000e+03) (245, 1.28615982055664062500e+02) (246, -5.96799240112304687500e+01) (247, -1.45682116699218750000e+03) (248, -7.79127319335937500000e+02) (249, -4.45579406738281250000e+02) (250, 1.48439379882812500000e+03) (251, 1.49468957519531250000e+03) (252, 1.30274597167968750000e+03) (253, 6.28990844726562500000e+02) (254, 1.24600866699218750000e+03) (255, -1.06641760253906250000e+03) (256, -1.11431262207031250000e+03) (257, 2.97258148193359375000e+02) (258, 4.62571929931640625000e+02) (259, 1.95988113403320312500e+02) (260, -1.35842492675781250000e+03) (261, 1.34411767578125000000e+03) (262, 1.04894920349121093750e+02) (263, -2.49362396240234375000e+02) (264, -1.39100830078125000000e+03) (265, 7.76466827392578125000e+01) (266, -2.31984603881835937500e+02) (267, -1.39983508300781250000e+03) (268, -1.91591735839843750000e+02) (269, -3.99408935546875000000e+02) (270, 1.49732177734375000000e+03) (271, 1.49911804199218750000e+03) (272, 1.51675048828125000000e+02) (273, 5.25545471191406250000e+02) (274, 2.90944183349609375000e+02) (275, -1.20780761718750000000e+03) (276, -1.13307275390625000000e+03) (277, 1.07250231933593750000e+03) (278, 9.74356445312500000000e+02) (279, 3.62465789794921875000e+02) (280, -1.39100830078125000000e+03) (281, 1.31023925781250000000e+03) (282, 7.61886138916015625000e+01) (283, -1.30512915039062500000e+03) (284, -1.07860205078125000000e+03) (285, -1.47046765136718750000e+03) (286, 1.07493446350097656250e+02) (287, 1.99676406860351562500e+02) (288, 1.48880041503906250000e+03) (289, 1.48866760253906250000e+03) (290, 1.49908752441406250000e+03) (291, 1.49217700195312500000e+03) (292, 1.46475231933593750000e+03) (293, 1.44825769042968750000e+03) (294, 1.49949340820312500000e+03) (295, 1.49922949218750000000e+03) (296, 1.35035485839843750000e+03) (297, 1.09680627441406250000e+03) (298, 6.07508728027343750000e+02) (299, 1.49991503906250000000e+03) (300, -1.38406835937500000000e+03) (301, 2.95677886962890625000e+02) (302, 1.02961767578125000000e+03) (303, -4.86042308807373046875e+00) (304, -1.46456127929687500000e+03) (305, -1.42115124511718750000e+03) (306, -1.38406835937500000000e+03) (307, 1.46247692871093750000e+03) (308, 1.49772229003906250000e+03) (309, 2.92642669677734375000e+02) (310, -4.46041198730468750000e+02) (311, -1.01409381103515625000e+03) (312, 9.11806030273437500000e+02) (313, 1.49556604003906250000e+03) (314, 1.49629772949218750000e+03) (315, 1.49919738769531250000e+03) (316, 1.48749645996093750000e+03) (317, -7.13184082031250000000e+02) (318, -5.62700012207031250000e+02) (319, -1.98862686157226562500e+02) (320, -1.09770080566406250000e+03) (321, 1.30156445312500000000e+03) (322, -8.69605331420898437500e+01) (323, -1.46456127929687500000e+03) (324, -1.39100830078125000000e+03) (325, 8.77162246704101562500e+01) (326, 5.04962646484375000000e+02) (327, 1.46842578125000000000e+03) (328, 8.99816955566406250000e+02) (329, 9.10602172851562500000e+02) (330, 1.03990917968750000000e+03) (331, -1.18491979980468750000e+03) (332, -1.32556323242187500000e+03) (333, 7.16012268066406250000e+02) (334, 1.49760778808593750000e+03) (335, 1.42467309570312500000e+03) (336, 1.49370312500000000000e+03) (337, -2.82081695556640625000e+02) (338, -3.37242126464843750000e+02) (339, -1.05345794677734375000e+02) (340, 1.22305908203125000000e+03) (341, 2.31917968750000000000e+02) (342, -1.00674237060546875000e+03) (343, -1.41863806152343750000e+03) (344, -1.09245239257812500000e+03) (345, -6.29834106445312500000e+02) (346, 2.98681060791015625000e+02) (347, 1.26098046875000000000e+03) (348, 1.45341101074218750000e+03) (349, 1.49981140136718750000e+03) (350, 1.48790161132812500000e+03) (351, 1.21074768066406250000e+03) (352, 7.51139221191406250000e+02) (353, -1.38076892089843750000e+03) (354, -1.06557775878906250000e+03) (355, -1.34158862304687500000e+03) (356, 4.19144348144531250000e+02) (357, -1.08646255493164062500e+02) (358, -1.09342720031738281250e+02) (359, -2.82081695556640625000e+02) (360, 2.41404067993164062500e+02) (361, 7.56273559570312500000e+02) (362, -1.20543737792968750000e+03) (363, -4.86257171630859375000e+02) (364, -3.86920074462890625000e+02) (365, -1.33575427246093750000e+03) (366, 8.09376342773437500000e+02) (367, 1.47983288574218750000e+03) (368, 1.48391040039062500000e+03) (369, 1.49966149902343750000e+03) (370, 1.33547705078125000000e+03) (371, 1.21074768066406250000e+03) (372, -1.26401062011718750000e+03) (373, -1.49635290527343750000e+03) (374, -1.00951910400390625000e+03) (375, -6.21720764160156250000e+02) (376, 3.83109466552734375000e+02) (377, 1.43267602539062500000e+03) (378, -2.18018722534179687500e+02) (379, -5.74630371093750000000e+02) (380, -1.48162878417968750000e+03) (381, 5.19202514648437500000e+02) (382, 2.05588806152343750000e+02) (383, -1.38018054199218750000e+03) (384, -1.40341979980468750000e+03) (385, -1.41097766113281250000e+03) (386, -1.46609924316406250000e+03) (387, -1.42921118164062500000e+03) (388, -1.46666284179687500000e+03) (389, -1.48411743164062500000e+03) (390, -1.10845410156250000000e+03) (391, -7.53384399414062500000e+02) (392, -1.48271313476562500000e+03) (393, -1.32754943847656250000e+03) (394, -1.34033178710937500000e+03) (395, -1.47751647949218750000e+03) (396, -1.06843981933593750000e+03) (397, -1.30737231445312500000e+03) (398, 3.88757049560546875000e+02) (399, -1.43950744628906250000e+03) (400, 7.76882812500000000000e+02) (401, 1.06870800781250000000e+03) (402, -4.89680419921875000000e+02) (403, -1.41834130859375000000e+03) (404, -1.44470178222656250000e+03) (405, -1.40569616699218750000e+03) (406, -1.41317224121093750000e+03) (407, -1.47529589843750000000e+03) (408, -1.24584228515625000000e+03) (409, -1.27680822753906250000e+03) (410, -1.18534167480468750000e+03) (411, -1.90212951660156250000e+02) (412, -1.17863012695312500000e+03) (413, -1.32237902832031250000e+03) (414, -1.34585693359375000000e+03) (415, -1.48840429687500000000e+03) (416, 8.57508544921875000000e+02) (417, -1.40583105468750000000e+03) (418, -1.40583105468750000000e+03) (419, -1.38294616699218750000e+03) (420, -1.42165136718750000000e+03) (421, 