FANN_FLO_2.1
num_layers=5
learning_rate=0.700000
connection_rate=1.000000
network_type=0
learning_momentum=0.000000
training_algorithm=2
train_error_function=1
train_stop_function=0
cascade_output_change_fraction=0.010000
quickprop_decay=-0.000100
quickprop_mu=1.750000
rprop_increase_factor=1.200000
rprop_decrease_factor=0.500000
rprop_delta_min=0.000000
rprop_delta_max=50.000000
rprop_delta_zero=0.100000
cascade_output_stagnation_epochs=12
cascade_candidate_change_fraction=0.010000
cascade_candidate_stagnation_epochs=12
cascade_max_out_epochs=150
cascade_min_out_epochs=50
cascade_max_cand_epochs=150
cascade_min_cand_epochs=50
cascade_num_candidate_groups=2
bit_fail_limit=3.49999994039535522461e-01
cascade_candidate_limit=1.00000000000000000000e+03
cascade_weight_multiplier=4.00000005960464477539e-01
cascade_activation_functions_count=10
cascade_activation_functions=3 5 7 8 10 11 14 15 16 17 
cascade_activation_steepnesses_count=4
cascade_activation_steepnesses=2.50000000000000000000e-01 5.00000000000000000000e-01 7.50000000000000000000e-01 1.00000000000000000000e+00 
layer_sizes=601 11 11 11 11 
scale_included=0
neurons (num_inputs, activation_function, activation_steepness)=(0, 0, 0.00000000000000000000e+00) (0, 0, 0.00000000000000000000e+00) (0, 0, 0.00000000000000000000e+00) (0, 0, 0.00000000000000000000e+00) (0, 0, 0.00000000000000000000e+00) (0, 0, 0.00000000000000000000e+00) (0, 0, 0.00000000000000000000e+00) (0, 0, 0.00000000000000000000e+00) (0, 0, 0.00000000000000000000e+00) (0, 0, 0.00000000000000000000e+00) (0, 0, 0.00000000000000000000e+00) (0, 0, 0.00000000000000000000e+00) (0, 0, 0.00000000000000000000e+00) (0, 0, 0.00000000000000000000e+00) (0, 0, 0.00000000000000000000e+00) (0, 0, 0.00000000000000000000e+00) (0, 0, 0.00000000000000000000e+00) (0, 0, 0.00000000000000000000e+00) (0, 0, 0.00000000000000000000e+00) (0, 0, 0.00000000000000000000e+00) (0, 0, 0.00000000000000000000e+00) (0, 0, 0.00000000000000000000e+00) (0, 0, 0.00000000000000000000e+00) (0, 0, 0.00000000000000000000e+00) (0, 0, 0.00000000000000000000e+00) (0, 0, 0.00000000000000000000e+00) (0, 0, 0.00000000000000000000e+00) (0, 0, 0.00000000000000000000e+00) (0, 0, 0.00000000000000000000e+00) (0, 0, 0.00000000000000000000e+00) (0, 0, 0.00000000000000000000e+00) (0, 0, 0.00000000000000000000e+00) (0, 0, 0.00000000000000000000e+00) (0, 0, 0.00000000000000000000e+00) (0, 0, 0.00000000000000000000e+00) (0, 0, 0.00000000000000000000e+00) (0, 0, 0.00000000000000000000e+00) (0, 0, 0.00000000000000000000e+00) (0, 0, 0.00000000000000000000e+00) (0, 0, 0.00000000000000000000e+00) (0, 0, 0.00000000000000000000e+00) (0, 0, 0.00000000000000000000e+00) (0, 0, 0.00000000000000000000e+00) (0, 0, 0.00000000000000000000e+00) (0, 0, 0.00000000000000000000e+00) (0, 0, 0.00000000000000000000e+00) (0, 0, 0.00000000000000000000e+00) (0, 0, 0.00000000000000000000e+00) (0, 0, 0.00000000000000000000e+00) (0, 0, 0.00000000000000000000e+00) (0, 0, 0.00000000000000000000e+00) (0, 0, 0.00000000000000000000e+00) (0, 0, 0.00000000000000000000e+00) (0, 0, 0.00000000000000000000e+00) (0, 0, 0.00000000000000000000e+00) (0, 0, 0.00000000000000000000e+00) (0, 0, 0.00000000000000000000e+00) (0, 0, 0.00000000000000000000e+00) (0, 0, 0.00000000000000000000e+00) (0, 0, 0.00000000000000000000e+00) (0, 0, 0.00000000000000000000e+00) (0, 0, 0.00000000000000000000e+00) (0, 0, 0.00000000000000000000e+00) (0, 0, 0.00000000000000000000e+00) (0, 0, 0.00000000000000000000e+00) (0, 0, 0.00000000000000000000e+00) (0, 0, 0.00000000000000000000e+00) (0, 0, 0.00000000000000000000e+00) (0, 0, 0.00000000000000000000e+00) (0, 0, 0.00000000000000000000e+00) (0, 0, 0.00000000000000000000e+00) (0, 0, 0.00000000000000000000e+00) (0, 0, 0.00000000000000000000e+00) (0, 0, 0.00000000000000000000e+00) (0, 0, 0.00000000000000000000e+00) (0, 0, 0.00000000000000000000e+00) (0, 0, 0.00000000000000000000e+00) (0, 0, 0.00000000000000000000e+00) (0, 0, 0.00000000000000000000e+00) (0, 0, 0.00000000000000000000e+00) (0, 0, 0.00000000000000000000e+00) (0, 0, 0.00000000000000000000e+00) (0, 0, 0.00000000000000000000e+00) (0, 0, 0.00000000000000000000e+00) (0, 0, 0.00000000000000000000e+00) (0, 0, 0.00000000000000000000e+00) (0, 0, 0.00000000000000000000e+00) (0, 0, 0.00000000000000000000e+00) (0, 0, 0.00000000000000000000e+00) (0, 0, 0.00000000000000000000e+00) (0, 0, 0.00000000000000000000e+00) (0, 0, 0.00000000000000000000e+00) (0, 0, 0.00000000000000000000e+00) (0, 0, 0.00000000000000000000e+00) (0, 0, 0.00000000000000000000e+00) (0, 0, 0.00000000000000000000e+00) (0, 0, 0.00000000000000000000e+00) (0, 0, 0.00000000000000000000e+00) (0, 0, 0.00000000000000000000e+00) (0, 0, 0.00000000000000000000e+00) (0, 0, 0.00000000000000000000e+00) (0, 0, 0.00000000000000000000e+00) (0, 0, 0.00000000000000000000e+00) (0, 0, 0.00000000000000000000e+00) (0, 0, 0.00000000000000000000e+00) (0, 0, 0.00000000000000000000e+00) (0, 0, 0.00000000000000000000e+00) (0, 0, 0.00000000000000000000e+00) (0, 0, 0.00000000000000000000e+00) (0, 0, 0.00000000000000000000e+00) (0, 0, 0.00000000000000000000e+00) (0, 0, 0.00000000000000000000e+00) (0, 0, 0.00000000000000000000e+00) (0, 0, 0.00000000000000000000e+00) (0, 0, 0.00000000000000000000e+00) (0, 0, 0.00000000000000000000e+00) (0, 0, 0.00000000000000000000e+00) (0, 0, 0.00000000000000000000e+00) (0, 0, 0.00000000000000000000e+00) (0, 0, 0.00000000000000000000e+00) (0, 0, 0.00000000000000000000e+00) (0, 0, 0.00000000000000000000e+00) (0, 0, 0.00000000000000000000e+00) (0, 0, 0.00000000000000000000e+00) (0, 0, 0.00000000000000000000e+00) (0, 0, 0.00000000000000000000e+00) (0, 0, 0.00000000000000000000e+00) (0, 0, 0.00000000000000000000e+00) (0, 0, 0.00000000000000000000e+00) (0, 0, 0.00000000000000000000e+00) (0, 0, 0.00000000000000000000e+00) (0, 0, 0.00000000000000000000e+00) (0, 0, 0.00000000000000000000e+00) (0, 0, 0.00000000000000000000e+00) (0, 0, 0.00000000000000000000e+00) (0, 0, 0.00000000000000000000e+00) (0, 0, 0.00000000000000000000e+00) (0, 0, 0.00000000000000000000e+00) (0, 0, 0.00000000000000000000e+00) (0, 0, 0.00000000000000000000e+00) (0, 0, 0.00000000000000000000e+00) (0, 0, 0.00000000000000000000e+00) (0, 0, 0.00000000000000000000e+00) (0, 0, 0.00000000000000000000e+00) (0, 0, 0.00000000000000000000e+00) (0, 0, 0.00000000000000000000e+00) (0, 0, 0.00000000000000000000e+00) (0, 0, 0.00000000000000000000e+00) (0, 0, 0.00000000000000000000e+00) (0, 0, 0.00000000000000000000e+00) (0, 0, 0.00000000000000000000e+00) (0, 0, 0.00000000000000000000e+00) (0, 0, 0.00000000000000000000e+00) (0, 0, 0.00000000000000000000e+00) (0, 0, 0.00000000000000000000e+00) (0, 0, 0.00000000000000000000e+00) (0, 0, 0.00000000000000000000e+00) (0, 0, 0.00000000000000000000e+00) (0, 0, 0.00000000000000000000e+00) (0, 0, 0.00000000000000000000e+00) (0, 0, 0.00000000000000000000e+00) (0, 0, 0.00000000000000000000e+00) (0, 0, 0.00000000000000000000e+00) (0, 0, 0.00000000000000000000e+00) (0, 0, 0.00000000000000000000e+00) (0, 0, 0.00000000000000000000e+00) (0, 0, 0.00000000000000000000e+00) (0, 0, 0.00000000000000000000e+00) (0, 0, 0.00000000000000000000e+00) (0, 0, 0.00000000000000000000e+00) (0, 0, 0.00000000000000000000e+00) (0, 0, 0.00000000000000000000e+00) (0, 0, 0.00000000000000000000e+00) (0, 0, 0.00000000000000000000e+00) (0, 0, 0.00000000000000000000e+00) (0, 0, 0.00000000000000000000e+00) (0, 0, 0.00000000000000000000e+00) (0, 0, 0.00000000000000000000e+00) (0, 0, 0.00000000000000000000e+00) (0, 0, 0.00000000000000000000e+00) (0, 0, 0.00000000000000000000e+00) (0, 0, 0.00000000000000000000e+00) (0, 0, 0.00000000000000000000e+00) (0, 0, 0.00000000000000000000e+00) (0, 0, 0.00000000000000000000e+00) (0, 0, 0.00000000000000000000e+00) (0, 0, 0.00000000000000000000e+00) (0, 0, 0.00000000000000000000e+00) (0, 0, 0.00000000000000000000e+00) (0, 0, 0.00000000000000000000e+00) (0, 0, 0.00000000000000000000e+00) (0, 0, 0.00000000000000000000e+00) (0, 0, 0.00000000000000000000e+00) (0, 0, 0.00000000000000000000e+00) (0, 0, 0.00000000000000000000e+00) (0, 0, 0.00000000000000000000e+00) (0, 0, 0.00000000000000000000e+00) (0, 0, 0.00000000000000000000e+00) (0, 0, 0.00000000000000000000e+00) (0, 0, 0.00000000000000000000e+00) (0, 0, 0.00000000000000000000e+00) (0, 0, 0.00000000000000000000e+00) (0, 0, 0.00000000000000000000e+00) (0, 0, 0.00000000000000000000e+00) (0, 0, 0.00000000000000000000e+00) (0, 0, 0.00000000000000000000e+00) (0, 0, 0.00000000000000000000e+00) (0, 0, 0.00000000000000000000e+00) (0, 0, 0.00000000000000000000e+00) (0, 0, 0.00000000000000000000e+00) (0, 0, 0.00000000000000000000e+00) (0, 0, 0.00000000000000000000e+00) (0, 0, 0.00000000000000000000e+00) (0, 0, 0.00000000000000000000e+00) (0, 0, 0.00000000000000000000e+00) (0, 0, 0.00000000000000000000e+00) (0, 0, 0.00000000000000000000e+00) (0, 0, 0.00000000000000000000e+00) (0, 0, 0.00000000000000000000e+00) (0, 0, 0.00000000000000000000e+00) (0, 0, 0.00000000000000000000e+00) (0, 0, 0.00000000000000000000e+00) (0, 0, 0.00000000000000000000e+00) (0, 0, 0.00000000000000000000e+00) (0, 0, 0.00000000000000000000e+00) (0, 0, 0.00000000000000000000e+00) (0, 0, 0.00000000000000000000e+00) (0, 0, 0.00000000000000000000e+00) (0, 0, 0.00000000000000000000e+00) (0, 0, 0.00000000000000000000e+00) (0, 0, 0.00000000000000000000e+00) (0, 0, 0.00000000000000000000e+00) (0, 0, 0.00000000000000000000e+00) (0, 0, 0.00000000000000000000e+00) (0, 0, 0.00000000000000000000e+00) (0, 0, 0.00000000000000000000e+00) (0, 0, 0.00000000000000000000e+00) (0, 0, 0.00000000000000000000e+00) (0, 0, 0.00000000000000000000e+00) (0, 0, 0.00000000000000000000e+00) (0, 0, 0.00000000000000000000e+00) (0, 0, 0.00000000000000000000e+00) (0, 0, 0.00000000000000000000e+00) (0, 0, 0.00000000000000000000e+00) (0, 0, 0.00000000000000000000e+00) (0, 0, 0.00000000000000000000e+00) (0, 0, 0.00000000000000000000e+00) (0, 0, 0.00000000000000000000e+00) (0, 0, 0.00000000000000000000e+00) (0, 0, 0.00000000000000000000e+00) (0, 0, 0.00000000000000000000e+00) (0, 0, 0.00000000000000000000e+00) (0, 0, 0.00000000000000000000e+00) (0, 0, 0.00000000000000000000e+00) (0, 0, 0.00000000000000000000e+00) (0, 0, 0.00000000000000000000e+00) (0, 0, 0.00000000000000000000e+00) (0, 0, 0.00000000000000000000e+00) (0, 0, 0.00000000000000000000e+00) (0, 0, 0.00000000000000000000e+00) (0, 0, 0.00000000000000000000e+00) (0, 0, 0.00000000000000000000e+00) (0, 0, 0.00000000000000000000e+00) (0, 0, 0.00000000000000000000e+00) (0, 0, 0.00000000000000000000e+00) (0, 0, 0.00000000000000000000e+00) (0, 0, 0.00000000000000000000e+00) (0, 0, 0.00000000000000000000e+00) (0, 0, 0.00000000000000000000e+00) (0, 0, 0.00000000000000000000e+00) (0, 0, 0.00000000000000000000e+00) (0, 0, 0.00000000000000000000e+00) (0, 0, 0.00000000000000000000e+00) (0, 0, 0.00000000000000000000e+00) (0, 0, 0.00000000000000000000e+00) (0, 0, 0.00000000000000000000e+00) (0, 0, 0.00000000000000000000e+00) (0, 0, 0.00000000000000000000e+00) (0, 0, 0.00000000000000000000e+00) (0, 0, 0.00000000000000000000e+00) (0, 0, 0.00000000000000000000e+00) (0, 0, 0.00000000000000000000e+00) (0, 0, 0.00000000000000000000e+00) (0, 0, 0.00000000000000000000e+00) (0, 0, 0.00000000000000000000e+00) (0, 0, 0.00000000000000000000e+00) (0, 0, 0.00000000000000000000e+00) (0, 0, 0.00000000000000000000e+00) (0, 0, 0.00000000000000000000e+00) (0, 0, 0.00000000000000000000e+00) (0, 0, 0.00000000000000000000e+00) (0, 0, 0.00000000000000000000e+00) (0, 0, 0.00000000000000000000e+00) (0, 0, 0.00000000000000000000e+00) (0, 0, 0.00000000000000000000e+00) (0, 0, 0.00000000000000000000e+00) (0, 0, 0.00000000000000000000e+00) (0, 0, 0.00000000000000000000e+00) (0, 0, 0.00000000000000000000e+00) (0, 0, 0.00000000000000000000e+00) (0, 0, 0.00000000000000000000e+00) (0, 0, 0.00000000000000000000e+00) (0, 0, 0.00000000000000000000e+00) (0, 0, 0.00000000000000000000e+00) (0, 0, 0.00000000000000000000e+00) (0, 0, 0.00000000000000000000e+00) (0, 0, 0.00000000000000000000e+00) (0, 0, 0.00000000000000000000e+00) (0, 0, 0.00000000000000000000e+00) (0, 0, 0.00000000000000000000e+00) (0, 0, 0.00000000000000000000e+00) (0, 0, 0.00000000000000000000e+00) (0, 0, 0.00000000000000000000e+00) (0, 0, 0.00000000000000000000e+00) (0, 0, 0.00000000000000000000e+00) (0, 0, 0.00000000000000000000e+00) (0, 0, 0.00000000000000000000e+00) (0, 0, 0.00000000000000000000e+00) (0, 0, 0.00000000000000000000e+00) (0, 0, 0.00000000000000000000e+00) (0, 0, 0.00000000000000000000e+00) (0, 0, 0.00000000000000000000e+00) (0, 0, 0.00000000000000000000e+00) (0, 0, 0.00000000000000000000e+00) (0, 0, 0.00000000000000000000e+00) (0, 0, 0.00000000000000000000e+00) (0, 0, 0.00000000000000000000e+00) (0, 0, 0.00000000000000000000e+00) (0, 0, 0.00000000000000000000e+00) (0, 0, 0.00000000000000000000e+00) (0, 0, 0.00000000000000000000e+00) (0, 0, 0.00000000000000000000e+00) (0, 0, 0.00000000000000000000e+00) (0, 0, 0.00000000000000000000e+00) (0, 0, 0.00000000000000000000e+00) (0, 0, 0.00000000000000000000e+00) (0, 0, 0.00000000000000000000e+00) (0, 0, 0.00000000000000000000e+00) (0, 0, 0.00000000000000000000e+00) (0, 0, 0.00000000000000000000e+00) (0, 0, 0.00000000000000000000e+00) (0, 0, 0.00000000000000000000e+00) (0, 0, 0.00000000000000000000e+00) (0, 0, 0.00000000000000000000e+00) (0, 0, 0.00000000000000000000e+00) (0, 0, 0.00000000000000000000e+00) (0, 0, 0.00000000000000000000e+00) (0, 0, 0.00000000000000000000e+00) (0, 0, 0.00000000000000000000e+00) (0, 0, 0.00000000000000000000e+00) (0, 0, 0.00000000000000000000e+00) (0, 0, 0.00000000000000000000e+00) (0, 0, 0.00000000000000000000e+00) (0, 0, 0.00000000000000000000e+00) (0, 0, 0.00000000000000000000e+00) (0, 0, 0.00000000000000000000e+00) (0, 0, 0.00000000000000000000e+00) (0, 0, 0.00000000000000000000e+00) (0, 0, 0.00000000000000000000e+00) (0, 0, 0.00000000000000000000e+00) (0, 0, 0.00000000000000000000e+00) (0, 0, 0.00000000000000000000e+00) (0, 0, 0.00000000000000000000e+00) (0, 0, 0.00000000000000000000e+00) (0, 0, 0.00000000000000000000e+00) (0, 0, 0.00000000000000000000e+00) (0, 0, 0.00000000000000000000e+00) (0, 0, 0.00000000000000000000e+00) (0, 0, 0.00000000000000000000e+00) (0, 0, 0.00000000000000000000e+00) (0, 0, 0.00000000000000000000e+00) (0, 0, 0.00000000000000000000e+00) (0, 0, 0.00000000000000000000e+00) (0, 0, 0.00000000000000000000e+00) (0, 0, 0.00000000000000000000e+00) (0, 0, 0.00000000000000000000e+00) (0, 0, 0.00000000000000000000e+00) (0, 0, 0.00000000000000000000e+00) (0, 0, 0.00000000000000000000e+00) (0, 0, 0.00000000000000000000e+00) (0, 0, 0.00000000000000000000e+00) (0, 0, 0.00000000000000000000e+00) (0, 0, 0.00000000000000000000e+00) (0, 0, 0.00000000000000000000e+00) (0, 0, 0.00000000000000000000e+00) (0, 0, 0.00000000000000000000e+00) (0, 0, 0.00000000000000000000e+00) (0, 0, 0.00000000000000000000e+00) (0, 0, 0.00000000000000000000e+00) (0, 0, 0.00000000000000000000e+00) (0, 0, 0.00000000000000000000e+00) (0, 0, 0.00000000000000000000e+00) (0, 0, 0.00000000000000000000e+00) (0, 0, 0.00000000000000000000e+00) (0, 0, 0.00000000000000000000e+00) (0, 0, 0.00000000000000000000e+00) (0, 0, 0.00000000000000000000e+00) (0, 0, 0.00000000000000000000e+00) (0, 0, 0.00000000000000000000e+00) (0, 0, 0.00000000000000000000e+00) (0, 0, 0.00000000000000000000e+00) (0, 0, 0.00000000000000000000e+00) (0, 0, 0.00000000000000000000e+00) (0, 0, 0.00000000000000000000e+00) (0, 0, 0.00000000000000000000e+00) (0, 0, 0.00000000000000000000e+00) (0, 0, 0.00000000000000000000e+00) (0, 0, 0.00000000000000000000e+00) (0, 0, 0.00000000000000000000e+00) (0, 0, 0.00000000000000000000e+00) (0, 0, 0.00000000000000000000e+00) (0, 0, 0.00000000000000000000e+00) (0, 0, 0.00000000000000000000e+00) (0, 0, 0.00000000000000000000e+00) (0, 0, 0.00000000000000000000e+00) (0, 0, 0.00000000000000000000e+00) (0, 0, 0.00000000000000000000e+00) (0, 0, 0.00000000000000000000e+00) (0, 0, 0.00000000000000000000e+00) (0, 0, 0.00000000000000000000e+00) (0, 0, 0.00000000000000000000e+00) (0, 0, 0.00000000000000000000e+00) (0, 0, 0.00000000000000000000e+00) (0, 0, 0.00000000000000000000e+00) (0, 0, 0.00000000000000000000e+00) (0, 0, 0.00000000000000000000e+00) (0, 0, 0.00000000000000000000e+00) (0, 0, 0.00000000000000000000e+00) (0, 0, 0.00000000000000000000e+00) (0, 0, 0.00000000000000000000e+00) (0, 0, 0.00000000000000000000e+00) (0, 0, 0.00000000000000000000e+00) (0, 0, 0.00000000000000000000e+00) (0, 0, 0.00000000000000000000e+00) (0, 0, 0.00000000000000000000e+00) (0, 0, 0.00000000000000000000e+00) (0, 0, 0.00000000000000000000e+00) (0, 0, 0.00000000000000000000e+00) (0, 0, 0.00000000000000000000e+00) (0, 0, 0.00000000000000000000e+00) (0, 0, 0.00000000000000000000e+00) (0, 0, 0.00000000000000000000e+00) (0, 0, 0.00000000000000000000e+00) (0, 0, 0.00000000000000000000e+00) (0, 0, 0.00000000000000000000e+00) (0, 0, 0.00000000000000000000e+00) (0, 0, 0.00000000000000000000e+00) (0, 0, 0.00000000000000000000e+00) (0, 0, 0.00000000000000000000e+00) (0, 0, 0.00000000000000000000e+00) (0, 0, 0.00000000000000000000e+00) (0, 0, 0.00000000000000000000e+00) (0, 0, 0.00000000000000000000e+00) (0, 0, 0.00000000000000000000e+00) (0, 0, 0.00000000000000000000e+00) (0, 0, 0.00000000000000000000e+00) (0, 0, 0.00000000000000000000e+00) (0, 0, 0.00000000000000000000e+00) (0, 0, 0.00000000000000000000e+00) (0, 0, 0.00000000000000000000e+00) (0, 0, 0.00000000000000000000e+00) (0, 0, 0.00000000000000000000e+00) (0, 0, 0.00000000000000000000e+00) (0, 0, 0.00000000000000000000e+00) (0, 0, 0.00000000000000000000e+00) (0, 0, 0.00000000000000000000e+00) (0, 0, 0.00000000000000000000e+00) (0, 0, 0.00000000000000000000e+00) (0, 0, 0.00000000000000000000e+00) (0, 0, 0.00000000000000000000e+00) (0, 0, 0.00000000000000000000e+00) (0, 0, 0.00000000000000000000e+00) (0, 0, 0.00000000000000000000e+00) (0, 0, 0.00000000000000000000e+00) (0, 0, 0.00000000000000000000e+00) (0, 0, 0.00000000000000000000e+00) (0, 0, 0.00000000000000000000e+00) (0, 0, 0.00000000000000000000e+00) (0, 0, 0.00000000000000000000e+00) (0, 0, 0.00000000000000000000e+00) (0, 0, 0.00000000000000000000e+00) (0, 0, 0.00000000000000000000e+00) (0, 0, 0.00000000000000000000e+00) (0, 0, 0.00000000000000000000e+00) (0, 0, 0.00000000000000000000e+00) (0, 0, 0.00000000000000000000e+00) (0, 0, 0.00000000000000000000e+00) (0, 0, 0.00000000000000000000e+00) (0, 0, 0.00000000000000000000e+00) (0, 0, 0.00000000000000000000e+00) (0, 0, 0.00000000000000000000e+00) (0, 0, 0.00000000000000000000e+00) (0, 0, 0.00000000000000000000e+00) (0, 0, 0.00000000000000000000e+00) (0, 0, 0.00000000000000000000e+00) (0, 0, 0.00000000000000000000e+00) (0, 0, 0.00000000000000000000e+00) (0, 0, 0.00000000000000000000e+00) (0, 0, 0.00000000000000000000e+00) (0, 0, 0.00000000000000000000e+00) (0, 0, 0.00000000000000000000e+00) (0, 0, 0.00000000000000000000e+00) (0, 0, 0.00000000000000000000e+00) (0, 0, 0.00000000000000000000e+00) (0, 0, 0.00000000000000000000e+00) (0, 0, 0.00000000000000000000e+00) (0, 0, 0.00000000000000000000e+00) (0, 0, 0.00000000000000000000e+00) (0, 0, 0.00000000000000000000e+00) (0, 0, 0.00000000000000000000e+00) (0, 0, 0.00000000000000000000e+00) (0, 0, 0.00000000000000000000e+00) (0, 0, 0.00000000000000000000e+00) (0, 0, 0.00000000000000000000e+00) (0, 0, 0.00000000000000000000e+00) (0, 0, 0.00000000000000000000e+00) (0, 0, 0.00000000000000000000e+00) (0, 0, 0.00000000000000000000e+00) (0, 0, 0.00000000000000000000e+00) (0, 0, 0.00000000000000000000e+00) (0, 0, 0.00000000000000000000e+00) (0, 0, 0.00000000000000000000e+00) (0, 0, 0.00000000000000000000e+00) (0, 0, 0.00000000000000000000e+00) (0, 0, 0.00000000000000000000e+00) (0, 0, 0.00000000000000000000e+00) (0, 0, 0.00000000000000000000e+00) (0, 0, 0.00000000000000000000e+00) (0, 0, 0.00000000000000000000e+00) (0, 0, 0.00000000000000000000e+00) (0, 0, 0.00000000000000000000e+00) (0, 0, 0.00000000000000000000e+00) (0, 0, 0.00000000000000000000e+00) (0, 0, 0.00000000000000000000e+00) (0, 0, 0.00000000000000000000e+00) (0, 0, 0.00000000000000000000e+00) (0, 0, 0.00000000000000000000e+00) (0, 0, 0.00000000000000000000e+00) (0, 0, 0.00000000000000000000e+00) (0, 0, 0.00000000000000000000e+00) (0, 0, 0.00000000000000000000e+00) (0, 0, 0.00000000000000000000e+00) (0, 0, 0.00000000000000000000e+00) (0, 0, 0.00000000000000000000e+00) (0, 0, 0.00000000000000000000e+00) (0, 0, 0.00000000000000000000e+00) (0, 0, 0.00000000000000000000e+00) (0, 0, 0.00000000000000000000e+00) (0, 0, 0.00000000000000000000e+00) (0, 0, 0.00000000000000000000e+00) (0, 0, 0.00000000000000000000e+00) (0, 0, 0.00000000000000000000e+00) (0, 0, 0.00000000000000000000e+00) (0, 0, 0.00000000000000000000e+00) (0, 0, 0.00000000000000000000e+00) (0, 0, 0.00000000000000000000e+00) (0, 0, 0.00000000000000000000e+00) (0, 0, 0.00000000000000000000e+00) (0, 0, 0.00000000000000000000e+00) (0, 0, 0.00000000000000000000e+00) (0, 0, 0.00000000000000000000e+00) (0, 0, 0.00000000000000000000e+00) (0, 0, 0.00000000000000000000e+00) (0, 0, 0.00000000000000000000e+00) (0, 0, 0.00000000000000000000e+00) (0, 0, 0.00000000000000000000e+00) (0, 0, 0.00000000000000000000e+00) (0, 0, 0.00000000000000000000e+00) (0, 0, 0.00000000000000000000e+00) (0, 0, 0.00000000000000000000e+00) (0, 0, 0.00000000000000000000e+00) (0, 0, 0.00000000000000000000e+00) (0, 0, 0.00000000000000000000e+00) (0, 0, 0.00000000000000000000e+00) (0, 0, 0.00000000000000000000e+00) (0, 0, 0.00000000000000000000e+00) (0, 0, 0.00000000000000000000e+00) (0, 0, 0.00000000000000000000e+00) (0, 0, 0.00000000000000000000e+00) (0, 0, 0.00000000000000000000e+00) (0, 0, 0.00000000000000000000e+00) (0, 0, 0.00000000000000000000e+00) (0, 0, 0.00000000000000000000e+00) (0, 0, 0.00000000000000000000e+00) (0, 0, 0.00000000000000000000e+00) (0, 0, 0.00000000000000000000e+00) (0, 0, 0.00000000000000000000e+00) (0, 0, 0.00000000000000000000e+00) (0, 0, 0.00000000000000000000e+00) (0, 0, 0.00000000000000000000e+00) (0, 0, 0.00000000000000000000e+00) (0, 0, 0.00000000000000000000e+00) (0, 0, 0.00000000000000000000e+00) (0, 0, 0.00000000000000000000e+00) (0, 0, 0.00000000000000000000e+00) (0, 0, 0.00000000000000000000e+00) (0, 0, 0.00000000000000000000e+00) (0, 0, 0.00000000000000000000e+00) (0, 0, 0.00000000000000000000e+00) (0, 0, 0.00000000000000000000e+00) (0, 0, 0.00000000000000000000e+00) (601, 5, 5.00000000000000000000e-01) (601, 5, 5.00000000000000000000e-01) (601, 5, 5.00000000000000000000e-01) (601, 5, 5.00000000000000000000e-01) (601, 5, 5.00000000000000000000e-01) (601, 5, 5.00000000000000000000e-01) (601, 5, 5.00000000000000000000e-01) (601, 5, 5.00000000000000000000e-01) (601, 5, 5.00000000000000000000e-01) (601, 5, 5.00000000000000000000e-01) (0, 5, 0.00000000000000000000e+00) (11, 5, 5.00000000000000000000e-01) (11, 5, 5.00000000000000000000e-01) (11, 5, 5.00000000000000000000e-01) (11, 5, 5.00000000000000000000e-01) (11, 5, 5.00000000000000000000e-01) (11, 5, 5.00000000000000000000e-01) (11, 5, 5.00000000000000000000e-01) (11, 5, 5.00000000000000000000e-01) (11, 5, 5.00000000000000000000e-01) (11, 5, 5.00000000000000000000e-01) (0, 5, 0.00000000000000000000e+00) (11, 5, 5.00000000000000000000e-01) (11, 5, 5.00000000000000000000e-01) (11, 5, 5.00000000000000000000e-01) (11, 5, 5.00000000000000000000e-01) (11, 5, 5.00000000000000000000e-01) (11, 5, 5.00000000000000000000e-01) (11, 5, 5.00000000000000000000e-01) (11, 5, 5.00000000000000000000e-01) (11, 5, 5.00000000000000000000e-01) (11, 5, 5.00000000000000000000e-01) (0, 5, 0.00000000000000000000e+00) (11, 5, 5.00000000000000000000e-01) (11, 5, 5.00000000000000000000e-01) (11, 5, 5.00000000000000000000e-01) (11, 5, 5.00000000000000000000e-01) (11, 5, 5.00000000000000000000e-01) (11, 5, 5.00000000000000000000e-01) (11, 5, 5.00000000000000000000e-01) (11, 5, 5.00000000000000000000e-01) (11, 5, 5.00000000000000000000e-01) (11, 5, 5.00000000000000000000e-01) (0, 5, 0.00000000000000000000e+00) 
connections (connected_to_neuron, weight)=(0, -1.59411036968231201172e+00) (1, -1.15641450881958007812e+00) (2, -2.19582390785217285156e+00) (3, -2.57269501686096191406e+00) (4, 1.95592069625854492188e+00) (5, 1.06818819046020507812e+00) (6, -4.90854024887084960938e-01) (7, -7.78904378414154052734e-01) (8, -7.07950592041015625000e-01) (9, 1.63376152515411376953e-01) (10, 1.63345634937286376953e-01) (11, 1.36761397123336791992e-01) (12, 2.66051322221755981445e-01) (13, -9.57109272480010986328e-01) (14, -3.89766812324523925781e-01) (15, -2.12300062179565429688e+00) (16, -3.72573447227478027344e+00) (17, -6.21662664413452148438e+00) (18, -1.50000000000000000000e+03) (19, 6.22847604751586914062e+00) (20, -2.20740413665771484375e+00) (21, -3.62707287073135375977e-01) (22, -3.38169276714324951172e-01) (23, -1.60032701492309570312e+00) (24, 1.27826821804046630859e+00) (25, -2.02613562345504760742e-01) (26, -4.99753028154373168945e-01) (27, 1.71305015683174133301e-01) (28, -1.27341866493225097656e-01) (29, -1.18695773184299468994e-01) (30, 5.28731457889080047607e-02) (31, 2.95921176671981811523e-01) (32, 5.25744020938873291016e-01) (33, 4.21200871467590332031e-01) (34, 4.62852984666824340820e-01) (35, -1.31795391440391540527e-01) (36, 1.17838799953460693359e-01) (37, -2.22971484065055847168e-01) (38, -6.17572069168090820312e-01) (39, -5.60920715332031250000e-01) (40, 1.04017281532287597656e+00) (41, -3.11848640441894531250e-01) (42, 4.44425374269485473633e-01) (43, -1.83852966874837875366e-02) (44, 4.05431658029556274414e-01) (45, -1.05445563793182373047e-01) (46, 4.40850965678691864014e-02) (47, 1.52753517031669616699e-01) (48, 3.97203164175152778625e-03) (49, 1.22417837381362915039e-01) (50, -5.64712146297097206116e-03) (51, 1.81078352034091949463e-02) (52, 1.08829781413078308105e-01) (53, -2.66635082662105560303e-02) (54, -9.44591537117958068848e-02) (55, -1.35453075170516967773e-01) (56, -8.15288200974464416504e-02) (57, -4.10729609429836273193e-02) (58, -2.22319588065147399902e-01) (59, 9.13628563284873962402e-02) (60, 2.71108567714691162109e-01) (61, -9.29018378257751464844e-01) (62, 2.51268129795789718628e-02) (63, 3.19363862276077270508e-01) (64, -2.74352014064788818359e-01) (65, -8.34964737296104431152e-02) (66, 9.62808951735496520996e-02) (67, 1.05234816670417785645e-01) (68, -7.20197707414627075195e-02) (69, -1.52114480733871459961e-02) (70, 1.74582712352275848389e-02) (71, -9.18475463986396789551e-02) (72, -1.01645208895206451416e-01) (73, -1.32421599701046943665e-02) (74, 2.43789367377758026123e-02) (75, -1.28278449177742004395e-01) (76, -1.17624036967754364014e-01) (77, -1.65627405047416687012e-01) (78, -2.42444276809692382812e-01) (79, -2.50817924737930297852e-01) (80, 8.89094531536102294922e-01) (81, -2.39484131336212158203e-01) (82, -1.27407517284154891968e-02) (83, -1.75243824720382690430e-01) (84, -1.27220451831817626953e-01) (85, -5.33151440322399139404e-02) (86, 9.78982225060462951660e-02) (87, 1.62380412220954895020e-01) (88, 3.84513251483440399170e-02) (89, 1.08809508383274078369e-01) (90, 9.49702574871480464935e-04) (91, -1.05288401246070861816e-01) (92, -7.20488727092742919922e-02) (93, -5.38546591997146606445e-02) (94, -3.57209774665534496307e-03) (95, -4.08498384058475494385e-02) (96, -8.93514677882194519043e-02) (97, -1.37758046388626098633e-01) (98, -2.24765330553054809570e-01) (99, -3.55800807476043701172e-01) (100, 1.99948704242706298828e+00) (101, 3.95862787961959838867e-01) (102, 1.32496327161788940430e-01) (103, 3.25306914746761322021e-02) (104, -4.20113466680049896240e-02) (105, -2.33414262533187866211e-01) (106, 2.71199464797973632812e-01) (107, 2.21022620797157287598e-01) (108, 4.54121362417936325073e-03) (109, 1.58997982740402221680e-01) (110, -7.75342360138893127441e-02) (111, -1.26323744654655456543e-01) (112, 2.10353180766105651855e-01) (113, 2.65009522438049316406e-01) (114, -9.54532697796821594238e-02) (115, -8.29820185899734497070e-02) (116, 1.15709692239761352539e-01) (117, -1.39911472797393798828e-01) (118, -2.67797231674194335938e-01) (119, -3.09170067310333251953e-01) (120, -2.30695858597755432129e-01) (121, -2.36771512031555175781e+00) (122, 1.65517583489418029785e-01) (123, 1.58647522330284118652e-01) (124, 2.73638427257537841797e-01) (125, -4.87817883491516113281e-01) (126, 5.40925323963165283203e-01) (127, -4.40359041094779968262e-02) (128, 1.26564890146255493164e-01) (129, 3.94123643636703491211e-01) (130, 3.49176883697509765625e-01) (131, 4.19039241969585418701e-02) (132, 4.66650962829589843750e-01) (133, -3.37677933275699615479e-02) (134, -2.85270124673843383789e-01) (135, 1.42859473824501037598e-01) (136, 7.86532461643218994141e-02) (137, 3.10841519385576248169e-02) (138, -5.52460968494415283203e-01) (139, -6.01603567600250244141e-01) (140, 1.32746565341949462891e+00) (141, 1.77543714642524719238e-01) (142, 1.72348156571388244629e-01) (143, 2.65598565340042114258e-01) (144, 7.78626441955566406250e-01) (145, 6.09642148017883300781e-01) (146, 1.27075362205505371094e+00) (147, 8.77233684062957763672e-01) (148, 3.38019788265228271484e-01) (149, 3.69942158460617065430e-01) (150, 5.54956980049610137939e-02) (151, 1.57139801979064941406e+00) (152, 1.41191625595092773438e+00) (153, 4.04910117387771606445e-01) (154, 9.33501422405242919922e-02) (155, 2.95061498880386352539e-01) (156, 4.24303948879241943359e-01) (157, 2.21985197067260742188e+00) (158, 2.03865110874176025391e-01) (159, 3.92515391111373901367e-01) (160, 1.64596289396286010742e-01) (161, -3.87763231992721557617e-02) (162, -2.24748849868774414062e+00) (163, 1.82242870330810546875e-01) (164, 4.08169478178024291992e-01) (165, -6.33243441581726074219e-01) (166, 4.93133008480072021484e-01) (167, 4.69606012105941772461e-01) (168, 4.98106867074966430664e-01) (169, 1.73909747600555419922e+00) (170, 1.70156264305114746094e+00) (171, 8.36463749408721923828e-01) (172, 5.05262672901153564453e-01) (173, 5.11886298656463623047e-01) (174, 1.10605895519256591797e-01) (175, 7.50655531883239746094e-02) (176, 3.66507589817047119141e-01) (177, 1.24825870990753173828e+00) (178, -1.46151793003082275391e+00) (179, 8.40874016284942626953e-02) (180, 1.69557407498359680176e-01) (181, -1.36244460940361022949e-01) (182, -3.95534634590148925781e-01) (183, 5.38118422031402587891e-01) (184, 2.63417869806289672852e-01) (185, 2.77304500341415405273e-01) (186, 3.37301999330520629883e-01) (187, 7.59965777397155761719e-01) (188, 1.76657605171203613281e+00) (189, 1.36033630371093750000e+00) (190, 1.28505086898803710938e+00) (191, -3.09905290603637695312e-01) (192, 3.43110673129558563232e-02) (193, 3.48293274641036987305e-01) (194, 1.51806786656379699707e-01) (195, -1.10410857200622558594e+00) (196, -2.95429676771163940430e-01) (197, 6.05529844760894775391e-01) (198, -2.73248285055160522461e-01) (199, 4.02395069599151611328e-01) (200, -1.91076219081878662109e+00) (201, 3.62699419260025024414e-01) (202, -4.69431281089782714844e-03) (203, 1.26552724838256835938e+00) (204, 3.21234166622161865234e-01) (205, 2.19104617834091186523e-01) (206, 5.09042918682098388672e-01) (207, 4.89363461732864379883e-01) (208, 5.49550652503967285156e-01) (209, 3.03427308797836303711e-01) (210, 1.17747500538825988770e-01) (211, 6.43368214368820190430e-02) (212, 7.81830283813178539276e-04) (213, 5.98332166671752929688e-01) (214, 1.24067282676696777344e+00) (215, 2.58323043584823608398e-01) (216, 1.55408108234405517578e+00) (217, -1.25279188156127929688e+00) (218, 4.67287719249725341797e-01) (219, 1.89748549461364746094e+00) (220, -5.08900761604309082031e-01) (221, 4.87624518573284149170e-02) (222, 4.97652143239974975586e-01) (223, 2.76813238859176635742e-01) (224, 3.04168313741683959961e-01) (225, 3.27502042055130004883e-01) (226, -3.79539802670478820801e-02) (227, 1.55605003237724304199e-01) (228, -1.41536939144134521484e+00) (229, -9.22117710113525390625e-01) (230, -3.30570995807647705078e-01) (231, -2.48956710100173950195e-01) (232, -3.75006377696990966797e-01) (233, -6.11260950565338134766e-01) (234, -4.61735248565673828125e-01) (235, -3.47339421510696411133e-01) (236, -1.28204658627510070801e-01) (237, -6.76393568515777587891e-01) (238, 4.76068884134292602539e-01) (239, -8.07925224304199218750e-01) (240, 3.79366016387939453125e+00) (241, 2.26949509233236312866e-02) (242, 3.23210619390010833740e-02) (243, 3.54311704635620117188e-01) (244, 2.15243548154830932617e-01) (245, 3.41786220669746398926e-02) (246, -1.30399394035339355469e+00) (247, -2.27477371692657470703e-01) (248, -3.30454260110855102539e-01) (249, -4.72738116979598999023e-01) (250, -3.04237723350524902344e-01) (251, -2.21515133976936340332e-01) (252, -4.04199749231338500977e-01) (253, -3.41641187667846679688e-01) (254, -1.99762597680091857910e-01) (255, 1.09766781330108642578e+00) (256, -1.60322278738021850586e-01) (257, -8.73188748955726623535e-02) (258, 3.90971988439559936523e-01) (259, 6.37690946459770202637e-02) (260, -8.19318532943725585938e-01) (261, 5.25153726339340209961e-02) (262, 1.83654338121414184570e-01) (263, 2.25359722971916198730e-01) (264, 2.40800008177757263184e-01) (265, -4.71948742866516113281e-01) (266, -2.91066914796829223633e-01) (267, 2.31174733489751815796e-02) (268, -2.58317649364471435547e-01) (269, -3.01432162523269653320e-01) (270, -1.86257481575012207031e-01) (271, -1.63886755704879760742e-01) (272, -1.92765846848487854004e-01) (273, -8.89022797346115112305e-02) (274, -1.19415394961833953857e-01) (275, 3.01630526781082153320e-01) (276, -1.16381369531154632568e-01) (277, 1.61666646599769592285e-02) (278, 1.71685695648193359375e-01) (279, -1.08654153347015380859e+00) (280, 4.66557592153549194336e-01) (281, 1.62481412291526794434e-01) (282, -4.84603941440582275391e-02) (283, 1.85095682740211486816e-01) (284, -5.43750226497650146484e-01) (285, -5.63607692718505859375e-01) (286, 2.84500896930694580078e-01) (287, -1.20148323476314544678e-01) (288, -2.23586112260818481445e-01) (289, -3.50220471620559692383e-01) (290, -3.32578420639038085938e-01) (291, -3.52950304746627807617e-01) (292, -1.59750592708587646484e+00) (293, -1.00545234978199005127e-01) (294, -3.33134025335311889648e-01) (295, 2.39401847124099731445e-01) (296, -7.54610776901245117188e-01) (297, 1.86638027429580688477e-01) (298, 5.79627335071563720703e-01) (299, 2.26732522249221801758e-01) (300, 3.54489386081695556641e-01) (301, 2.99298286437988281250e-01) (302, -1.27032887935638427734e+00) (303, -2.14089408516883850098e-01) (304, -1.23164010047912597656e+00) (305, -1.57043755054473876953e-01) (306, 1.88455328345298767090e-01) (307, 2.66589317470788955688e-02) (308, -3.30445468425750732422e-01) (309, -1.38416187837719917297e-02) (310, 2.56708264350891113281e-01) (311, 8.71273577213287353516e-02) (312, -2.09079578518867492676e-01) (313, 2.15234477072954177856e-02) (314, -2.19840899109840393066e-01) (315, -4.04907912015914916992e-01) (316, 2.63942461460828781128e-02) (317, -1.05427011847496032715e-01) (318, 2.04746335744857788086e-01) (319, 2.85233892500400543213e-02) (320, 6.82731449604034423828e-01) (321, 1.09605953097343444824e-01) (322, 3.27752977609634399414e-01) (323, -1.66969060897827148438e-01) (324, 5.59119433164596557617e-02) (325, 9.14127901196479797363e-02) (326, 1.47927403450012207031e-01) (327, -1.88633233308792114258e-01) (328, -3.23928659781813621521e-03) (329, 2.29703009128570556641e-01) (330, 1.57026156783103942871e-01) (331, 1.71936333179473876953e-01) (332, 1.85570716857910156250e-01) (333, -1.04902237653732299805e-01) (334, -7.61981070041656494141e-01) (335, -8.91295313835144042969e-01) (336, -5.68198919296264648438e-01) (337, 1.22925549745559692383e-01) (338, 2.71438628435134887695e-01) (339, 2.47219935059547424316e-01) (340, -1.09024882316589355469e+00) (341, 8.22293236851692199707e-02) (342, 1.80319741368293762207e-01) (343, -8.49768333137035369873e-03) (344, 4.13625873625278472900e-02) (345, -3.56937825679779052734e-01) (346, -1.88048854470252990723e-01) (347, 4.32249009609222412109e-01) (348, 2.27070614695549011230e-01) (349, 3.35784941911697387695e-01) (350, -9.20447111129760742188e-01) (351, -2.86503404378890991211e-01) (352, 3.88823956251144409180e-01) (353, 2.82076328992843627930e-01) (354, -3.39781120419502258301e-02) (355, 2.58865386247634887695e-01) (356, 1.67513638734817504883e-01) (357, 1.22631192207336425781e-01) (358, 8.44280123710632324219e-02) (359, 6.28461539745330810547e-01) (360, -2.40866467356681823730e-02) (361, 1.26451055984944105148e-03) (362, -5.50327897071838378906e-02) (363, -7.45788961648941040039e-03) (364, 1.54433503746986389160e-01) (365, 4.71841156482696533203e-01) (366, -8.77062380313873291016e-02) (367, 3.98016542196273803711e-01) (368, 3.30795913934707641602e-01) (369, 4.64629203081130981445e-01) (370, -3.60730677843093872070e-01) (371, 1.02468974888324737549e-01) (372, 4.29241329431533813477e-01) (373, 4.38797831535339355469e-01) (374, 4.69630323350429534912e-02) (375, 7.14224651455879211426e-02) (376, 1.72895520925521850586e-01) (377, 1.39495715498924255371e-01) (378, 6.77598342299461364746e-02) (379, 1.68752640485763549805e-01) (380, 3.36454004049301147461e-01) (381, 1.96787118911743164062e-01) (382, -2.91703909635543823242e-01) (383, 4.91516172885894775391e-01) (384, 3.91281217336654663086e-01) (385, 3.56254816055297851562e-01) (386, 2.44279575347900390625e+00) (387, 4.50813800096511840820e-01) (388, 4.83520001173019409180e-01) (389, 4.52187061309814453125e-01) (390, 2.47868609428405761719e+00) (391, 3.96942257881164550781e-01) (392, 7.09318697452545166016e-01) (393, 6.79467245936393737793e-02) (394, 2.17005684971809387207e-01) (395, 2.83495604991912841797e-01) (396, 3.60245466232299804688e-01) (397, -7.71516337990760803223e-02) (398, 1.53339818120002746582e-01) (399, -7.20943033695220947266e-01) (400, 6.27267241477966308594e-01) (401, 2.62309998273849487305e-01) (402, -1.31134793162345886230e-01) (403, -4.13805067539215087891e-01) (404, -7.64072954654693603516e-01) (405, 5.22698581218719482422e-01) (406, -6.85511603951454162598e-02) (407, -9.14126574993133544922e-01) (408, -5.63430011272430419922e-01) (409, -9.43554520606994628906e-01) (410, -6.88735306262969970703e-01) (411, -7.74043858051300048828e-01) (412, -7.27519169449806213379e-02) (413, -1.31064713001251220703e-01) (414, -5.54764688014984130859e-01) (415, 3.32499682903289794922e-01) (416, -5.15064932405948638916e-02) (417, -1.23136222362518310547e+00) (418, -1.00212775170803070068e-01) (419, -9.10717725753784179688e-01) (420, -2.02083396911621093750e+00) (421, -4.20175403356552124023e-01) (422, 1.90897941589355468750e-01) (423, 1.28267288208007812500e-01) (424, -1.27905443310737609863e-01) (425, 7.57055133581161499023e-02) (426, -3.35617244243621826172e-01) (427, 4.30518686771392822266e-01) (428, 8.22918176651000976562e-01) (429, 1.45989561080932617188e+00) (430, 9.43951070308685302734e-01) (431, 2.94579792022705078125e+00) (432, 2.37862035632133483887e-01) (433, 9.94818955659866333008e-02) (434, -1.35741978883743286133e-01) (435, 5.99134191870689392090e-02) (436, 5.59981502592563629150e-02) (437, 1.69076561927795410156e+00) (438, 1.19869429618120193481e-02) (439, 8.76012817025184631348e-02) (440, -9.73258838057518005371e-02) (441, -8.77361223101615905762e-02) (442, -1.43614023923873901367e-01) (443, -3.81582975387573242188e-01) (444, 3.69294404983520507812e-01) (445, -8.36222544312477111816e-02) (446, 1.08906164765357971191e-01) (447, -2.13357672095298767090e-01) (448, -1.47451147437095642090e-01) (449, 1.67262926697731018066e-01) (450, 5.06195068359375000000e-01) (451, 3.88669133186340332031e-01) (452, 5.50517141819000244141e-01) (453, 1.97402134537696838379e-01) (454, 1.63959279656410217285e-01) (455, 1.45481258630752563477e-01) (456, 1.56650736927986145020e-01) (457, 3.78360189497470855713e-02) (458, 1.29629215225577354431e-02) (459, -2.35669702291488647461e-01) (460, -9.13640335202217102051e-02) (461, 1.15562342107295989990e-01) (462, -2.77891248464584350586e-01) (463, -5.91805428266525268555e-02) (464, 1.63977909088134765625e+00) (465, -1.58922255039215087891e-01) (466, -1.18110813200473785400e-01) (467, -7.75880575180053710938e-01) (468, -6.02519571781158447266e-01) (469, 3.52761507034301757812e-01) (470, 4.92813348770141601562e-01) (471, 3.65643829107284545898e-01) (472, 2.69147396087646484375e-01) (473, 7.85763978958129882812e-01) (474, 1.46051675081253051758e-01) (475, 1.07945222407579421997e-02) (476, -3.97508181631565093994e-02) (477, 5.61745278537273406982e-02) (478, 1.24838642776012420654e-01) (479, -4.92041073739528656006e-02) (480, 6.07556998729705810547e-01) (481, -8.88483405113220214844e-01) (482, -4.56051737070083618164e-01) (483, -1.05456447601318359375e+00) (484, -2.12599113583564758301e-01) (485, -2.06294938921928405762e-01) (486, -1.82181000709533691406e-01) (487, -1.95944070816040039062e-01) (488, 4.82626333832740783691e-02) (489, 6.02781951427459716797e-01) (490, 3.25771540403366088867e-01) (491, 2.15453237295150756836e-01) (492, 9.52277898788452148438e-01) (493, 5.83438634872436523438e-01) (494, 2.25895598530769348145e-01) (495, 1.27433323860168457031e+00) (496, 4.03946638107299804688e-01) (497, -4.80916723608970642090e-02) (498, -2.94152140617370605469e-01) (499, -2.46674537658691406250e-01) (500, 8.53725612163543701172e-01) (501, 1.21356435120105743408e-01) (502, -3.12749922275543212891e-01) (503, 6.99954628944396972656e-01) (504, -1.60433724522590637207e-01) (505, -2.79402226209640502930e-01) (506, -2.24932149052619934082e-01) (507, -1.25268977135419845581e-02) (508, 9.69613343477249145508e-02) (509, 8.33129733800888061523e-02) (510, 1.54589684680104255676e-02) (511, 5.41488081216812133789e-02) (512, -7.11036548018455505371e-02) (513, -3.16093653440475463867e-01) (514, -1.64758145809173583984e-01) (515, -1.88848927617073059082e-01) (516, -1.80911898612976074219e-01) (517, -2.28714853525161743164e-01) (518, -3.27490240335464477539e-01) (519, -8.62519145011901855469e-02) (520, -6.03596329689025878906e-01) (521, -9.86073553562164306641e-01) (522, -6.49400055408477783203e-01) (523, -3.25988829135894775391e-02) (524, -1.82754203677177429199e-01) (525, -2.09647759795188903809e-01) (526, 7.56284163799136877060e-04) (527, -2.39967107772827148438e-02) (528, 6.97078853845596313477e-02) (529, 4.26680259406566619873e-02) (530, -5.42779676616191864014e-02) (531, -4.06066514551639556885e-02) (532, 1.64176791906356811523e-01) (533, -1.63250893354415893555e-01) (534, -1.24857373535633087158e-01) (535, -2.27382957935333251953e-01) (536, 3.90382438898086547852e-01) (537, -1.79306820034980773926e-01) (538, -5.16623258590698242188e-02) (539, -2.97463983297348022461e-01) (540, -5.65286993980407714844e-01) (541, -1.05753228068351745605e-01) (542, -3.33723843097686767578e-01) (543, -2.88344155997037887573e-02) (544, -2.30339989066123962402e-01) (545, -5.32627880573272705078e-01) (546, -3.09880799613893032074e-03) (547, -6.23762384057044982910e-02) (548, 2.65855286270380020142e-02) (549, -8.11197422444820404053e-03) (550, 3.74680683016777038574e-02) (551, -2.95601427555084228516e-01) (552, -2.62111216783523559570e-01) (553, -2.42540016770362854004e-01) (554, -2.15465858578681945801e-01) (555, -1.99137404561042785645e-01) (556, -2.29848489165306091309e-01) (557, -7.15994656085968017578e-01) (558, 4.35518920421600341797e-02) (559, -2.76243686676025390625e-01) (560, -7.21759557723999023438e-01) (561, -3.10702651739120483398e-01) (562, -4.85142290592193603516e-01) (563, -9.60876047611236572266e-01) (564, -8.08847174048423767090e-02) (565, -3.05473148822784423828e-01) (566, -8.01616720855236053467e-03) (567, -1.73871237784624099731e-02) (568, -1.39438524842262268066e-01) (569, -4.45709936320781707764e-02) (570, 2.69668623805046081543e-02) (571, -2.19853207468986511230e-01) (572, -2.39103361964225769043e-01) (573, -1.07246145606040954590e-01) (574, -1.85449033975601196289e-01) (575, -1.93553224205970764160e-01) (576, -2.82561779022216796875e-01) (577, 5.34691736102104187012e-02) (578, -3.29166859388351440430e-01) (579, -7.63618767261505126953e-01) (580, -5.31387209892272949219e-01) (581, -2.37753599882125854492e-01) (582, -6.64378225803375244141e-01) (583, 1.34927719831466674805e-01) (584, 2.94690262526273727417e-02) (585, 4.15547281503677368164e-01) (586, 2.24199742078781127930e-01) (587, -3.09921391308307647705e-02) (588, -2.84575689584016799927e-02) (589, 6.51587545871734619141e-02) (590, 6.50582984089851379395e-02) (591, -2.56489425897598266602e-01) (592, -1.30033671855926513672e-01) (593, -1.69472008943557739258e-01) (594, -1.84841081500053405762e-01) (595, -3.52534413337707519531e-01) (596, -4.56064254045486450195e-01) (597, -3.24076354503631591797e-01) (598, -2.05048859119415283203e-01) (599, -5.18374383449554443359e-01) (600, -7.26265013217926025391e-02) (0, -1.29689163208007812500e+02) (1, 2.08563217163085937500e+02) (2, -9.84851684570312500000e+01) (3, 4.66424217224121093750e+01) (4, 1.07783576965332031250e+02) (5, -6.31800460815429687500e+01) (6, -8.04706726074218750000e+01) (7, -3.63595247268676757812e-01) (8, 5.52772941589355468750e+01) (9, 1.86470775604248046875e+01) (10, 7.93881034851074218750e+00) (11, 9.22325801849365234375e+00) (12, 2.00327372550964355469e+00) (13, 4.01189613342285156250e+00) (14, 1.27044999599456787109e+00) (15, 9.11083507537841796875e+00) (16, 3.26416587829589843750e+01) (17, 1.01517343521118164062e+01) (18, -1.15848617553710937500e+01) (19, 2.03500671386718750000e+01) (20, -5.35788803100585937500e+01) (21, -2.99818134307861328125e+01) (22, 2.22996020317077636719e+00) (23, -3.04011325836181640625e+01) (24, -1.78693926334381103516e+00) (25, 3.33618450164794921875e+00) (26, -2.30118370056152343750e+00) (27, -3.32849645614624023438e+00) (28, -2.45510816574096679688e+00) (29, -2.39039325714111328125e+00) (30, -1.31549507379531860352e-01) (31, -1.43784971237182617188e+01) (32, -8.75469893217086791992e-02) (33, -3.96551281213760375977e-01) (34, -1.75265878438949584961e-01) (35, -2.34077048301696777344e+00) (36, -3.08736038208007812500e+00) (37, -8.64773094654083251953e-01) (38, -9.92558777332305908203e-01) (39, -9.76313948631286621094e-01) (40, 7.00481772422790527344e-01) (41, -2.11456370353698730469e+00) (42, -1.65725469589233398438e+00) (43, -8.68869721889495849609e-01) (44, -5.82411348819732666016e-01) (45, -1.11251604557037353516e+00) (46, -2.47302383184432983398e-01) (47, 7.50907287001609802246e-02) (48, 9.82136577367782592773e-02) (49, -3.29505354166030883789e-02) (50, -8.36240425705909729004e-02) (51, -9.15575325489044189453e-02) (52, 4.91889640688896179199e-02) (53, -1.44309148192405700684e-01) (54, -2.42910850793123245239e-02) (55, -9.95277762413024902344e-02) (56, -6.82575941085815429688e-01) (57, -1.54067015647888183594e+00) (58, -1.04867351055145263672e+00) (59, -2.87508177757263183594e+00) (60, 1.97405838966369628906e+00) (61, -7.35965549945831298828e-01) (62, -1.97155940532684326172e+00) (63, -6.80002927780151367188e-01) (64, -6.86620250344276428223e-02) (65, -1.07091888785362243652e-01) (66, -8.29822793602943420410e-02) (67, -1.30719155073165893555e-01) (68, -2.46071796864271163940e-02) (69, -6.10595904290676116943e-02) (70, -2.51927077770233154297e-01) (71, -9.31009203195571899414e-02) (72, -3.01243085414171218872e-02) (73, -7.80352577567100524902e-02) (74, -1.01396828889846801758e-01) (75, -1.02102048695087432861e-01) (76, -1.51863440871238708496e-01) (77, -5.44845640659332275391e-01) (78, -6.15597009658813476562e-01) (79, -1.14120876789093017578e+00) (80, 1.43353404998779296875e+01) (81, -8.86950910091400146484e-01) (82, -7.54659986495971679688e+00) (83, -6.99546694755554199219e-01) (84, -1.70265644788742065430e-01) (85, -1.25304326415061950684e-01) (86, 2.52029094845056533813e-02) (87, 4.32796254754066467285e-02) (88, 9.56274494528770446777e-02) (89, -4.12833690643310546875e-02) (90, -1.65242418646812438965e-01) (91, -2.17413663864135742188e-01) (92, -4.69031906127929687500e+00) (93, -2.02551174163818359375e+00) (94, -3.32576781511306762695e-01) (95, -1.85886546969413757324e-01) (96, -2.28681206703186035156e+00) (97, -5.62763690948486328125e-01) (98, -1.86470851898193359375e+01) (99, -1.38667316436767578125e+01) (100, -2.87932157516479492188e+00) (101, -4.91814576089382171631e-02) (102, -4.47779074311256408691e-02) (103, 1.99985176324844360352e-01) (104, 5.19953444600105285645e-02) (105, -3.35105806589126586914e-02) (106, 1.72087684273719787598e-01) (107, 3.45120690762996673584e-02) (108, 1.49740744382143020630e-02) (109, -1.15753956139087677002e-01) (110, -2.23234742879867553711e-01) (111, -2.28931412100791931152e-01) (112, -1.30659371614456176758e-01) (113, -4.33327518403530120850e-02) (114, -9.41229090094566345215e-02) (115, -1.90263062715530395508e-01) (116, -6.08998164534568786621e-02) (117, -5.94934105873107910156e-01) (118, -1.86690914630889892578e+00) (119, -3.89728069305419921875e-01) (120, 2.61717247962951660156e+00) (121, 1.11993331909179687500e+01) (122, 5.54772615432739257812e-01) (123, 6.36421871185302734375e+00) (124, 1.24707794189453125000e+00) (125, 9.48040723800659179688e-01) (126, 1.76023998260498046875e+01) (127, 4.27792668342590332031e-01) (128, 3.46082401275634765625e+00) (129, 1.49805322289466857910e-01) (130, 6.92396104335784912109e-01) (131, -2.11684091482311487198e-04) (132, 3.52729745209217071533e-02) (133, -4.62152287364006042480e-02) (134, -7.46027007699012756348e-02) (135, 2.44441449642181396484e-01) (136, 4.05329436063766479492e-01) (137, 1.25819301605224609375e+00) (138, 1.25828132033348083496e-01) (139, 3.12733203172683715820e-02) (140, 1.09236030578613281250e+02) (141, 1.66149444580078125000e+01) (142, 8.98647403717041015625e+00) (143, 3.77525091171264648438e+00) (144, 3.25217747688293457031e+00) (145, 4.14840745925903320312e+00) (146, -5.63698291778564453125e+00) (147, 3.62964987754821777344e+00) (148, -1.80240809917449951172e-01) (149, 2.63515934348106384277e-02) (150, -5.40924596786499023438e+00) (151, 6.90113449096679687500e+00) (152, 4.24291759729385375977e-01) (153, -1.58703997731208801270e-01) (154, 2.76820635795593261719e+00) (155, 4.73675876855850219727e-01) (156, 7.71251544356346130371e-02) (157, -1.94185659289360046387e-01) (158, -5.81136798858642578125e+00) (159, -1.51008808612823486328e+00) (160, 8.01681935787200927734e-01) (161, 9.19315576553344726562e-01) (162, 1.43392741680145263672e+00) (163, 1.99696838855743408203e+00) (164, 1.97727608680725097656e+00) (165, -9.60991859436035156250e-01) (166, 7.61265754699707031250e-01) (167, 1.90948069095611572266e-01) (168, 2.52016574144363403320e-01) (169, 1.49035960435867309570e-01) (170, 1.20080065727233886719e+00) (171, -2.94261074066162109375e+00) (172, 1.37939155101776123047e-01) (173, -9.76751744747161865234e-02) (174, 1.20429623126983642578e+00) (175, 9.83680844306945800781e-01) (176, 2.27742716670036315918e-01) (177, -2.25975647568702697754e-01) (178, -3.64174306392669677734e-01) (179, -3.68647646903991699219e+00) (180, 6.76574604585766792297e-03) (181, 1.71373069286346435547e+00) (182, 1.28647816181182861328e+00) (183, 2.50101494789123535156e+00) (184, 3.22771930694580078125e+00) (185, 5.53389370441436767578e-01) (186, 5.09167432785034179688e+00) (187, 6.12108290195465087891e-01) (188, 5.06926953792572021484e-01) (189, 1.29935592412948608398e-01) (190, 1.15687835216522216797e+00) (191, -5.34352254867553710938e+00) (192, -1.25145769119262695312e+00) (193, -5.96762120723724365234e-01) (194, 1.30642151832580566406e+00) (195, 3.86900281906127929688e+00) (196, 9.53248888254165649414e-02) (197, 1.96204185485839843750e-02) (198, -5.87417976930737495422e-03) (199, -1.20556366443634033203e+00) (200, -2.76892447471618652344e+00) (201, 1.45701363682746887207e-01) (202, 8.98133456707000732422e-01) (203, 1.74536716938018798828e+00) (204, 3.96186709403991699219e+00) (205, 1.58825039863586425781e-01) (206, 1.95408878326416015625e+01) (207, 6.79159450531005859375e+00) (208, 2.39551663398742675781e-01) (209, 4.18928891420364379883e-01) (210, 9.83249604701995849609e-01) (211, 1.07122302055358886719e+00) (212, 4.93799924850463867188e-01) (213, 1.08228027820587158203e+00) (214, 8.41473579406738281250e+00) (215, -1.53697264194488525391e+00) (216, -1.52536010742187500000e+00) (217, -9.63470697402954101562e-01) (218, 7.13651180267333984375e-01) (219, -2.16235423088073730469e+00) (220, -5.77435588836669921875e+00) (221, 1.02444685995578765869e-01) (222, 1.91896879673004150391e+00) (223, 9.70563769340515136719e-01) (224, 6.89140141010284423828e-01) (225, 4.86463594436645507812e+00) (226, 1.08669185638427734375e+01) (227, 2.74323010444641113281e+00) (228, 3.95492553710937500000e-01) (229, -4.15798997879028320312e+00) (230, -1.96443438529968261719e+00) (231, -3.46795141696929931641e-01) (232, -1.91760018467903137207e-01) (233, -1.07194885611534118652e-01) (234, 1.22867143154144287109e+00) (235, -5.51590099930763244629e-02) (236, 1.21168848127126693726e-02) (237, -2.05354019999504089355e-01) (238, 1.04330778121948242188e+01) (239, 1.89963579177856445312e+00) (240, 5.74526190757751464844e-01) (241, 1.57981121540069580078e+00) (242, 3.30724537372589111328e-01) (243, 3.16456973552703857422e-01) (244, 4.36480522155761718750e-01) (245, -1.06423654556274414062e+01) (246, 3.10309231281280517578e-01) (247, 4.74038839340209960938e-01) (248, 4.26184564828872680664e-01) (249, 4.37603384256362915039e-01) (250, 1.49654701352119445801e-01) (251, -2.23379284143447875977e-01) (252, 1.88902337104082107544e-02) (253, 1.05277702212333679199e-01) (254, 2.03421801328659057617e-01) (255, 6.03056326508522033691e-02) (256, -1.39140248298645019531e-01) (257, 1.61117613315582275391e+00) (258, -4.58331775665283203125e+00) (259, -1.12683176994323730469e+00) (260, -2.75034713745117187500e+00) (261, 6.26455783843994140625e+00) (262, 3.27899068593978881836e-01) (263, 2.41368845105171203613e-01) (264, 7.52743184566497802734e-01) (265, 1.94268763065338134766e-01) (266, 2.15621009469032287598e-01) (267, 3.32454025745391845703e-01) (268, 4.04630154371261596680e-01) (269, 3.03635835647583007812e-01) (270, -1.23006746172904968262e-01) (271, 3.64059992134571075439e-02) (272, 6.09553903341293334961e-02) (273, 1.26257896423339843750e-01) (274, 1.64629399776458740234e-01) (275, 4.47382569313049316406e-01) (276, -7.83480182290077209473e-02) (277, 1.34936168789863586426e-01) (278, -3.22644323110580444336e-01) (279, -2.48308753967285156250e+00) (280, 2.76353955268859863281e+00) (281, 8.98463904857635498047e-01) (282, 1.64816126227378845215e-01) (283, 3.88626575469970703125e-01) (284, 1.64569652080535888672e+00) (285, 8.89196395874023437500e-01) (286, 3.25477123260498046875e-01) (287, 1.89337730407714843750e-01) (288, 2.58889496326446533203e-01) (289, 2.51955360174179077148e-01) (290, -8.06707888841629028320e-03) (291, -3.62660773098468780518e-02) (292, 1.81254431605339050293e-01) (293, 5.91094195842742919922e-02) (294, 2.12423279881477355957e-01) (295, 7.66903877258300781250e-01) (296, -2.27710321545600891113e-01) (297, -2.44282078742980957031e+00) (298, -1.25749635696411132812e+00) (299, -1.89520490169525146484e+00) (300, -3.11544466018676757812e+00) (301, 3.33858966827392578125e-01) (302, 2.43760198354721069336e-01) (303, 1.84131845831871032715e-01) (304, 8.64988684654235839844e-01) (305, 1.32377123832702636719e+00) (306, -8.40559482574462890625e-01) (307, 1.51825472712516784668e-01) (308, 1.25707596540451049805e-01) (309, -7.83870518207550048828e-02) (310, 5.66133372485637664795e-02) (311, 3.04949283599853515625e-03) (312, 7.84237161278724670410e-02) (313, 6.90358802676200866699e-02) (314, 1.33810415863990783691e-01) (315, -3.71460258960723876953e-01) (316, -4.92685854434967041016e-01) (317, -8.04823577404022216797e-01) (318, -5.12451648712158203125e-01) (319, -1.03861784934997558594e+00) (320, -6.94137215614318847656e-01) (321, 2.25887387990951538086e-01) (322, 1.40613585710525512695e-01) (323, 4.23746615648269653320e-01) (324, 4.49864715337753295898e-01) (325, -1.99470317363739013672e+00) (326, 4.17220413684844970703e-01) (327, 1.19368219375610351562e+00) (328, -7.44341850280761718750e-01) (329, 1.61673221737146377563e-02) (330, -2.81121879816055297852e-01) (331, 1.61388978362083435059e-01) (332, 2.97686785459518432617e-01) (333, 8.32187086343765258789e-02) (334, 1.45431593060493469238e-01) (335, 5.35698384046554565430e-02) (336, 9.24583896994590759277e-02) (337, 2.12249800562858581543e-01) (338, -5.18380403518676757812e+00) (339, -1.90559744834899902344e+00) (340, -2.04164683818817138672e-01) (341, 3.28242599964141845703e-01) (342, 2.10919857025146484375e+00) (343, 7.35164308547973632812e+00) (344, 7.83726036548614501953e-01) (345, 1.76669943332672119141e+00) (346, 3.32673339843750000000e+01) (347, 3.22373466491699218750e+01) (348, -2.79581725597381591797e-01) (349, -4.06650006771087646484e-01) (350, -3.53723824024200439453e-01) (351, -5.47302246093750000000e-01) (352, -1.38176932930946350098e-01) (353, 3.54234665632247924805e-01) (354, 2.08974793553352355957e-01) (355, 3.20646315813064575195e-01) (356, 3.45882266759872436523e-01) (357, 1.86610266566276550293e-01) (358, -2.37531274557113647461e-01) (359, -3.40037035942077636719e+00) (360, 7.74373173713684082031e-01) (361, 5.85022926330566406250e-01) (362, 1.49323809146881103516e+00) (363, 1.81906688213348388672e+00) (364, 7.11903572082519531250e+00) (365, 5.48279881477355957031e-01) (366, 5.22258043289184570312e+00) (367, 1.04893207550048828125e+00) (368, -8.38713347911834716797e-01) (369, -2.73188090324401855469e+00) (370, -5.53668022155761718750e-01) (371, -1.65730029344558715820e-01) (372, 2.49102503061294555664e-01) (373, 1.87196806073188781738e-01) (374, 4.82453078031539916992e-01) (375, 1.80858910083770751953e-01) (376, 6.21863342821598052979e-02) (377, 2.97691732645034790039e-01) (378, -1.54725939035415649414e-01) (379, -5.46202957630157470703e-01) (380, -2.67892807722091674805e-01) (381, 3.16667854785919189453e-01) (382, 1.98941421508789062500e+00) (383, 5.74424982070922851562e-01) (384, 7.86798655986785888672e-01) (385, 5.13503789901733398438e-01) (386, 4.23884868621826171875e-01) (387, 1.79865944385528564453e+00) (388, 1.15279324352741241455e-01) (389, -1.89148844219744205475e-03) (390, 5.42028248310089111328e-02) (391, 6.84468924999237060547e-01) (392, 2.10304903984069824219e+00) (393, 1.50269508361816406250e-01) (394, 3.20341140031814575195e-01) (395, 5.17408609390258789062e-01) (396, 1.66829764842987060547e-01) (397, 3.58452737331390380859e-01) (398, 3.34655582904815673828e-01) (399, -2.17234611511230468750e+00) (400, 1.64819374084472656250e+01) (401, 4.46240633726119995117e-01) (402, -7.92506456375122070312e-01) (403, 2.03366443514823913574e-01) (404, 3.59636157751083374023e-01) (405, -8.69039916992187500000e+00) (406, -1.99059653282165527344e+00) (407, -2.81955146789550781250e+00) (408, -2.00676703453063964844e+00) (409, -3.91319179534912109375e+00) (410, -4.28207731246948242188e+00) (411, 1.61730957031250000000e+00) (412, 1.37926101684570312500e+00) (413, 2.72659897804260253906e-01) (414, -2.81212747097015380859e-01) (415, 6.93652987480163574219e-01) (416, -3.18325124680995941162e-02) (417, 3.69356870651245117188e-01) (418, 2.65993297100067138672e-01) (419, -7.65060544013977050781e-01) (420, 5.91149759292602539062e+00) (421, 1.46205022931098937988e-01) (422, 1.80659905076026916504e-01) (423, 5.72007298469543457031e-01) (424, 2.65012097358703613281e+00) (425, 5.24283796548843383789e-02) (426, -5.29950904846191406250e+00) (427, -4.14275303483009338379e-02) (428, 3.25219702720642089844e+00) (429, -5.14423191547393798828e-01) (430, -1.03423565626144409180e-01) (431, -6.36464548110961914062e+00) (432, 4.01445358991622924805e-01) (433, 1.37342527508735656738e-01) (434, 2.77849912643432617188e-01) (435, 4.84723478555679321289e-01) (436, 1.66410729289054870605e-01) (437, 4.10102605819702148438e-01) (438, -5.04151701927185058594e-01) (439, 3.00558537244796752930e-01) (440, -3.34093600511550903320e-01) (441, 5.78190803527832031250e-01) (442, 4.50621008872985839844e-01) (443, 2.09108099341392517090e-01) (444, 4.55087214708328247070e-01) (445, -4.68042373657226562500e-01) (446, -1.02431797981262207031e+00) (447, 4.77594184875488281250e+00) (448, 6.79262727499008178711e-02) (449, 2.06758618354797363281e-01) (450, 2.31984630227088928223e-03) (451, 1.02731354534626007080e-01) (452, 2.62295663356781005859e-01) (453, 2.82231271266937255859e-01) (454, 8.78294408321380615234e-01) (455, 6.37921616435050964355e-02) (456, 1.82150006294250488281e-01) (457, 6.11706435680389404297e-01) (458, 4.13370639085769653320e-01) (459, 5.45980453491210937500e-01) (460, 1.22807610034942626953e+00) (461, 2.90262103080749511719e+00) (462, 2.70329713821411132812e-01) (463, 1.05199009180068969727e-01) (464, 2.71807849407196044922e-01) (465, -3.69589366018772125244e-02) (466, 8.82311534881591796875e+00) (467, -1.27401709556579589844e-01) (468, 7.35984221100807189941e-02) (469, 7.04917088150978088379e-02) (470, 3.36413532495498657227e-01) (471, 6.12198531627655029297e-01) (472, 2.72913962602615356445e-01) (473, 6.37442708015441894531e-01) (474, 4.64821398258209228516e-01) (475, 3.04172366857528686523e-01) (476, 2.56865262985229492188e-01) (477, 1.83742359280586242676e-01) (478, 1.48841559886932373047e-01) (479, 3.30392897129058837891e-01) (480, -1.52904834747314453125e+01) (481, 1.28482460975646972656e-01) (482, 9.25048887729644775391e-02) (483, 1.25171124935150146484e-01) (484, 2.56758004426956176758e-01) (485, 5.40299832820892333984e-01) (486, 1.29857445135712623596e-02) (487, 6.36879727244377136230e-02) (488, 1.00455875396728515625e+01) (489, 3.12070798873901367188e+00) (490, 2.31455111503601074219e+00) (491, 2.97993242740631103516e-01) (492, 4.54477965831756591797e-01) (493, 1.02029226720333099365e-01) (494, 1.97187036275863647461e-01) (495, 7.87904858589172363281e-02) (496, 1.20627805590629577637e-01) (497, 1.71184003353118896484e-01) (498, -6.11222207546234130859e-01) (499, 1.50979971885681152344e+00) (500, -3.16315740346908569336e-01) (501, -8.42467665672302246094e-01) (502, -8.07231664657592773438e-01) (503, -2.52433121204376220703e-01) (504, -5.22752344608306884766e-01) (505, -4.46539103984832763672e-01) (506, -1.09835767745971679688e+00) (507, -7.57623314857482910156e-02) (508, 2.94874864630401134491e-03) (509, -9.76319909095764160156e-02) (510, -5.78488111495971679688e-02) (511, -3.64272110164165496826e-02) (512, -2.42107715457677841187e-02) (513, -5.23635111749172210693e-02) (514, -3.41813787817955017090e-02) (515, 8.78625959157943725586e-02) (516, 8.74805524945259094238e-02) (517, -9.69986855983734130859e-01) (518, 3.37970137596130371094e-01) (519, 3.53122025728225708008e-01) (520, -3.43440383672714233398e-01) (521, -8.47304940223693847656e-01) (522, -8.33209455013275146484e-01) (523, -8.85129451751708984375e-01) (524, -8.87905299663543701172e-01) (525, -2.85910461097955703735e-02) (526, -2.54141557961702346802e-02) (527, -9.86407995223999023438e-02) (528, 1.05496291071176528931e-02) (529, 1.03223405312746763229e-03) (530, -3.35359782911837100983e-03) (531, -8.82239788770675659180e-02) (532, -1.84080060571432113647e-02) (533, -2.68626868724822998047e-01) (534, -9.22164693474769592285e-02) (535, 2.82583609223365783691e-02) (536, -1.39142170548439025879e-01) (537, 1.16119377315044403076e-01) (538, -1.10640199854969978333e-02) (539, -1.38901948928833007812e-01) (540, -2.48919982910156250000e+01) (541, -6.16064727306365966797e-01) (542, -1.26391208171844482422e+00) (543, -7.33799457550048828125e-01) (544, -6.75059735774993896484e-01) (545, -7.59732842445373535156e-01) (546, 3.15259933471679687500e-01) (547, -9.60731133818626403809e-02) (548, -4.50130142271518707275e-02) (549, -1.72899141907691955566e-01) (550, -1.68872922658920288086e-01) (551, -1.02274864912033081055e-01) (552, -6.59812450408935546875e+00) (553, -2.89471119642257690430e-01) (554, -1.52743861079216003418e-01) (555, -1.00229108333587646484e+00) (556, 1.18454350158572196960e-02) (557, -4.91636419296264648438e+00) (558, -9.71004188060760498047e-01) (559, -1.35104954242706298828e-01) (560, -2.60965671539306640625e+01) (561, -9.84147727489471435547e-01) (562, -2.05284476280212402344e+00) (563, -9.10456657409667968750e-01) (564, -2.78316068649291992188e+00) (565, -6.18250668048858642578e-01) (566, -2.80542243272066116333e-02) (567, -6.98535516858100891113e-02) (568, -4.42059058696031570435e-03) (569, -1.55302211642265319824e-01) (570, -2.57089417427778244019e-02) (571, -1.79081689566373825073e-02) (572, -1.98900878429412841797e-01) (573, -6.70704841613769531250e-02) (574, -1.14611282944679260254e-01) (575, -9.62689295411109924316e-02) (576, 1.19586556684225797653e-03) (577, -1.88273787498474121094e+00) (578, 1.29090797901153564453e+00) (579, 4.22243148088455200195e-01) (580, 2.74826478958129882812e+00) (581, -6.43663346767425537109e-01) (582, -2.33127498626708984375e+01) (583, -3.96608591079711914062e+00) (584, -2.03125977516174316406e+00) (585, -8.84172201156616210938e-01) (586, -7.58335947990417480469e-01) (587, -1.02366566658020019531e+00) (588, -2.90309131145477294922e-01) (589, -4.57101285457611083984e-01) (590, -1.95802748203277587891e-01) (591, -5.67494966089725494385e-02) (592, -1.11525930464267730713e-01) (593, -9.49931889772415161133e-02) (594, -4.81562642380595207214e-03) (595, 6.40400033444166183472e-03) (596, -4.10927794873714447021e-02) (597, 2.19871327280998229980e-01) (598, -4.23934787511825561523e-01) (599, -2.43922039866447448730e-01) (600, 2.37056314945220947266e-02) (0, -3.63420534133911132812e+00) (1, 1.73339977264404296875e+01) (2, -6.03267550468444824219e-01) (3, 2.73153424263000488281e+00) (4, 1.70283639430999755859e+00) (5, 1.12033322453498840332e-01) (6, -3.15664887428283691406e-01) (7, 2.31045275926589965820e-01) (8, 4.17236709594726562500e+00) (9, 4.27327543497085571289e-01) (10, -8.18291783332824707031e-01) (11, 3.03839385509490966797e-01) (12, 5.58031558990478515625e-01) (13, 3.08191370964050292969e+00) (14, 3.06497788429260253906e+00) (15, 3.53555011749267578125e+00) (16, 2.94551372528076171875e+00) (17, 2.28315398097038269043e-01) (18, 1.27520284652709960938e+01) (19, -4.26190614700317382812e+00) (20, -2.23500895500183105469e+00) (21, -1.31773388385772705078e+00) (22, -4.09587478637695312500e+00) (23, -8.40217396616935729980e-02) (24, -1.16025000810623168945e-01) (25, 1.27034771442413330078e+00) (26, -7.07047358155250549316e-02) (27, -1.04116845130920410156e+00) (28, -5.90376034379005432129e-02) (29, -5.78957088291645050049e-02) (30, -8.77506077289581298828e-01) (31, -6.66820943355560302734e-01) (32, -3.82607936859130859375e-01) (33, -1.19925230741500854492e-01) (34, 3.84602993726730346680e-02) (35, -4.37362134456634521484e-01) (36, -2.60341703891754150391e-01) (37, 1.89337104558944702148e-01) (38, -7.71819472312927246094e-01) (39, 2.19023212790489196777e-01) (40, -1.65773689746856689453e-01) (41, 3.05974343791604042053e-03) (42, -2.28916004300117492676e-01) (43, -2.73133516311645507812e-01) (44, -6.43613114953041076660e-02) (45, -5.17468266189098358154e-02) (46, -5.69236986339092254639e-02) (47, -4.69035565853118896484e-01) (48, 9.27890762686729431152e-02) (49, 3.62172536551952362061e-02) (50, 1.69441848993301391602e-01) (51, 3.67002648999914526939e-04) (52, 1.67359396815299987793e-01) (53, -2.12865713983774185181e-02) (54, 1.01269051432609558105e-01) (55, 1.32983744144439697266e-01) (56, -2.27777361869812011719e-01) (57, -1.59594857692718505859e+00) (58, -6.49874091148376464844e-01) (59, 6.38844311237335205078e-01) (60, -3.07727664709091186523e-01) (61, 1.07740581035614013672e-01) (62, -2.85768479108810424805e-01) (63, 6.22821180149912834167e-03) (64, 2.72623561322689056396e-02) (65, -3.00396438688039779663e-02) (66, -7.53356665372848510742e-02) (67, -1.56585991382598876953e-01) (68, -5.39522133767604827881e-02) (69, 1.14320971071720123291e-01) (70, 5.64081966876983642578e-03) (71, 1.11843913793563842773e-01) (72, 5.48581369221210479736e-02) (73, 1.10381711274385452271e-02) (74, -7.85584561526775360107e-03) (75, 1.01683862507343292236e-01) (76, -3.97217944264411926270e-02) (77, 2.30930224061012268066e-02) (78, -8.62954333424568176270e-02) (79, 3.01928400993347167969e-01) (80, -1.02991116046905517578e+00) (81, 1.06971263885498046875e+00) (82, -2.37841412425041198730e-01) (83, 1.75515100359916687012e-01) (84, 6.33991956710815429688e-02) (85, -5.73963485658168792725e-02) (86, -5.71992062032222747803e-03) (87, -1.14410601556301116943e-01) (88, -4.74437475204467773438e-02) (89, -1.68929789215326309204e-02) (90, 1.39195129275321960449e-01) (91, 6.56754598021507263184e-02) (92, -1.16161480545997619629e-02) (93, -1.27462660893797874451e-02) (94, 7.85372499376535415649e-03) (95, 5.55861257016658782959e-02) (96, -5.31841702759265899658e-02) (97, 3.03383786231279373169e-02) (98, -7.56381213665008544922e-01) (99, 4.36193980276584625244e-02) (100, 1.39317607879638671875e+00) (101, -1.14727325737476348877e-01) (102, 3.68184186518192291260e-02) (103, 4.18085381388664245605e-02) (104, -1.94814801216125488281e-02) (105, -1.46845290437340736389e-02) (106, -1.47975832223892211914e-01) (107, -1.15862645208835601807e-01) (108, -2.10156547836959362030e-03) (109, -1.20131010189652442932e-02) (110, 1.57420486211776733398e-01) (111, 3.96422520279884338379e-02) (112, 1.30706474184989929199e-01) (113, 1.32380547001957893372e-02) (114, 3.89474257826805114746e-02) (115, 1.10970926284790039062e+00) (116, 1.03844308853149414062e+00) (117, -8.47827922552824020386e-03) (118, 9.69648510217666625977e-02) (119, 8.01488816738128662109e-01) (120, 5.13615465164184570312e+00) (121, 1.76350757479667663574e-01) (122, 6.80860519409179687500e-01) (123, 4.15743470191955566406e-01) (124, 3.27897489070892333984e-01) (125, 4.47884108871221542358e-03) (126, -8.50819289684295654297e-01) (127, -1.57231658697128295898e-01) (128, 5.69692671298980712891e-01) (129, 4.65246021747589111328e-01) (130, 3.56118649244308471680e-01) (131, 2.05938085913658142090e-01) (132, 1.36594131588935852051e-01) (133, 9.22741368412971496582e-02) (134, -2.74728275835514068604e-02) (135, -9.38795953989028930664e-02) (136, 9.49526131153106689453e-02) (137, 5.77934205532073974609e-01) (138, -1.72293379902839660645e-01) (139, 3.02627623081207275391e-01) (140, -6.50440025329589843750e+00) (141, 6.91880643367767333984e-01) (142, 9.24216270446777343750e-01) (143, 3.90876382589340209961e-02) (144, -1.22856569290161132812e+00) (145, 1.26486170291900634766e+00) (146, 1.62436664104461669922e-01) (147, -1.82269930839538574219e+00) (148, -7.88669764995574951172e-01) (149, -5.06401062011718750000e-01) (150, 5.10422945022583007812e-01) (151, 2.30387791991233825684e-01) (152, -2.89020389318466186523e-01) (153, -2.14903518557548522949e-01) (154, -1.42357856035232543945e-01) (155, -7.20384251326322555542e-03) (156, -1.49570798873901367188e+00) (157, -8.44227075576782226562e-01) (158, -4.69830369949340820312e+00) (159, -1.34384620189666748047e+00) (160, -4.07646059989929199219e-01) (161, 1.49250864982604980469e-01) (162, 3.77021878957748413086e-01) (163, 3.74527834355831146240e-02) (164, 2.12201640009880065918e-01) (165, 4.03983026742935180664e-01) (166, 7.81492054462432861328e-01) (167, -9.52462181448936462402e-02) (168, 9.85419191420078277588e-03) (169, 1.18223212659358978271e-01) (170, -1.01651675999164581299e-01) (171, -1.01294510066509246826e-01) (172, -2.44652137160301208496e-01) (173, -1.24996876716613769531e+00) (174, -1.39932543039321899414e-01) (175, -4.13044005632400512695e-01) (176, -1.07595240697264671326e-02) (177, 1.92129135131835937500e-01) (178, -1.51003646850585937500e+00) (179, -1.40759921073913574219e+00) (180, -3.11471194028854370117e-01) (181, 3.13723266124725341797e-01) (182, 2.13429999351501464844e+00) (183, 3.85519385337829589844e-01) (184, 8.03010225296020507812e-01) (185, 4.24023896455764770508e-01) (186, 5.31538784503936767578e-01) (187, -5.10933697223663330078e-01) (188, 1.35257691144943237305e-01) (189, 1.12935982644557952881e-01) (190, -9.49085474014282226562e-01) (191, -2.53544330596923828125e-01) (192, -4.06801432371139526367e-01) (193, -2.65618830919265747070e-01) (194, -8.95030573010444641113e-02) (195, 2.26889941841363906860e-02) (196, 2.26716160774230957031e-01) (197, 6.13850355148315429688e-01) (198, -4.94592219591140747070e-01) (199, -6.45977139472961425781e-01) (200, -1.64243531227111816406e+00) (201, 1.60136446356773376465e-01) (202, 1.26605510711669921875e+00) (203, 2.75238696485757827759e-02) (204, 5.18965572118759155273e-02) (205, 2.33908951282501220703e-01) (206, 2.79594331979751586914e-01) (207, -5.36000430583953857422e-01) (208, 3.52012477815151214600e-02) (209, -3.89457046985626220703e-02) (210, -2.96645518392324447632e-02) (211, 8.32472443580627441406e-02) (212, -2.80103802680969238281e-01) (213, -4.78645414113998413086e-02) (214, 2.96838972717523574829e-02) (215, -9.37185212969779968262e-02) (216, -1.08482623100280761719e+00) (217, 2.20471858978271484375e+00) (218, -1.76611497998237609863e-01) (219, 1.20379257202148437500e+00) (220, -1.66604802012443542480e-01) (221, 1.25302493572235107422e-01) (222, 6.53036609292030334473e-02) (223, 1.74549981951713562012e-01) (224, -3.12034487724304199219e-01) (225, 2.41796419024467468262e-01) (226, 2.18596920371055603027e-01) (227, 1.37504673004150390625e+00) (228, 1.68859994411468505859e+00) (229, 8.55857389979064464569e-04) (230, 2.81634211540222167969e-01) (231, -9.88468411378562450409e-04) (232, -1.35246858000755310059e-01) (233, 8.47258567810058593750e-02) (234, 1.66512832045555114746e-01) (235, 7.83287212252616882324e-02) (236, 5.72038851678371429443e-02) (237, 2.16431282460689544678e-02) (238, -2.22224736213684082031e+00) (239, -1.44239640235900878906e+00) (240, -1.46499049663543701172e+00) (241, 1.43119812011718750000e-01) (242, 3.39799642562866210938e-01) (243, 2.39435926079750061035e-01) (244, -5.25286078453063964844e-01) (245, 2.60051727294921875000e-01) (246, 4.42391604185104370117e-01) (247, 8.61369073390960693359e-01) (248, 3.24442125856876373291e-02) (249, 1.56560406088829040527e-01) (250, 1.89275339245796203613e-01) (251, 1.35215252637863159180e-01) (252, 5.74924238026142120361e-03) (253, 1.01244464516639709473e-01) (254, 1.97101086378097534180e-01) (255, 1.56816169619560241699e-01) (256, 1.56954991817474365234e+00) (257, 1.21444666385650634766e+00) (258, 1.02149687707424163818e-01) (259, 5.86960017681121826172e-01) (260, -1.19922637939453125000e+00) (261, 1.86301767826080322266e-01) (262, 4.09385710954666137695e-01) (263, -7.95835018157958984375e-01) (264, -6.86631023883819580078e-01) (265, 1.39790877699851989746e-01) (266, 2.14716926217079162598e-01) (267, 1.99161320924758911133e-01) (268, 4.34956192970275878906e-01) (269, 3.24643477797508239746e-02) (270, 2.18036025762557983398e-01) (271, 1.25887528061866760254e-01) (272, -3.88404764235019683838e-02) (273, 2.18073710799217224121e-01) (274, 5.96385061740875244141e-01) (275, 4.91025820374488830566e-02) (276, -6.25606119632720947266e-01) (277, 1.44607678055763244629e-01) (278, 3.28904867172241210938e-01) (279, -1.73840320110321044922e+00) (280, -5.19662439823150634766e-01) (281, 1.93639338016510009766e-01) (282, 3.19810688495635986328e-01) (283, 2.06275939941406250000e+00) (284, 6.07345402240753173828e-01) (285, 9.27073210477828979492e-02) (286, 6.37480914592742919922e-02) (287, 3.22744041681289672852e-01) (288, 2.11319252848625183105e-01) (289, 1.87734067440032958984e-01) (290, 1.19904828071594238281e+00) (291, 2.11265131831169128418e-01) (292, 3.50533038377761840820e-01) (293, 1.01535946130752563477e-01) (294, 4.97418373823165893555e-01) (295, 1.04665726423263549805e-01) (296, 1.92296802997589111328e+00) (297, 2.21417039632797241211e-01) (298, 3.81383337080478668213e-02) (299, 3.60787391662597656250e-01) (300, -4.32683527469635009766e-01) (301, 2.43450447916984558105e-01) (302, 2.34737253189086914062e+00) (303, 3.71072947978973388672e-01) (304, 4.02993172407150268555e-01) (305, 1.32854890823364257812e+00) (306, 2.79467642307281494141e-01) (307, 2.83716177940368652344e+00) (308, 2.45500907301902770996e-01) (309, 1.83643713593482971191e-01) (310, 4.21245098114013671875e-01) (311, 5.73435664176940917969e-01) (312, 1.43254458904266357422e-01) (313, 1.76401197910308837891e-01) (314, 3.71504515409469604492e-01) (315, 1.04919873178005218506e-01) (316, 1.95441409945487976074e-01) (317, -4.87518161535263061523e-01) (318, 1.88169747591018676758e-01) (319, 1.10322940349578857422e+00) (320, -3.87487083673477172852e-01) (321, 3.07011574506759643555e-01) (322, 1.64788648486137390137e-01) (323, 2.66430586576461791992e-01) (324, 1.56346634030342102051e-01) (325, -8.79375159740447998047e-01) (326, 1.21805161237716674805e-01) (327, 9.01269733905792236328e-01) (328, 2.37677901983261108398e-01) (329, 5.27175255119800567627e-02) (330, 1.29873365163803100586e-01) (331, 8.24015557765960693359e-01) (332, 2.69910871982574462891e-01) (333, 7.04832226037979125977e-02) (334, -6.75956457853317260742e-02) (335, 1.94205954670906066895e-01) (336, 1.50073036551475524902e-01) (337, 2.86864966154098510742e-01) (338, -1.26519903540611267090e-01) (339, -1.19258844852447509766e+00) (340, -4.05174612998962402344e-01) (341, 3.80314618349075317383e-01) (342, 1.94953456521034240723e-01) (343, 1.72856107354164123535e-01) (344, 6.48729801177978515625e-02) (345, 2.71217897534370422363e-03) (346, 4.33754324913024902344e-02) (347, 8.93063619732856750488e-02) (348, 7.03647911548614501953e-01) (349, 2.86183983087539672852e-01) (350, -8.90392243862152099609e-01) (351, 2.15280771255493164062e-01) (352, 1.61497879028320312500e+00) (353, -6.32600486278533935547e-02) (354, 3.92542257905006408691e-02) (355, 2.98497945070266723633e-01) (356, 1.22438050806522369385e-01) (357, 1.91484928131103515625e-01) (358, 1.09809674322605133057e-01) (359, -1.82808411121368408203e+00) (360, 4.84802693128585815430e-01) (361, 1.76202133297920227051e-01) (362, 2.43959024548530578613e-01) (363, 1.51589035987854003906e-01) (364, -5.39768896996974945068e-02) (365, -4.09220278263092041016e-01) (366, -7.85306870937347412109e-01) (367, -2.30704873800277709961e-01) (368, -1.27312612533569335938e+00) (369, 7.38590002059936523438e-01) (370, 1.81822955608367919922e-01) (371, 2.66729265451431274414e-01) (372, 7.32611000537872314453e-01) (373, -2.68814772367477416992e-01) (374, -1.21239222586154937744e-01) (375, 6.44473612308502197266e-01) (376, 9.52942609786987304688e-01) (377, -7.42775499820709228516e-02) (378, 1.15842171013355255127e-01) (379, 1.48698478937149047852e-01) (380, -1.06672155857086181641e+00) (381, 4.30293157696723937988e-02) (382, 2.46383249759674072266e-01) (383, 5.57606332004070281982e-02) (384, -7.57486879825592041016e-01) (385, -1.09577208757400512695e-01) (386, -2.74962633848190307617e-01) (387, -2.09755373001098632812e+00) (388, -6.61713123321533203125e-01) (389, 6.88708201050758361816e-02) (390, -2.31053256988525390625e+00) (391, -1.15275621414184570312e+00) (392, -5.66886626183986663818e-02) (393, -5.64177036285400390625e-02) (394, 6.20176345109939575195e-02) (395, 1.28673881292343139648e-01) (396, 9.57923829555511474609e-02) (397, 2.27490901947021484375e+00) (398, 2.27091774344444274902e-01) (399, 4.12591814994812011719e-01) (400, -2.04457187652587890625e+00) (401, -1.67862519621849060059e-01) (402, -4.92158442735671997070e-01) (403, -4.44830149412155151367e-01) (404, -8.87596726417541503906e-01) (405, -1.47566366195678710938e+00) (406, -4.08872723579406738281e-01) (407, -7.41888582706451416016e-01) (408, -1.54154825210571289062e+00) (409, -1.36609899997711181641e+00) (410, -1.48586320877075195312e+00) (411, -4.89763170480728149414e-01) (412, -8.77087563276290893555e-02) (413, 4.89846318960189819336e-01) (414, 2.64315366744995117188e-01) (415, 5.39608061313629150391e-01) (416, 1.41426571644842624664e-03) (417, 6.91380202770233154297e-02) (418, 2.65826845169067382812e+00) (419, 3.67501899600028991699e-02) (420, 2.27381214499473571777e-01) (421, -6.59953951835632324219e-01) (422, -2.37054809927940368652e-01) (423, -5.09766697883605957031e-01) (424, -9.06430259346961975098e-02) (425, 9.79917645454406738281e-01) (426, -2.98396825790405273438e-01) (427, -1.04907166957855224609e+00) (428, -9.74411308765411376953e-01) (429, -6.76808893680572509766e-01) (430, -6.44302308559417724609e-01) (431, -4.57356071472167968750e+00) (432, 4.38197935000061988831e-03) (433, -1.37198305130004882812e+00) (434, -1.11473321914672851562e-01) (435, 6.42083287239074707031e-02) (436, 4.15944725275039672852e-01) (437, -1.73220598697662353516e+00) (438, 5.03900706768035888672e-01) (439, 3.21881800889968872070e-01) (440, -4.19403374195098876953e-01) (441, -3.22526782751083374023e-01) (442, -3.32216709852218627930e-01) (443, -6.87553703784942626953e-01) (444, -3.81873220205307006836e-01) (445, -2.83017549663782119751e-02) (446, -4.86414656043052673340e-02) (447, -3.59268605709075927734e-01) (448, -3.61049652099609375000e-01) (449, -1.65675759315490722656e-01) (450, 4.86585080623626708984e-01) (451, -1.44289565086364746094e+00) (452, -8.93694013357162475586e-02) (453, -2.05009311437606811523e-01) (454, -1.17162711918354034424e-01) (455, 5.71189448237419128418e-03) (456, 3.92318367958068847656e-01) (457, 2.15217128396034240723e-01) (458, 5.12804210186004638672e-01) (459, 8.18364083766937255859e-01) (460, -9.28968608379364013672e-01) (461, -2.43852630257606506348e-01) (462, -4.87044245004653930664e-01) (463, -5.89569866657257080078e-01) (464, -2.40661397576332092285e-01) (465, -1.60476446151733398438e-01) (466, -2.99119148403406143188e-02) (467, -1.05309613049030303955e-01) (468, -7.33995676040649414062e-01) (469, -6.45932197570800781250e-01) (470, -3.58899861574172973633e-01) (471, -1.30517101287841796875e+00) (472, -2.01946556568145751953e-01) (473, -3.44038605690002441406e-01) (474, -2.21670627593994140625e-01) (475, -1.06299594044685363770e-01) (476, 9.39600691199302673340e-02) (477, 6.94403005763888359070e-03) (478, -1.24248445034027099609e-01) (479, -8.44103656709194183350e-03) (480, -1.48727834224700927734e+00) (481, 3.08884799480438232422e-01) (482, 6.56929686665534973145e-02) (483, -1.20333738625049591064e-01) (484, -3.36342453956604003906e-01) (485, 2.92876869440078735352e-01) (486, 2.28883028030395507812e-01) (487, 7.16964542865753173828e-01) (488, 6.44842267036437988281e-01) (489, 2.35530272126197814941e-01) (490, 3.29011797904968261719e-01) (491, -1.26592516899108886719e-01) (492, -3.49032074213027954102e-01) (493, -2.89783418178558349609e-01) (494, 1.40787273645401000977e-01) (495, 1.33696049451828002930e-01) (496, 3.65678310394287109375e-01) (497, 7.91332006454467773438e-01) (498, 1.34885895252227783203e+00) (499, 2.21851205825805664062e+00) (500, 3.21258492767810821533e-02) (501, -2.05005388706922531128e-02) (502, -2.35663458704948425293e-01) (503, 1.55673891305923461914e-01) (504, 1.15767307579517364502e-01) (505, 1.03127144277095794678e-01) (506, 6.11049160361289978027e-02) (507, 3.63053411245346069336e-01) (508, 4.65648509562015533447e-02) (509, -1.98947321623563766479e-02) (510, 3.30145880579948425293e-02) (511, -9.46423411369323730469e-03) (512, -5.83357214927673339844e-02) (513, 4.17102053761482238770e-02) (514, 1.39744162559509277344e-01) (515, 3.69621887803077697754e-02) (516, 1.03255428373813629150e-01) (517, 2.98621747642755508423e-02) (518, 1.39557287096977233887e-01) (519, 1.47830224037170410156e+00) (520, 4.65115271508693695068e-02) (521, -3.95726859569549560547e-02) (522, 7.04980567097663879395e-02) (523, 8.95390361547470092773e-02) (524, 1.84885725378990173340e-01) (525, -1.44444368779659271240e-02) (526, 4.34895977377891540527e-02) (527, 1.20946176350116729736e-01) (528, 1.91937908530235290527e-01) (529, 1.20717324316501617432e-01) (530, -2.61166524142026901245e-02) (531, 1.14902392029762268066e-01) (532, 6.90402314066886901855e-02) (533, -1.56659707427024841309e-02) (534, -3.84017825126647949219e-02) (535, 5.89166507124900817871e-02) (536, 3.19096110761165618896e-02) (537, 2.44881864637136459351e-02) (538, -8.83657834492623806000e-04) (539, 1.90472647547721862793e-01) (540, -3.80963653326034545898e-01) (541, 1.43590539693832397461e-01) (542, 7.60928392410278320312e-02) (543, 1.78343847393989562988e-01) (544, 1.87475979328155517578e-01) (545, 1.06694892048835754395e-01) (546, -6.09566271305084228516e-02) (547, 1.00277073681354522705e-01) (548, 1.96112785488367080688e-02) (549, 3.74878384172916412354e-02) (550, 2.13583242148160934448e-02) (551, 7.16711431741714477539e-02) (552, -1.21135383844375610352e-01) (553, -6.94934800267219543457e-02) (554, -5.75337409973144531250e-01) (555, -3.95128965377807617188e-01) (556, 1.32269173860549926758e-01) (557, 1.08182497322559356689e-01) (558, 7.42902755737304687500e-02) (559, 1.58509179949760437012e-01) (560, 1.33610653877258300781e+00) (561, -1.11267060041427612305e-01) (562, 2.07015395164489746094e-01) (563, 8.33295062184333801270e-02) (564, 1.53406664729118347168e-01) (565, -4.72070388495922088623e-02) (566, -9.65855121612548828125e-02) (567, 9.86422132700681686401e-03) (568, 1.48249328136444091797e-01) (569, 2.51623336225748062134e-02) (570, 2.34756860882043838501e-02) (571, 1.81040316820144653320e-02) (572, -3.38013499975204467773e-01) (573, -1.38080269098281860352e-01) (574, -1.21861882507801055908e-01) (575, -5.05165159702301025391e-01) (576, 2.58916672319173812866e-02) (577, 8.31918716430664062500e-02) (578, -4.15085107088088989258e-02) (579, 1.01998254656791687012e-01) (580, -6.45712327957153320312e+00) (581, 1.20620536804199218750e+00) (582, -1.79189741611480712891e-01) (583, -2.41739287972450256348e-01) (584, -2.05381378531455993652e-01) (585, -1.58669903874397277832e-01) (586, -2.00679916888475418091e-02) (587, -2.16460093855857849121e-01) (588, -4.50588464736938476562e-01) (589, -1.97090283036231994629e-01) (590, -2.59826987981796264648e-01) (591, -1.35339722037315368652e-01) (592, -4.54084962606430053711e-01) (593, -4.98622357845306396484e-01) (594, -5.27344286441802978516e-01) (595, -1.51137340068817138672e+00) (596, -1.19178391993045806885e-01) (597, -8.14075291156768798828e-01) (598, -8.32846388220787048340e-02) (599, 1.59761263057589530945e-03) (600, 5.32215535640716552734e-02) (0, 1.50000000000000000000e+03) (1, 1.50000000000000000000e+03) (2, 1.49891943359375000000e+03) (3, 1.50000000000000000000e+03) (4, 1.50000000000000000000e+03) (5, 1.50000000000000000000e+03) (6, 1.50000000000000000000e+03) (7, 1.50000000000000000000e+03) (8, 1.50000000000000000000e+03) (9, 1.50000000000000000000e+03) (10, 1.50000000000000000000e+03) (11, 1.50000000000000000000e+03) (12, 1.50000000000000000000e+03) (13, 1.48589721679687500000e+03) (14, 6.12432739257812500000e+02) (15, -9.02853637695312500000e+02) (16, -1.50000000000000000000e+03) (17, -1.50000000000000000000e+03) (18, -1.50000000000000000000e+03) (19, -1.50000000000000000000e+03) (20, 4.15610717773437500000e+02) (21, 1.50000000000000000000e+03) (22, 1.50000000000000000000e+03) (23, 1.50000000000000000000e+03) (24, 1.50000000000000000000e+03) (25, 1.50000000000000000000e+03) (26, 1.50000000000000000000e+03) (27, 1.50000000000000000000e+03) (28, 1.50000000000000000000e+03) (29, 1.50000000000000000000e+03) (30, 1.50000000000000000000e+03) (31, 1.05974975585937500000e+03) (32, 1.50000000000000000000e+03) (33, 1.50000000000000000000e+03) (34, 1.50000000000000000000e+03) (35, 1.50000000000000000000e+03) (36, 1.49071252441406250000e+03) (37, 1.49581030273437500000e+03) (38, 6.85611816406250000000e+02) (39, 4.33360351562500000000e+02) (40, 1.29086450195312500000e+03) (41, -3.48139953613281250000e+01) (42, 1.50000000000000000000e+03) (43, 1.50000000000000000000e+03) (44, 1.50000000000000000000e+03) (45, 1.50000000000000000000e+03) (46, 1.50000000000000000000e+03) (47, 1.50000000000000000000e+03) (48, 1.50000000000000000000e+03) (49, 1.50000000000000000000e+03) (50, 1.71188629150390625000e+02) (51, 1.41149121093750000000e+03) (52, 1.50000000000000000000e+03) (53, 1.25030187988281250000e+03) (54, 1.11648156738281250000e+03) (55, 1.50000000000000000000e+03) (56, 1.50000000000000000000e+03) (57, 1.49071252441406250000e+03) (58, 1.49977392578125000000e+03) (59, 1.49057885742187500000e+03) (60, 1.50000000000000000000e+03) (61, 1.50000000000000000000e+03) (62, 1.50000000000000000000e+03) (63, 1.50000000000000000000e+03) (64, 1.50000000000000000000e+03) (65, 1.50000000000000000000e+03) (66, 1.50000000000000000000e+03) (67, 1.50000000000000000000e+03) (68, 1.50000000000000000000e+03) (69, 1.50000000000000000000e+03) (70, 1.50000000000000000000e+03) (71, 1.50000000000000000000e+03) (72, 1.50000000000000000000e+03) (73, 1.50000000000000000000e+03) (74, 1.50000000000000000000e+03) (75, 1.50000000000000000000e+03) (76, 1.50000000000000000000e+03) (77, 1.46076416015625000000e+03) (78, -1.88731033325195312500e+02) (79, -7.62272338867187500000e+02) (80, 1.50000000000000000000e+03) (81, 1.50000000000000000000e+03) (82, 1.50000000000000000000e+03) (83, 1.50000000000000000000e+03) (84, 1.50000000000000000000e+03) (85, 1.50000000000000000000e+03) (86, 1.50000000000000000000e+03) (87, 1.50000000000000000000e+03) (88, 1.50000000000000000000e+03) (89, 1.50000000000000000000e+03) (90, 1.46562451171875000000e+03) (91, 1.50000000000000000000e+03) (92, 1.50000000000000000000e+03) (93, 1.50000000000000000000e+03) (94, 1.50000000000000000000e+03) (95, 1.50000000000000000000e+03) (96, 1.50000000000000000000e+03) (97, 1.47420104980468750000e+03) (98, 1.39482348632812500000e+03) (99, 1.46664294433593750000e+03) (100, 1.50000000000000000000e+03) (101, -1.03952226638793945312e+01) (102, 1.50000000000000000000e+03) (103, 1.50000000000000000000e+03) (104, 1.50000000000000000000e+03) (105, 1.50000000000000000000e+03) (106, 1.50000000000000000000e+03) (107, 1.50000000000000000000e+03) (108, 1.50000000000000000000e+03) (109, 1.50000000000000000000e+03) (110, 2.72236576080322265625e+01) (111, 1.78050827026367187500e+02) (112, 1.12916430664062500000e+03) (113, 1.50000000000000000000e+03) (114, 1.50000000000000000000e+03) (115, 1.50000000000000000000e+03) (116, 1.50000000000000000000e+03) (117, 1.50000000000000000000e+03) (118, -9.05303344726562500000e+02) (119, 1.47998583984375000000e+03) (120, 1.50000000000000000000e+03) (121, -5.47886085510253906250e+01) (122, 2.10163619995117187500e+02) (123, 1.50000000000000000000e+03) (124, 1.50000000000000000000e+03) (125, 4.77537963867187500000e+02) (126, -1.27522143554687500000e+03) (127, 1.26566858291625976562e+01) (128, 8.05079223632812500000e+02) (129, 1.49750512695312500000e+03) (130, -1.45797070312500000000e+03) (131, -9.23120666503906250000e+02) (132, 1.24910942077636718750e+02) (133, -1.49345117187500000000e+03) (134, -1.48406298828125000000e+03) (135, 1.50000000000000000000e+03) (136, -1.49492016601562500000e+03) (137, -1.19328125000000000000e+03) (138, -4.37488769531250000000e+02) (139, -6.70340881347656250000e+02) (140, 1.50000000000000000000e+03) (141, -1.04716638183593750000e+03) (142, -5.84675964355468750000e+02) (143, 1.50000000000000000000e+03) (144, 1.50000000000000000000e+03) (145, 1.47594934082031250000e+03) (146, 1.50000000000000000000e+03) (147, 1.42778295898437500000e+03) (148, 1.38893774414062500000e+03) (149, 7.82061401367187500000e+02) (150, -1.50000000000000000000e+03) (151, -7.43922119140625000000e+02) (152, -1.26906616210937500000e+03) (153, 4.78040733337402343750e+01) (154, -2.81122741699218750000e+02) (155, 1.50000000000000000000e+03) (156, 1.50000000000000000000e+03) (157, 1.50000000000000000000e+03) (158, 1.50000000000000000000e+03) (159, 1.49032531738281250000e+03) (160, 1.50000000000000000000e+03) (161, -1.50000000000000000000e+03) (162, -8.92923461914062500000e+02) (163, 1.49997961425781250000e+03) (164, 1.49448059082031250000e+03) (165, 1.48314111328125000000e+03) (166, 1.50000000000000000000e+03) (167, 1.46249194335937500000e+03) (168, -1.85766601562500000000e+02) (169, 1.46722180175781250000e+03) (170, -1.50000000000000000000e+03) (171, 1.28575695800781250000e+03) (172, 1.17587207031250000000e+03) (173, 1.23606147766113281250e+02) (174, -1.27585681152343750000e+03) (175, 1.50000000000000000000e+03) (176, 1.50000000000000000000e+03) (177, 1.50000000000000000000e+03) (178, 1.48925048828125000000e+03) (179, 1.48981030273437500000e+03) (180, 1.50000000000000000000e+03) (181, -1.50000000000000000000e+03) (182, -1.14709631347656250000e+03) (183, 1.43924084472656250000e+03) (184, -7.90868103027343750000e+02) (185, 1.45245239257812500000e+03) (186, 1.45715979003906250000e+03) (187, 1.40100427246093750000e+03) (188, -6.78180480957031250000e+02) (189, 1.48619287109375000000e+03) (190, -1.50000000000000000000e+03) (191, 1.46654101562500000000e+03) (192, 1.05828894042968750000e+03) (193, 4.15365722656250000000e+02) (194, 1.50000000000000000000e+03) (195, 1.50000000000000000000e+03) (196, 1.50000000000000000000e+03) (197, 1.50000000000000000000e+03) (198, 9.89072631835937500000e+02) (199, 1.48981030273437500000e+03) (200, 1.47848083496093750000e+03) (201, -1.50000000000000000000e+03) (202, -1.31452636718750000000e+03) (203, -1.14781127929687500000e+03) (204, -4.73146301269531250000e+02) (205, 1.49977746582031250000e+03) (206, 1.48809008789062500000e+03) (207, 1.50000000000000000000e+03) (208, 1.50000000000000000000e+03) (209, 1.50000000000000000000e+03) (210, 1.27830517578125000000e+03) (211, 1.50000000000000000000e+03) (212, 1.50000000000000000000e+03) (213, 1.50000000000000000000e+03) (214, 1.50000000000000000000e+03) (215, 1.50000000000000000000e+03) (216, 1.50000000000000000000e+03) (217, 1.50000000000000000000e+03) (218, -1.75274505615234375000e+02) (219, 1.44411242675781250000e+03) (220, 1.50000000000000000000e+03) (221, -1.50000000000000000000e+03) (222, 1.60317962646484375000e+02) (223, -5.08891143798828125000e+01) (224, 6.49449279785156250000e+02) (225, 1.50000000000000000000e+03) (226, 1.50000000000000000000e+03) (227, 1.50000000000000000000e+03) (228, 1.50000000000000000000e+03) (229, 1.50000000000000000000e+03) (230, 1.50000000000000000000e+03) (231, 1.50000000000000000000e+03) (232, 1.50000000000000000000e+03) (233, 1.50000000000000000000e+03) (234, 1.50000000000000000000e+03) (235, 1.50000000000000000000e+03) (236, 1.50000000000000000000e+03) (237, -5.31940368652343750000e+02) (238, 1.45200000000000000000e+03) (239, 1.42291027832031250000e+03) (240, 1.50000000000000000000e+03) (241, -1.35275793457031250000e+03) (242, 1.22823291015625000000e+03) (243, 1.50000000000000000000e+03) (244, 1.05110595703125000000e+03) (245, 1.50000000000000000000e+03) (246, 1.50000000000000000000e+03) (247, 1.50000000000000000000e+03) (248, 1.50000000000000000000e+03) (249, 1.50000000000000000000e+03) (250, 1.50000000000000000000e+03) (251, 1.50000000000000000000e+03) (252, 1.50000000000000000000e+03) (253, 1.50000000000000000000e+03) (254, 1.50000000000000000000e+03) (255, 1.50000000000000000000e+03) (256, 1.50000000000000000000e+03) (257, 1.11586944580078125000e+02) (258, 1.48207141113281250000e+03) (259, 1.32985656738281250000e+03) (260, 1.50000000000000000000e+03) (261, -1.43523291015625000000e+03) (262, 3.47147644042968750000e+02) (263, 1.06854174804687500000e+03) (264, 6.67173004150390625000e+01) (265, 1.50000000000000000000e+03) (266, 1.50000000000000000000e+03) (267, 1.50000000000000000000e+03) (268, 1.50000000000000000000e+03) (269, 1.50000000000000000000e+03) (270, 1.50000000000000000000e+03) (271, 1.50000000000000000000e+03) (272, 1.50000000000000000000e+03) (273, 1.50000000000000000000e+03) (274, 1.50000000000000000000e+03) (275, 1.50000000000000000000e+03) (276, 1.50000000000000000000e+03) (277, 1.50000000000000000000e+03) (278, 1.49253527832031250000e+03) (279, 1.49752648925781250000e+03) (280, 1.50000000000000000000e+03) (281, 3.85200881958007812500e+01) (282, 1.50000000000000000000e+03) (283, 1.50000000000000000000e+03) (284, 1.50000000000000000000e+03) (285, 1.50000000000000000000e+03) (286, 1.50000000000000000000e+03) (287, 1.50000000000000000000e+03) (288, 1.50000000000000000000e+03) (289, 1.50000000000000000000e+03) (290, 1.50000000000000000000e+03) (291, 1.50000000000000000000e+03) (292, 1.50000000000000000000e+03) (293, 1.50000000000000000000e+03) (294, 1.50000000000000000000e+03) (295, 1.50000000000000000000e+03) (296, 1.50000000000000000000e+03) (297, 1.48559997558593750000e+03) (298, 1.48418945312500000000e+03) (299, 6.84699951171875000000e+02) (300, 1.50000000000000000000e+03) (301, 1.45994552612304687500e+02) (302, 1.50000000000000000000e+03) (303, 1.50000000000000000000e+03) (304, 1.48921411132812500000e+03) (305, 1.38503833007812500000e+03) (306, 1.50000000000000000000e+03) (307, 1.50000000000000000000e+03) (308, 1.50000000000000000000e+03) (309, 1.50000000000000000000e+03) (310, 1.50000000000000000000e+03) (311, 1.50000000000000000000e+03) (312, 1.50000000000000000000e+03) (313, 1.50000000000000000000e+03) (314, 1.50000000000000000000e+03) (315, 1.50000000000000000000e+03) (316, 1.50000000000000000000e+03) (317, 6.20751533508300781250e+01) (318, -2.93737457275390625000e+02) (319, 1.34112695312500000000e+03) (320, 1.50000000000000000000e+03) (321, 3.27107977867126464844e+00) (322, 1.30320568847656250000e+03) (323, 1.50000000000000000000e+03) (324, 1.43620214843750000000e+03) (325, 1.49601635742187500000e+03) (326, 1.50000000000000000000e+03) (327, 1.50000000000000000000e+03) (328, 1.01911737060546875000e+03) (329, 3.56605834960937500000e+01) (330, 3.92258262634277343750e+01) (331, 1.38493981933593750000e+03) (332, 1.50000000000000000000e+03) (333, 1.50000000000000000000e+03) (334, 1.50000000000000000000e+03) (335, 1.50000000000000000000e+03) (336, 1.50000000000000000000e+03) (337, 9.40972290039062500000e+02) (338, 1.46531750488281250000e+03) (339, 1.34205847167968750000e+03) (340, 1.42768640136718750000e+03) (341, 5.01828372478485107422e-01) (342, 3.09598274230957031250e+01) (343, -1.03313952636718750000e+03) (344, 8.86503234863281250000e+02) (345, 1.50000000000000000000e+03) (346, 1.20719409179687500000e+03) (347, -1.33374841308593750000e+03) (348, -1.29703332519531250000e+03) (349, -1.50000000000000000000e+03) (350, -1.43672888183593750000e+03) (351, -1.48617919921875000000e+03) (352, 1.44866784667968750000e+03) (353, 1.50000000000000000000e+03) (354, 1.50000000000000000000e+03) (355, 1.50000000000000000000e+03) (356, 1.50000000000000000000e+03) (357, 1.48365173339843750000e+03) (358, 1.48587512207031250000e+03) (359, 8.44358154296875000000e+02) (360, 1.38221423339843750000e+03) (361, 1.18742132186889648438e+01) (362, -7.79132843017578125000e+01) (363, 6.59183898925781250000e+02) (364, -1.37324438476562500000e+03) (365, 1.50000000000000000000e+03) (366, 1.50000000000000000000e+03) (367, 8.37288513183593750000e+02) (368, -1.38175524902343750000e+03) (369, -2.33287010192871093750e+01) (370, -1.45465539550781250000e+03) (371, -1.45545166015625000000e+03) (372, 4.74636749267578125000e+02) (373, 1.50000000000000000000e+03) (374, 1.50000000000000000000e+03) (375, 1.50000000000000000000e+03) (376, 1.50000000000000000000e+03) (377, 1.48587512207031250000e+03) (378, 1.47600000000000000000e+03) (379, 7.83808105468750000000e+02) (380, 1.50000000000000000000e+03) (381, 1.33268451690673828125e+00) (382, -1.48960998535156250000e+03) (383, 9.31742858886718750000e+02) (384, 1.49999108886718750000e+03) (385, 1.50000000000000000000e+03) (386, 1.48839099121093750000e+03) (387, 1.67718566894531250000e+02) (388, -1.33614099121093750000e+03) (389, -1.31361767578125000000e+03) (390, 3.84268341064453125000e+01) (391, 1.53887825012207031250e+01) (392, 1.50000000000000000000e+03) (393, 1.50000000000000000000e+03) (394, 1.50000000000000000000e+03) (395, 1.50000000000000000000e+03) (396, 1.50000000000000000000e+03) (397, 1.50000000000000000000e+03) (398, 1.50000000000000000000e+03) (399, 1.50000000000000000000e+03) (400, 1.50000000000000000000e+03) (401, 1.47966699218750000000e+03) (402, 1.49276562500000000000e+03) (403, 1.49640588378906250000e+03) (404, 1.50000000000000000000e+03) (405, 1.50000000000000000000e+03) (406, 1.49628039550781250000e+03) (407, -3.36065185546875000000e+02) (408, -1.08435522460937500000e+03) (409, -1.18299841308593750000e+03) (410, 1.50000000000000000000e+03) (411, 1.49932751464843750000e+03) (412, 1.49995507812500000000e+03) (413, 1.50000000000000000000e+03) (414, 1.50000000000000000000e+03) (415, 1.50000000000000000000e+03) (416, 1.50000000000000000000e+03) (417, 1.50000000000000000000e+03) (418, 1.50000000000000000000e+03) (419, 1.50000000000000000000e+03) (420, 1.50000000000000000000e+03) (421, 1.46044543457031250000e+03) (422, 