FANN_FLO_2.1
num_layers=3
learning_rate=0.700000
connection_rate=1.000000
network_type=0
learning_momentum=0.000000
training_algorithm=2
train_error_function=1
train_stop_function=0
cascade_output_change_fraction=0.010000
quickprop_decay=-0.000100
quickprop_mu=1.750000
rprop_increase_factor=1.200000
rprop_decrease_factor=0.500000
rprop_delta_min=0.000000
rprop_delta_max=50.000000
rprop_delta_zero=0.100000
cascade_output_stagnation_epochs=12
cascade_candidate_change_fraction=0.010000
cascade_candidate_stagnation_epochs=12
cascade_max_out_epochs=150
cascade_min_out_epochs=50
cascade_max_cand_epochs=150
cascade_min_cand_epochs=50
cascade_num_candidate_groups=2
bit_fail_limit=3.49999994039535522461e-01
cascade_candidate_limit=1.00000000000000000000e+03
cascade_weight_multiplier=4.00000005960464477539e-01
cascade_activation_functions_count=10
cascade_activation_functions=3 5 7 8 10 11 14 15 16 17 
cascade_activation_steepnesses_count=4
cascade_activation_steepnesses=2.50000000000000000000e-01 5.00000000000000000000e-01 7.50000000000000000000e-01 1.00000000000000000000e+00 
layer_sizes=601 101 11 
scale_included=0
neurons (num_inputs, activation_function, activation_steepness)=(0, 0, 0.00000000000000000000e+00) (0, 0, 0.00000000000000000000e+00) (0, 0, 0.00000000000000000000e+00) (0, 0, 0.00000000000000000000e+00) (0, 0, 0.00000000000000000000e+00) (0, 0, 0.00000000000000000000e+00) (0, 0, 0.00000000000000000000e+00) (0, 0, 0.00000000000000000000e+00) (0, 0, 0.00000000000000000000e+00) (0, 0, 0.00000000000000000000e+00) (0, 0, 0.00000000000000000000e+00) (0, 0, 0.00000000000000000000e+00) (0, 0, 0.00000000000000000000e+00) (0, 0, 0.00000000000000000000e+00) (0, 0, 0.00000000000000000000e+00) (0, 0, 0.00000000000000000000e+00) (0, 0, 0.00000000000000000000e+00) (0, 0, 0.00000000000000000000e+00) (0, 0, 0.00000000000000000000e+00) (0, 0, 0.00000000000000000000e+00) (0, 0, 0.00000000000000000000e+00) (0, 0, 0.00000000000000000000e+00) (0, 0, 0.00000000000000000000e+00) (0, 0, 0.00000000000000000000e+00) (0, 0, 0.00000000000000000000e+00) (0, 0, 0.00000000000000000000e+00) (0, 0, 0.00000000000000000000e+00) (0, 0, 0.00000000000000000000e+00) (0, 0, 0.00000000000000000000e+00) (0, 0, 0.00000000000000000000e+00) (0, 0, 0.00000000000000000000e+00) (0, 0, 0.00000000000000000000e+00) (0, 0, 0.00000000000000000000e+00) (0, 0, 0.00000000000000000000e+00) (0, 0, 0.00000000000000000000e+00) (0, 0, 0.00000000000000000000e+00) (0, 0, 0.00000000000000000000e+00) (0, 0, 0.00000000000000000000e+00) (0, 0, 0.00000000000000000000e+00) (0, 0, 0.00000000000000000000e+00) (0, 0, 0.00000000000000000000e+00) (0, 0, 0.00000000000000000000e+00) (0, 0, 0.00000000000000000000e+00) (0, 0, 0.00000000000000000000e+00) (0, 0, 0.00000000000000000000e+00) (0, 0, 0.00000000000000000000e+00) (0, 0, 0.00000000000000000000e+00) (0, 0, 0.00000000000000000000e+00) (0, 0, 0.00000000000000000000e+00) (0, 0, 0.00000000000000000000e+00) (0, 0, 0.00000000000000000000e+00) (0, 0, 0.00000000000000000000e+00) (0, 0, 0.00000000000000000000e+00) (0, 0, 0.00000000000000000000e+00) (0, 0, 0.00000000000000000000e+00) (0, 0, 0.00000000000000000000e+00) (0, 0, 0.00000000000000000000e+00) (0, 0, 0.00000000000000000000e+00) (0, 0, 0.00000000000000000000e+00) (0, 0, 0.00000000000000000000e+00) (0, 0, 0.00000000000000000000e+00) (0, 0, 0.00000000000000000000e+00) (0, 0, 0.00000000000000000000e+00) (0, 0, 0.00000000000000000000e+00) (0, 0, 0.00000000000000000000e+00) (0, 0, 0.00000000000000000000e+00) (0, 0, 0.00000000000000000000e+00) (0, 0, 0.00000000000000000000e+00) (0, 0, 0.00000000000000000000e+00) (0, 0, 0.00000000000000000000e+00) (0, 0, 0.00000000000000000000e+00) (0, 0, 0.00000000000000000000e+00) (0, 0, 0.00000000000000000000e+00) (0, 0, 0.00000000000000000000e+00) (0, 0, 0.00000000000000000000e+00) (0, 0, 0.00000000000000000000e+00) (0, 0, 0.00000000000000000000e+00) (0, 0, 0.00000000000000000000e+00) (0, 0, 0.00000000000000000000e+00) (0, 0, 0.00000000000000000000e+00) (0, 0, 0.00000000000000000000e+00) (0, 0, 0.00000000000000000000e+00) (0, 0, 0.00000000000000000000e+00) (0, 0, 0.00000000000000000000e+00) (0, 0, 0.00000000000000000000e+00) (0, 0, 0.00000000000000000000e+00) (0, 0, 0.00000000000000000000e+00) (0, 0, 0.00000000000000000000e+00) (0, 0, 0.00000000000000000000e+00) (0, 0, 0.00000000000000000000e+00) (0, 0, 0.00000000000000000000e+00) (0, 0, 0.00000000000000000000e+00) (0, 0, 0.00000000000000000000e+00) (0, 0, 0.00000000000000000000e+00) (0, 0, 0.00000000000000000000e+00) (0, 0, 0.00000000000000000000e+00) (0, 0, 0.00000000000000000000e+00) (0, 0, 0.00000000000000000000e+00) (0, 0, 0.00000000000000000000e+00) (0, 0, 0.00000000000000000000e+00) (0, 0, 0.00000000000000000000e+00) (0, 0, 0.00000000000000000000e+00) (0, 0, 0.00000000000000000000e+00) (0, 0, 0.00000000000000000000e+00) (0, 0, 0.00000000000000000000e+00) (0, 0, 0.00000000000000000000e+00) (0, 0, 0.00000000000000000000e+00) (0, 0, 0.00000000000000000000e+00) (0, 0, 0.00000000000000000000e+00) (0, 0, 0.00000000000000000000e+00) (0, 0, 0.00000000000000000000e+00) (0, 0, 0.00000000000000000000e+00) (0, 0, 0.00000000000000000000e+00) (0, 0, 0.00000000000000000000e+00) (0, 0, 0.00000000000000000000e+00) (0, 0, 0.00000000000000000000e+00) (0, 0, 0.00000000000000000000e+00) (0, 0, 0.00000000000000000000e+00) (0, 0, 0.00000000000000000000e+00) (0, 0, 0.00000000000000000000e+00) (0, 0, 0.00000000000000000000e+00) (0, 0, 0.00000000000000000000e+00) (0, 0, 0.00000000000000000000e+00) (0, 0, 0.00000000000000000000e+00) (0, 0, 0.00000000000000000000e+00) (0, 0, 0.00000000000000000000e+00) (0, 0, 0.00000000000000000000e+00) (0, 0, 0.00000000000000000000e+00) (0, 0, 0.00000000000000000000e+00) (0, 0, 0.00000000000000000000e+00) (0, 0, 0.00000000000000000000e+00) (0, 0, 0.00000000000000000000e+00) (0, 0, 0.00000000000000000000e+00) (0, 0, 0.00000000000000000000e+00) (0, 0, 0.00000000000000000000e+00) (0, 0, 0.00000000000000000000e+00) (0, 0, 0.00000000000000000000e+00) (0, 0, 0.00000000000000000000e+00) (0, 0, 0.00000000000000000000e+00) (0, 0, 0.00000000000000000000e+00) (0, 0, 0.00000000000000000000e+00) (0, 0, 0.00000000000000000000e+00) (0, 0, 0.00000000000000000000e+00) (0, 0, 0.00000000000000000000e+00) (0, 0, 0.00000000000000000000e+00) (0, 0, 0.00000000000000000000e+00) (0, 0, 0.00000000000000000000e+00) (0, 0, 0.00000000000000000000e+00) (0, 0, 0.00000000000000000000e+00) (0, 0, 0.00000000000000000000e+00) (0, 0, 0.00000000000000000000e+00) (0, 0, 0.00000000000000000000e+00) (0, 0, 0.00000000000000000000e+00) (0, 0, 0.00000000000000000000e+00) (0, 0, 0.00000000000000000000e+00) (0, 0, 0.00000000000000000000e+00) (0, 0, 0.00000000000000000000e+00) (0, 0, 0.00000000000000000000e+00) (0, 0, 0.00000000000000000000e+00) (0, 0, 0.00000000000000000000e+00) (0, 0, 0.00000000000000000000e+00) (0, 0, 0.00000000000000000000e+00) (0, 0, 0.00000000000000000000e+00) (0, 0, 0.00000000000000000000e+00) (0, 0, 0.00000000000000000000e+00) (0, 0, 0.00000000000000000000e+00) (0, 0, 0.00000000000000000000e+00) (0, 0, 0.00000000000000000000e+00) (0, 0, 0.00000000000000000000e+00) (0, 0, 0.00000000000000000000e+00) (0, 0, 0.00000000000000000000e+00) (0, 0, 0.00000000000000000000e+00) (0, 0, 0.00000000000000000000e+00) (0, 0, 0.00000000000000000000e+00) (0, 0, 0.00000000000000000000e+00) (0, 0, 0.00000000000000000000e+00) (0, 0, 0.00000000000000000000e+00) (0, 0, 0.00000000000000000000e+00) (0, 0, 0.00000000000000000000e+00) (0, 0, 0.00000000000000000000e+00) (0, 0, 0.00000000000000000000e+00) (0, 0, 0.00000000000000000000e+00) (0, 0, 0.00000000000000000000e+00) (0, 0, 0.00000000000000000000e+00) (0, 0, 0.00000000000000000000e+00) (0, 0, 0.00000000000000000000e+00) (0, 0, 0.00000000000000000000e+00) (0, 0, 0.00000000000000000000e+00) (0, 0, 0.00000000000000000000e+00) (0, 0, 0.00000000000000000000e+00) (0, 0, 0.00000000000000000000e+00) (0, 0, 0.00000000000000000000e+00) (0, 0, 0.00000000000000000000e+00) (0, 0, 0.00000000000000000000e+00) (0, 0, 0.00000000000000000000e+00) (0, 0, 0.00000000000000000000e+00) (0, 0, 0.00000000000000000000e+00) (0, 0, 0.00000000000000000000e+00) (0, 0, 0.00000000000000000000e+00) (0, 0, 0.00000000000000000000e+00) (0, 0, 0.00000000000000000000e+00) (0, 0, 0.00000000000000000000e+00) (0, 0, 0.00000000000000000000e+00) (0, 0, 0.00000000000000000000e+00) (0, 0, 0.00000000000000000000e+00) (0, 0, 0.00000000000000000000e+00) (0, 0, 0.00000000000000000000e+00) (0, 0, 0.00000000000000000000e+00) (0, 0, 0.00000000000000000000e+00) (0, 0, 0.00000000000000000000e+00) (0, 0, 0.00000000000000000000e+00) (0, 0, 0.00000000000000000000e+00) (0, 0, 0.00000000000000000000e+00) (0, 0, 0.00000000000000000000e+00) (0, 0, 0.00000000000000000000e+00) (0, 0, 0.00000000000000000000e+00) (0, 0, 0.00000000000000000000e+00) (0, 0, 0.00000000000000000000e+00) (0, 0, 0.00000000000000000000e+00) (0, 0, 0.00000000000000000000e+00) (0, 0, 0.00000000000000000000e+00) (0, 0, 0.00000000000000000000e+00) (0, 0, 0.00000000000000000000e+00) (0, 0, 0.00000000000000000000e+00) (0, 0, 0.00000000000000000000e+00) (0, 0, 0.00000000000000000000e+00) (0, 0, 0.00000000000000000000e+00) (0, 0, 0.00000000000000000000e+00) (0, 0, 0.00000000000000000000e+00) (0, 0, 0.00000000000000000000e+00) (0, 0, 0.00000000000000000000e+00) (0, 0, 0.00000000000000000000e+00) (0, 0, 0.00000000000000000000e+00) (0, 0, 0.00000000000000000000e+00) (0, 0, 0.00000000000000000000e+00) (0, 0, 0.00000000000000000000e+00) (0, 0, 0.00000000000000000000e+00) (0, 0, 0.00000000000000000000e+00) (0, 0, 0.00000000000000000000e+00) (0, 0, 0.00000000000000000000e+00) (0, 0, 0.00000000000000000000e+00) (0, 0, 0.00000000000000000000e+00) (0, 0, 0.00000000000000000000e+00) (0, 0, 0.00000000000000000000e+00) (0, 0, 0.00000000000000000000e+00) (0, 0, 0.00000000000000000000e+00) (0, 0, 0.00000000000000000000e+00) (0, 0, 0.00000000000000000000e+00) (0, 0, 0.00000000000000000000e+00) (0, 0, 0.00000000000000000000e+00) (0, 0, 0.00000000000000000000e+00) (0, 0, 0.00000000000000000000e+00) (0, 0, 0.00000000000000000000e+00) (0, 0, 0.00000000000000000000e+00) (0, 0, 0.00000000000000000000e+00) (0, 0, 0.00000000000000000000e+00) (0, 0, 0.00000000000000000000e+00) (0, 0, 0.00000000000000000000e+00) (0, 0, 0.00000000000000000000e+00) (0, 0, 0.00000000000000000000e+00) (0, 0, 0.00000000000000000000e+00) (0, 0, 0.00000000000000000000e+00) (0, 0, 0.00000000000000000000e+00) (0, 0, 0.00000000000000000000e+00) (0, 0, 0.00000000000000000000e+00) (0, 0, 0.00000000000000000000e+00) (0, 0, 0.00000000000000000000e+00) (0, 0, 0.00000000000000000000e+00) (0, 0, 0.00000000000000000000e+00) (0, 0, 0.00000000000000000000e+00) (0, 0, 0.00000000000000000000e+00) (0, 0, 0.00000000000000000000e+00) (0, 0, 0.00000000000000000000e+00) (0, 0, 0.00000000000000000000e+00) (0, 0, 0.00000000000000000000e+00) (0, 0, 0.00000000000000000000e+00) (0, 0, 0.00000000000000000000e+00) (0, 0, 0.00000000000000000000e+00) (0, 0, 0.00000000000000000000e+00) (0, 0, 0.00000000000000000000e+00) (0, 0, 0.00000000000000000000e+00) (0, 0, 0.00000000000000000000e+00) (0, 0, 0.00000000000000000000e+00) (0, 0, 0.00000000000000000000e+00) (0, 0, 0.00000000000000000000e+00) (0, 0, 0.00000000000000000000e+00) (0, 0, 0.00000000000000000000e+00) (0, 0, 0.00000000000000000000e+00) (0, 0, 0.00000000000000000000e+00) (0, 0, 0.00000000000000000000e+00) (0, 0, 0.00000000000000000000e+00) (0, 0, 0.00000000000000000000e+00) (0, 0, 0.00000000000000000000e+00) (0, 0, 0.00000000000000000000e+00) (0, 0, 0.00000000000000000000e+00) (0, 0, 0.00000000000000000000e+00) (0, 0, 0.00000000000000000000e+00) (0, 0, 0.00000000000000000000e+00) (0, 0, 0.00000000000000000000e+00) (0, 0, 0.00000000000000000000e+00) (0, 0, 0.00000000000000000000e+00) (0, 0, 0.00000000000000000000e+00) (0, 0, 0.00000000000000000000e+00) (0, 0, 0.00000000000000000000e+00) (0, 0, 0.00000000000000000000e+00) (0, 0, 0.00000000000000000000e+00) (0, 0, 0.00000000000000000000e+00) (0, 0, 0.00000000000000000000e+00) (0, 0, 0.00000000000000000000e+00) (0, 0, 0.00000000000000000000e+00) (0, 0, 0.00000000000000000000e+00) (0, 0, 0.00000000000000000000e+00) (0, 0, 0.00000000000000000000e+00) (0, 0, 0.00000000000000000000e+00) (0, 0, 0.00000000000000000000e+00) (0, 0, 0.00000000000000000000e+00) (0, 0, 0.00000000000000000000e+00) (0, 0, 0.00000000000000000000e+00) (0, 0, 0.00000000000000000000e+00) (0, 0, 0.00000000000000000000e+00) (0, 0, 0.00000000000000000000e+00) (0, 0, 0.00000000000000000000e+00) (0, 0, 0.00000000000000000000e+00) (0, 0, 0.00000000000000000000e+00) (0, 0, 0.00000000000000000000e+00) (0, 0, 0.00000000000000000000e+00) (0, 0, 0.00000000000000000000e+00) (0, 0, 0.00000000000000000000e+00) (0, 0, 0.00000000000000000000e+00) (0, 0, 0.00000000000000000000e+00) (0, 0, 0.00000000000000000000e+00) (0, 0, 0.00000000000000000000e+00) (0, 0, 0.00000000000000000000e+00) (0, 0, 0.00000000000000000000e+00) (0, 0, 0.00000000000000000000e+00) (0, 0, 0.00000000000000000000e+00) (0, 0, 0.00000000000000000000e+00) (0, 0, 0.00000000000000000000e+00) (0, 0, 0.00000000000000000000e+00) (0, 0, 0.00000000000000000000e+00) (0, 0, 0.00000000000000000000e+00) (0, 0, 0.00000000000000000000e+00) (0, 0, 0.00000000000000000000e+00) (0, 0, 0.00000000000000000000e+00) (0, 0, 0.00000000000000000000e+00) (0, 0, 0.00000000000000000000e+00) (0, 0, 0.00000000000000000000e+00) (0, 0, 0.00000000000000000000e+00) (0, 0, 0.00000000000000000000e+00) (0, 0, 0.00000000000000000000e+00) (0, 0, 0.00000000000000000000e+00) (0, 0, 0.00000000000000000000e+00) (0, 0, 0.00000000000000000000e+00) (0, 0, 0.00000000000000000000e+00) (0, 0, 0.00000000000000000000e+00) (0, 0, 0.00000000000000000000e+00) (0, 0, 0.00000000000000000000e+00) (0, 0, 0.00000000000000000000e+00) (0, 0, 0.00000000000000000000e+00) (0, 0, 0.00000000000000000000e+00) (0, 0, 0.00000000000000000000e+00) (0, 0, 0.00000000000000000000e+00) (0, 0, 0.00000000000000000000e+00) (0, 0, 0.00000000000000000000e+00) (0, 0, 0.00000000000000000000e+00) (0, 0, 0.00000000000000000000e+00) (0, 0, 0.00000000000000000000e+00) (0, 0, 0.00000000000000000000e+00) (0, 0, 0.00000000000000000000e+00) (0, 0, 0.00000000000000000000e+00) (0, 0, 0.00000000000000000000e+00) (0, 0, 0.00000000000000000000e+00) (0, 0, 0.00000000000000000000e+00) (0, 0, 0.00000000000000000000e+00) (0, 0, 0.00000000000000000000e+00) (0, 0, 0.00000000000000000000e+00) (0, 0, 0.00000000000000000000e+00) (0, 0, 0.00000000000000000000e+00) (0, 0, 0.00000000000000000000e+00) (0, 0, 0.00000000000000000000e+00) (0, 0, 0.00000000000000000000e+00) (0, 0, 0.00000000000000000000e+00) (0, 0, 0.00000000000000000000e+00) (0, 0, 0.00000000000000000000e+00) (0, 0, 0.00000000000000000000e+00) (0, 0, 0.00000000000000000000e+00) (0, 0, 0.00000000000000000000e+00) (0, 0, 0.00000000000000000000e+00) (0, 0, 0.00000000000000000000e+00) (0, 0, 0.00000000000000000000e+00) (0, 0, 0.00000000000000000000e+00) (0, 0, 0.00000000000000000000e+00) (0, 0, 0.00000000000000000000e+00) (0, 0, 0.00000000000000000000e+00) (0, 0, 0.00000000000000000000e+00) (0, 0, 0.00000000000000000000e+00) (0, 0, 0.00000000000000000000e+00) (0, 0, 0.00000000000000000000e+00) (0, 0, 0.00000000000000000000e+00) (0, 0, 0.00000000000000000000e+00) (0, 0, 0.00000000000000000000e+00) (0, 0, 0.00000000000000000000e+00) (0, 0, 0.00000000000000000000e+00) (0, 0, 0.00000000000000000000e+00) (0, 0, 0.00000000000000000000e+00) (0, 0, 0.00000000000000000000e+00) (0, 0, 0.00000000000000000000e+00) (0, 0, 0.00000000000000000000e+00) (0, 0, 0.00000000000000000000e+00) (0, 0, 0.00000000000000000000e+00) (0, 0, 0.00000000000000000000e+00) (0, 0, 0.00000000000000000000e+00) (0, 0, 0.00000000000000000000e+00) (0, 0, 0.00000000000000000000e+00) (0, 0, 0.00000000000000000000e+00) (0, 0, 0.00000000000000000000e+00) (0, 0, 0.00000000000000000000e+00) (0, 0, 0.00000000000000000000e+00) (0, 0, 0.00000000000000000000e+00) (0, 0, 0.00000000000000000000e+00) (0, 0, 0.00000000000000000000e+00) (0, 0, 0.00000000000000000000e+00) (0, 0, 0.00000000000000000000e+00) (0, 0, 0.00000000000000000000e+00) (0, 0, 0.00000000000000000000e+00) (0, 0, 0.00000000000000000000e+00) (0, 0, 0.00000000000000000000e+00) (0, 0, 0.00000000000000000000e+00) (0, 0, 0.00000000000000000000e+00) (0, 0, 0.00000000000000000000e+00) (0, 0, 0.00000000000000000000e+00) (0, 0, 0.00000000000000000000e+00) (0, 0, 0.00000000000000000000e+00) (0, 0, 0.00000000000000000000e+00) (0, 0, 0.00000000000000000000e+00) (0, 0, 0.00000000000000000000e+00) (0, 0, 0.00000000000000000000e+00) (0, 0, 0.00000000000000000000e+00) (0, 0, 0.00000000000000000000e+00) (0, 0, 0.00000000000000000000e+00) (0, 0, 0.00000000000000000000e+00) (0, 0, 0.00000000000000000000e+00) (0, 0, 0.00000000000000000000e+00) (0, 0, 0.00000000000000000000e+00) (0, 0, 0.00000000000000000000e+00) (0, 0, 0.00000000000000000000e+00) (0, 0, 0.00000000000000000000e+00) (0, 0, 0.00000000000000000000e+00) (0, 0, 0.00000000000000000000e+00) (0, 0, 0.00000000000000000000e+00) (0, 0, 0.00000000000000000000e+00) (0, 0, 0.00000000000000000000e+00) (0, 0, 0.00000000000000000000e+00) (0, 0, 0.00000000000000000000e+00) (0, 0, 0.00000000000000000000e+00) (0, 0, 0.00000000000000000000e+00) (0, 0, 0.00000000000000000000e+00) (0, 0, 0.00000000000000000000e+00) (0, 0, 0.00000000000000000000e+00) (0, 0, 0.00000000000000000000e+00) (0, 0, 0.00000000000000000000e+00) (0, 0, 0.00000000000000000000e+00) (0, 0, 0.00000000000000000000e+00) (0, 0, 0.00000000000000000000e+00) (0, 0, 0.00000000000000000000e+00) (0, 0, 0.00000000000000000000e+00) (0, 0, 0.00000000000000000000e+00) (0, 0, 0.00000000000000000000e+00) (0, 0, 0.00000000000000000000e+00) (0, 0, 0.00000000000000000000e+00) (0, 0, 0.00000000000000000000e+00) (0, 0, 0.00000000000000000000e+00) (0, 0, 0.00000000000000000000e+00) (0, 0, 0.00000000000000000000e+00) (0, 0, 0.00000000000000000000e+00) (0, 0, 0.00000000000000000000e+00) (0, 0, 0.00000000000000000000e+00) (0, 0, 0.00000000000000000000e+00) (0, 0, 0.00000000000000000000e+00) (0, 0, 0.00000000000000000000e+00) (0, 0, 0.00000000000000000000e+00) (0, 0, 0.00000000000000000000e+00) (0, 0, 0.00000000000000000000e+00) (0, 0, 0.00000000000000000000e+00) (0, 0, 0.00000000000000000000e+00) (0, 0, 0.00000000000000000000e+00) (0, 0, 0.00000000000000000000e+00) (0, 0, 0.00000000000000000000e+00) (0, 0, 0.00000000000000000000e+00) (0, 0, 0.00000000000000000000e+00) (0, 0, 0.00000000000000000000e+00) (0, 0, 0.00000000000000000000e+00) (0, 0, 0.00000000000000000000e+00) (0, 0, 0.00000000000000000000e+00) (0, 0, 0.00000000000000000000e+00) (0, 0, 0.00000000000000000000e+00) (0, 0, 0.00000000000000000000e+00) (0, 0, 0.00000000000000000000e+00) (0, 0, 0.00000000000000000000e+00) (0, 0, 0.00000000000000000000e+00) (0, 0, 0.00000000000000000000e+00) (0, 0, 0.00000000000000000000e+00) (0, 0, 0.00000000000000000000e+00) (0, 0, 0.00000000000000000000e+00) (0, 0, 0.00000000000000000000e+00) (0, 0, 0.00000000000000000000e+00) (0, 0, 0.00000000000000000000e+00) (0, 0, 0.00000000000000000000e+00) (0, 0, 0.00000000000000000000e+00) (0, 0, 0.00000000000000000000e+00) (0, 0, 0.00000000000000000000e+00) (0, 0, 0.00000000000000000000e+00) (0, 0, 0.00000000000000000000e+00) (0, 0, 0.00000000000000000000e+00) (0, 0, 0.00000000000000000000e+00) (0, 0, 0.00000000000000000000e+00) (0, 0, 0.00000000000000000000e+00) (0, 0, 0.00000000000000000000e+00) (0, 0, 0.00000000000000000000e+00) (0, 0, 0.00000000000000000000e+00) (0, 0, 0.00000000000000000000e+00) (0, 0, 0.00000000000000000000e+00) (0, 0, 0.00000000000000000000e+00) (0, 0, 0.00000000000000000000e+00) (0, 0, 0.00000000000000000000e+00) (0, 0, 0.00000000000000000000e+00) (0, 0, 0.00000000000000000000e+00) (0, 0, 0.00000000000000000000e+00) (0, 0, 0.00000000000000000000e+00) (0, 0, 0.00000000000000000000e+00) (0, 0, 0.00000000000000000000e+00) (0, 0, 0.00000000000000000000e+00) (0, 0, 0.00000000000000000000e+00) (0, 0, 0.00000000000000000000e+00) (0, 0, 0.00000000000000000000e+00) (0, 0, 0.00000000000000000000e+00) (0, 0, 0.00000000000000000000e+00) (0, 0, 0.00000000000000000000e+00) (0, 0, 0.00000000000000000000e+00) (0, 0, 0.00000000000000000000e+00) (0, 0, 0.00000000000000000000e+00) (0, 0, 0.00000000000000000000e+00) (0, 0, 0.00000000000000000000e+00) (0, 0, 0.00000000000000000000e+00) (0, 0, 0.00000000000000000000e+00) (0, 0, 0.00000000000000000000e+00) (0, 0, 0.00000000000000000000e+00) (0, 0, 0.00000000000000000000e+00) (0, 0, 0.00000000000000000000e+00) (0, 0, 0.00000000000000000000e+00) (0, 0, 0.00000000000000000000e+00) (0, 0, 0.00000000000000000000e+00) (0, 0, 0.00000000000000000000e+00) (0, 0, 0.00000000000000000000e+00) (0, 0, 0.00000000000000000000e+00) (0, 0, 0.00000000000000000000e+00) (0, 0, 0.00000000000000000000e+00) (0, 0, 0.00000000000000000000e+00) (0, 0, 0.00000000000000000000e+00) (0, 0, 0.00000000000000000000e+00) (0, 0, 0.00000000000000000000e+00) (0, 0, 0.00000000000000000000e+00) (0, 0, 0.00000000000000000000e+00) (0, 0, 0.00000000000000000000e+00) (0, 0, 0.00000000000000000000e+00) (0, 0, 0.00000000000000000000e+00) (0, 0, 0.00000000000000000000e+00) (0, 0, 0.00000000000000000000e+00) (0, 0, 0.00000000000000000000e+00) (0, 0, 0.00000000000000000000e+00) (0, 0, 0.00000000000000000000e+00) (0, 0, 0.00000000000000000000e+00) (0, 0, 0.00000000000000000000e+00) (0, 0, 0.00000000000000000000e+00) (0, 0, 0.00000000000000000000e+00) (0, 0, 0.00000000000000000000e+00) (0, 0, 0.00000000000000000000e+00) (0, 0, 0.00000000000000000000e+00) (0, 0, 0.00000000000000000000e+00) (0, 0, 0.00000000000000000000e+00) (0, 0, 0.00000000000000000000e+00) (0, 0, 0.00000000000000000000e+00) (0, 0, 0.00000000000000000000e+00) (0, 0, 0.00000000000000000000e+00) (0, 0, 0.00000000000000000000e+00) (0, 0, 0.00000000000000000000e+00) (0, 0, 0.00000000000000000000e+00) (0, 0, 0.00000000000000000000e+00) (0, 0, 0.00000000000000000000e+00) (0, 0, 0.00000000000000000000e+00) (0, 0, 0.00000000000000000000e+00) (0, 0, 0.00000000000000000000e+00) (0, 0, 0.00000000000000000000e+00) (0, 0, 0.00000000000000000000e+00) (0, 0, 0.00000000000000000000e+00) (0, 0, 0.00000000000000000000e+00) (0, 0, 0.00000000000000000000e+00) (0, 0, 0.00000000000000000000e+00) (0, 0, 0.00000000000000000000e+00) (0, 0, 0.00000000000000000000e+00) (0, 0, 0.00000000000000000000e+00) (601, 5, 5.00000000000000000000e-01) (601, 5, 5.00000000000000000000e-01) (601, 5, 5.00000000000000000000e-01) (601, 5, 5.00000000000000000000e-01) (601, 5, 5.00000000000000000000e-01) (601, 5, 5.00000000000000000000e-01) (601, 5, 5.00000000000000000000e-01) (601, 5, 5.00000000000000000000e-01) (601, 5, 5.00000000000000000000e-01) (601, 5, 5.00000000000000000000e-01) (601, 5, 5.00000000000000000000e-01) (601, 5, 5.00000000000000000000e-01) (601, 5, 5.00000000000000000000e-01) (601, 5, 5.00000000000000000000e-01) (601, 5, 5.00000000000000000000e-01) (601, 5, 5.00000000000000000000e-01) (601, 5, 5.00000000000000000000e-01) (601, 5, 5.00000000000000000000e-01) (601, 5, 5.00000000000000000000e-01) (601, 5, 5.00000000000000000000e-01) (601, 5, 5.00000000000000000000e-01) (601, 5, 5.00000000000000000000e-01) (601, 5, 5.00000000000000000000e-01) (601, 5, 5.00000000000000000000e-01) (601, 5, 5.00000000000000000000e-01) (601, 5, 5.00000000000000000000e-01) (601, 5, 5.00000000000000000000e-01) (601, 5, 5.00000000000000000000e-01) (601, 5, 5.00000000000000000000e-01) (601, 5, 5.00000000000000000000e-01) (601, 5, 5.00000000000000000000e-01) (601, 5, 5.00000000000000000000e-01) (601, 5, 5.00000000000000000000e-01) (601, 5, 5.00000000000000000000e-01) (601, 5, 5.00000000000000000000e-01) (601, 5, 5.00000000000000000000e-01) (601, 5, 5.00000000000000000000e-01) (601, 5, 5.00000000000000000000e-01) (601, 5, 5.00000000000000000000e-01) (601, 5, 5.00000000000000000000e-01) (601, 5, 5.00000000000000000000e-01) (601, 5, 5.00000000000000000000e-01) (601, 5, 5.00000000000000000000e-01) (601, 5, 5.00000000000000000000e-01) (601, 5, 5.00000000000000000000e-01) (601, 5, 5.00000000000000000000e-01) (601, 5, 5.00000000000000000000e-01) (601, 5, 5.00000000000000000000e-01) (601, 5, 5.00000000000000000000e-01) (601, 5, 5.00000000000000000000e-01) (601, 5, 5.00000000000000000000e-01) (601, 5, 5.00000000000000000000e-01) (601, 5, 5.00000000000000000000e-01) (601, 5, 5.00000000000000000000e-01) (601, 5, 5.00000000000000000000e-01) (601, 5, 5.00000000000000000000e-01) (601, 5, 5.00000000000000000000e-01) (601, 5, 5.00000000000000000000e-01) (601, 5, 5.00000000000000000000e-01) (601, 5, 5.00000000000000000000e-01) (601, 5, 5.00000000000000000000e-01) (601, 5, 5.00000000000000000000e-01) (601, 5, 5.00000000000000000000e-01) (601, 5, 5.00000000000000000000e-01) (601, 5, 5.00000000000000000000e-01) (601, 5, 5.00000000000000000000e-01) (601, 5, 5.00000000000000000000e-01) (601, 5, 5.00000000000000000000e-01) (601, 5, 5.00000000000000000000e-01) (601, 5, 5.00000000000000000000e-01) (601, 5, 5.00000000000000000000e-01) (601, 5, 5.00000000000000000000e-01) (601, 5, 5.00000000000000000000e-01) (601, 5, 5.00000000000000000000e-01) (601, 5, 5.00000000000000000000e-01) (601, 5, 5.00000000000000000000e-01) (601, 5, 5.00000000000000000000e-01) (601, 5, 5.00000000000000000000e-01) (601, 5, 5.00000000000000000000e-01) (601, 5, 5.00000000000000000000e-01) (601, 5, 5.00000000000000000000e-01) (601, 5, 5.00000000000000000000e-01) (601, 5, 5.00000000000000000000e-01) (601, 5, 5.00000000000000000000e-01) (601, 5, 5.00000000000000000000e-01) (601, 5, 5.00000000000000000000e-01) (601, 5, 5.00000000000000000000e-01) (601, 5, 5.00000000000000000000e-01) (601, 5, 5.00000000000000000000e-01) (601, 5, 5.00000000000000000000e-01) (601, 5, 5.00000000000000000000e-01) (601, 5, 5.00000000000000000000e-01) (601, 5, 5.00000000000000000000e-01) (601, 5, 5.00000000000000000000e-01) (601, 5, 5.00000000000000000000e-01) (601, 5, 5.00000000000000000000e-01) (601, 5, 5.00000000000000000000e-01) (601, 5, 5.00000000000000000000e-01) (601, 5, 5.00000000000000000000e-01) (601, 5, 5.00000000000000000000e-01) (0, 5, 0.00000000000000000000e+00) (101, 5, 5.00000000000000000000e-01) (101, 5, 5.00000000000000000000e-01) (101, 5, 5.00000000000000000000e-01) (101, 5, 5.00000000000000000000e-01) (101, 5, 5.00000000000000000000e-01) (101, 5, 5.00000000000000000000e-01) (101, 5, 5.00000000000000000000e-01) (101, 5, 5.00000000000000000000e-01) (101, 5, 5.00000000000000000000e-01) (101, 5, 5.00000000000000000000e-01) (0, 5, 0.00000000000000000000e+00) 
connections (connected_to_neuron, weight)=(0, -1.50000000000000000000e+03) (1, -1.50000000000000000000e+03) (2, -1.50000000000000000000e+03) (3, 1.49886315917968750000e+03) (4, 1.49554589843750000000e+03) (5, 1.49545581054687500000e+03) (6, 1.50000000000000000000e+03) (7, 7.28174507617950439453e-01) (8, 5.09077787399291992188e-01) (9, 1.50000000000000000000e+03) (10, 7.23062515258789062500e-01) (11, 6.90913915634155273438e-01) (12, 2.89450675249099731445e-01) (13, 4.17436141967773437500e+01) (14, 2.79848843812942504883e-01) (15, -1.46268934011459350586e-01) (16, -2.03446990966796875000e+02) (17, -1.48859069824218750000e+03) (18, 9.34453383088111877441e-02) (19, -1.50000000000000000000e+03) (20, 1.08743432617187500000e+03) (21, 9.99955322265625000000e+02) (22, 4.57970333099365234375e+00) (23, 3.64806594848632812500e+01) (24, 9.97807860374450683594e-01) (25, 7.05535948276519775391e-01) (26, 6.55454559326171875000e+01) (27, 8.10356974601745605469e-01) (28, 7.19330191612243652344e-01) (29, 4.59731578826904296875e-01) (30, -3.44422832131385803223e-03) (31, 1.15609265863895416260e-01) (32, 1.34115386009216308594e+00) (33, 2.65234017372131347656e+00) (34, 4.36219310760498046875e+00) (35, 4.42026824951171875000e+02) (36, 1.89179649353027343750e+01) (37, 1.49766662597656250000e+03) (38, 1.50000000000000000000e+03) (39, 1.50000000000000000000e+03) (40, 1.27036022949218750000e+03) (41, 1.32071781158447265625e+01) (42, 9.88117904663085937500e+01) (43, 1.22943036258220672607e-01) (44, 5.03212332725524902344e-01) (45, 8.35646510124206542969e-01) (46, 1.12498724460601806641e+00) (47, 1.67534723877906799316e-01) (48, 4.22486364841461181641e-02) (49, -5.84463477134704589844e-02) (50, -8.36981758475303649902e-02) (51, 2.61548142880201339722e-02) (52, 9.09321084618568420410e-02) (53, -6.58961609005928039551e-02) (54, -5.73645252734422683716e-03) (55, 4.58133406937122344971e-02) (56, 7.52350151538848876953e-01) (57, 1.63644242286682128906e+00) (58, 1.81233453750610351562e+00) (59, 3.91560196876525878906e+00) (60, 1.04975561523437500000e+03) (61, 1.04766875505447387695e-01) (62, 5.28926551342010498047e-01) (63, 2.67489850521087646484e-01) (64, 1.69113412499427795410e-01) (65, 6.19523525238037109375e-01) (66, 6.98608532547950744629e-02) (67, 1.57323688268661499023e-01) (68, -1.99372898787260055542e-02) (69, -5.61912246048450469971e-02) (70, 1.22497051954269409180e-01) (71, 8.76986831426620483398e-02) (72, -1.04436226189136505127e-01) (73, 5.74992708861827850342e-02) (74, 6.01249113678932189941e-02) (75, -1.65447946637868881226e-02) (76, 2.13344842195510864258e-02) (77, 1.01829980468750000000e+03) (78, 1.18972077965736389160e-01) (79, 1.27025091648101806641e+00) (80, 1.50000000000000000000e+03) (81, 6.10835218429565429688e+00) (82, 4.86189991235733032227e-01) (83, 8.20697879791259765625e+00) (84, 3.91252803802490234375e+00) (85, 3.00539165735244750977e-01) (86, 2.33016937971115112305e-01) (87, 2.48248741030693054199e-01) (88, 2.98313405364751815796e-02) (89, -1.12661058083176612854e-02) (90, -7.53678083419799804688e-02) (91, -2.12018694728612899780e-02) (92, 4.44656983017921447754e-02) (93, 6.60103261470794677734e-02) (94, -7.48455524444580078125e-03) (95, -8.73265564441680908203e-02) (96, 1.76361817866563796997e-02) (97, 4.27971572875976562500e+01) (98, 3.70818048715591430664e-01) (99, 1.47672045230865478516e+00) (100, 5.48976806640625000000e+02) (101, 2.47333362698554992676e-01) (102, 1.00249338150024414062e+00) (103, 1.67268526554107666016e+00) (104, 2.17497444152832031250e+00) (105, 1.22346103191375732422e+00) (106, 1.61834910511970520020e-01) (107, 2.40855768322944641113e-01) (108, -9.61974710226058959961e-02) (109, -1.44657548516988754272e-02) (110, 3.54245342314243316650e-02) (111, 3.74433360993862152100e-02) (112, -2.20687445253133773804e-02) (113, 7.32878223061561584473e-03) (114, -2.59335301816463470459e-02) (115, -1.49676367640495300293e-01) (116, -1.03275269269943237305e-01) (117, 5.32593131065368652344e-02) (118, 8.97830724716186523438e-02) (119, -3.12956832349300384521e-02) (120, 4.60914459228515625000e+02) (121, 3.72140049934387207031e-01) (122, -1.16395279765129089355e-01) (123, 2.78127789497375488281e-01) (124, -4.80664223432540893555e-01) (125, 2.38224172592163085938e+00) (126, 1.16548478603363037109e+00) (127, 1.68413013219833374023e-01) (128, -4.29652500152587890625e+00) (129, 3.34154590964317321777e-02) (130, -3.44235748052597045898e-01) (131, -5.41996285319328308105e-02) (132, -1.54138118028640747070e-01) (133, 4.93441894650459289551e-02) (134, 2.01182365417480468750e-02) (135, -1.54266268014907836914e-01) (136, -1.35621622204780578613e-01) (137, -7.06012994050979614258e-02) (138, -7.87561908364295959473e-02) (139, -1.59619843959808349609e+00) (140, 1.50000000000000000000e+03) (141, -4.91972351074218750000e+00) (142, 6.45251631736755371094e-01) (143, 6.76008641719818115234e-01) (144, 6.22966170310974121094e-01) (145, 1.26907908916473388672e+00) (146, -7.52071917057037353516e-01) (147, -6.68368347167968750000e+02) (148, -6.88315963745117187500e+01) (149, -4.90392334759235382080e-02) (150, 4.63916540145874023438e-01) (151, -5.86809404194355010986e-02) (152, -1.21716394424438476562e+01) (153, -1.50456726551055908203e-01) (154, -3.44999842345714569092e-02) (155, -1.05729930102825164795e-01) (156, 8.50789844989776611328e-02) (157, 5.65844662487506866455e-02) (158, 6.67021608352661132812e+00) (159, 6.86935472488403320312e+00) (160, -1.50243339538574218750e+01) (161, 1.36725628376007080078e+00) (162, 5.76964139938354492188e-01) (163, 4.03286159038543701172e-01) (164, 6.34661316871643066406e-01) (165, 2.97903503417968750000e+02) (166, -3.30387802124023437500e+01) (167, -3.84930358886718750000e+02) (168, -1.10484977722167968750e+02) (169, -1.34364639282226562500e+02) (170, 5.21076154708862304688e+00) (171, -2.88823890686035156250e+00) (172, -2.97044515609741210938e-01) (173, -6.75069689750671386719e-01) (174, 2.11314093321561813354e-02) (175, -1.68774589896202087402e-01) (176, 1.03303694725036621094e+00) (177, 3.04482784122228622437e-02) (178, 3.25083166360855102539e-01) (179, -1.00218105316162109375e+00) (180, -1.44282446289062500000e+03) (181, 4.55952554941177368164e-01) (182, 5.81340968608856201172e-01) (183, 3.08905363082885742188e-01) (184, 5.07062137126922607422e-01) (185, 6.16046203613281250000e+02) (186, -2.20594120025634765625e+01) (187, -7.61374664306640625000e+00) (188, -2.62811589241027832031e+00) (189, -1.53313386440277099609e+00) (190, 2.08260846138000488281e+00) (191, -9.35085201263427734375e+00) (192, -8.81063193082809448242e-02) (193, -4.81411069631576538086e-01) (194, -1.34961903095245361328e-01) (195, -1.01582176983356475830e-01) (196, 1.17641294002532958984e+00) (197, 8.38116258382797241211e-02) (198, 6.11668564379215240479e-02) (199, -1.23693253844976425171e-02) (200, -3.30729103088378906250e+00) (201, -2.81840586662292480469e+00) (202, -4.17096853256225585938e-01) (203, -3.13682645559310913086e-01) (204, 1.53811946511268615723e-01) (205, 2.54652843475341796875e+01) (206, 3.08070749044418334961e-01) (207, -3.12582530975341796875e+01) (208, -2.92524647712707519531e+00) (209, -2.87062907218933105469e+00) (210, -3.04930377006530761719e+00) (211, -1.39166265726089477539e-01) (212, -4.87771369516849517822e-02) (213, -2.88128509521484375000e+01) (214, -6.91873431205749511719e-02) (215, 5.41098296642303466797e-01) (216, 1.26993405818939208984e+00) (217, 7.59956538677215576172e-02) (218, 1.74305737018585205078e+00) (219, -3.42897834777832031250e+01) (220, -1.71333198547363281250e+01) (221, -2.34632492065429687500e-01) (222, -7.09420680999755859375e-01) (223, -3.36458623409271240234e-01) (224, 3.22921603918075561523e-01) (225, 5.99238693714141845703e-01) (226, 4.30718451738357543945e-01) (227, 5.58011829853057861328e-01) (228, 2.56216025352478027344e+00) (229, 6.87122121453285217285e-02) (230, 5.72418069839477539062e+00) (231, -4.52832169830799102783e-02) (232, 7.75944292545318603516e-01) (233, -1.99265849590301513672e+00) (234, -2.88531407713890075684e-02) (235, -4.58617098629474639893e-02) (236, -2.68174689263105392456e-02) (237, -1.00648872554302215576e-01) (238, 3.54461297392845153809e-02) (239, -1.47745800018310546875e+00) (240, -1.00905442237854003906e+00) (241, -3.78883421421051025391e-01) (242, -1.56259998679161071777e-01) (243, 5.07927298545837402344e-01) (244, 1.06028735637664794922e-01) (245, 3.77998203039169311523e-01) (246, 2.23508358001708984375e-01) (247, 1.72404360771179199219e+00) (248, 3.91654062271118164062e+00) (249, 3.28261303901672363281e+00) (250, 2.10568695068359375000e+01) (251, 5.87968025207519531250e+01) (252, 6.79677963256835937500e+00) (253, 7.07653164863586425781e-02) (254, 1.90199539065361022949e-01) (255, -2.13861465454101562500e+00) (256, -1.31051763892173767090e-01) (257, 3.78930240869522094727e-01) (258, -3.25456678867340087891e-01) (259, 4.25954684615135192871e-02) (260, 4.61205688476562500000e+02) (261, -1.94214642047882080078e-01) (262, -1.52012184262275695801e-01) (263, 5.54639101028442382812e-02) (264, 1.61204800009727478027e-01) (265, 1.34081244468688964844e-01) (266, 1.81549355387687683105e-01) (267, 2.67861396074295043945e-01) (268, 1.70410680770874023438e+00) (269, 1.50041675567626953125e+00) (270, 2.07763366699218750000e+01) (271, 1.13788485527038574219e+00) (272, 1.69378614425659179688e+00) (273, -1.03921264410018920898e-01) (274, -7.79737457633018493652e-02) (275, -1.16247268676757812500e+02) (276, -3.67668533325195312500e+00) (277, 3.65375168621540069580e-02) (278, -1.66471511125564575195e-01) (279, -1.09447658061981201172e-01) (280, -9.17280883789062500000e+01) (281, 9.78514969348907470703e-01) (282, -4.00801718235015869141e-01) (283, -8.76989781856536865234e-01) (284, -7.33571648597717285156e-01) (285, -1.26873004436492919922e+00) (286, 2.00256109237670898438e-01) (287, 3.32909464836120605469e-01) (288, 2.18853783607482910156e+00) (289, 7.43869900703430175781e-01) (290, 3.51585960388183593750e+00) (291, 1.42612445354461669922e+00) (292, 3.38006883859634399414e-01) (293, -2.51814453125000000000e+02) (294, -5.78336477279663085938e-01) (295, -1.88663291931152343750e+01) (296, -1.94729566574096679688e-01) (297, 3.56281071901321411133e-01) (298, 3.83280098438262939453e-01) (299, -4.24651527404785156250e+00) (300, -5.31417083740234375000e+01) (301, -3.45511615276336669922e-01) (302, 6.07196167111396789551e-02) (303, -2.45225265622138977051e-01) (304, 6.27119792625308036804e-03) (305, -1.07018814086914062500e+01) (306, 2.65329450368881225586e-01) (307, 1.83171784877777099609e+00) (308, 7.78076324462890625000e+01) (309, 9.49848532676696777344e-01) (310, 3.12719255685806274414e-01) (311, 4.92853112518787384033e-03) (312, 6.46257847547531127930e-02) (313, -5.11560618877410888672e-01) (314, -9.91243962198495864868e-03) (315, 1.76774635910987854004e-02) (316, -9.40874069929122924805e-02) (317, 8.14633083343505859375e+00) (318, 4.37820017337799072266e-01) (319, -8.54546279907226562500e+01) (320, -9.95692367553710937500e+01) (321, 2.37719133496284484863e-01) (322, 2.06065446138381958008e-01) (323, -1.19453169405460357666e-01) (324, -3.76972854137420654297e-01) (325, -4.82716500759124755859e-01) (326, -5.94309046864509582520e-02) (327, 1.31713867187500000000e-01) (328, -8.82005027960985898972e-04) (329, 4.95736300945281982422e-02) (330, 7.26182311773300170898e-02) (331, 2.01164692640304565430e-01) (332, -3.27840670943260192871e-02) (333, 1.04454033076763153076e-01) (334, 1.75383061170578002930e-01) (335, -2.90306270122528076172e-01) (336, -2.42547951638698577881e-02) (337, 3.82838487625122070312e+00) (338, 3.10665059089660644531e+00) (339, 3.87456107139587402344e+00) (340, 1.19230993092060089111e-01) (341, 8.52810963988304138184e-02) (342, -2.39375606179237365723e-03) (343, 1.98233816772699356079e-02) (344, 2.62484341859817504883e-01) (345, -2.22344070672988891602e-01) (346, -4.54025119543075561523e-01) (347, 1.27156257629394531250e-01) (348, 1.43667995929718017578e-01) (349, -1.02845335006713867188e+00) (350, -7.12665710449218750000e+01) (351, 4.47467118501663208008e-01) (352, 2.97572445869445800781e+00) (353, 1.35302650928497314453e+00) (354, 3.10984015464782714844e-01) (355, -7.49064423143863677979e-03) (356, 1.40137165784835815430e-01) (357, 5.84439315795898437500e+01) (358, 1.87451065063476562500e+02) (359, 1.48870503902435302734e+00) (360, -5.32055480957031250000e+02) (361, -6.10708221793174743652e-02) (362, 1.32916137576103210449e-01) (363, 2.50762909650802612305e-01) (364, 3.20411682128906250000e-01) (365, -1.10617506504058837891e+00) (366, -4.34776496887207031250e+00) (367, -4.77729129791259765625e+00) (368, -8.83092224597930908203e-01) (369, -4.37914085388183593750e+00) (370, -2.46423645019531250000e+02) (371, -1.51946258544921875000e+01) (372, -2.45573278516530990601e-02) (373, -7.93167129158973693848e-02) (374, 9.27479006350040435791e-03) (375, 3.46253246068954467773e-01) (376, 1.28104299306869506836e-01) (377, 3.02086029052734375000e+02) (378, 6.81076812744140625000e+01) (379, -2.38471364974975585938e+00) (380, 4.00283224880695343018e-02) (381, -1.94057197570800781250e+01) (382, -1.14461410045623779297e+00) (383, -4.80039536952972412109e-01) (384, 5.20231962203979492188e-01) (385, 1.83948412537574768066e-01) (386, 2.47033193707466125488e-01) (387, 1.60938179492950439453e+00) (388, 1.09982378780841827393e-01) (389, -6.17001727223396301270e-02) (390, -4.31433715820312500000e+01) (391, -1.40365432739257812500e+02) (392, -1.43423919677734375000e+02) (393, -8.82248803973197937012e-02) (394, 4.95736449956893920898e-02) (395, 1.46686241030693054199e-01) (396, 9.87290143966674804688e-02) (397, 1.08202111721038818359e+00) (398, 6.26815915107727050781e-01) (399, 1.49682298302650451660e-01) (400, 3.27946136474609375000e+02) (401, 3.77065420150756835938e-01) (402, 6.93909451365470886230e-02) (403, 3.17896246910095214844e-01) (404, 1.33272945880889892578e-01) (405, 9.70700606703758239746e-02) (406, -7.24405515938997268677e-03) (407, 2.22650051116943359375e-01) (408, 3.20029735565185546875e-01) (409, 6.67211008071899414062e+00) (410, 2.75324034690856933594e+00) (411, 2.54859781265258789062e+00) (412, -3.48971456289291381836e-01) (413, -7.11715817451477050781e-02) (414, -7.68340080976486206055e-02) (415, -3.79569530487060546875e-02) (416, 8.04373174905776977539e-02) (417, 7.86368751525878906250e+00) (418, 7.02051019668579101562e+00) (419, 1.83156147003173828125e+01) (420, 1.94524059295654296875e+01) (421, 1.83233165740966796875e+00) (422, -9.23573412001132965088e-03) (423, 2.34830451011657714844e+00) (424, 3.19224745035171508789e-01) (425, 8.36963236331939697266e-01) (426, 1.51002258062362670898e-01) (427, -4.78316769003868103027e-02) (428, 1.91811680793762207031e-01) (429, 2.44645178318023681641e-01) (430, 5.02826171875000000000e+02) (431, -1.26128718256950378418e-01) (432, -3.70113716125488281250e+01) (433, -8.46613273024559020996e-02) (434, 3.99070568382740020752e-02) (435, 6.08872957527637481689e-02) (436, -1.36731099337339401245e-02) (437, 4.80274868011474609375e+00) (438, 5.60186805725097656250e+01) (439, 2.64619421958923339844e+00) (440, -1.58046722412109375000e+00) (441, 5.05385128781199455261e-03) (442, -5.46533353626728057861e-02) (443, 3.54160934686660766602e-01) (444, -2.38082841038703918457e-01) (445, 1.91471800208091735840e-01) (446, -4.22053515911102294922e-01) (447, 8.20526853203773498535e-03) (448, 1.71337068080902099609e-01) (449, 3.09611976146697998047e-01) (450, 1.99856847524642944336e-01) (451, -3.99459563195705413818e-02) (452, -8.70436489582061767578e-01) (453, -1.64523407816886901855e-01) (454, 5.30032142996788024902e-02) (455, 1.79144218564033508301e-02) (456, -5.12253493070602416992e-02) (457, 4.04449224472045898438e-01) (458, 3.61668378114700317383e-01) (459, 3.33705395460128784180e-01) (460, -1.80795443058013916016e+00) (461, -1.10519835725426673889e-02) (462, -1.37559640407562255859e+00) (463, 1.70197680592536926270e-01) (464, -3.35677337646484375000e+00) (465, 5.52245438098907470703e-01) (466, 5.43196238577365875244e-02) (467, 3.78939844667911529541e-02) (468, 1.27405002713203430176e-01) (469, 4.38057159423828125000e+02) (470, 7.60920584201812744141e-01) (471, 4.69574965536594390869e-02) (472, -5.86896426975727081299e-02) (473, -5.55225051939487457275e-02) (474, 1.33677963256835937500e+02) (475, 1.90738122910261154175e-02) (476, 7.65184089541435241699e-02) (477, 6.92189812660217285156e-01) (478, 3.91460835933685302734e-01) (479, 3.09209227561950683594e-01) (480, 1.11276147460937500000e+03) (481, 4.85687622070312500000e+02) (482, 1.11725330352783203125e+00) (483, 2.09356054663658142090e-01) (484, 1.05804115533828735352e-01) (485, 4.57157564163208007812e+00) (486, -8.38116765022277832031e-01) (487, -1.01286877441406250000e+03) (488, -9.30175244808197021484e-01) (489, -1.86606800556182861328e+00) (490, -3.88215065002441406250e-01) (491, -2.43229433894157409668e-01) (492, 2.80532659962773323059e-03) (493, 5.43939732015132904053e-02) (494, 2.42913123220205307007e-02) (495, 9.95109602808952331543e-02) (496, 2.35632404685020446777e-01) (497, -4.70672941207885742188e+00) (498, 1.02053306996822357178e-01) (499, -1.28885485839843750000e+03) (500, 8.78939914703369140625e+00) (501, 4.40107994079589843750e+01) (502, 8.86588012695312500000e+02) (503, 4.29263412952423095703e-01) (504, 3.46514940261840820312e-01) (505, 4.56609606742858886719e-01) (506, 4.72097098827362060547e-01) (507, 2.97876954078674316406e-01) (508, 4.26983296871185302734e-01) (509, 3.98366510868072509766e-01) (510, -1.07992012053728103638e-02) (511, 4.75464724004268646240e-02) (512, -1.15722388029098510742e-01) (513, 3.63924741744995117188e-01) (514, 1.08904205262660980225e-01) (515, 1.93485274910926818848e-01) (516, 5.77191188931465148926e-02) (517, -7.62474288940429687500e+01) (518, 4.19870452880859375000e+01) (519, 3.87127609252929687500e+01) (520, -2.04270839691162109375e+00) (521, 1.88547360897064208984e+00) (522, 6.37875914573669433594e-01) (523, 4.63614165782928466797e-01) (524, 4.09711420536041259766e-01) (525, 2.72174954414367675781e-01) (526, 3.74143332242965698242e-01) (527, 3.17331254482269287109e-01) (528, 4.78601872920989990234e-01) (529, -1.01871170103549957275e-01) (530, -9.92071535438299179077e-03) (531, -1.70857533812522888184e-02) (532, 7.30113759636878967285e-02) (533, 1.18219211697578430176e-01) (534, 1.33676901459693908691e-01) (535, 7.69343897700309753418e-02) (536, 4.20523822307586669922e-01) (537, -5.64301605224609375000e+01) (538, 1.22114001464843750000e+03) (539, -1.41235055923461914062e+01) (540, -3.87049102783203125000e+02) (541, 6.89180791378021240234e-01) (542, 3.16674172878265380859e-01) (543, 5.46570062637329101562e-01) (544, 8.10718357563018798828e-01) (545, 4.48564022779464721680e-01) (546, 5.30295491218566894531e-01) (547, 6.25703573226928710938e-01) (548, 6.34847998619079589844e-01) (549, 5.26831388473510742188e-01) (550, 1.74308672547340393066e-01) (551, 1.66215181350708007812e-01) (552, 1.31334018707275390625e+00) (553, 3.02393108606338500977e-01) (554, 1.72903254628181457520e-01) (555, 8.75728378295898437500e+01) (556, 2.50731979370117187500e+02) (557, 7.06987304687500000000e+01) (558, 2.82478668212890625000e+02) (559, 8.84551162719726562500e+01) (560, 1.48278625488281250000e+03) (561, 6.85617402195930480957e-02) (562, 8.06964576244354248047e-01) (563, 1.13382220268249511719e+00) (564, 6.38445019721984863281e-01) (565, 5.22626161575317382812e-01) (566, 6.53344929218292236328e-01) (567, 6.83048665523529052734e-01) (568, 6.05606973171234130859e-01) (569, 5.75421392917633056641e-01) (570, 7.85160884261131286621e-02) (571, 2.18980550765991210938e-01) (572, 2.29933798313140869141e-01) (573, 1.90105825662612915039e-01) (574, 3.61564666032791137695e-01) (575, 4.58003723144531250000e+02) (576, 9.63006210327148437500e+00) (577, -3.11374786376953125000e+02) (578, 5.40216217041015625000e+01) (579, 1.59653110504150390625e+01) (580, -3.21577819824218750000e+02) (581, -7.36900146484375000000e+02) (582, -3.87761047363281250000e+02) (583, 9.43088948726654052734e-01) (584, 1.17870414257049560547e+00) (585, 7.63935089111328125000e-01) (586, 8.21945488452911376953e-01) (587, 8.71033191680908203125e-01) (588, 7.07248806953430175781e-01) (589, 5.86846113204956054688e-01) (590, 1.76440760493278503418e-01) (591, 3.51298525929450988770e-02) (592, 1.36297732591629028320e-01) (593, 2.14766189455986022949e-01) (594, 1.51995509862899780273e-01) (595, -1.96340484619140625000e+01) (596, 1.55513931274414062500e+02) (597, -1.40704391479492187500e+02) (598, -4.76413688659667968750e+01) (599, -2.04880050659179687500e+02) (600, 8.41564964503049850464e-03) (0, 1.32577819824218750000e+02) (1, -1.00454290771484375000e+03) (2, -2.65688720703125000000e+02) (3, -2.42861892700195312500e+02) (4, -6.67388763427734375000e+01) (5, -1.79548159241676330566e-01) (6, 1.79258697509765625000e+02) (7, 7.32441711425781250000e+01) (8, 3.36561775207519531250e+01) (9, 4.63105850219726562500e+01) (10, 1.02644348144531250000e+02) (11, -2.95621662139892578125e+01) (12, 1.73152038574218750000e+02) (13, 7.92080566406250000000e+02) (14, 6.04551940917968750000e+02) (15, 2.45290908813476562500e+02) (16, -2.30470981597900390625e+01) (17, -1.65286903381347656250e+01) (18, 2.36328721046447753906e+00) (19, -1.05957080078125000000e+03) (20, -8.46647277832031250000e+02) (21, -9.61843383789062500000e+02) (22, 1.18520446777343750000e+02) (23, 8.04181993007659912109e-01) (24, 1.04912769794464111328e+00) (25, 3.65154683589935302734e-01) (26, 5.71328461170196533203e-01) (27, 2.48413681983947753906e-01) (28, 2.65833437442779541016e-01) (29, 1.82726576924324035645e-01) (30, 4.00930851697921752930e-01) (31, 3.77512097358703613281e-01) (32, 1.09559379577636718750e+02) (33, 3.47661614418029785156e-01) (34, 3.80748957395553588867e-01) (35, 1.14318542480468750000e+03) (36, 1.86882472038269042969e+00) (37, 1.26643447875976562500e+02) (38, 8.76165449619293212891e-01) (39, -2.28772583007812500000e+02) (40, 9.68248903751373291016e-01) (41, -2.59791016578674316406e-01) (42, 2.06800806336104869843e-03) (43, 3.27247798442840576172e-01) (44, 2.16758817434310913086e-01) (45, -1.23505983501672744751e-02) (46, 2.46986031532287597656e-01) (47, 2.28556469082832336426e-01) (48, 2.46978536248207092285e-01) (49, 2.00464695692062377930e-01) (50, 3.27653020620346069336e-01) (51, 2.99653708934783935547e-01) (52, 1.67272463440895080566e-01) (53, 2.01555669307708740234e-01) (54, 2.72426426410675048828e-01) (55, 3.15160781145095825195e-01) (56, 1.03348028659820556641e+00) (57, 3.95650792121887207031e+00) (58, 1.37992925643920898438e+01) (59, 1.42084608078002929688e+01) (60, -3.76506775617599487305e-01) (61, 1.02755114436149597168e-01) (62, 4.65764045715332031250e+00) (63, -6.92144110798835754395e-02) (64, -6.93438723683357238770e-02) (65, 1.76959246397018432617e-01) (66, 1.90605804324150085449e-01) (67, 3.49705725908279418945e-01) (68, 3.18345874547958374023e-01) (69, 2.69614875316619873047e-01) (70, 4.11675512790679931641e-01) (71, 4.16486471891403198242e-01) (72, 3.58045160770416259766e-01) (73, 4.23917651176452636719e-01) (74, 4.33638155460357666016e-01) (75, 3.65095406770706176758e-01) (76, 2.63717025518417358398e-01) (77, 7.75875549316406250000e+01) (78, 2.70454621315002441406e+00) (79, 1.16665542125701904297e+00) (80, 2.24364995956420898438e+00) (81, -1.66350126266479492188e+00) (82, 2.59914350509643554688e+00) (83, -1.30753405392169952393e-02) (84, -2.21102423965930938721e-02) (85, 2.10628852248191833496e-01) (86, 3.65807235240936279297e-01) (87, 2.26382046937942504883e-01) (88, 2.73797124624252319336e-01) (89, 3.42586010694503784180e-01) (90, 3.11624944210052490234e-01) (91, 3.53445887565612792969e-01) (92, 7.78461337089538574219e-01) (93, 6.23084902763366699219e-01) (94, 9.09341514110565185547e-01) (95, 3.77071827650070190430e-01) (96, 3.94611716270446777344e-01) (97, 1.39930923461914062500e+02) (98, 2.59225773811340332031e+00) (99, 9.54559981822967529297e-01) (100, 2.24770855903625488281e+00) (101, 4.41344118118286132812e+00) (102, 9.07219767570495605469e-01) (103, -4.00185108184814453125e-01) (104, -2.92290896177291870117e-01) (105, 3.46543908119201660156e-01) (106, 1.89356252551078796387e-01) (107, 2.24933996796607971191e-01) (108, 2.37719640135765075684e-01) (109, 5.29923915863037109375e-01) (110, 4.14263546466827392578e-01) (111, 3.97186726331710815430e-01) (112, 3.97529989480972290039e-01) (113, 4.12313967943191528320e-01) (114, 2.50960874557495117188e+00) (115, 1.09549832344055175781e+00) (116, 2.98688501119613647461e-01) (117, 4.24483239650726318359e-01) (118, 8.50304424762725830078e-01) (119, -3.02863574028015136719e+00) (120, 1.30890356445312500000e+03) (121, -7.93777999877929687500e+01) (122, -2.80815184116363525391e-01) (123, 1.48515748977661132812e+00) (124, 6.90267205238342285156e-01) (125, 2.84524977207183837891e-01) (126, 3.11982631683349609375e-01) (127, -2.81437759399414062500e+01) (128, 7.88344144821166992188e-02) (129, 6.27070486545562744141e-01) (130, 1.40149191021919250488e-01) (131, 2.92437881231307983398e-01) (132, 4.28247749805450439453e-01) (133, 2.27572232484817504883e-01) (134, 4.30485427379608154297e-01) (135, 3.71522545814514160156e-01) (136, 3.06853801012039184570e-01) (137, 3.48857074975967407227e-01) (138, 2.15512335300445556641e-01) (139, 5.35160228610038757324e-02) (140, 2.20269607543945312500e+02) (141, -5.43602585792541503906e-01) (142, 4.65661346912384033203e-01) (143, 8.63775849342346191406e-01) (144, -2.55186688154935836792e-02) (145, -1.68903893791139125824e-03) (146, -9.78048071265220642090e-02) (147, 4.15236206054687500000e+01) (148, -2.38315656781196594238e-01) (149, 4.35008227825164794922e-01) (150, 4.93562757968902587891e-01) (151, 4.16202396154403686523e-01) (152, 1.50872513651847839355e-01) (153, -8.29257786273956298828e-01) (154, -8.04829224944114685059e-02) (155, 2.06813633441925048828e-01) (156, -6.48637041449546813965e-02) (157, 1.21027313172817230225e-01) (158, 1.67589836120605468750e+01) (159, 5.10399580001831054688e-01) (160, -8.13048019409179687500e+01) (161, 3.50696730613708496094e+00) (162, 4.35509294271469116211e-01) (163, -3.14461969537660479546e-04) (164, 1.43861323595046997070e-01) (165, 1.75968721508979797363e-01) (166, -8.30421626567840576172e-01) (167, 1.39223289489746093750e+00) (168, 2.11973819732666015625e+01) (169, 5.02383041381835937500e+00) (170, 2.09341537475585937500e+02) (171, 3.73781591653823852539e-01) (172, -1.82069337368011474609e+00) (173, -5.44926047325134277344e-01) (174, 4.25077766180038452148e-01) (175, 2.85195261240005493164e-01) (176, 7.57816508412361145020e-02) (177, -4.23857361078262329102e-01) (178, 5.85602402687072753906e-01) (179, 7.83830046653747558594e-01) (180, 2.35453292727470397949e-01) (181, 1.71322178840637207031e+00) (182, 3.02593052387237548828e-01) (183, 1.78372710943222045898e-01) (184, 1.97708129882812500000e-01) (185, -1.79862320423126220703e-01) (186, -2.78579443693161010742e-01) (187, 5.41930496692657470703e-01) (188, 1.90941560268402099609e+00) (189, 6.05581820011138916016e-01) (190, 3.82111396789550781250e+01) (191, 3.18931579589843750000e-01) (192, 1.79112091660499572754e-01) (193, -2.76042366027832031250e+00) (194, 7.57771730422973632812e-01) (195, 2.79719233512878417969e-01) (196, -4.27311174571514129639e-02) (197, 6.00019693374633789062e-01) (198, 3.26338005065917968750e+01) (199, -1.61762466430664062500e+01) (200, 6.10502004623413085938e+00) (201, 3.85638266801834106445e-01) (202, 3.75617325305938720703e-01) (203, -1.84313030242919921875e+01) (204, -8.55383992195129394531e-01) (205, -1.39560267329216003418e-01) (206, -2.01751545071601867676e-01) (207, 8.43446612358093261719e-01) (208, -1.77398991584777832031e+00) (209, 2.83248424530029296875e-01) (210, 1.05341205596923828125e+01) (211, -1.29014208912849426270e-01) (212, 3.14010977745056152344e-01) (213, -3.61354649066925048828e-01) (214, -1.67246985435485839844e+00) (215, -9.20244312286376953125e+00) (216, 4.40707802772521972656e-03) (217, -1.39813423156738281250e+00) (218, 2.54344844818115234375e+00) (219, -1.19712886810302734375e+01) (220, 1.78295242309570312500e+02) (221, 3.40311408042907714844e-01) (222, 3.29709649085998535156e-01) (223, -3.31661891937255859375e+00) (224, -4.50260221958160400391e-01) (225, 2.28104457259178161621e-01) (226, 9.24317955970764160156e-01) (227, 5.34027457237243652344e-01) (228, 5.40123939514160156250e-01) (229, 7.71407604217529296875e-01) (230, -1.87754666805267333984e+00) (231, -2.21688175201416015625e+01) (232, 1.88553810119628906250e-01) (233, -9.84293365478515625000e+01) (234, 2.61032257080078125000e+02) (235, -1.78539218902587890625e+01) (236, 3.15001934766769409180e-01) (237, 1.97872579097747802734e+00) (238, 5.26051101684570312500e+01) (239, -1.37622632980346679688e+01) (240, 6.25944824218750000000e+02) (241, -6.13646149635314941406e-01) (242, 1.61083638668060302734e-01) (243, 3.34831923246383666992e-01) (244, 5.84620721638202667236e-02) (245, 3.87147516012191772461e-02) (246, 3.66313219070434570312e-01) (247, 4.57902956008911132812e+00) (248, 2.66902675628662109375e+01) (249, 1.89604969024658203125e+01) (250, 2.69873470067977905273e-01) (251, -1.08652715682983398438e+01) (252, 2.03826690673828125000e+02) (253, -1.56623086929321289062e+01) (254, 1.30617964267730712891e+00) (255, -3.09123363494873046875e+01) (256, -3.85534703731536865234e-01) (257, 5.07015466690063476562e+00) (258, 9.94993400573730468750e+00) (259, -9.35123596191406250000e+01) (260, 6.65142089843750000000e+02) (261, 3.29515159130096435547e-01) (262, 4.42697584629058837891e-01) (263, 1.46208941936492919922e-01) (264, 1.75836924463510513306e-02) (265, 4.00523990392684936523e-01) (266, 9.13315862417221069336e-02) (267, 1.08290410041809082031e+00) (268, 2.20543766021728515625e+00) (269, 2.54609513282775878906e+00) (270, 3.80750656127929687500e-01) (271, -2.48116321563720703125e+01) (272, 7.31078872680664062500e+01) (273, 1.02630462646484375000e+01) (274, 7.08705444335937500000e+01) (275, -7.98671722412109375000e+01) (276, -1.88090857118368148804e-02) (277, 2.08888435363769531250e+00) (278, 4.81780433654785156250e+01) (279, -3.12774807214736938477e-01) (280, 6.20426464080810546875e+00) (281, 4.16180044412612915039e-01) (282, 2.48084262013435363770e-01) (283, -1.69618892669677734375e+01) (284, -3.56543987989425659180e-01) (285, 4.91832554340362548828e-01) (286, -3.33454918861389160156e+00) (287, 2.81751215457916259766e-01) (288, 3.85147869586944580078e-01) (289, 4.16421294212341308594e-01) (290, 3.29212039709091186523e-01) (291, -1.95941269397735595703e+00) (292, 7.79445617675781250000e+02) (293, 5.39589294433593750000e+02) (294, 4.06064910888671875000e+02) (295, -9.57640686035156250000e+01) (296, 2.56295889616012573242e-01) (297, 2.00684309005737304688e+00) (298, 2.79006286621093750000e+02) (299, 7.06693267822265625000e+01) (300, 4.00285911560058593750e+01) (301, 4.48241800069808959961e-01) (302, 8.38763266801834106445e-02) (303, -3.16746443510055541992e-01) (304, -1.85203418135643005371e-01) (305, 1.83088913559913635254e-01) (306, 2.03384354710578918457e-01) (307, 7.72312879562377929688e-01) (308, 3.13882112503051757812e-01) (309, 4.07522946596145629883e-01) (310, 6.95755779743194580078e-02) (311, 7.86108523607254028320e-02) (312, 1.01724938964843750000e+03) (313, -1.23472018167376518250e-02) (314, 2.02954772949218750000e+02) (315, 1.97732686996459960938e-01) (316, 2.21279546618461608887e-01) (317, 4.18958997726440429688e+00) (318, -2.65466761589050292969e+00) (319, 3.59070110321044921875e+00) (320, 3.08090629577636718750e+01) (321, 1.53487987518310546875e+01) (322, 2.87071734666824340820e-01) (323, -6.12563416361808776855e-02) (324, -2.00451040267944335938e+00) (325, 1.43831307068467140198e-02) (326, 8.18835273385047912598e-02) (327, 1.97419330477714538574e-01) (328, 4.11642402410507202148e-01) (329, 4.06745958328247070312e+00) (330, 5.25844812393188476562e+00) (331, 6.05707778930664062500e+01) (332, 2.76471500396728515625e+01) (333, -7.41788744926452636719e-01) (334, -7.95826911926269531250e-02) (335, -3.61579895019531250000e-01) (336, -1.79631821811199188232e-02) (337, 3.88152420520782470703e-01) (338, 8.42350959777832031250e+00) (339, 7.13450860977172851562e+00) (340, 1.06458276367187500000e+03) (341, 2.01063349843025207520e-01) (342, 7.99554139375686645508e-02) (343, 1.33503615856170654297e+00) (344, -4.51306514441967010498e-02) (345, -4.86551821231842041016e-02) (346, -4.37808036804199218750e-02) (347, -8.18975090980529785156e-01) (348, -4.12537717819213867188e+00) (349, -4.08091038465499877930e-01) (350, -3.65346503257751464844e+00) (351, -8.76147556304931640625e+00) (352, 3.60886901855468750000e+02) (353, -2.64832630157470703125e+01) (354, -5.40624260902404785156e-01) (355, -1.92102551460266113281e-01) (356, 1.50382995605468750000e-01) (357, -3.07589527219533920288e-02) (358, 2.46183365583419799805e-01) (359, 2.23317694664001464844e+00) (360, -3.76138615608215332031e+00) (361, 1.44776761531829833984e-01) (362, 8.03878158330917358398e-02) (363, -2.32204034924507141113e-01) (364, -9.01113897562026977539e-02) (365, 5.30622638761997222900e-02) (366, -1.36358961462974548340e-01) (367, -4.25507736206054687500e+00) (368, 9.30981934070587158203e-02) (369, -1.06791210174560546875e+00) (370, -2.57099461555480957031e+00) (371, 2.89994049072265625000e+01) (372, -3.37950134277343750000e+00) (373, -3.77551257610321044922e-01) (374, -1.74350962042808532715e-02) (375, 1.40497520565986633301e-01) (376, 3.08818489313125610352e-01) (377, 1.04609116911888122559e-01) (378, -1.80057597160339355469e+00) (379, 1.44927394390106201172e+00) (380, 2.41239929199218750000e+00) (381, -5.75184589251875877380e-03) (382, 1.34878337383270263672e-01) (383, -1.05109298601746559143e-02) (384, 1.20990969240665435791e-01) (385, -1.07379667460918426514e-01) (386, 5.60967996716499328613e-02) (387, 4.19651865959167480469e-01) (388, -1.44344294071197509766e+00) (389, -1.13321340084075927734e+00) (390, -9.13150119781494140625e+00) (391, 3.08289915323257446289e-01) (392, 2.10395958274602890015e-02) (393, 3.03744494915008544922e-01) (394, 3.77874404191970825195e-01) (395, 3.31280052661895751953e-01) (396, 2.46663182973861694336e-01) (397, 3.49233436584472656250e+00) (398, 7.37008869647979736328e-01) (399, 1.44226745605468750000e+03) (400, 2.27556320190429687500e+02) (401, 1.11206620931625366211e-02) (402, 4.31323684751987457275e-02) (403, -3.02116718292236328125e+01) (404, 2.79768276214599609375e+00) (405, -2.32263892889022827148e-01) (406, 8.93963992595672607422e-01) (407, 1.13316977024078369141e+00) (408, 6.01968050003051757812e-01) (409, 7.42857396602630615234e-01) (410, 2.22772145271301269531e+00) (411, 1.76153913140296936035e-01) (412, 2.76229798793792724609e-01) (413, 3.35090383887290954590e-02) (414, 2.54804313182830810547e-01) (415, 2.29086056351661682129e-01) (416, 3.22439610958099365234e-01) (417, 8.07423400878906250000e+00) (418, 2.13092550635337829590e-01) (419, 1.37034499645233154297e+00) (420, 3.05027604103088378906e+00) (421, -2.73914467543363571167e-02) (422, -3.34086883544921875000e+02) (423, 1.21955215930938720703e-01) (424, 1.02528333663940429688e-01) (425, -1.25853165984153747559e-01) (426, 3.52227747440338134766e-01) (427, 1.34360180664062500000e+03) (428, 4.04485724866390228271e-02) (429, 2.57177382707595825195e-01) (430, 6.09748601913452148438e+00) (431, -8.57670903205871582031e-02) (432, 3.28753650188446044922e-01) (433, 2.05294832587242126465e-01) (434, 2.83548653125762939453e-01) (435, 3.95265579223632812500e-01) (436, 5.29806375503540039062e-01) (437, 3.49551498889923095703e-01) (438, -4.56733666360378265381e-02) (439, 1.79483205080032348633e-01) (440, 3.79534721374511718750e+00) (441, -2.78464851379394531250e+01) (442, -1.00473558902740478516e+00) (443, 2.70650655031204223633e-01) (444, 3.58786523342132568359e-01) (445, 2.36357241868972778320e-01) (446, 1.65327697992324829102e-01) (447, -1.84878807067871093750e+01) (448, -1.54945239424705505371e-01) (449, 2.42247670888900756836e-01) (450, 8.68555009365081787109e-01) (451, 3.93782556056976318359e-01) (452, 3.37207347154617309570e-01) (453, 8.47064316272735595703e-01) (454, 1.15312421321868896484e+00) (455, 9.68267321586608886719e-01) (456, 2.08750069141387939453e-01) (457, 1.05482196807861328125e+00) (458, 2.96347171068191528320e-01) (459, -5.85000514984130859375e-01) (460, 4.32185974121093750000e+02) (461, -1.47658061981201171875e+00) (462, 4.36254501342773437500e-01) (463, 3.94228994846343994141e-01) (464, 3.15753668546676635742e-01) (465, 2.74579882621765136719e-01) (466, 9.72916036844253540039e-02) (467, 1.12126544117927551270e-02) (468, 3.46367657184600830078e-01) (469, 1.43005537986755371094e+00) (470, 4.77247714996337890625e-01) (471, 2.43788927793502807617e-01) (472, -6.08912765979766845703e-01) (473, 2.89020180702209472656e-01) (474, 1.62511181831359863281e+00) (475, 7.21905171871185302734e-01) (476, 3.77106308937072753906e-01) (477, 2.48261032104492187500e+01) (478, 3.10416311025619506836e-01) (479, -3.42453360557556152344e+00) (480, 3.24239410400390625000e+02) (481, -1.13132638931274414062e+01) (482, -2.34974975585937500000e+02) (483, 4.34581011533737182617e-01) (484, 1.79260897636413574219e+00) (485, 4.57653880119323730469e-01) (486, -1.37866950035095214844e+00) (487, 1.09375798702239990234e+00) (488, -4.34578299522399902344e-01) (489, 4.35243993997573852539e-01) (490, 2.53930187225341796875e+01) (491, 2.82936364412307739258e-01) (492, 4.96175527572631835938e-01) (493, 1.09488224983215332031e+00) (494, 1.18469929695129394531e+00) (495, 2.40317404270172119141e-01) (496, 3.47534239292144775391e-01) (497, 3.59884738922119140625e-01) (498, 1.74079120159149169922e-01) (499, -1.33902296423912048340e-01) (500, -3.73739624023437500000e+02) (501, -6.70553505420684814453e-01) (502, -1.91873177886009216309e-01) (503, -7.19823464751243591309e-02) (504, 2.74652093648910522461e-01) (505, 3.12102556228637695312e-01) (506, 2.57110327482223510742e-01) (507, 2.72090882062911987305e-01) (508, 2.75258630514144897461e-01) (509, 3.56752038002014160156e-01) (510, 2.02005833387374877930e-01) (511, 2.97830879688262939453e-01) (512, 3.46385776996612548828e-01) (513, 3.40083420276641845703e-01) (514, 1.86531618237495422363e-01) (515, 2.22971007227897644043e-01) (516, 2.89896607398986816406e-01) (517, 2.76378363370895385742e-01) (518, 4.96022790670394897461e-01) (519, 6.38172268867492675781e-01) (520, -3.59794348478317260742e-01) (521, 4.44680750370025634766e-01) (522, 3.07621151208877563477e-01) (523, -2.34373554587364196777e-01) (524, 1.17110647261142730713e-03) (525, 2.58034795522689819336e-01) (526, 3.05350244045257568359e-01) (527, 3.46708595752716064453e-01) (528, 2.97146916389465332031e-01) (529, 2.07713738083839416504e-01) (530, 1.80370375514030456543e-01) (531, 2.47194379568099975586e-01) (532, 2.84209340810775756836e-01) (533, 2.91746556758880615234e-01) (534, 3.07248026132583618164e-01) (535, 1.45673274993896484375e-01) (536, 2.09358319640159606934e-01) (537, 2.68474400043487548828e-01) (538, 1.17579019069671630859e+00) (539, 1.26510298252105712891e+00) (540, 7.63817429542541503906e-02) (541, 3.21462213993072509766e-01) (542, 2.54220694303512573242e-01) (543, -7.36062228679656982422e-03) (544, -3.17099839448928833008e-01) (545, 2.04387098550796508789e-01) (546, 3.27144920825958251953e-01) (547, 3.87032359838485717773e-01) (548, 2.18614012002944946289e-01) (549, 3.89772027730941772461e-01) (550, 2.61099338531494140625e-01) (551, 3.84173214435577392578e-01) (552, 6.86731934547424316406e-01) (553, 3.51025581359863281250e-01) (554, 2.65549391508102416992e-01) (555, 2.24420979619026184082e-01) (556, 1.86714813113212585449e-01) (557, 3.10674428939819335938e-01) (558, 5.60763883590698242188e+00) (559, 5.70842895507812500000e+01) (560, 1.76727104187011718750e+00) (561, 9.41556394100189208984e-01) (562, 5.55267286300659179688e+00) (563, 2.75559973716735839844e+00) (564, 3.82174038887023925781e+00) (565, 2.81823594123125076294e-02) (566, 2.26957097649574279785e-01) (567, 2.80160993337631225586e-01) (568, 3.19461941719055175781e-01) (569, 3.48930954933166503906e-01) (570, 3.01353484392166137695e-01) (571, 3.63067805767059326172e-01) (572, 4.25420850515365600586e-01) (573, 3.55409294366836547852e-01) (574, 1.67269781231880187988e-01) (575, 3.19335967302322387695e-01) (576, 2.67288804054260253906e-01) (577, 3.66610109806060791016e-01) (578, 3.13495922088623046875e+01) (579, 2.83201934814453125000e+02) (580, 7.27195495605468750000e+02) (581, 3.12558555603027343750e+00) (582, 1.03562211990356445312e+00) (583, 1.50628820061683654785e-01) (584, 6.55024480819702148438e+00) (585, 2.28345781564712524414e-01) (586, 2.77723520994186401367e-01) (587, 1.84658795595169067383e-01) (588, 2.70489037036895751953e-01) (589, 3.32090198993682861328e-01) (590, 1.84239193797111511230e-01) (591, 1.66317865252494812012e-01) (592, 1.46726265549659729004e-01) (593, 1.68328508734703063965e-01) (594, 3.36859554052352905273e-01) (595, 1.31733668968081474304e-03) (596, 2.73795295506715774536e-02) (597, 4.23789292573928833008e-01) (598, 2.77885746955871582031e+00) (599, 5.43348014354705810547e-01) (600, 2.53818064928054809570e-01) (0, -3.17906451225280761719e+00) (1, 9.88987121582031250000e+01) (2, 6.88200891017913818359e-01) (3, 2.88422027587890625000e+02) (4, 3.70072364807128906250e+01) (5, 1.13003215789794921875e+01) (6, -6.85298824310302734375e+00) (7, -4.21422958374023437500e-01) (8, -7.65793621540069580078e-01) (9, -1.73483681678771972656e+00) (10, 6.49773657321929931641e-01) (11, -4.44434642791748046875e+00) (12, -5.38728904724121093750e+00) (13, 6.86646041870117187500e+01) (14, 1.28714221191406250000e+03) (15, 9.83551757812500000000e+02) (16, 3.53312301635742187500e+01) (17, 7.56898803710937500000e+02) (18, 1.49433007812500000000e+03) (19, 1.32389672851562500000e+03) (20, -1.39577575683593750000e+02) (21, 1.08086080551147460938e+01) (22, -8.17740440368652343750e-01) (23, -4.95503711700439453125e+00) (24, -4.47372853755950927734e-01) (25, -1.77645996212959289551e-01) (26, -6.56460374593734741211e-02) (27, -1.08222760260105133057e-01) (28, 3.18525731563568115234e-01) (29, 2.30168759822845458984e-01) (30, 3.77061665058135986328e-01) (31, 2.80220150947570800781e-01) (32, 1.77569553256034851074e-01) (33, 1.84524327516555786133e-01) (34, 2.36624687910079956055e-01) (35, 1.07479177415370941162e-01) (36, 1.40934467315673828125e-01) (37, -5.56903791427612304688e+00) (38, -2.28933715820312500000e+01) (39, -1.94403972625732421875e+01) (40, -2.77852360159158706665e-02) (41, -4.18146163225173950195e-01) (42, 6.06609344482421875000e-01) (43, -1.78253382444381713867e-01) (44, -2.99034714698791503906e-01) (45, 1.34344827383756637573e-02) (46, -1.68141573667526245117e-01) (47, 4.42012012004852294922e-01) (48, 4.49231833219528198242e-01) (49, 3.37952792644500732422e-01) (50, 4.01916116476058959961e-01) (51, 2.37111002206802368164e-01) (52, 3.59708905220031738281e-01) (53, 3.16693603992462158203e-01) (54, 3.16846340894699096680e-01) (55, 3.84111136198043823242e-01) (56, 2.83289045095443725586e-01) (57, -4.47454780340194702148e-01) (58, -2.02629585266113281250e+01) (59, 9.23727154731750488281e-02) (60, -4.55673724412918090820e-01) (61, -1.60807535052299499512e-01) (62, -3.28364670276641845703e-01) (63, -1.41618490219116210938e-01) (64, -1.23887315392494201660e-01) (65, 3.98366123437881469727e-01) (66, 3.25086802244186401367e-01) (67, 3.79759132862091064453e-01) (68, 3.98209869861602783203e-01) (69, 3.71151059865951538086e-01) (70, 3.76280605792999267578e-01) (71, 2.48219743371009826660e-01) (72, 3.23275685310363769531e-01) (73, 3.75314593315124511719e-01) (74, 3.79824310541152954102e-01) (75, 3.73712867498397827148e-01) (76, 4.14767444133758544922e-01) (77, -3.63223284482955932617e-01) (78, -1.09228384494781494141e+00) (79, 6.07676012441515922546e-03) (80, -2.80611753463745117188e+00) (81, -3.00236964225769042969e+00) (82, -1.67829841375350952148e-01) (83, -1.44654884934425354004e-01) (84, -3.22409812361001968384e-03) (85, 2.99115329980850219727e-01) (86, 2.53504097461700439453e-01) (87, 3.36117863655090332031e-01) (88, 3.66171568632125854492e-01) (89, 3.47386449575424194336e-01) (90, 2.86408424377441406250e-01) (91, 1.99776217341423034668e-01) (92, 1.72156423330307006836e-01) (93, 3.26234817504882812500e-01) (94, 2.94736891984939575195e-01) (95, 2.97021806240081787109e-01) (96, 3.76606971025466918945e-01) (97, -7.37348347902297973633e-02) (98, -1.18667237460613250732e-01) (99, 8.38550254702568054199e-02) (100, -9.38009948730468750000e+01) (101, -4.63025140762329101562e+00) (102, -2.47604474425315856934e-01) (103, 3.12701404094696044922e-01) (104, 4.22149896621704101562e-01) (105, 3.04906755685806274414e-01) (106, 2.68827319145202636719e-01) (107, 4.14764583110809326172e-01) (108, 3.77211838960647583008e-01) (109, 2.23018452525138854980e-01) (110, 2.29542344808578491211e-01) (111, 2.86920785903930664062e-01) (112, 2.57746964693069458008e-01) (113, 1.61916404962539672852e-01) (114, 2.69043534994125366211e-01) (115, 2.56476730108261108398e-01) (116, 3.78015816211700439453e-01) (117, 3.78197759389877319336e-01) (118, 2.69113212823867797852e-01) (119, 2.04173266887664794922e-01) (120, -4.98724479675292968750e+01) (121, 1.48664562988281250000e+03) (122, -7.76494324207305908203e-01) (123, 2.33161315917968750000e+02) (124, 7.83777773380279541016e-01) (125, 4.63332921266555786133e-01) (126, 5.57978630065917968750e+00) (127, 1.50000000000000000000e+03) (128, 8.52682590484619140625e-01) (129, 3.04767727851867675781e-01) (130, 7.39954590797424316406e-01) (131, 5.31919121742248535156e-01) (132, 2.14901387691497802734e-01) (133, 3.61812382936477661133e-01) (134, 3.39773654937744140625e-01) (135, 4.75978314876556396484e-01) (136, 3.29260408878326416016e-01) (137, 4.24484282732009887695e-01) (138, 3.44662308692932128906e-01) (139, 1.98143213987350463867e-01) (140, -1.17902795410156250000e+03) (141, -5.67940807342529296875e+00) (142, -4.34381622314453125000e+02) (143, -6.09497547149658203125e+00) (144, 4.25054073333740234375e-01) (145, 6.80499970912933349609e-01) (146, 5.58123767375946044922e-01) (147, 5.49258327484130859375e+00) (148, 2.59159982204437255859e-01) (149, 6.55927360057830810547e-02) (150, 2.63713479042053222656e-01) (151, 5.49246847629547119141e-01) (152, 3.75162243843078613281e-01) (153, 7.31199920177459716797e-01) (154, 1.78984355926513671875e+00) (155, 4.53386366367340087891e-01) (156, 3.94152641296386718750e-01) (157, 1.01421344280242919922e+00) (158, 4.29230123758316040039e-01) (159, 2.98112839460372924805e-01) (160, 1.53142730712890625000e+02) (161, -6.30558207631111145020e-02) (162, 3.64708840847015380859e-01) (163, 2.16623678803443908691e-01) (164, 2.23296970129013061523e-01) (165, 9.40830230712890625000e-01) (166, 1.13893103027343750000e+03) (167, 1.25314068794250488281e+00) (168, -2.19882786273956298828e-01) (169, -1.86220169067382812500e+00) (170, -2.88310890197753906250e+01) (171, 4.88462179899215698242e-01) (172, 3.00748288631439208984e-01) (173, 7.78306603431701660156e-01) (174, 9.91423666477203369141e-01) (175, 3.55991095304489135742e-01) (176, 4.32710289955139160156e-01) (177, 4.31656539440155029297e-01) (178, 2.42627114057540893555e-01) (179, 2.73620992898941040039e-01) (180, 5.15321693420410156250e+01) (181, -3.60468387603759765625e+00) (182, 2.31157183647155761719e-01) (183, -3.37467336654663085938e+00) (184, 1.57338276505470275879e-01) (185, 3.11896294355392456055e-01) (186, 4.48510246276855468750e+01) (187, 1.83605289459228515625e+00) (188, 2.73366987705230712891e-01) (189, 1.88033044338226318359e-01) (190, -4.08262481689453125000e+01) (191, 1.56188994646072387695e-01) (192, 3.79266262054443359375e-01) (193, 1.98566198348999023438e+00) (194, 1.54671108722686767578e+00) (195, 2.38853052258491516113e-01) (196, 4.31797057390213012695e-01) (197, 3.22122037410736083984e-01) (198, -2.16040191650390625000e+01) (199, -9.75043964385986328125e+00) (200, -6.16842746734619140625e-01) (201, 4.23514693975448608398e-01) (202, 1.62572398781776428223e-01) (203, 1.19160853326320648193e-01) (204, 2.05882176756858825684e-01) (205, 3.46053421497344970703e-01) (206, 7.11471557617187500000e+00) (207, 7.73879289627075195312e-01) (208, 8.91447663307189941406e-01) (209, 3.54432493448257446289e-01) (210, -9.64993953704833984375e-01) (211, 4.17915344238281250000e+01) (212, 3.43221724033355712891e-01) (213, 5.68920075893402099609e-01) (214, 7.61638820171356201172e-01) (215, 1.48115661621093750000e+03) (216, 4.99614179134368896484e-01) (217, 3.24384212493896484375e+00) (218, -1.43650741577148437500e+01) (219, 2.67535805702209472656e-01) (220, 4.69155877828598022461e-01) (221, 3.65749388933181762695e-01) (222, 2.65435010194778442383e-01) (223, 2.90625715255737304688e+00) (224, 1.62773215770721435547e+00) (225, -8.03786163330078125000e+01) (226, -1.31248292922973632812e+01) (227, 5.02560734748840332031e-01) (228, -1.90696697235107421875e+01) (229, -6.87533080577850341797e-01) (230, 2.28776603937149047852e-01) (231, 6.30886316299438476562e-01) (232, 8.64454060792922973633e-02) (233, 4.71897239685058593750e+01) (234, 8.16838867187500000000e+02) (235, 1.04245054721832275391e+00) (236, 4.00980144739151000977e-01) (237, 1.87390267848968505859e-01) (238, -4.11147952079772949219e-01) (239, 7.94383406639099121094e-01) (240, -2.15286712646484375000e+01) (241, 3.72468709945678710938e-01) (242, 4.98131662607192993164e-01) (243, 2.64493435621261596680e-01) (244, 4.45504039525985717773e-01) (245, -4.56056654453277587891e-01) (246, 4.86325454711914062500e+00) (247, -1.66172580718994140625e+01) (248, -5.79730949401855468750e+01) (249, -5.58122673034667968750e+01) (250, -2.01962441205978393555e-01) (251, -4.42058965563774108887e-03) (252, 1.02915123105049133301e-01) (253, 2.61634016036987304688e+00) (254, 1.64866411685943603516e+00) (255, 7.16229438781738281250e-01) (256, 4.64127063751220703125e-01) (257, 2.46000096201896667480e-01) (258, -1.47261098027229309082e-01) (259, 2.65519905090332031250e+00) (260, 1.16698443889617919922e+00) (261, 2.84302443265914916992e-01) (262, 4.82095003128051757812e-01) (263, 2.68823236227035522461e-01) (264, 5.82382977008819580078e-01) (265, 5.06742775440216064453e-01) (266, 2.76877746582031250000e+01) (267, 1.20048910379409790039e-01) (268, -1.57266883850097656250e+01) (269, -2.79973773956298828125e+01) (270, -3.41510213911533355713e-02) (271, 3.06009709835052490234e-01) (272, -2.15197191573679447174e-03) (273, 8.95099997520446777344e-01) (274, 4.42676544189453125000e-01) (275, 2.61260986328125000000e+00) (276, 4.59659993648529052734e-01) (277, -3.81702274084091186523e-01) (278, 2.05254364013671875000e+00) (279, 5.14217615127563476562e-01) (280, -2.28676223754882812500e+00) (281, 2.38889664411544799805e-01) (282, 3.17459881305694580078e-01) (283, 1.58713245391845703125e+01) (284, 1.09763694763183593750e+02) (285, 2.01435208320617675781e+00) (286, 4.59717597961425781250e+01) (287, 6.82418882846832275391e-01) (288, 3.33247929811477661133e-01) (289, 2.92604655027389526367e-01) (290, 4.28388506174087524414e-01) (291, 3.15595775842666625977e-01) (292, 3.19926105439662933350e-02) (293, 4.95389480590820312500e+01) (294, 5.79129295349121093750e+01) (295, 5.27831983566284179688e+00) (296, 4.85710471868515014648e-01) (297, -3.27303242683410644531e+00) (298, 4.89251941442489624023e-01) (299, -1.87338042259216308594e+00) (300, -4.46181440353393554688e+00) (301, -5.36466979980468750000e+00) (302, 3.15213382244110107422e-01) (303, 1.78300037384033203125e+01) (304, 5.65301799774169921875e+00) (305, 1.03172094726562500000e+03) (306, 4.29126853942871093750e+01) (307, 3.33095103502273559570e-01) (308, 2.58126616477966308594e-01) (309, -5.52463948726654052734e-01) (310, -1.15843340754508972168e-02) (311, 1.25513285398483276367e-01) (312, -9.98202323913574218750e+00) (313, 4.24061000347137451172e-01) (314, 4.13805902004241943359e-01) (315, 4.23686683177947998047e-01) (316, 4.26025658845901489258e-01) (317, -3.83324027061462402344e-01) (318, 3.39432895183563232422e-01) (319, 2.45334282517433166504e-01) (320, -9.45693130493164062500e+01) (321, -5.15018403530120849609e-01) (322, 2.82935887575149536133e-01) (323, 2.54479789733886718750e+00) (324, 2.01869697570800781250e+01) (325, 9.61058425903320312500e+01) (326, 2.38045239448547363281e+00) (327, 2.50746637582778930664e-01) (328, 2.80269414186477661133e-01) (329, -1.33049297332763671875e+01) (330, -1.01167157292366027832e-01) (331, -9.64269280433654785156e-01) (332, -1.24331128597259521484e+00) (333, 3.76554012298583984375e-01) (334, 4.93158727884292602539e-01) (335, 7.88704395294189453125e-01) (336, 4.03714507818222045898e-01) (337, 3.09641808271408081055e-01) (338, -5.25811195373535156250e-01) (339, -6.11683070659637451172e-01) (340, -1.80903986096382141113e-01) (341, 3.46640110015869140625e-01) (342, 2.54781514406204223633e-01) (343, -3.76134991645812988281e-01) (344, 6.61721944808959960938e-01) (345, 6.15595757961273193359e-01) (346, 1.36644101142883300781e+00) (347, 4.21315383911132812500e+01) (348, 4.18436467647552490234e-01) (349, 4.21795040369033813477e-01) (350, -4.24982166290283203125e+00) (351, 6.98384046554565429688e-01) (352, -1.43473994731903076172e+00) (353, 4.00996446609497070312e-01) (354, 3.52099269628524780273e-01) (355, 5.22890806198120117188e-01) (356, 4.72145557403564453125e-01) (357, 1.92058193683624267578e+00) (358, 7.81403017044067382812e+00) (359, -1.19656145572662353516e-01) (360, -7.30363801121711730957e-02) (361, 3.55004459619522094727e-01) (362, 3.37934643030166625977e-01) (363, 3.97991061210632324219e-01) (364, 6.67637169361114501953e-01) (365, 8.41260731220245361328e-01) (366, 5.32443475723266601562e+00) (367, 1.50000000000000000000e+03) (368, 2.70104193687438964844e+00) (369, 5.33096730709075927734e-01) (370, 1.76843702793121337891e-01) (371, 4.84347671270370483398e-01) (372, 5.46742439270019531250e-01) (373, 4.61619317531585693359e-01) (374, 4.44337069988250732422e-01) (375, 5.83067655563354492188e-01) (376, 3.37462157011032104492e-01) (377, 5.55253505706787109375e-01) (378, 2.39239746093750000000e+02) (379, -6.62282288074493408203e-01) (380, 3.06017208099365234375e+01) (381, 4.29517060518264770508e-01) (382, 3.72300744056701660156e-01) (383, 3.97570341825485229492e-01) (384, 4.28423792123794555664e-01) (385, 6.88196420669555664062e-01) (386, 3.49923920631408691406e+00) (387, 1.01202511787414550781e+00) (388, 3.09495508670806884766e-01) (389, 2.41975307464599609375e-01) (390, 5.70292174816131591797e-01) (391, 2.23995938897132873535e-01) (392, 5.28532803058624267578e-01) (393, 4.54243898391723632812e-01) (394, 3.05282503366470336914e-01) (395, 3.95507484674453735352e-01) (396, 3.61413031816482543945e-01) (397, 1.01966001093387603760e-01) (398, 1.31816017627716064453e+00) (399, 3.24732494354248046875e+00) (400, 1.01776790618896484375e+00) (401, 3.16125422716140747070e-01) (402, 3.01097214221954345703e-01) (403, 7.12856674194335937500e+00) (404, 1.29196640014648437500e+02) (405, 5.44468164443969726562e-01) (406, 4.50390785932540893555e-01) (407, 1.03984415531158447266e+00) (408, 2.69782692193984985352e-01) (409, 1.49022296071052551270e-01) (410, -3.03059726953506469727e-01) (411, 3.09694200754165649414e-01) (412, 4.13059175014495849609e-01) (413, 6.56117856502532958984e-01) (414, 4.62109923362731933594e-01) (415, 4.73649859428405761719e-01) (416, 3.93873572349548339844e-01) (417, 2.07962125539779663086e-01) (418, 1.03682923316955566406e+00) (419, 1.77707660198211669922e+00) (420, -4.99592685699462890625e+00) (421, 1.62121787667274475098e-01) (422, -3.09452962875366210938e+00) (423, 3.24963301420211791992e-01) (424, 3.39565217494964599609e-01) (425, 1.41925990581512451172e+00) (426, 7.27575969696044921875e+00) (427, 1.50000000000000000000e+03) (428, 2.37254180908203125000e+01) (429, 2.55378872156143188477e-01) (430, -1.24761228561401367188e+01) (431, 3.85648488998413085938e-01) (432, 5.82708828151226043701e-02) (433, 4.47202384471893310547e-01) (434, 3.92413973808288574219e-01) (435, 4.52762037515640258789e-01) (436, 3.57448250055313110352e-01) (437, 3.78337293863296508789e-01) (438, 2.77753591537475585938e+00) (439, 5.46614456176757812500e+00) (440, 1.48916845703125000000e+03) (441, -6.99824476242065429688e+00) (442, 1.01223632693290710449e-01) (443, 4.01767462491989135742e-01) (444, 5.19052982330322265625e-01) (445, 3.64461958408355712891e-01) (446, 6.31002349853515625000e+01) (447, 1.50000000000000000000e+03) (448, 1.91266479492187500000e+01) (449, 8.15826058387756347656e-01) (450, -1.46450713276863098145e-01) (451, 4.17373985052108764648e-01) (452, 3.64030838012695312500e-01) (453, 2.58079290390014648438e-01) (454, -3.73814143240451812744e-02) (455, 3.99351894855499267578e-01) (456, 3.48354429006576538086e-01) (457, 4.49549168348312377930e-01) (458, 2.45086288452148437500e+00) (459, 8.29777240753173828125e+00) (460, 1.92919635772705078125e+00) (461, -2.30369195342063903809e-01) (462, 3.08183699846267700195e-01) (463, 2.96108990907669067383e-01) (464, 4.25328284502029418945e-01) (465, 3.52019786834716796875e-01) (466, 2.01279312133789062500e+02) (467, 4.33927795410156250000e+02) (468, 6.85694336891174316406e-01) (469, 2.14633807539939880371e-01) (470, 2.46315419673919677734e-01) (471, 6.65879368782043457031e-01) (472, 4.76352483034133911133e-01) (473, 5.58363914489746093750e-01) (474, 3.13581436872482299805e-01) (475, 2.83723026514053344727e-01) (476, 4.28397744894027709961e-01) (477, -8.00836026668548583984e-01) (478, -5.84318256378173828125e+00) (479, 2.34183578491210937500e+01) (480, 2.59449410438537597656e+00) (481, 1.09280312061309814453e+00) (482, -1.84505987167358398438e+00) (483, -1.74049526453018188477e-01) (484, -2.62417346239089965820e-01) (485, 3.83801996707916259766e-01) (486, 9.53574466705322265625e+00) (487, 5.92104187011718750000e+02) (488, 9.05205383300781250000e+02) (489, 1.97046070098876953125e+01) (490, 6.80353021621704101562e+00) (491, 3.11455070972442626953e-01) (492, 3.26568990945816040039e-01) (493, 4.12180483341217041016e-01) (494, 2.54461109638214111328e-01) (495, 2.61411577463150024414e-01) (496, 3.44607084989547729492e-01) (497, 1.01654422283172607422e+00) (498, 5.04961907863616943359e-01) (499, 1.19331514835357666016e+00) (500, -2.13556215167045593262e-02) (501, 2.15233707427978515625e+00) (502, 3.92775714397430419922e-01) (503, 4.10394817590713500977e-01) (504, 3.79248499870300292969e-01) (505, 2.66922473907470703125e-01) (506, 4.87616658210754394531e-01) (507, 3.63507598638534545898e-01) (508, 4.02847647666931152344e-01) (509, 2.56396800279617309570e-01) (510, 3.18090826272964477539e-01) (511, 3.06318402290344238281e-01) (512, 4.02214199304580688477e-01) (513, 2.57827192544937133789e-01) (514, 2.97269403934478759766e-01) (515, 3.62750768661499023438e-01) (516, 4.62509036064147949219e-01) (517, 1.49971199035644531250e+00) (518, -1.53970861434936523438e+00) (519, 2.01455950736999511719e-01) (520, 1.23705172538757324219e+00) (521, 2.06737726926803588867e-01) (522, 3.54809194803237915039e-01) (523, 3.71996074914932250977e-01) (524, 3.60042124986648559570e-01) (525, 4.09822374582290649414e-01) (526, 4.65586155652999877930e-01) (527, 2.71712243556976318359e-01) (528, 3.08862835168838500977e-01) (529, 2.98121452331542968750e-01) (530, 4.01477247476577758789e-01) (531, 3.69098901748657226562e-01) (532, 2.41956859827041625977e-01) (533, 3.11940610408782958984e-01) (534, 2.79111325740814208984e-01) (535, 4.01032775640487670898e-01) (536, 3.58961850404739379883e-01) (537, 5.31058073043823242188e-01) (538, 5.28527736663818359375e-01) (539, 5.27513802051544189453e-01) (540, 1.46020674705505371094e+00) (541, 2.23628354072570800781e+00) (542, 1.69215425848960876465e-01) (543, -4.13531351089477539062e+00) (544, 1.94099649786949157715e-01) (545, 3.52659493684768676758e-01) (546, 2.59326785802841186523e-01) (547, 2.82133042812347412109e-01) (548, 2.96547859907150268555e-01) (549, 4.12912905216217041016e-01) (550, 3.89452546834945678711e-01) (551, 3.91275256872177124023e-01) (552, -4.60058718919754028320e-01) (553, 3.61391693353652954102e-01) (554, 3.61998021602630615234e-01) (555, 2.84414887428283691406e-01) (556, 3.90303164720535278320e-01) (557, 6.45282566547393798828e-01) (558, 2.86801725625991821289e-01) (559, 3.24887084960937500000e+00) (560, 3.78239572048187255859e-01) (561, 1.87212486267089843750e+01) (562, -1.21159970760345458984e+00) (563, -4.95420408248901367188e+00) (564, -3.61040204763412475586e-01) (565, 3.69991660118103027344e-01) (566, 3.22412103414535522461e-01) (567, 4.08815205097198486328e-01) (568, 3.88557732105255126953e-01) (569, 3.03150802850723266602e-01) (570, 1.56081706285476684570e-01) (571, 4.06257957220077514648e-01) (572, 3.59646379947662353516e-01) (573, 3.74069571495056152344e-01) (574, 3.91602337360382080078e-01) (575, 2.88619488477706909180e-01) (576, 3.80813151597976684570e-01) (577, 1.52027308940887451172e+00) (578, 9.41568166017532348633e-02) (579, 4.12162601947784423828e-01) (580, 3.28086805343627929688e+00) (581, 2.82005667686462402344e-01) (582, 4.50693786144256591797e-01) (583, -2.88475483655929565430e-01) (584, -2.29056053161621093750e+01) (585, -3.20173263549804687500e-01) (586, -2.17852652072906494141e-01) (587, 3.72937977313995361328e-01) (588, 2.85482466220855712891e-01) (589, 3.23025047779083251953e-01) (590, 3.62482070922851562500e-01) (591, 3.18578034639358520508e-01) (592, 4.15514200925827026367e-01) (593, 2.79062926769256591797e-01) (594, 2.29837194085121154785e-01) (595, 1.38690471649169921875e+00) (596, 8.44656705856323242188e-01) (597, -9.75076928734779357910e-02) (598, 1.52528300881385803223e-01) (599, 2.98087179660797119141e-01) (600, 4.15936291217803955078e-01) (0, -6.56141296386718750000e+02) (1, 1.50000000000000000000e+03) (2, 1.50000000000000000000e+03) (3, 1.29182055664062500000e+03) (4, 1.47158813476562500000e+02) (5, -1.48588146972656250000e+03) (6, -1.32642736816406250000e+03) (7, 5.55781722068786621094e-01) (8, 1.49862805175781250000e+03) (9, 5.36135253906250000000e+02) (10, 7.76829605102539062500e+01) (11, 1.31037721633911132812e+01) (12, 4.26193952560424804688e+00) (13, -1.50000000000000000000e+03) (14, 9.51411987304687500000e+02) (15, 1.49999499511718750000e+03) (16, 2.44269012451171875000e+02) (17, 1.49166662597656250000e+03) (18, 1.48396740722656250000e+03) (19, 1.50000000000000000000e+03) (20, -8.99010696411132812500e+01) (21, 1.04158538818359375000e+02) (22, 4.67638063430786132812e+00) (23, 3.04321308135986328125e+01) (24, 9.36088027954101562500e+01) (25, -1.67460669763386249542e-03) (26, -3.31250071525573730469e-01) (27, -4.23114709556102752686e-02) (28, -5.99675327539443969727e-02) (29, -6.67535811662673950195e-02) (30, -1.59458629786968231201e-02) (31, 5.96576668322086334229e-02) (32, -1.08262702822685241699e-01) (33, -3.06409269571304321289e-01) (34, -4.82884161174297332764e-02) (35, -1.11999788284301757812e+01) (36, -1.00996149703860282898e-02) (37, -8.36011276245117187500e+01) (38, -1.44195422363281250000e+03) (39, -2.20942401885986328125e+01) (40, 1.50000000000000000000e+03) (41, 1.49915185546875000000e+03) (42, -7.29006652832031250000e+01) (43, -1.58767431974411010742e-01) (44, -7.90691301226615905762e-02) (45, 1.24105282127857208252e-01) (46, 6.93567246198654174805e-02) (47, 4.71099503338336944580e-02) (48, 1.76397293806076049805e-01) (49, 1.41909867525100708008e-01) (50, 9.82908755540847778320e-02) (51, 1.94920778274536132812e-01) (52, 5.05614206194877624512e-02) (53, 5.53313121199607849121e-02) (54, 1.98448657989501953125e-01) (55, 1.04071371257305145264e-01) (56, 2.13616907596588134766e-01) (57, -1.07862634658813476562e+01) (58, -5.31847412109375000000e+02) (59, -1.13111038208007812500e+02) (60, 1.50000000000000000000e+03) (61, 1.49832446289062500000e+03) (62, -4.09181976318359375000e+00) (63, -1.07824034988880157471e-01) (64, -4.75406020879745483398e-01) (65, 3.16045135259628295898e-02) (66, 9.30516049265861511230e-02) (67, 4.70110364258289337158e-02) (68, 2.93152164667844772339e-02) (69, 7.68370926380157470703e-02) (70, 1.00836260244250297546e-02) (71, 9.77684780955314636230e-02) (72, -3.07281268760561943054e-03) (73, -6.77381977438926696777e-02) (74, 1.90422292798757553101e-02) (75, 1.71831607818603515625e-01) (76, 1.91435262560844421387e-01) (77, 1.46218657493591308594e-01) (78, -4.34883423149585723877e-02) (79, 6.13391175866127014160e-02) (80, -1.12043180465698242188e+01) (81, 1.49962316894531250000e+03) (82, -1.54225975275039672852e-01) (83, -1.60461723804473876953e-01) (84, -1.02351494133472442627e-01) (85, -6.31338264793157577515e-03) (86, -8.24654661118984222412e-03) (87, 1.25846505165100097656e-01) (88, -1.00020609796047210693e-01) (89, 1.30383536219596862793e-01) (90, 1.18734858930110931396e-01) (91, 4.15192656219005584717e-02) (92, -8.65858122706413269043e-02) (93, 8.62073805183172225952e-03) (94, 1.56103715300559997559e-01) (95, 9.97071936726570129395e-02) (96, 8.16178098320960998535e-02) (97, 1.52756288647651672363e-01) (98, 6.32985532283782958984e-02) (99, 7.69650712609291076660e-02) (100, 5.14313659667968750000e+02) (101, 1.98867004394531250000e+02) (102, -2.56192913055419921875e+01) (103, 7.55277946591377258301e-02) (104, -6.38572946190834045410e-02) (105, -5.01259230077266693115e-02) (106, 1.18079133331775665283e-01) (107, 1.07048362493515014648e-01) (108, 1.73513159155845642090e-01) (109, 1.85558319091796875000e-01) (110, 2.75911778211593627930e-01) (111, 2.43744015693664550781e-01) (112, 2.27253064513206481934e-02) (113, -2.26294286549091339111e-02) (114, 1.80440589785575866699e-01) (115, 1.10530331730842590332e-01) (116, 1.60633280873298645020e-01) (117, 9.81226861476898193359e-02) (118, -4.92898255586624145508e-01) (119, 5.83484768867492675781e-02) (120, 9.35198059082031250000e+02) (121, 2.77552032470703125000e+02) (122, 2.69620031118392944336e-01) (123, 6.93797767162322998047e-02) (124, 7.83260315656661987305e-02) (125, 1.00072387695312500000e+03) (126, 7.14813964843750000000e+02) (127, 1.42916552734375000000e+03) (128, 4.00965919494628906250e+01) (129, 6.35970294475555419922e-01) (130, 1.49993457031250000000e+03) (131, 1.49991638183593750000e+03) (132, 1.49966625976562500000e+03) (133, 1.31586566567420959473e-01) (134, 1.69182687997817993164e-01) (135, 5.21980762481689453125e-01) (136, 3.58365476131439208984e-01) (137, -1.14034485816955566406e+00) (138, -1.03300504684448242188e+01) (139, -1.48212951660156250000e+02) (140, -1.39729724121093750000e+03) (141, 2.37543243408203125000e+02) (142, 1.32704394531250000000e+03) (143, -1.50000000000000000000e+03) (144, -4.24974060058593750000e+00) (145, 7.72066354751586914062e-01) (146, 1.66753661632537841797e+00) (147, 2.14842343330383300781e+00) (148, -5.82736167907714843750e+01) (149, -2.27715484619140625000e+02) (150, 1.05226013183593750000e+03) (151, 1.47248120117187500000e+03) (152, 1.49808374023437500000e+03) (153, 1.49993933105468750000e+03) (154, 1.47722631835937500000e+03) (155, 1.49997302246093750000e+03) (156, 1.49403601074218750000e+03) (157, 9.39780502319335937500e+01) (158, -7.18234786987304687500e+01) (159, 8.44408630371093750000e+02) (160, 1.50000000000000000000e+03) (161, 7.23217368125915527344e-01) (162, 1.05398216247558593750e+01) (163, 4.85142588615417480469e-01) (164, 8.98118197917938232422e-01) (165, 6.35591328144073486328e-01) (166, 1.50000000000000000000e+03) (167, 3.35804611444473266602e-01) (168, -6.99964404106140136719e-01) (169, 4.77022677659988403320e-01) (170, -1.49465661621093750000e+03) (171, 1.48852697753906250000e+03) (172, 7.04041015625000000000e+02) (173, 1.50000000000000000000e+03) (174, 1.49242053222656250000e+03) (175, 1.49452697753906250000e+03) (176, 4.30252113342285156250e+01) (177, 1.44294425845146179199e-01) (178, -8.08196663856506347656e-01) (179, -3.79390525817871093750e+00) (180, 1.46674865722656250000e+03) (181, 6.24151349067687988281e-01) (182, 5.15623807907104492188e+00) (183, 9.36844646930694580078e-01) (184, 1.06421172618865966797e+00) (185, 5.86417496204376220703e-01) (186, 1.50000000000000000000e+03) (187, 3.43063414096832275391e-01) (188, -4.25382614135742187500e-01) (189, -1.45949630737304687500e+01) (190, -1.49574450683593750000e+03) (191, 1.49831494140625000000e+03) (192, 1.49707421875000000000e+03) (193, 1.50000000000000000000e+03) (194, 1.50000000000000000000e+03) (195, 1.49223315429687500000e+03) (196, 4.92085571289062500000e+02) (197, 9.58562622070312500000e+01) (198, -3.66065716743469238281e+00) (199, -2.22699451446533203125e+00) (200, 1.46876904296875000000e+03) (201, 6.91630065441131591797e-01) (202, 8.27824056148529052734e-01) (203, 5.00493884086608886719e-01) (204, 5.18117189407348632812e-01) (205, 8.05657386779785156250e-01) (206, 8.68523742675781250000e+02) (207, 3.24469834566116333008e-01) (208, -4.40635604858398437500e+01) (209, -1.19727182388305664062e+00) (210, 1.49932189941406250000e+03) (211, 1.49906274414062500000e+03) (212, 1.48958764648437500000e+03) (213, 1.49999633789062500000e+03) (214, 1.49999475097656250000e+03) (215, 1.50000000000000000000e+03) (216, 1.45487960815429687500e+02) (217, 3.26140823364257812500e+01) (218, 6.26722514629364013672e-01) (219, -2.04425549507141113281e+00) (220, 1.46445837402343750000e+03) (221, 2.08001732826232910156e-01) (222, 5.84339022636413574219e-01) (223, 4.04159128665924072266e-01) (224, 4.41511690616607666016e-01) (225, 4.78580594062805175781e-01) (226, 4.56011848449707031250e+01) (227, 8.52134933471679687500e+01) (228, -1.91385059356689453125e+01) (229, -2.57439289093017578125e+01) (230, -1.33928239345550537109e+00) (231, 1.49782556152343750000e+03) (232, 1.49999987792968750000e+03) (233, 1.50000000000000000000e+03) (234, 1.50000000000000000000e+03) (235, 1.50000000000000000000e+03) (236, 3.54504852294921875000e+01) (237, 7.54228532314300537109e-01) (238, -3.06758340448141098022e-02) (239, 2.15896740555763244629e-01) (240, -8.87144714355468750000e+02) (241, 2.56864160299301147461e-01) (242, 2.03634300231933593750e+01) (243, 4.15121704339981079102e-01) (244, 4.81865072250366210938e+00) (245, 1.04669274902343750000e+03) (246, 1.50000000000000000000e+03) (247, 9.95580255985260009766e-01) (248, -6.56665229797363281250e+00) (249, -1.48570566177368164062e+01) (250, 5.14376401901245117188e-01) (251, 1.62779953002929687500e+02) (252, 6.54919204711914062500e+01) (253, 1.49999963378906250000e+03) (254, 1.49997033691406250000e+03) (255, 2.00026321411132812500e+02) (256, 3.24908316135406494141e-01) (257, 1.49830415844917297363e-01) (258, -1.00071042776107788086e-01) (259, -5.99288307130336761475e-02) (260, 5.48772521972656250000e+02) (261, 3.80957335233688354492e-01) (262, 1.50000000000000000000e+03) (263, 7.47763216495513916016e-01) (264, 2.65318655967712402344e+00) (265, 1.50000000000000000000e+03) (266, 1.50000000000000000000e+03) (267, 3.11261391639709472656e+00) (268, -1.80043327808380126953e+00) (269, -1.71031951904296875000e+00) (270, 3.21027717590332031250e+01) (271, 1.24254608154296875000e+02) (272, 1.49486328125000000000e+03) (273, 1.49919360351562500000e+03) (274, 1.50000000000000000000e+03) (275, 6.48001892089843750000e+02) (276, 8.63912963867187500000e+01) (277, 2.78970748186111450195e-01) (278, -1.60543680191040039062e-01) (279, -1.18051862716674804688e+00) (280, 1.49888488769531250000e+03) (281, 4.83348655700683593750e+00) (282, 1.50000000000000000000e+03) (283, 1.50000000000000000000e+03) (284, 1.50000000000000000000e+03) (285, 2.55170893669128417969e+00) (286, 1.50000000000000000000e+03) (287, 5.15347909927368164062e+00) (288, -3.12012843787670135498e-02) (289, 4.72358018159866333008e-02) (290, 8.95103073120117187500e+00) (291, 5.45622741699218750000e+02) (292, 1.49951770019531250000e+03) (293, 1.49987243652343750000e+03) (294, 1.50000000000000000000e+03) (295, 1.31169662475585937500e+01) (296, 2.40078525543212890625e+01) (297, 2.70524024963378906250e-01) (298, 2.21486076712608337402e-01) (299, -5.34895401000976562500e+01) (300, 1.50000000000000000000e+03) (301, 3.38537170410156250000e+02) (302, 1.17697753906250000000e+03) (303, 5.83855018615722656250e+01) (304, 4.04019500732421875000e+02) (305, 1.50000000000000000000e+03) (306, 1.50000000000000000000e+03) (307, 6.67066395282745361328e-01) (308, -2.53041833639144897461e-01) (309, -1.44713928222656250000e+03) (310, 3.13328704833984375000e+02) (311, 1.30735241699218750000e+03) (312, 1.49965661621093750000e+03) (313, 3.08357000350952148438e+00) (314, 1.28176818847656250000e+03) (315, 1.50000000000000000000e+03) (316, 2.44911521673202514648e-01) (317, 1.09751403331756591797e+00) (318, 1.11630722880363464355e-01) (319, -1.32725692749023437500e+02) (320, -3.90270948410034179688e-01) (321, 7.79070734977722167969e-01) (322, 4.14074945449829101562e+00) (323, 7.23725814819335937500e+01) (324, 1.90715011596679687500e+02) (325, 1.46351550292968750000e+03) (326, 1.49999194335937500000e+03) (327, 1.49858801269531250000e+03) (328, 1.81837126612663269043e-01) (329, -1.49917358398437500000e+03) (330, 1.88107040405273437500e+02) (331, 6.56803588867187500000e+02) (332, 2.94910644531250000000e+02) (333, 1.21263250708580017090e-01) (334, 1.01347818970680236816e-01) (335, 1.50000000000000000000e+03) (336, 7.63145141601562500000e+02) (337, 1.86082231998443603516e+00) (338, -1.65067657470703125000e+02) (339, -1.50000000000000000000e+03) (340, 7.12763977050781250000e+02) (341, 1.08268383789062500000e+03) (342, 1.49842785644531250000e+03) (343, 2.25507324218750000000e+02) (344, 3.34375061035156250000e+02) (345, 1.49888378906250000000e+03) (346, 1.49543286132812500000e+03) (347, 1.45352331542968750000e+03) (348, 3.13241790771484375000e+02) (349, 5.06142517089843750000e+02) (350, 1.32174133300781250000e+03) (351, -1.48962182617187500000e+03) (352, -1.29251464843750000000e+03) (353, 3.43308746814727783203e-02) (354, 2.94369010925292968750e+01) (355, 9.46269035339355468750e+00) (356, 5.70031821727752685547e-01) (357, 