FANN_FLO_2.1
num_layers=3
learning_rate=0.700000
connection_rate=1.000000
network_type=0
learning_momentum=0.000000
training_algorithm=2
train_error_function=1
train_stop_function=0
cascade_output_change_fraction=0.010000
quickprop_decay=-0.000100
quickprop_mu=1.750000
rprop_increase_factor=1.200000
rprop_decrease_factor=0.500000
rprop_delta_min=0.000000
rprop_delta_max=50.000000
rprop_delta_zero=0.100000
cascade_output_stagnation_epochs=12
cascade_candidate_change_fraction=0.010000
cascade_candidate_stagnation_epochs=12
cascade_max_out_epochs=150
cascade_max_cand_epochs=150
cascade_num_candidate_groups=2
bit_fail_limit=3.49999994039535522461e-01
cascade_candidate_limit=1.00000000000000000000e+03
cascade_weight_multiplier=4.00000005960464477539e-01
cascade_activation_functions_count=10
cascade_activation_functions=3 5 7 8 10 11 14 15 16 17 
cascade_activation_steepnesses_count=4
cascade_activation_steepnesses=2.50000000000000000000e-01 5.00000000000000000000e-01 7.50000000000000000000e-01 1.00000000000000000000e+00 
layer_sizes=11 11 11 
scale_included=0
neurons (num_inputs, activation_function, activation_steepness)=(0, 0, 0.00000000000000000000e+00) (0, 0, 0.00000000000000000000e+00) (0, 0, 0.00000000000000000000e+00) (0, 0, 0.00000000000000000000e+00) (0, 0, 0.00000000000000000000e+00) (0, 0, 0.00000000000000000000e+00) (0, 0, 0.00000000000000000000e+00) (0, 0, 0.00000000000000000000e+00) (0, 0, 0.00000000000000000000e+00) (0, 0, 0.00000000000000000000e+00) (0, 0, 0.00000000000000000000e+00) (11, 4, 5.00000000000000000000e-01) (11, 4, 5.00000000000000000000e-01) (11, 4, 5.00000000000000000000e-01) (11, 4, 5.00000000000000000000e-01) (11, 4, 5.00000000000000000000e-01) (11, 4, 5.00000000000000000000e-01) (11, 4, 5.00000000000000000000e-01) (11, 4, 5.00000000000000000000e-01) (11, 4, 5.00000000000000000000e-01) (11, 4, 5.00000000000000000000e-01) (0, 0, 0.00000000000000000000e+00) (11, 5, 5.00000000000000000000e-01) (11, 5, 5.00000000000000000000e-01) (11, 5, 5.00000000000000000000e-01) (11, 5, 5.00000000000000000000e-01) (11, 5, 5.00000000000000000000e-01) (11, 5, 5.00000000000000000000e-01) (11, 5, 5.00000000000000000000e-01) (11, 5, 5.00000000000000000000e-01) (11, 5, 5.00000000000000000000e-01) (11, 5, 5.00000000000000000000e-01) (0, 5, 0.00000000000000000000e+00) 
connections (connected_to_neuron, weight)=(0, 9.63773205876350402832e-02) (1, -3.19844484329223632812e-02) (2, 5.99666014313697814941e-02) (3, -2.16136276721954345703e-02) (4, 8.90729203820228576660e-02) (5, 8.53957906365394592285e-02) (6, 2.82889232039451599121e-02) (7, -5.84150962531566619873e-02) (8, -5.54582029581069946289e-02) (9, 3.17188873887062072754e-02) (10, 7.99534395337104797363e-02) (0, 9.00504812598228454590e-02) (1, 5.21008670330047607422e-03) (2, 3.41600254178047180176e-02) (3, 2.79862359166145324707e-02) (4, -3.35378497838973999023e-02) (5, 7.29600265622138977051e-02) (6, 1.28865092992782592773e-02) (7, -9.19353589415550231934e-02) (8, 9.07413437962532043457e-02) (9, -9.34223830699920654297e-02) (10, 7.13809356093406677246e-02) (0, -8.48052874207496643066e-02) (1, -9.99811664223670959473e-02) (2, 1.49716138839721679688e-02) (3, 3.03406491875648498535e-02) (4, 9.38145071268081665039e-03) (5, 3.17327454686164855957e-02) (6, 5.45315071940422058105e-02) (7, 6.91533759236335754395e-02) (8, 2.99878939986228942871e-02) (9, 5.09088113903999328613e-02) (10, -6.28310814499855041504e-02) (0, -1.00454986095428466797e-02) (1, -7.07048028707504272461e-02) (2, -7.37581700086593627930e-02) (3, -2.46497169137001037598e-02) (4, 5.75841143727302551270e-02) (5, -3.21732610464096069336e-02) (6, 1.98920816183090209961e-02) (7, -1.06970071792602539062e-02) (8, -5.22198304533958435059e-02) (9, 9.94256883859634399414e-03) (10, 9.45130959153175354004e-02) (0, 8.19401815533638000488e-02) (1, -6.20712004601955413818e-02) (2, -3.90247665345668792725e-02) (3, 5.49002364277839660645e-02) (4, 5.08153066039085388184e-02) (5, -3.09601277112960815430e-02) (6, 4.56415787339210510254e-02) (7, 5.73929175734519958496e-02) (8, -5.95791898667812347412e-02) (9, 6.08362779021263122559e-02) (10, 5.74117675423622131348e-02) (0, 5.53924217820167541504e-02) (1, -8.82306694984436035156e-03) (2, -3.32067906856536865234e-02) (3, -1.28748491406440734863e-02) (4, -5.42915724217891693115e-02) (5, -6.40534237027168273926e-02) (6, -8.28869491815567016602e-02) (7, 9.66172590851783752441e-02) (8, -2.68845036625862121582e-02) (9, 7.06754624843597412109e-03) (10, -7.40875527262687683105e-02) (0, -6.42672181129455566406e-04) (1, 8.24178382754325866699e-02) (2, 8.34965631365776062012e-02) (3, 6.71840682625770568848e-02) (4, 2.30991840362548828125e-03) (5, -2.72004455327987670898e-02) (6, -8.50357636809349060059e-02) (7, -8.77475216984748840332e-02) (8, -3.26873511075973510742e-02) (9, 9.69044342637062072754e-02) (10, -4.98187206685543060303e-02) (0, 2.82878801226615905762e-02) (1, 5.18046543002128601074e-02) (2, -9.90034118294715881348e-02) (3, 9.73277613520622253418e-02) (4, -2.55377590656280517578e-03) (5, 5.83895072340965270996e-02) (6, -6.22514337301254272461e-02) (7, -4.17174957692623138428e-02) (8, 1.58012732863426208496e-02) (9, 9.31409820914268493652e-02) (10, 4.94594499468803405762e-02) (0, 8.25944766402244567871e-02) (1, -1.97338610887527465820e-02) (2, 9.51678827404975891113e-02) (3, -8.14589411020278930664e-02) (4, -2.62080878019332885742e-03) (5, 9.17851254343986511230e-02) (6, -8.34344327449798583984e-03) (7, -9.55532565712928771973e-02) (8, -8.23024287819862365723e-02) (9, 9.10138860344886779785e-02) (10, 8.68645831942558288574e-02) (0, -9.88058671355247497559e-02) (1, 5.81979677081108093262e-02) (2, -1.08255073428153991699e-02) (3, -2.60063111782073974609e-02) (4, 7.31622055172920227051e-02) (5, 1.42697244882583618164e-03) (6, 4.13063243031501770020e-02) (7, 7.00666382908821105957e-02) (8, 5.16082569956779479980e-02) (9, -3.04057821631431579590e-02) (10, 2.18712836503982543945e-02) (11, 5.26048466563224792480e-02) (12, -3.30780297517776489258e-02) (13, -8.06824862957000732422e-02) (14, 1.09943524003028869629e-02) (15, 4.67053800821304321289e-03) (16, -2.23999768495559692383e-02) (17, -7.32043758034706115723e-02) (18, -2.18848139047622680664e-03) (19, -7.29405358433723449707e-02) (20, -9.06098932027816772461e-02) (21, 7.80776664614677429199e-02) (11, -7.77726620435714721680e-02) (12, -7.20688253641128540039e-02) (13, -2.45431512594223022461e-02) (14, -8.59875380992889404297e-02) (15, 1.95877328515052795410e-02) (16, -2.00964063405990600586e-02) (17, -6.82899653911590576172e-02) (18, 1.06016173958778381348e-02) (19, -3.32318320870399475098e-02) (20, -6.70958384871482849121e-02) (21, -3.12004238367080688477e-02) (11, 5.59426620602607727051e-02) (12, 6.89785182476043701172e-03) (13, -5.80382235348224639893e-02) (14, -4.26303707063198089600e-02) (15, -5.17958179116249084473e-02) (16, -8.79715979099273681641e-02) (17, -9.10221189260482788086e-02) (18, 1.77984014153480529785e-02) (19, 3.38996872305870056152e-02) (20, 6.15827217698097229004e-02) (21, 8.47203806042671203613e-02) (11, 5.32171949744224548340e-02) (12, -2.74229198694229125977e-02) (13, -1.06090977787971496582e-02) (14, -6.91827833652496337891e-02) (15, -6.27294182777404785156e-04) (16, 8.72024372220039367676e-02) (17, -4.21233251690864562988e-02) (18, 8.76281410455703735352e-03) (19, 6.52800872921943664551e-02) (20, -1.98959857225418090820e-02) (21, 3.66939827799797058105e-02) (11, -5.92630654573440551758e-02) (12, -5.88352978229522705078e-03) (13, -4.37182858586311340332e-02) (14, 2.06405296921730041504e-02) (15, 2.58265063166618347168e-02) (16, 6.68833330273628234863e-02) (17, 8.74086990952491760254e-02) (18, 5.87306693196296691895e-02) (19, -6.43170922994613647461e-02) (20, 4.33513596653938293457e-02) (21, -3.43714803457260131836e-02) (11, -2.23553106188774108887e-02) (12, -9.92790088057518005371e-02) (13, 1.38327032327651977539e-02) (14, -1.03269070386886596680e-02) (15, -9.03011262416839599609e-02) (16, -6.83688968420028686523e-02) (17, -7.64272212982177734375e-02) (18, 7.12816044688224792480e-02) (19, -8.36485326290130615234e-02) (20, 7.67899826169013977051e-02) (21, -5.61413280665874481201e-02) (11, 5.74237108230590820312e-03) (12, -9.23928022384643554688e-02) (13, 4.32313755154609680176e-02) (14, -7.05520808696746826172e-03) (15, -3.45161259174346923828e-02) (16, -4.80058155953884124756e-02) (17, -4.17751185595989227295e-02) (18, 4.55878898501396179199e-02) (19, 8.86881723999977111816e-02) (20, -1.03818625211715698242e-03) (21, -6.02956376969814300537e-02) (11, -5.50301186740398406982e-02) (12, -8.03976580500602722168e-02) (13, 6.55308738350868225098e-02) (14, -8.81467834115028381348e-02) (15, -9.29889604449272155762e-02) (16, 2.42615342140197753906e-02) (17, -5.24638704955577850342e-02) (18, 5.03624007105827331543e-02) (19, 8.98900553584098815918e-02) (20, 2.51808241009712219238e-02) (21, 5.10833933949470520020e-02) (11, 3.72276455163955688477e-03) (12, -8.51460918784141540527e-02) (13, 6.07822611927986145020e-02) (14, 3.53538617491722106934e-02) (15, -6.15733079612255096436e-02) (16, 3.20638641715049743652e-02) (17, 5.17053231596946716309e-02) (18, -8.47833305597305297852e-02) (19, 7.59225413203239440918e-02) (20, -4.25523035228252410889e-02) (21, -7.71761387586593627930e-02) (11, 1.91539153456687927246e-02) (12, 5.03925010561943054199e-02) (13, -1.16922557353973388672e-02) (14, 7.11481049656867980957e-02) (15, -9.13826301693916320801e-02) (16, -6.61043673753738403320e-02) (17, 5.98362758755683898926e-02) (18, 7.57918506860733032227e-03) (19, -2.64000073075294494629e-02) (20, -9.51938480138778686523e-02) (21, 2.71815285086631774902e-02) 
