FANN_FLO_2.1
num_layers=5
learning_rate=0.700000
connection_rate=1.000000
network_type=0
learning_momentum=0.000000
training_algorithm=2
train_error_function=1
train_stop_function=0
cascade_output_change_fraction=0.010000
quickprop_decay=-0.000100
quickprop_mu=1.750000
rprop_increase_factor=1.200000
rprop_decrease_factor=0.500000
rprop_delta_min=0.000000
rprop_delta_max=50.000000
rprop_delta_zero=0.100000
cascade_output_stagnation_epochs=12
cascade_candidate_change_fraction=0.010000
cascade_candidate_stagnation_epochs=12
cascade_max_out_epochs=150
cascade_min_out_epochs=50
cascade_max_cand_epochs=150
cascade_min_cand_epochs=50
cascade_num_candidate_groups=2
bit_fail_limit=3.49999994039535522461e-01
cascade_candidate_limit=1.00000000000000000000e+03
cascade_weight_multiplier=4.00000005960464477539e-01
cascade_activation_functions_count=10
cascade_activation_functions=3 5 7 8 10 11 14 15 16 17 
cascade_activation_steepnesses_count=4
cascade_activation_steepnesses=2.50000000000000000000e-01 5.00000000000000000000e-01 7.50000000000000000000e-01 1.00000000000000000000e+00 
layer_sizes=261 199 137 75 11 
scale_included=0
neurons (num_inputs, activation_function, activation_steepness)=(0, 0, 0.00000000000000000000e+00) (0, 0, 0.00000000000000000000e+00) (0, 0, 0.00000000000000000000e+00) (0, 0, 0.00000000000000000000e+00) (0, 0, 0.00000000000000000000e+00) (0, 0, 0.00000000000000000000e+00) (0, 0, 0.00000000000000000000e+00) (0, 0, 0.00000000000000000000e+00) (0, 0, 0.00000000000000000000e+00) (0, 0, 0.00000000000000000000e+00) (0, 0, 0.00000000000000000000e+00) (0, 0, 0.00000000000000000000e+00) (0, 0, 0.00000000000000000000e+00) (0, 0, 0.00000000000000000000e+00) (0, 0, 0.00000000000000000000e+00) (0, 0, 0.00000000000000000000e+00) (0, 0, 0.00000000000000000000e+00) (0, 0, 0.00000000000000000000e+00) (0, 0, 0.00000000000000000000e+00) (0, 0, 0.00000000000000000000e+00) (0, 0, 0.00000000000000000000e+00) (0, 0, 0.00000000000000000000e+00) (0, 0, 0.00000000000000000000e+00) (0, 0, 0.00000000000000000000e+00) (0, 0, 0.00000000000000000000e+00) (0, 0, 0.00000000000000000000e+00) (0, 0, 0.00000000000000000000e+00) (0, 0, 0.00000000000000000000e+00) (0, 0, 0.00000000000000000000e+00) (0, 0, 0.00000000000000000000e+00) (0, 0, 0.00000000000000000000e+00) (0, 0, 0.00000000000000000000e+00) (0, 0, 0.00000000000000000000e+00) (0, 0, 0.00000000000000000000e+00) (0, 0, 0.00000000000000000000e+00) (0, 0, 0.00000000000000000000e+00) (0, 0, 0.00000000000000000000e+00) (0, 0, 0.00000000000000000000e+00) (0, 0, 0.00000000000000000000e+00) (0, 0, 0.00000000000000000000e+00) (0, 0, 0.00000000000000000000e+00) (0, 0, 0.00000000000000000000e+00) (0, 0, 0.00000000000000000000e+00) (0, 0, 0.00000000000000000000e+00) (0, 0, 0.00000000000000000000e+00) (0, 0, 0.00000000000000000000e+00) (0, 0, 0.00000000000000000000e+00) (0, 0, 0.00000000000000000000e+00) (0, 0, 0.00000000000000000000e+00) (0, 0, 0.00000000000000000000e+00) (0, 0, 0.00000000000000000000e+00) (0, 0, 0.00000000000000000000e+00) (0, 0, 0.00000000000000000000e+00) (0, 0, 0.00000000000000000000e+00) (0, 0, 0.00000000000000000000e+00) (0, 0, 0.00000000000000000000e+00) (0, 0, 0.00000000000000000000e+00) (0, 0, 0.00000000000000000000e+00) (0, 0, 0.00000000000000000000e+00) (0, 0, 0.00000000000000000000e+00) (0, 0, 0.00000000000000000000e+00) (0, 0, 0.00000000000000000000e+00) (0, 0, 0.00000000000000000000e+00) (0, 0, 0.00000000000000000000e+00) (0, 0, 0.00000000000000000000e+00) (0, 0, 0.00000000000000000000e+00) (0, 0, 0.00000000000000000000e+00) (0, 0, 0.00000000000000000000e+00) (0, 0, 0.00000000000000000000e+00) (0, 0, 0.00000000000000000000e+00) (0, 0, 0.00000000000000000000e+00) (0, 0, 0.00000000000000000000e+00) (0, 0, 0.00000000000000000000e+00) (0, 0, 0.00000000000000000000e+00) (0, 0, 0.00000000000000000000e+00) (0, 0, 0.00000000000000000000e+00) (0, 0, 0.00000000000000000000e+00) (0, 0, 0.00000000000000000000e+00) (0, 0, 0.00000000000000000000e+00) (0, 0, 0.00000000000000000000e+00) (0, 0, 0.00000000000000000000e+00) (0, 0, 0.00000000000000000000e+00) (0, 0, 0.00000000000000000000e+00) (0, 0, 0.00000000000000000000e+00) (0, 0, 0.00000000000000000000e+00) (0, 0, 0.00000000000000000000e+00) (0, 0, 0.00000000000000000000e+00) (0, 0, 0.00000000000000000000e+00) (0, 0, 0.00000000000000000000e+00) (0, 0, 0.00000000000000000000e+00) (0, 0, 0.00000000000000000000e+00) (0, 0, 0.00000000000000000000e+00) (0, 0, 0.00000000000000000000e+00) (0, 0, 0.00000000000000000000e+00) (0, 0, 0.00000000000000000000e+00) (0, 0, 0.00000000000000000000e+00) (0, 0, 0.00000000000000000000e+00) (0, 0, 0.00000000000000000000e+00) (0, 0, 0.00000000000000000000e+00) (0, 0, 0.00000000000000000000e+00) (0, 0, 0.00000000000000000000e+00) (0, 0, 0.00000000000000000000e+00) (0, 0, 0.00000000000000000000e+00) (0, 0, 0.00000000000000000000e+00) (0, 0, 0.00000000000000000000e+00) (0, 0, 0.00000000000000000000e+00) (0, 0, 0.00000000000000000000e+00) (0, 0, 0.00000000000000000000e+00) (0, 0, 0.00000000000000000000e+00) (0, 0, 0.00000000000000000000e+00) (0, 0, 0.00000000000000000000e+00) (0, 0, 0.00000000000000000000e+00) (0, 0, 0.00000000000000000000e+00) (0, 0, 0.00000000000000000000e+00) (0, 0, 0.00000000000000000000e+00) (0, 0, 0.00000000000000000000e+00) (0, 0, 0.00000000000000000000e+00) (0, 0, 0.00000000000000000000e+00) (0, 0, 0.00000000000000000000e+00) (0, 0, 0.00000000000000000000e+00) (0, 0, 0.00000000000000000000e+00) (0, 0, 0.00000000000000000000e+00) (0, 0, 0.00000000000000000000e+00) (0, 0, 0.00000000000000000000e+00) (0, 0, 0.00000000000000000000e+00) (0, 0, 0.00000000000000000000e+00) (0, 0, 0.00000000000000000000e+00) (0, 0, 0.00000000000000000000e+00) (0, 0, 0.00000000000000000000e+00) (0, 0, 0.00000000000000000000e+00) (0, 0, 0.00000000000000000000e+00) (0, 0, 0.00000000000000000000e+00) (0, 0, 0.00000000000000000000e+00) (0, 0, 0.00000000000000000000e+00) (0, 0, 0.00000000000000000000e+00) (0, 0, 0.00000000000000000000e+00) (0, 0, 0.00000000000000000000e+00) (0, 0, 0.00000000000000000000e+00) (0, 0, 0.00000000000000000000e+00) (0, 0, 0.00000000000000000000e+00) (0, 0, 0.00000000000000000000e+00) (0, 0, 0.00000000000000000000e+00) (0, 0, 0.00000000000000000000e+00) (0, 0, 0.00000000000000000000e+00) (0, 0, 0.00000000000000000000e+00) (0, 0, 0.00000000000000000000e+00) (0, 0, 0.00000000000000000000e+00) (0, 0, 0.00000000000000000000e+00) (0, 0, 0.00000000000000000000e+00) (0, 0, 0.00000000000000000000e+00) (0, 0, 0.00000000000000000000e+00) (0, 0, 0.00000000000000000000e+00) (0, 0, 0.00000000000000000000e+00) (0, 0, 0.00000000000000000000e+00) (0, 0, 0.00000000000000000000e+00) (0, 0, 0.00000000000000000000e+00) (0, 0, 0.00000000000000000000e+00) (0, 0, 0.00000000000000000000e+00) (0, 0, 0.00000000000000000000e+00) (0, 0, 0.00000000000000000000e+00) (0, 0, 0.00000000000000000000e+00) (0, 0, 0.00000000000000000000e+00) (0, 0, 0.00000000000000000000e+00) (0, 0, 0.00000000000000000000e+00) (0, 0, 0.00000000000000000000e+00) (0, 0, 0.00000000000000000000e+00) (0, 0, 0.00000000000000000000e+00) (0, 0, 0.00000000000000000000e+00) (0, 0, 0.00000000000000000000e+00) (0, 0, 0.00000000000000000000e+00) (0, 0, 0.00000000000000000000e+00) (0, 0, 0.00000000000000000000e+00) (0, 0, 0.00000000000000000000e+00) (0, 0, 0.00000000000000000000e+00) (0, 0, 0.00000000000000000000e+00) (0, 0, 0.00000000000000000000e+00) (0, 0, 0.00000000000000000000e+00) (0, 0, 0.00000000000000000000e+00) (0, 0, 0.00000000000000000000e+00) (0, 0, 0.00000000000000000000e+00) (0, 0, 0.00000000000000000000e+00) (0, 0, 0.00000000000000000000e+00) (0, 0, 0.00000000000000000000e+00) (0, 0, 0.00000000000000000000e+00) (0, 0, 0.00000000000000000000e+00) (0, 0, 0.00000000000000000000e+00) (0, 0, 0.00000000000000000000e+00) (0, 0, 0.00000000000000000000e+00) (0, 0, 0.00000000000000000000e+00) (0, 0, 0.00000000000000000000e+00) (0, 0, 0.00000000000000000000e+00) (0, 0, 0.00000000000000000000e+00) (0, 0, 0.00000000000000000000e+00) (0, 0, 0.00000000000000000000e+00) (0, 0, 0.00000000000000000000e+00) (0, 0, 0.00000000000000000000e+00) (0, 0, 0.00000000000000000000e+00) (0, 0, 0.00000000000000000000e+00) (0, 0, 0.00000000000000000000e+00) (0, 0, 0.00000000000000000000e+00) (0, 0, 0.00000000000000000000e+00) (0, 0, 0.00000000000000000000e+00) (0, 0, 0.00000000000000000000e+00) (0, 0, 0.00000000000000000000e+00) (0, 0, 0.00000000000000000000e+00) (0, 0, 0.00000000000000000000e+00) (0, 0, 0.00000000000000000000e+00) (0, 0, 0.00000000000000000000e+00) (0, 0, 0.00000000000000000000e+00) (0, 0, 0.00000000000000000000e+00) (0, 0, 0.00000000000000000000e+00) (0, 0, 0.00000000000000000000e+00) (0, 0, 0.00000000000000000000e+00) (0, 0, 0.00000000000000000000e+00) (0, 0, 0.00000000000000000000e+00) (0, 0, 0.00000000000000000000e+00) (0, 0, 0.00000000000000000000e+00) (0, 0, 0.00000000000000000000e+00) (0, 0, 0.00000000000000000000e+00) (0, 0, 0.00000000000000000000e+00) (0, 0, 0.00000000000000000000e+00) (0, 0, 0.00000000000000000000e+00) (0, 0, 0.00000000000000000000e+00) (0, 0, 0.00000000000000000000e+00) (0, 0, 0.00000000000000000000e+00) (0, 0, 0.00000000000000000000e+00) (0, 0, 0.00000000000000000000e+00) (0, 0, 0.00000000000000000000e+00) (0, 0, 0.00000000000000000000e+00) (0, 0, 0.00000000000000000000e+00) (0, 0, 0.00000000000000000000e+00) (0, 0, 0.00000000000000000000e+00) (0, 0, 0.00000000000000000000e+00) (0, 0, 0.00000000000000000000e+00) (0, 0, 0.00000000000000000000e+00) (0, 0, 0.00000000000000000000e+00) (0, 0, 0.00000000000000000000e+00) (0, 0, 0.00000000000000000000e+00) (0, 0, 0.00000000000000000000e+00) (0, 0, 0.00000000000000000000e+00) (0, 0, 0.00000000000000000000e+00) (0, 0, 0.00000000000000000000e+00) (0, 0, 0.00000000000000000000e+00) (0, 0, 0.00000000000000000000e+00) (0, 0, 0.00000000000000000000e+00) (0, 0, 0.00000000000000000000e+00) (0, 0, 0.00000000000000000000e+00) (0, 0, 0.00000000000000000000e+00) (0, 0, 0.00000000000000000000e+00) (0, 0, 0.00000000000000000000e+00) (0, 0, 0.00000000000000000000e+00) (0, 0, 0.00000000000000000000e+00) (0, 0, 0.00000000000000000000e+00) (0, 0, 0.00000000000000000000e+00) (0, 0, 0.00000000000000000000e+00) (0, 0, 0.00000000000000000000e+00) (0, 0, 0.00000000000000000000e+00) (0, 0, 0.00000000000000000000e+00) (0, 0, 0.00000000000000000000e+00) (0, 0, 0.00000000000000000000e+00) (0, 0, 0.00000000000000000000e+00) (261, 5, 5.00000000000000000000e-01) (261, 5, 5.00000000000000000000e-01) (261, 5, 5.00000000000000000000e-01) (261, 5, 5.00000000000000000000e-01) (261, 5, 5.00000000000000000000e-01) (261, 5, 5.00000000000000000000e-01) (261, 5, 5.00000000000000000000e-01) (261, 5, 5.00000000000000000000e-01) (261, 5, 5.00000000000000000000e-01) (261, 5, 5.00000000000000000000e-01) (261, 5, 5.00000000000000000000e-01) (261, 5, 5.00000000000000000000e-01) (261, 5, 5.00000000000000000000e-01) (261, 5, 5.00000000000000000000e-01) (261, 5, 5.00000000000000000000e-01) (261, 5, 5.00000000000000000000e-01) (261, 5, 5.00000000000000000000e-01) (261, 5, 5.00000000000000000000e-01) (261, 5, 5.00000000000000000000e-01) (261, 5, 5.00000000000000000000e-01) (261, 5, 5.00000000000000000000e-01) (261, 5, 5.00000000000000000000e-01) (261, 5, 5.00000000000000000000e-01) (261, 5, 5.00000000000000000000e-01) (261, 5, 5.00000000000000000000e-01) (261, 5, 5.00000000000000000000e-01) (261, 5, 5.00000000000000000000e-01) (261, 5, 5.00000000000000000000e-01) (261, 5, 5.00000000000000000000e-01) (261, 5, 5.00000000000000000000e-01) (261, 5, 5.00000000000000000000e-01) (261, 5, 5.00000000000000000000e-01) (261, 5, 5.00000000000000000000e-01) (261, 5, 5.00000000000000000000e-01) (261, 5, 5.00000000000000000000e-01) (261, 5, 5.00000000000000000000e-01) (261, 5, 5.00000000000000000000e-01) (261, 5, 5.00000000000000000000e-01) (261, 5, 5.00000000000000000000e-01) (261, 5, 5.00000000000000000000e-01) (261, 5, 5.00000000000000000000e-01) (261, 5, 5.00000000000000000000e-01) (261, 5, 5.00000000000000000000e-01) (261, 5, 5.00000000000000000000e-01) (261, 5, 5.00000000000000000000e-01) (261, 5, 5.00000000000000000000e-01) (261, 5, 5.00000000000000000000e-01) (261, 5, 5.00000000000000000000e-01) (261, 5, 5.00000000000000000000e-01) (261, 5, 5.00000000000000000000e-01) (261, 5, 5.00000000000000000000e-01) (261, 5, 5.00000000000000000000e-01) (261, 5, 5.00000000000000000000e-01) (261, 5, 5.00000000000000000000e-01) (261, 5, 5.00000000000000000000e-01) (261, 5, 5.00000000000000000000e-01) (261, 5, 5.00000000000000000000e-01) (261, 5, 5.00000000000000000000e-01) (261, 5, 5.00000000000000000000e-01) (261, 5, 5.00000000000000000000e-01) (261, 5, 5.00000000000000000000e-01) (261, 5, 5.00000000000000000000e-01) (261, 5, 5.00000000000000000000e-01) (261, 5, 5.00000000000000000000e-01) (261, 5, 5.00000000000000000000e-01) (261, 5, 5.00000000000000000000e-01) (261, 5, 5.00000000000000000000e-01) (261, 5, 5.00000000000000000000e-01) (261, 5, 5.00000000000000000000e-01) (261, 5, 5.00000000000000000000e-01) (261, 5, 5.00000000000000000000e-01) (261, 5, 5.00000000000000000000e-01) (261, 5, 5.00000000000000000000e-01) (261, 5, 5.00000000000000000000e-01) (261, 5, 5.00000000000000000000e-01) (261, 5, 5.00000000000000000000e-01) (261, 5, 5.00000000000000000000e-01) (261, 5, 5.00000000000000000000e-01) (261, 5, 5.00000000000000000000e-01) (261, 5, 5.00000000000000000000e-01) (261, 5, 5.00000000000000000000e-01) (261, 5, 5.00000000000000000000e-01) (261, 5, 5.00000000000000000000e-01) (261, 5, 5.00000000000000000000e-01) (261, 5, 5.00000000000000000000e-01) (261, 5, 5.00000000000000000000e-01) (261, 5, 5.00000000000000000000e-01) (261, 5, 5.00000000000000000000e-01) (261, 5, 5.00000000000000000000e-01) (261, 5, 5.00000000000000000000e-01) (261, 5, 5.00000000000000000000e-01) (261, 5, 5.00000000000000000000e-01) (261, 5, 5.00000000000000000000e-01) (261, 5, 5.00000000000000000000e-01) (261, 5, 5.00000000000000000000e-01) (261, 5, 5.00000000000000000000e-01) (261, 5, 5.00000000000000000000e-01) (261, 5, 5.00000000000000000000e-01) (261, 5, 5.00000000000000000000e-01) (261, 5, 5.00000000000000000000e-01) (261, 5, 5.00000000000000000000e-01) (261, 5, 5.00000000000000000000e-01) (261, 5, 5.00000000000000000000e-01) (261, 5, 5.00000000000000000000e-01) (261, 5, 5.00000000000000000000e-01) (261, 5, 5.00000000000000000000e-01) (261, 5, 5.00000000000000000000e-01) (261, 5, 5.00000000000000000000e-01) (261, 5, 5.00000000000000000000e-01) (261, 5, 5.00000000000000000000e-01) (261, 5, 5.00000000000000000000e-01) (261, 5, 5.00000000000000000000e-01) (261, 5, 5.00000000000000000000e-01) (261, 5, 5.00000000000000000000e-01) (261, 5, 5.00000000000000000000e-01) (261, 5, 5.00000000000000000000e-01) (261, 5, 5.00000000000000000000e-01) (261, 5, 5.00000000000000000000e-01) (261, 5, 5.00000000000000000000e-01) (261, 5, 5.00000000000000000000e-01) (261, 5, 5.00000000000000000000e-01) (261, 5, 5.00000000000000000000e-01) (261, 5, 5.00000000000000000000e-01) (261, 5, 5.00000000000000000000e-01) (261, 5, 5.00000000000000000000e-01) (261, 5, 5.00000000000000000000e-01) (261, 5, 5.00000000000000000000e-01) (261, 5, 5.00000000000000000000e-01) (261, 5, 5.00000000000000000000e-01) (261, 5, 5.00000000000000000000e-01) (261, 5, 5.00000000000000000000e-01) (261, 5, 5.00000000000000000000e-01) (261, 5, 5.00000000000000000000e-01) (261, 5, 5.00000000000000000000e-01) (261, 5, 5.00000000000000000000e-01) (261, 5, 5.00000000000000000000e-01) (261, 5, 5.00000000000000000000e-01) (261, 5, 5.00000000000000000000e-01) (261, 5, 5.00000000000000000000e-01) (261, 5, 5.00000000000000000000e-01) (261, 5, 5.00000000000000000000e-01) (261, 5, 5.00000000000000000000e-01) (261, 5, 5.00000000000000000000e-01) (261, 5, 5.00000000000000000000e-01) (261, 5, 5.00000000000000000000e-01) (261, 5, 5.00000000000000000000e-01) (261, 5, 5.00000000000000000000e-01) (261, 5, 5.00000000000000000000e-01) (261, 5, 5.00000000000000000000e-01) (261, 5, 5.00000000000000000000e-01) (261, 5, 5.00000000000000000000e-01) (261, 5, 5.00000000000000000000e-01) (261, 5, 5.00000000000000000000e-01) (261, 5, 5.00000000000000000000e-01) (261, 5, 5.00000000000000000000e-01) (261, 5, 5.00000000000000000000e-01) (261, 5, 5.00000000000000000000e-01) (261, 5, 5.00000000000000000000e-01) (261, 5, 5.00000000000000000000e-01) (261, 5, 5.00000000000000000000e-01) (261, 5, 5.00000000000000000000e-01) (261, 5, 5.00000000000000000000e-01) (261, 5, 5.00000000000000000000e-01) (261, 5, 5.00000000000000000000e-01) (261, 5, 5.00000000000000000000e-01) (261, 5, 5.00000000000000000000e-01) (261, 5, 5.00000000000000000000e-01) (261, 5, 5.00000000000000000000e-01) (261, 5, 5.00000000000000000000e-01) (261, 5, 5.00000000000000000000e-01) (261, 5, 5.00000000000000000000e-01) (261, 5, 5.00000000000000000000e-01) (261, 5, 5.00000000000000000000e-01) (261, 5, 5.00000000000000000000e-01) (261, 5, 5.00000000000000000000e-01) (261, 5, 5.00000000000000000000e-01) (261, 5, 5.00000000000000000000e-01) (261, 5, 5.00000000000000000000e-01) (261, 5, 5.00000000000000000000e-01) (261, 5, 5.00000000000000000000e-01) (261, 5, 5.00000000000000000000e-01) (261, 5, 5.00000000000000000000e-01) (261, 5, 5.00000000000000000000e-01) (261, 5, 5.00000000000000000000e-01) (261, 5, 5.00000000000000000000e-01) (261, 5, 5.00000000000000000000e-01) (261, 5, 5.00000000000000000000e-01) (261, 5, 5.00000000000000000000e-01) (261, 5, 5.00000000000000000000e-01) (261, 5, 5.00000000000000000000e-01) (261, 5, 5.00000000000000000000e-01) (261, 5, 5.00000000000000000000e-01) (261, 5, 5.00000000000000000000e-01) (261, 5, 5.00000000000000000000e-01) (261, 5, 5.00000000000000000000e-01) (261, 5, 5.00000000000000000000e-01) (261, 5, 5.00000000000000000000e-01) (261, 5, 5.00000000000000000000e-01) (0, 5, 0.00000000000000000000e+00) (199, 5, 5.00000000000000000000e-01) (199, 5, 5.00000000000000000000e-01) (199, 5, 5.00000000000000000000e-01) (199, 5, 5.00000000000000000000e-01) (199, 5, 5.00000000000000000000e-01) (199, 5, 5.00000000000000000000e-01) (199, 5, 5.00000000000000000000e-01) (199, 5, 5.00000000000000000000e-01) (199, 5, 5.00000000000000000000e-01) (199, 5, 5.00000000000000000000e-01) (199, 5, 5.00000000000000000000e-01) (199, 5, 5.00000000000000000000e-01) (199, 5, 5.00000000000000000000e-01) (199, 5, 5.00000000000000000000e-01) (199, 5, 5.00000000000000000000e-01) (199, 5, 5.00000000000000000000e-01) (199, 5, 5.00000000000000000000e-01) (199, 5, 5.00000000000000000000e-01) (199, 5, 5.00000000000000000000e-01) (199, 5, 5.00000000000000000000e-01) (199, 5, 5.00000000000000000000e-01) (199, 5, 5.00000000000000000000e-01) (199, 5, 5.00000000000000000000e-01) (199, 5, 5.00000000000000000000e-01) (199, 5, 5.00000000000000000000e-01) (199, 5, 5.00000000000000000000e-01) (199, 5, 5.00000000000000000000e-01) (199, 5, 5.00000000000000000000e-01) (199, 5, 5.00000000000000000000e-01) (199, 5, 5.00000000000000000000e-01) (199, 5, 5.00000000000000000000e-01) (199, 5, 5.00000000000000000000e-01) (199, 5, 5.00000000000000000000e-01) (199, 5, 5.00000000000000000000e-01) (199, 5, 5.00000000000000000000e-01) (199, 5, 5.00000000000000000000e-01) (199, 5, 5.00000000000000000000e-01) (199, 5, 5.00000000000000000000e-01) (199, 5, 5.00000000000000000000e-01) (199, 5, 5.00000000000000000000e-01) (199, 5, 5.00000000000000000000e-01) (199, 5, 5.00000000000000000000e-01) (199, 5, 5.00000000000000000000e-01) (199, 5, 5.00000000000000000000e-01) (199, 5, 5.00000000000000000000e-01) (199, 5, 5.00000000000000000000e-01) (199, 5, 5.00000000000000000000e-01) (199, 5, 5.00000000000000000000e-01) (199, 5, 5.00000000000000000000e-01) (199, 5, 5.00000000000000000000e-01) (199, 5, 5.00000000000000000000e-01) (199, 5, 5.00000000000000000000e-01) (199, 5, 5.00000000000000000000e-01) (199, 5, 5.00000000000000000000e-01) (199, 5, 5.00000000000000000000e-01) (199, 5, 5.00000000000000000000e-01) (199, 5, 5.00000000000000000000e-01) (199, 5, 5.00000000000000000000e-01) (199, 5, 5.00000000000000000000e-01) (199, 5, 5.00000000000000000000e-01) (199, 5, 5.00000000000000000000e-01) (199, 5, 5.00000000000000000000e-01) (199, 5, 5.00000000000000000000e-01) (199, 5, 5.00000000000000000000e-01) (199, 5, 5.00000000000000000000e-01) (199, 5, 5.00000000000000000000e-01) (199, 5, 5.00000000000000000000e-01) (199, 5, 5.00000000000000000000e-01) (199, 5, 5.00000000000000000000e-01) (199, 5, 5.00000000000000000000e-01) (199, 5, 5.00000000000000000000e-01) (199, 5, 5.00000000000000000000e-01) (199, 5, 5.00000000000000000000e-01) (199, 5, 5.00000000000000000000e-01) (199, 5, 5.00000000000000000000e-01) (199, 5, 5.00000000000000000000e-01) (199, 5, 5.00000000000000000000e-01) (199, 5, 5.00000000000000000000e-01) (199, 5, 5.00000000000000000000e-01) (199, 5, 5.00000000000000000000e-01) (199, 5, 5.00000000000000000000e-01) (199, 5, 5.00000000000000000000e-01) (199, 5, 5.00000000000000000000e-01) (199, 5, 5.00000000000000000000e-01) (199, 5, 5.00000000000000000000e-01) (199, 5, 5.00000000000000000000e-01) (199, 5, 5.00000000000000000000e-01) (199, 5, 5.00000000000000000000e-01) (199, 5, 5.00000000000000000000e-01) (199, 5, 5.00000000000000000000e-01) (199, 5, 5.00000000000000000000e-01) (199, 5, 5.00000000000000000000e-01) (199, 5, 5.00000000000000000000e-01) (199, 5, 5.00000000000000000000e-01) (199, 5, 5.00000000000000000000e-01) (199, 5, 5.00000000000000000000e-01) (199, 5, 5.00000000000000000000e-01) (199, 5, 5.00000000000000000000e-01) (199, 5, 5.00000000000000000000e-01) (199, 5, 5.00000000000000000000e-01) (199, 5, 5.00000000000000000000e-01) (199, 5, 5.00000000000000000000e-01) (199, 5, 5.00000000000000000000e-01) (199, 5, 5.00000000000000000000e-01) (199, 5, 5.00000000000000000000e-01) (199, 5, 5.00000000000000000000e-01) (199, 5, 5.00000000000000000000e-01) (199, 5, 5.00000000000000000000e-01) (199, 5, 5.00000000000000000000e-01) (199, 5, 5.00000000000000000000e-01) (199, 5, 5.00000000000000000000e-01) (199, 5, 5.00000000000000000000e-01) (199, 5, 5.00000000000000000000e-01) (199, 5, 5.00000000000000000000e-01) (199, 5, 5.00000000000000000000e-01) (199, 5, 5.00000000000000000000e-01) (199, 5, 5.00000000000000000000e-01) (199, 5, 5.00000000000000000000e-01) (199, 5, 5.00000000000000000000e-01) (199, 5, 5.00000000000000000000e-01) (199, 5, 5.00000000000000000000e-01) (199, 5, 5.00000000000000000000e-01) (199, 5, 5.00000000000000000000e-01) (199, 5, 5.00000000000000000000e-01) (199, 5, 5.00000000000000000000e-01) (199, 5, 5.00000000000000000000e-01) (199, 5, 5.00000000000000000000e-01) (199, 5, 5.00000000000000000000e-01) (199, 5, 5.00000000000000000000e-01) (199, 5, 5.00000000000000000000e-01) (199, 5, 5.00000000000000000000e-01) (199, 5, 5.00000000000000000000e-01) (199, 5, 5.00000000000000000000e-01) (199, 5, 5.00000000000000000000e-01) (199, 5, 5.00000000000000000000e-01) (199, 5, 5.00000000000000000000e-01) (0, 5, 0.00000000000000000000e+00) (137, 5, 5.00000000000000000000e-01) (137, 5, 5.00000000000000000000e-01) (137, 5, 5.00000000000000000000e-01) (137, 5, 5.00000000000000000000e-01) (137, 5, 5.00000000000000000000e-01) (137, 5, 5.00000000000000000000e-01) (137, 5, 5.00000000000000000000e-01) (137, 5, 5.00000000000000000000e-01) (137, 5, 5.00000000000000000000e-01) (137, 5, 5.00000000000000000000e-01) (137, 5, 5.00000000000000000000e-01) (137, 5, 5.00000000000000000000e-01) (137, 5, 5.00000000000000000000e-01) (137, 5, 5.00000000000000000000e-01) (137, 5, 5.00000000000000000000e-01) (137, 5, 5.00000000000000000000e-01) (137, 5, 5.00000000000000000000e-01) (137, 5, 5.00000000000000000000e-01) (137, 5, 5.00000000000000000000e-01) (137, 5, 5.00000000000000000000e-01) (137, 5, 5.00000000000000000000e-01) (137, 5, 5.00000000000000000000e-01) (137, 5, 5.00000000000000000000e-01) (137, 5, 5.00000000000000000000e-01) (137, 5, 5.00000000000000000000e-01) (137, 5, 5.00000000000000000000e-01) (137, 5, 5.00000000000000000000e-01) (137, 5, 5.00000000000000000000e-01) (137, 5, 5.00000000000000000000e-01) (137, 5, 5.00000000000000000000e-01) (137, 5, 5.00000000000000000000e-01) (137, 5, 5.00000000000000000000e-01) (137, 5, 5.00000000000000000000e-01) (137, 5, 5.00000000000000000000e-01) (137, 5, 5.00000000000000000000e-01) (137, 5, 5.00000000000000000000e-01) (137, 5, 5.00000000000000000000e-01) (137, 5, 5.00000000000000000000e-01) (137, 5, 5.00000000000000000000e-01) (137, 5, 5.00000000000000000000e-01) (137, 5, 5.00000000000000000000e-01) (137, 5, 5.00000000000000000000e-01) (137, 5, 5.00000000000000000000e-01) (137, 5, 5.00000000000000000000e-01) (137, 5, 5.00000000000000000000e-01) (137, 5, 5.00000000000000000000e-01) (137, 5, 5.00000000000000000000e-01) (137, 5, 5.00000000000000000000e-01) (137, 5, 5.00000000000000000000e-01) (137, 5, 5.00000000000000000000e-01) (137, 5, 5.00000000000000000000e-01) (137, 5, 5.00000000000000000000e-01) (137, 5, 5.00000000000000000000e-01) (137, 5, 5.00000000000000000000e-01) (137, 5, 5.00000000000000000000e-01) (137, 5, 5.00000000000000000000e-01) (137, 5, 5.00000000000000000000e-01) (137, 5, 5.00000000000000000000e-01) (137, 5, 5.00000000000000000000e-01) (137, 5, 5.00000000000000000000e-01) (137, 5, 5.00000000000000000000e-01) (137, 5, 5.00000000000000000000e-01) (137, 5, 5.00000000000000000000e-01) (137, 5, 5.00000000000000000000e-01) (137, 5, 5.00000000000000000000e-01) (137, 5, 5.00000000000000000000e-01) (137, 5, 5.00000000000000000000e-01) (137, 5, 5.00000000000000000000e-01) (137, 5, 5.00000000000000000000e-01) (137, 5, 5.00000000000000000000e-01) (137, 5, 5.00000000000000000000e-01) (137, 5, 5.00000000000000000000e-01) (137, 5, 5.00000000000000000000e-01) (137, 5, 5.00000000000000000000e-01) (0, 5, 0.00000000000000000000e+00) (75, 5, 5.00000000000000000000e-01) (75, 5, 5.00000000000000000000e-01) (75, 5, 5.00000000000000000000e-01) (75, 5, 5.00000000000000000000e-01) (75, 5, 5.00000000000000000000e-01) (75, 5, 5.00000000000000000000e-01) (75, 5, 5.00000000000000000000e-01) (75, 5, 5.00000000000000000000e-01) (75, 5, 5.00000000000000000000e-01) (75, 5, 5.00000000000000000000e-01) (0, 5, 0.00000000000000000000e+00) 
connections (connected_to_neuron, weight)=(0, 1.24837505817413330078e+00) (1, -1.38551309704780578613e-01) (2, -1.75550624728202819824e-01) (3, 6.18738606572151184082e-02) (4, 7.54929706454277038574e-02) (5, -1.35044857859611511230e-01) (6, 1.33245978504419326782e-02) (7, -1.55740186572074890137e-01) (8, 1.69059395790100097656e-01) (9, 2.94244050979614257812e-01) (10, -3.65130782127380371094e-01) (11, 8.90824437141418457031e-01) (12, 3.21731150150299072266e-01) (13, 2.18588173389434814453e-01) (14, -1.66555553674697875977e-01) (15, -2.56071519106626510620e-02) (16, -1.29909858107566833496e-01) (17, -1.47243663668632507324e-01) (18, -1.73245072364807128906e-01) (19, -9.66837629675865173340e-02) (20, -1.97718411684036254883e-01) (21, -1.99509114027023315430e-01) (22, 2.75224894285202026367e-01) (23, 4.38250869512557983398e-01) (24, -6.26881495118141174316e-02) (25, -3.38107720017433166504e-02) (26, 1.40752866864204406738e-02) (27, -2.08242058753967285156e-01) (28, -9.70409959554672241211e-02) (29, 1.02405843790620565414e-03) (30, -1.77276298403739929199e-01) (31, -9.56489443778991699219e-02) (32, -1.19963690638542175293e-01) (33, -1.58753678202629089355e-01) (34, -1.76018606871366500854e-02) (35, -1.60397604107856750488e-01) (36, 3.53496998548507690430e-01) (37, 5.04308760166168212891e-01) (38, 4.97201472520828247070e-01) (39, 3.24536021798849105835e-03) (40, -7.12099596858024597168e-02) (41, -4.91858497262001037598e-02) (42, -1.84427693486213684082e-01) (43, -1.05487734079360961914e-01) (44, 4.88187462091445922852e-01) (45, -1.52227431535720825195e-01) (46, -1.60185962915420532227e-01) (47, -6.43078191205859184265e-03) (48, -1.22777424752712249756e-01) (49, -1.75089865922927856445e-01) (50, 4.19366598129272460938e-01) (51, 4.35388922691345214844e-01) (52, -6.53018653392791748047e-01) (53, 5.15561550855636596680e-02) (54, 1.06083080172538757324e-02) (55, -1.09451301395893096924e-02) (56, 5.26394784450531005859e-01) (57, 3.90007913112640380859e-01) (58, -1.39192461967468261719e+00) (59, -4.31592196226119995117e-01) (60, -1.67906194925308227539e-01) (61, -1.72704577445983886719e-01) (62, -1.82263836264610290527e-01) (63, -3.45677100121974945068e-02) (64, -2.48083695769309997559e-02) (65, -1.76214858889579772949e-01) (66, -6.61233291029930114746e-02) (67, 4.33124229311943054199e-02) (68, -2.55022138357162475586e-01) (69, 4.71133351325988769531e-01) (70, 4.76139992475509643555e-01) (71, -6.67906761169433593750e-01) (72, -2.01666742563247680664e-01) (73, -1.06887370347976684570e-01) (74, -1.41649991273880004883e-01) (75, -1.62898227572441101074e-01) (76, -1.62503376603126525879e-01) (77, 1.21872879564762115479e-01) (78, -2.93923020362854003906e-02) (79, 4.48357276618480682373e-02) (80, -1.80536042898893356323e-02) (81, -4.29224073886871337891e-02) (82, 2.19762220978736877441e-01) (83, 5.35696268081665039062e-01) (84, 3.47878217697143554688e+00) (85, 4.45491492748260498047e-01) (86, -1.20177045464515686035e-01) (87, -5.56816020980477333069e-03) (88, -1.53008311986923217773e-01) (89, -1.67485758662223815918e-01) (90, -3.84593233466148376465e-02) (91, -7.06941112875938415527e-02) (92, -1.61810796707868576050e-02) (93, -1.93374291062355041504e-01) (94, -9.59713459014892578125e-02) (95, 4.78056043386459350586e-01) (96, 3.79199773073196411133e-01) (97, 8.44365417957305908203e-01) (98, 9.86007750034332275391e-01) (99, 4.96412068605422973633e-01) (100, -6.96952939033508300781e-02) (101, -1.70910030603408813477e-01) (102, -1.68375179171562194824e-01) (103, -1.19275122880935668945e-01) (104, -3.69847685098648071289e-01) (105, 2.27387808263301849365e-02) (106, -6.71122223138809204102e-02) (107, 3.90107423067092895508e-01) (108, -1.48689210414886474609e-01) (109, 3.60301584005355834961e-01) (110, 6.37018084526062011719e-01) (111, 3.93432021141052246094e-01) (112, 4.43526655435562133789e-01) (113, -2.15736120939254760742e-01) (114, -1.08411587774753570557e-01) (115, -1.43008336424827575684e-01) (116, -2.68986187875270843506e-02) (117, -7.74891972541809082031e-01) (118, -2.26541627198457717896e-02) (119, -1.88341408967971801758e-01) (120, -1.97259128093719482422e-01) (121, -1.61796301603317260742e-01) (122, -3.74316796660423278809e-02) (123, 4.36914503574371337891e-01) (124, 3.70698988437652587891e-01) (125, 4.04401421546936035156e-01) (126, -2.04334855079650878906e-01) (127, -1.08937039971351623535e-01) (128, -2.17082351446151733398e-01) (129, -4.80579882860183715820e-02) (130, -4.95558202266693115234e-01) (131, 4.99577336013317108154e-02) (132, -1.96612447500228881836e-01) (133, -2.93428879231214523315e-02) (134, -1.80609107017517089844e-01) (135, -1.50258377194404602051e-01) (136, -1.07620403170585632324e-01) (137, 1.65581125766038894653e-02) (138, -7.06845670938491821289e-02) (139, -1.12364575266838073730e-01) (140, -4.59571667015552520752e-02) (141, -1.08965367078781127930e-01) (142, 4.38291989266872406006e-02) (143, -1.79896596819162368774e-02) (144, 6.40652000904083251953e-01) (145, -1.52463212609291076660e-01) (146, -1.94723159074783325195e-01) (147, -1.34504824876785278320e-01) (148, -9.95930284261703491211e-02) (149, -1.13596774637699127197e-01) (150, -1.16990730166435241699e-01) (151, -1.61912500858306884766e-01) (152, -7.54961818456649780273e-02) (153, -1.69133320450782775879e-01) (154, -1.20929673314094543457e-01) (155, -3.28152589499950408936e-02) (156, -8.38103815913200378418e-02) (157, 6.67805194854736328125e-01) (158, 6.03337764739990234375e-01) (159, -1.99776627123355865479e-02) (160, 2.58039794862270355225e-02) (161, 1.42428398132324218750e-01) (162, 6.42040371894836425781e-01) (163, 3.72812837362289428711e-01) (164, 4.97645497322082519531e-01) (165, -7.03026130795478820801e-02) (166, -3.43153476715087890625e-02) (167, -1.56940326094627380371e-01) (168, -1.58821195363998413086e-01) (169, -1.52604490518569946289e-01) (170, 7.25745975971221923828e-01) (171, 3.73398363590240478516e-01) (172, 4.66735064983367919922e-01) (173, 6.36101543903350830078e-01) (174, 6.15025520324707031250e-01) (175, 6.26099467277526855469e-01) (176, 4.64419484138488769531e-01) (177, 3.46979081630706787109e-01) (178, -6.90848901867866516113e-02) (179, -1.11493915319442749023e-02) (180, -2.05691203474998474121e-01) (181, -2.73857247084379196167e-02) (182, 5.14606177806854248047e-01) (183, 7.19674170017242431641e-01) (184, 5.03838121891021728516e-01) (185, 3.92670989036560058594e-01) (186, 4.21985149383544921875e-01) (187, 6.71258628368377685547e-01) (188, 7.10110425949096679688e-01) (189, 3.25543016195297241211e-01) (190, -2.09962829947471618652e-01) (191, -1.12487025558948516846e-01) (192, -5.82359656691551208496e-02) (193, -1.03070758283138275146e-01) (194, -1.07514567673206329346e-01) (195, 5.30310571193695068359e-01) (196, 1.07833333313465118408e-01) (197, 5.25560140609741210938e-01) (198, 4.30388838052749633789e-01) (199, 3.31371754407882690430e-01) (200, 2.40981912612915039062e+00) (201, 5.93146979808807373047e-01) (202, 1.94845408201217651367e-01) (203, -4.32306453585624694824e-02) (204, -1.49090856313705444336e-01) (205, -6.66230097413063049316e-02) (206, -1.79746612906455993652e-01) (207, -2.24492415785789489746e-01) (208, 1.92806527018547058105e-01) (209, 2.96512302011251449585e-02) (210, 1.29661321640014648438e-01) (211, 5.94880342483520507812e-01) (212, 3.43359589576721191406e-01) (213, 6.56735360622406005859e-01) (214, 3.58248710632324218750e-01) (215, -1.62883490324020385742e-01) (216, -1.60793468356132507324e-01) (217, -9.65162590146064758301e-02) (218, -1.81344375014305114746e-01) (219, -1.74706712365150451660e-01) (220, -1.61779895424842834473e-01) (221, -8.77018123865127563477e-02) (222, -7.78294540941715240479e-03) (223, -3.37020889855921268463e-03) (224, -5.29133006930351257324e-02) (225, -1.88303604722023010254e-01) (226, -9.90829244256019592285e-02) (227, -8.65780338644981384277e-02) (228, -5.72089068591594696045e-02) (229, -1.23274683952331542969e-01) (230, -5.53392656147480010986e-02) (231, -1.21806062757968902588e-01) (232, -7.31832236051559448242e-02) (233, -4.33629080653190612793e-02) (234, 3.83116453886032104492e-02) (235, -1.26784220337867736816e-01) (236, -8.70658308267593383789e-02) (237, -5.92127181589603424072e-02) (238, -1.69263556599617004395e-01) (239, -4.51428629457950592041e-02) (240, -1.58403694629669189453e-01) (241, -1.89388722181320190430e-01) (242, -1.70024111866950988770e-01) (243, -8.66287127137184143066e-02) (244, -4.66178357601165771484e-03) (245, -1.46864056587219238281e-01) (246, -1.73570409417152404785e-01) (247, 1.20814688503742218018e-01) (248, -4.94279935956001281738e-02) (249, -1.66231676936149597168e-01) (250, -1.81115433573722839355e-01) (251, 4.76260622963309288025e-03) (252, -1.07892990112304687500e-01) (253, -2.87203080952167510986e-02) (254, -3.65841425955295562744e-02) (255, -1.86802029609680175781e-01) (256, 1.11965637188404798508e-03) (257, 2.14542299509048461914e-02) (258, 8.67070108652114868164e-02) (259, 4.20581907033920288086e-01) (260, -5.49592673778533935547e-02) (0, 1.69918096065521240234e+00) (1, -8.84028911590576171875e-01) (2, -6.26534700393676757812e-01) (3, -6.71790182590484619141e-01) (4, -4.17143777012825012207e-02) (5, -1.93903088569641113281e-01) (6, -5.16041636466979980469e-01) (7, -3.50393712520599365234e-01) (8, 4.93913888931274414062e-01) (9, 2.75480508804321289062e-01) (10, 3.12106102705001831055e-01) (11, 5.65118837356567382812e+00) (12, 1.79124251008033752441e-01) (13, 1.22736535966396331787e-01) (14, -1.30484834313392639160e-01) (15, -5.25467932224273681641e-01) (16, -5.15037238597869873047e-01) (17, -5.15592753887176513672e-01) (18, -6.80055916309356689453e-01) (19, 2.39410940557718276978e-02) (20, 2.40725912153720855713e-02) (21, 6.37357905507087707520e-02) (22, 1.75208449363708496094e-01) (23, 2.06596270203590393066e-01) (24, -9.52802717685699462891e-01) (25, 1.50474775582551956177e-02) (26, -4.34162676334381103516e-01) (27, 2.20843642950057983398e-01) (28, -3.68122369050979614258e-01) (29, -3.32549631595611572266e-01) (30, -5.15366792678833007812e-01) (31, -9.75991368293762207031e-01) (32, -2.88756433874368667603e-02) (33, -2.11127787828445434570e-01) (34, 6.71502873301506042480e-02) (35, 5.28360232710838317871e-02) (36, 1.42043948173522949219e-01) (37, 8.06054100394248962402e-03) (38, 6.25319555401802062988e-02) (39, -3.80913078784942626953e-01) (40, 2.51836895942687988281e-01) (41, -2.77687638998031616211e-01) (42, -2.78119415044784545898e-01) (43, -1.05782628059387207031e+00) (44, -7.44343698024749755859e-02) (45, -1.96868196129798889160e-01) (46, -5.42145669460296630859e-01) (47, 1.73827812075614929199e-01) (48, 1.03084281086921691895e-01) (49, 9.63205918669700622559e-02) (50, 1.58219590783119201660e-01) (51, 6.07374757528305053711e-02) (52, -8.92515122890472412109e-01) (53, -4.98362034559249877930e-01) (54, -6.15714788436889648438e-01) (55, -5.05228102207183837891e-01) (56, 1.97839066386222839355e-01) (57, 1.30823791027069091797e-01) (58, 1.12353935837745666504e-01) (59, -2.02761113643646240234e-01) (60, -1.06082451343536376953e+00) (61, 2.23200753331184387207e-01) (62, 1.96258977055549621582e-01) (63, 1.75830870866775512695e-01) (64, 8.38477835059165954590e-02) (65, -9.67692792415618896484e-01) (66, -4.20049756765365600586e-01) (67, -5.12957394123077392578e-01) (68, -5.08303642272949218750e-01) (69, -8.20486620068550109863e-02) (70, -9.40073728561401367188e-02) (71, 4.75372709333896636963e-02) (72, 1.26024149358272552490e-02) (73, -1.27276813983917236328e+00) (74, 1.57319188117980957031e-01) (75, 1.63660138845443725586e-01) (76, 1.76544755697250366211e-01) (77, -4.46179471909999847412e-02) (78, -5.79325258731842041016e-01) (79, -6.40599131584167480469e-01) (80, -6.40449941158294677734e-01) (81, -5.71632564067840576172e-01) (82, 2.39293389022350311279e-02) (83, -9.00397956371307373047e-01) (84, 2.20099732279777526855e-01) (85, 1.45189881324768066406e-01) (86, -1.34125694632530212402e-01) (87, 1.88471302390098571777e-01) (88, 1.97770848870277404785e-01) (89, 1.66700616478919982910e-01) (90, 2.57701575756072998047e-01) (91, -4.81935560703277587891e-01) (92, -3.80568772554397583008e-01) (93, -6.03702664375305175781e-01) (94, 1.63087338209152221680e-01) (95, -6.70551955699920654297e-02) (96, 2.24976375699043273926e-01) (97, 6.07278943061828613281e-02) (98, 8.54970276355743408203e-01) (99, 1.75692304968833923340e-01) (100, 7.85644948482513427734e-02) (101, 2.25273281335830688477e-01) (102, -3.78059804439544677734e-01) (103, 2.03263014554977416992e-01) (104, -8.72223079204559326172e-01) (105, -3.08370888233184814453e-01) (106, -5.33818542957305908203e-01) (107, 6.56519606709480285645e-02) (108, 2.03930541872978210449e-01) (109, 2.22917735576629638672e-01) (110, 1.77427947521209716797e-01) (111, 1.52631163597106933594e-01) (112, 6.42004087567329406738e-02) (113, 1.23964399099349975586e-01) (114, 1.78197622299194335938e-01) (115, -4.47017610073089599609e-01) (116, 1.40655308961868286133e-01) (117, -8.17269146442413330078e-01) (118, -3.54475289583206176758e-01) (119, 1.66176393628120422363e-01) (120, 1.99130326509475708008e-01) (121, 1.61524444818496704102e-01) (122, 1.64809674024581909180e-01) (123, 8.90561565756797790527e-02) (124, 1.65443181991577148438e-01) (125, 1.34575307369232177734e-01) (126, 2.68733888864517211914e-01) (127, 3.48604649305343627930e-01) (128, -5.15268743038177490234e-01) (129, -4.78759348392486572266e-01) (130, -1.51168078184127807617e-01) (131, -6.01016223430633544922e-01) (132, 5.78234568238258361816e-02) (133, 4.46502417325973510742e-02) (134, 5.00800460577011108398e-02) (135, 1.19458153843879699707e-01) (136, 2.16601833701133728027e-01) (137, -4.03601750731468200684e-02) (138, 4.65467534959316253662e-02) (139, 1.73610851168632507324e-01) (140, 2.03066110610961914062e-01) (141, -4.55377668142318725586e-01) (142, -5.34608364105224609375e-01) (143, 5.70014595985412597656e-01) (144, 3.51732373237609863281e-02) (145, 2.26630046963691711426e-01) (146, 1.07574045658111572266e-01) (147, 1.48166388273239135742e-01) (148, 1.26039505004882812500e-01) (149, 1.78593806922435760498e-02) (150, 3.61969955265522003174e-02) (151, -2.94556647539138793945e-01) (152, 8.02613049745559692383e-02) (153, 2.02861160039901733398e-01) (154, -6.35797262191772460938e-01) (155, -7.49894678592681884766e-01) (156, 2.46720239520072937012e-01) (157, 1.96184903383255004883e-01) (158, 2.06039801239967346191e-01) (159, 3.30435454845428466797e-01) (160, 1.98251515626907348633e-01) (161, 2.04731762409210205078e-01) (162, 6.38347715139389038086e-02) (163, 5.69822713732719421387e-02) (164, -8.47415551543235778809e-02) (165, 1.61701172590255737305e-01) (166, 2.30997085571289062500e-01) (167, -6.74154162406921386719e-01) (168, -6.34488761425018310547e-01) (169, 1.21596574783325195312e-01) (170, 1.31031066179275512695e-01) (171, 1.87902212142944335938e-01) (172, 1.61546885967254638672e-01) (173, 6.94246292114257812500e-02) (174, -4.52845990657806396484e-01) (175, 1.71299770474433898926e-01) (176, 1.46596506237983703613e-01) (177, 1.51179596781730651855e-01) (178, 1.53802305459976196289e-01) (179, 2.21043527126312255859e-01) (180, 1.42400145530700683594e-01) (181, 1.73663303256034851074e-01) (182, 3.01083058118820190430e-01) (183, 2.03645467758178710938e-01) (184, 1.84247270226478576660e-01) (185, 3.03738981485366821289e-01) (186, 2.27834537625312805176e-01) (187, 2.57824301719665527344e-01) (188, 7.83720910549163818359e-02) (189, 1.37901291251182556152e-01) (190, 9.52505692839622497559e-02) (191, 1.52540057897567749023e-01) (192, 1.85419902205467224121e-01) (193, 2.31995120644569396973e-01) (194, 2.19499856233596801758e-01) (195, 4.38465505838394165039e-01) (196, 1.84993833303451538086e-01) (197, 2.72251129150390625000e-01) (198, 3.28046292066574096680e-01) (199, 1.11958630383014678955e-01) (200, 1.84671357274055480957e-02) (201, 8.90258699655532836914e-02) (202, 1.35715026408433914185e-02) (203, 1.59744650125503540039e-01) (204, 5.43293133378028869629e-02) (205, 2.43415087461471557617e-01) (206, 2.37567752599716186523e-01) (207, 1.47843390703201293945e-01) (208, -6.15462601184844970703e-01) (209, -6.83930277824401855469e-01) (210, -3.95342737436294555664e-01) (211, -2.80219048261642456055e-01) (212, -2.62520164251327514648e-01) (213, 2.11013182997703552246e-01) (214, 5.33990077674388885498e-02) (215, -3.70390303432941436768e-02) (216, -2.78364539146423339844e-01) (217, 1.10186584293842315674e-01) (218, 1.90707907080650329590e-01) (219, 2.33960852026939392090e-01) (220, 1.39493942260742187500e-01) (221, -5.43153285980224609375e-01) (222, -5.04239976406097412109e-01) (223, -5.88440299034118652344e-01) (224, -6.09056591987609863281e-01) (225, -4.07280564308166503906e-01) (226, -5.88268756866455078125e-01) (227, -8.62261652946472167969e-01) (228, -1.34932672977447509766e+00) (229, 1.77568614482879638672e-01) (230, 1.86115145683288574219e-01) (231, 1.49808719754219055176e-01) (232, 4.27538082003593444824e-02) (233, 2.15867251157760620117e-01) (234, 1.40744939446449279785e-01) (235, -5.08777320384979248047e-01) (236, -4.09645676612854003906e-01) (237, -4.40490007400512695312e-01) (238, -4.67375129461288452148e-01) (239, -1.03187263011932373047e+00) (240, -7.46270656585693359375e-01) (241, -4.87116068601608276367e-01) (242, 1.02467514574527740479e-01) (243, 2.26383715867996215820e-01) (244, 3.10482323169708251953e-01) (245, 3.17734360694885253906e-01) (246, 3.32358151674270629883e-01) (247, 2.10525527596473693848e-01) (248, 3.71873676776885986328e-01) (249, 2.08543494343757629395e-01) (250, 1.04320712387561798096e-01) (251, -3.98741722106933593750e-01) (252, -4.06749725341796875000e-01) (253, -5.96827447414398193359e-01) (254, 2.38085851073265075684e-01) (255, 1.49158552289009094238e-01) (256, 3.26102316379547119141e-01) (257, 3.29304993152618408203e-01) (258, 3.20936739444732666016e-01) (259, 2.76451051235198974609e-01) (260, -1.39426137320697307587e-03) (0, 2.99394392967224121094e+00) (1, 6.28571844100952148438e+00) (2, 8.84752035140991210938e-01) (3, 9.65255975723266601562e-01) (4, 1.30528166890144348145e-01) (5, 7.50929564237594604492e-02) (6, -5.87310381233692169189e-02) (7, 9.90752056241035461426e-02) (8, 3.64552773535251617432e-02) (9, -6.26273679733276367188e+00) (10, -2.67565131187438964844e+00) (11, -1.95660471916198730469e+00) (12, 5.82197666168212890625e-01) (13, 1.01452097296714782715e-01) (14, 6.31377649307250976562e+00) (15, 1.46256566047668457031e-01) (16, 7.40092769265174865723e-02) (17, 5.66133111715316772461e-03) (18, 1.18729673326015472412e-01) (19, 1.85463562607765197754e-01) (20, 5.32854683697223663330e-02) (21, 4.51440140604972839355e-02) (22, 3.00855457782745361328e-01) (23, 3.39676409959793090820e-01) (24, -3.50765323638916015625e+00) (25, -4.39909756183624267578e-01) (26, 1.05342164635658264160e-01) (27, 4.56247664988040924072e-02) (28, 5.80584555864334106445e-02) (29, 2.25635636597871780396e-02) (30, -6.32764101028442382812e-02) (31, 8.73603597283363342285e-02) (32, -3.81599590182304382324e-02) (33, 4.30069155991077423096e-02) (34, -1.39357254374772310257e-03) (35, 1.09730854630470275879e-01) (36, 9.38107743859291076660e-02) (37, -7.68181830644607543945e-02) (38, 3.72340989112854003906e+00) (39, 1.50233194231986999512e-01) (40, -1.24904038384556770325e-02) (41, 5.75252398848533630371e-02) (42, 3.98431625217199325562e-03) (43, 9.66490581631660461426e-02) (44, 1.27262115478515625000e-01) (45, 1.33371129631996154785e-01) (46, 2.10507623851299285889e-02) (47, -1.45159345120191574097e-02) (48, -3.99696454405784606934e-02) (49, 6.23825490474700927734e-02) (50, 1.27048480510711669922e+00) (51, 8.61049175262451171875e-01) (52, 2.03351423144340515137e-01) (53, 1.14426940679550170898e-01) (54, 5.72808533906936645508e-02) (55, -8.58791247010231018066e-02) (56, -6.51106983423233032227e-02) (57, -2.04933118075132369995e-02) (58, -2.15038843452930450439e-02) (59, -8.65145698189735412598e-02) (60, 1.26923859119415283203e-01) (61, 1.20765985921025276184e-02) (62, 1.58839687705039978027e-01) (63, 3.51754784584045410156e-01) (64, 1.15001022815704345703e-01) (65, 1.80878952145576477051e-01) (66, -6.95635825395584106445e-02) (67, -1.17318868637084960938e-01) (68, 3.59988003969192504883e-01) (69, 2.48464215546846389771e-02) (70, 3.73326092958450317383e-02) (71, 1.46274730563163757324e-01) (72, 3.23255211114883422852e-02) (73, 8.55405908077955245972e-03) (74, 1.20862595736980438232e-01) (75, 2.84891505725681781769e-03) (76, -5.29729127883911132812e-02) (77, 7.24363997578620910645e-02) (78, -1.61488465964794158936e-02) (79, -1.24135836958885192871e-01) (80, -7.08776786923408508301e-02) (81, -8.09574723243713378906e-02) (82, -4.73975874483585357666e-02) (83, 4.09231245517730712891e-01) (84, 3.02906818687915802002e-02) (85, 1.74462705850601196289e-01) (86, 1.06687039136886596680e-01) (87, 1.48136824369430541992e-01) (88, 5.98072893917560577393e-02) (89, -7.79654681682586669922e-02) (90, 1.12025715410709381104e-01) (91, 2.14967429637908935547e-02) (92, -7.27743580937385559082e-02) (93, 6.96801617741584777832e-02) (94, -8.37293267250061035156e-02) (95, -1.57902106642723083496e-01) (96, -2.30341348797082901001e-02) (97, 6.33324906229972839355e-02) (98, -2.48946528881788253784e-02) (99, 2.53851205110549926758e-01) (100, 1.69284921139478683472e-02) (101, -2.92255096137523651123e-02) (102, 5.49405030906200408936e-02) (103, -2.35290098935365676880e-02) (104, -5.67445047199726104736e-02) (105, -6.56197685748338699341e-03) (106, 4.20336760580539703369e-02) (107, 4.31824522092938423157e-03) (108, 8.38137924671173095703e-01) (109, 7.11900293827056884766e-01) (110, 4.70391884446144104004e-02) (111, -2.37333085387945175171e-02) (112, 1.58988937735557556152e-01) (113, 1.32673174142837524414e-01) (114, 8.25655311346054077148e-02) (115, -6.23104646801948547363e-02) (116, -1.22922677546739578247e-02) (117, 7.75962620973587036133e-02) (118, -7.08922892808914184570e-02) (119, 3.27127203345298767090e-02) (120, 5.42061915621161460876e-03) (121, 6.99933290481567382812e-01) (122, 8.24866652488708496094e-01) (123, 1.67362224310636520386e-02) (124, 6.59399405121803283691e-02) (125, -4.34023514389991760254e-02) (126, 2.29267403483390808105e-03) (127, -1.91509183496236801147e-02) (128, 1.35798309929668903351e-03) (129, -2.49359458684921264648e-02) (130, 2.05138605087995529175e-02) (131, 1.91897392272949218750e-01) (132, 9.94882807135581970215e-02) (133, 1.74343153834342956543e-01) (134, 5.11316359043121337891e-02) (135, 1.45837321877479553223e-01) (136, 2.66151905059814453125e-01) (137, 4.74297516047954559326e-02) (138, 1.44917026162147521973e-01) (139, -9.03398022055625915527e-02) (140, -4.17823977768421173096e-02) (141, -4.11021746695041656494e-02) (142, -6.02419525384902954102e-02) (143, 6.04730695486068725586e-02) (144, 4.70064096152782440186e-02) (145, 7.21568893641233444214e-03) (146, -3.11318244785070419312e-02) (147, 1.45738884806632995605e-01) (148, 9.85964238643646240234e-02) (149, 6.35422170162200927734e-02) (150, -1.56275983899831771851e-02) (151, 1.68876662850379943848e-01) (152, 1.12540304660797119141e-01) (153, 9.72708687186241149902e-02) (154, -5.12680262327194213867e-02) (155, -3.05189583450555801392e-02) (156, 5.36848828196525573730e-02) (157, 2.15489223599433898926e-01) (158, 1.90511718392372131348e-02) (159, -2.52458360046148300171e-03) (160, -4.89770695567131042480e-02) (161, -2.03490734100341796875e-01) (162, -2.02479183673858642578e-01) (163, 5.36009110510349273682e-02) (164, 2.14643388986587524414e-01) (165, 9.11044850945472717285e-02) (166, 1.15373022854328155518e-02) (167, -5.05828149616718292236e-02) (168, 1.04612976312637329102e-01) (169, 8.43572989106178283691e-02) (170, 2.97020435333251953125e-01) (171, 2.22352802753448486328e-01) (172, 1.35524690151214599609e-01) (173, -4.60998900234699249268e-02) (174, -1.64064720273017883301e-01) (175, 1.20700292289257049561e-01) (176, 1.68545350432395935059e-01) (177, 1.74589172005653381348e-01) (178, 2.55223155021667480469e-01) (179, 1.19228512048721313477e-01) (180, -3.20842675864696502686e-03) (181, 1.03401102125644683838e-01) (182, 1.55490428209304809570e-01) (183, 2.88346123695373535156e+00) (184, 2.79385417699813842773e-01) (185, 4.34771209955215454102e-01) (186, 5.14100752770900726318e-02) (187, 5.35526201128959655762e-02) (188, 1.60325571894645690918e-01) (189, 1.18822038173675537109e-01) (190, 2.74051517248153686523e-01) (191, 3.70672382414340972900e-02) (192, 3.89737039804458618164e-02) (193, 7.41514563560485839844e-01) (194, 8.56500044465065002441e-02) (195, 1.01060591638088226318e-01) (196, 1.05933320522308349609e+00) (197, 6.12778484821319580078e-01) (198, 4.98899847269058227539e-01) (199, 3.20788212120532989502e-02) (200, 1.03666834533214569092e-01) (201, 5.25527037680149078369e-02) (202, 2.14607775211334228516e-01) (203, 3.02308470010757446289e-01) (204, 9.63592305779457092285e-02) (205, 1.08230620622634887695e-01) (206, 6.84769630432128906250e-01) (207, -8.98735504597425460815e-03) (208, 8.68246138095855712891e-01) (209, -7.09777414798736572266e-01) (210, 8.28956961631774902344e-02) (211, 1.78501918911933898926e-01) (212, -1.83732777833938598633e-01) (213, -9.12223830819129943848e-02) (214, 1.38135403394699096680e-01) (215, 2.13938742876052856445e-01) (216, 1.18123933672904968262e-01) (217, 9.99164879322052001953e-02) (218, 6.14430665969848632812e-01) (219, 6.06036543846130371094e-01) (220, 2.56910592317581176758e-01) (221, 1.20243549346923828125e-01) (222, 1.85331739485263824463e-02) (223, 1.31501644849777221680e-01) (224, 8.43143835663795471191e-02) (225, -1.78783759474754333496e-01) (226, -1.35558366775512695312e-01) (227, 9.88583266735076904297e-03) (228, -5.19457533955574035645e-02) (229, 8.56562852859497070312e-02) (230, 1.48074077442288398743e-02) (231, 1.14520095288753509521e-01) (232, 3.42589914798736572266e-01) (233, 2.31162801384925842285e-01) (234, -3.10942530632019042969e-03) (235, 7.76291117072105407715e-02) (236, 1.42227277159690856934e-01) (237, 1.25373363494873046875e-01) (238, 8.71390327811241149902e-02) (239, -9.65774897485971450806e-03) (240, 1.19248107075691223145e-01) (241, 8.92849192023277282715e-02) (242, -1.32725322619080543518e-02) (243, -8.90204869210720062256e-03) (244, 6.53109028935432434082e-02) (245, 1.02208256721496582031e-01) (246, -1.26118564605712890625e+00) (247, -1.54212355613708496094e-01) (248, 4.97380569577217102051e-02) (249, 1.08848750591278076172e-01) (250, 2.53566578030586242676e-02) (251, 1.00517220795154571533e-01) (252, 5.51234297454357147217e-02) (253, 4.57181073725223541260e-02) (254, -1.45448029041290283203e-01) (255, 5.52683137357234954834e-02) (256, 9.65253934264183044434e-02) (257, 3.20415087044239044189e-02) (258, 1.36149659752845764160e-01) (259, 1.32552221417427062988e-01) (260, -6.92000687122344970703e-02) (0, -6.58524322509765625000e+00) (1, -3.67759585380554199219e-01) (2, -3.69597464799880981445e-01) (3, -2.10232093930244445801e-01) (4, 6.05713188648223876953e-01) (5, 5.66519081592559814453e-01) (6, 6.08343482017517089844e-01) (7, 5.71218788623809814453e-01) (8, 5.50424039363861083984e-01) (9, -3.84759902954101562500e-02) (10, -2.22433045506477355957e-01) (11, -8.64393472671508789062e-01) (12, -6.21528998017311096191e-02) (13, -1.49437570571899414062e+00) (14, -6.64823234081268310547e-01) (15, -4.43065464496612548828e-01) (16, 5.10388128459453582764e-02) (17, -1.08689039945602416992e-01) (18, 3.46883028745651245117e-01) (19, 1.70813053846359252930e-01) (20, 4.32540565729141235352e-01) (21, 2.15134426951408386230e-01) (22, 3.44822525978088378906e-01) (23, -2.00493142008781433105e-01) (24, -1.06657981872558593750e+00) (25, -2.66308903694152832031e+00) (26, -2.23009958863258361816e-01) (27, -1.80495333671569824219e+00) (28, -1.60557448863983154297e+00) (29, -4.62065756320953369141e-01) (30, -1.89154177904129028320e-01) (31, -2.15937867760658264160e-02) (32, 3.12958329916000366211e-01) (33, 3.11487913131713867188e-01) (34, 4.22691106796264648438e-01) (35, 2.45527893304824829102e-01) (36, 3.65354806184768676758e-01) (37, -6.44289374351501464844e-01) (38, -3.16217088699340820312e+00) (39, -4.45376299321651458740e-02) (40, -1.52196407318115234375e+00) (41, -1.36515080928802490234e+00) (42, -6.45963728427886962891e-01) (43, -9.19939279556274414062e-01) (44, -8.30012321472167968750e-01) (45, 1.19362793862819671631e-01) (46, 2.19897717237472534180e-01) (47, 2.28309109807014465332e-01) (48, 1.89582541584968566895e-01) (49, 1.15301154553890228271e-01) (50, 2.14934334158897399902e-01) (51, -8.21839332580566406250e-01) (52, 4.25939381122589111328e-01) (53, 6.30282640457153320312e-01) (54, 4.96377587318420410156e-01) (55, 5.75402855873107910156e-01) (56, 3.70466232299804687500e-01) (57, -2.53873944282531738281e-01) (58, -3.01448181271553039551e-02) (59, -2.95190006494522094727e-01) (60, -1.76331073045730590820e-01) (61, -1.98450282216072082520e-01) (62, 3.31208139657974243164e-01) (63, -2.82868921756744384766e-01) (64, -3.53242546319961547852e-01) (65, 5.10834932327270507812e-01) (66, 5.97458243370056152344e-01) (67, 6.48299992084503173828e-01) (68, 1.41105681657791137695e-01) (69, -1.27770006656646728516e-01) (70, -1.83079496026039123535e-01) (71, -1.98917314410209655762e-01) (72, -1.99694082140922546387e-01) (73, -1.32015943527221679688e-01) (74, -1.52238532900810241699e-01) (75, 2.27367088198661804199e-01) (76, -6.44153594970703125000e-01) (77, -2.79792081564664840698e-02) (78, 5.37963390350341796875e-01) (79, 6.78211390972137451172e-01) (80, 3.64168792963027954102e-01) (81, -5.15101075172424316406e-01) (82, -2.35776662826538085938e-01) (83, -1.01807050406932830811e-01) (84, -1.61628514528274536133e-01) (85, -7.15646147727966308594e-01) (86, -2.88388729095458984375e-01) (87, -2.90157854557037353516e-01) (88, 2.50092536211013793945e-01) (89, -4.32249188423156738281e-01) (90, 9.70435794442892074585e-04) (91, 5.84602832794189453125e-01) (92, 5.89514255523681640625e-01) (93, 5.89739441871643066406e-01) (94, 2.41017088294029235840e-01) (95, 4.47529330849647521973e-02) (96, -3.90358120203018188477e-01) (97, -5.31252443790435791016e-01) (98, -6.19273424148559570312e-01) (99, -1.78165212273597717285e-01) (100, -2.69271820783615112305e-01) (101, 2.67936177551746368408e-02) (102, 2.69205182790756225586e-01) (103, -3.48712056875228881836e-02) (104, 5.57894825935363769531e-01) (105, 5.85919678211212158203e-01) (106, 6.29378020763397216797e-01) (107, 4.98254716396331787109e-01) (108, 4.32730555534362792969e-01) (109, 1.42568385601043701172e+00) (110, 2.21429896354675292969e+00) (111, 3.38669657707214355469e-01) (112, 2.94228523969650268555e-01) (113, 1.15311592817306518555e-01) (114, 3.09096693992614746094e-01) (115, 1.96259155869483947754e-01) (116, 2.35418006777763366699e-01) (117, 3.09333831071853637695e-01) (118, 4.75226074457168579102e-01) (119, 3.89940172433853149414e-01) (120, 2.64775305986404418945e-01) (121, 3.69462072849273681641e-01) (122, 6.23149514198303222656e-01) (123, 1.07125413417816162109e+00) (124, -2.66537480056285858154e-02) (125, 3.11255723237991333008e-01) (126, 1.39183085411787033081e-02) (127, 3.23192000389099121094e-01) (128, 3.45438659191131591797e-01) (129, 3.77571195363998413086e-01) (130, -4.18883591890335083008e-01) (131, 3.29348087310791015625e-01) (132, 2.40527659654617309570e-01) (133, 6.46329104900360107422e-01) (134, 6.41739785671234130859e-01) (135, 7.36919045448303222656e-01) (136, 9.68920141458511352539e-02) (137, 2.01109290122985839844e-01) (138, 2.43211895227432250977e-01) (139, 1.38075828552246093750e-01) (140, 3.75309884548187255859e-01) (141, 5.24727523326873779297e-01) (142, 4.70082879066467285156e-01) (143, -3.25179040431976318359e-01) (144, -3.85085284709930419922e-01) (145, 3.11289221048355102539e-01) (146, 5.60405075550079345703e-01) (147, 3.76951962709426879883e-01) (148, 7.16947138309478759766e-01) (149, 1.09054334461688995361e-01) (150, 2.81007200479507446289e-01) (151, 2.66689002513885498047e-01) (152, 1.83953031897544860840e-01) (153, 3.94310206174850463867e-01) (154, 4.16194498538970947266e-01) (155, 3.51460963487625122070e-01) (156, -2.40972086787223815918e-01) (157, -4.01785135269165039062e-01) (158, 2.08816319704055786133e-01) (159, 2.25655734539031982422e-01) (160, -8.36355090141296386719e-01) (161, -5.96955358982086181641e-01) (162, -1.58675789833068847656e-01) (163, -2.32638403773307800293e-01) (164, -2.63393342494964599609e-01) (165, 5.90149313211441040039e-02) (166, 3.36390584707260131836e-01) (167, 4.00460392236709594727e-01) (168, 4.93134021759033203125e-01) (169, -2.87176460027694702148e-01) (170, -1.97554096579551696777e-01) (171, -3.67426753044128417969e-01) (172, -2.53145426511764526367e-01) (173, -2.90366739034652709961e-01) (174, -2.41826608777046203613e-01) (175, -1.59785568714141845703e-01) (176, -1.11318551003932952881e-01) (177, -1.66981801390647888184e-01) (178, -2.63283908367156982422e-01) (179, 2.44340807199478149414e-01) (180, 2.26764768362045288086e-01) (181, 3.77812832593917846680e-01) (182, -4.63290363550186157227e-01) (183, -1.95492282509803771973e-01) (184, -2.91207760572433471680e-01) (185, -1.91902488470077514648e-01) (186, -8.62660333514213562012e-02) (187, -1.28325819969177246094e-01) (188, -5.91330267488956451416e-02) (189, -3.25055092573165893555e-01) (190, -3.15658211708068847656e-01) (191, -2.07503318786621093750e-01) (192, 2.15457439422607421875e-01) (193, 3.94972324371337890625e-01) (194, 2.37345501780509948730e-01) (195, -1.42547175288200378418e-01) (196, -2.25673243403434753418e-01) (197, -2.34077721834182739258e-01) (198, -2.60512560606002807617e-01) (199, -1.65782302618026733398e-01) (200, -9.88603830337524414062e-02) (201, -1.11657217144966125488e-01) (202, -2.02822327613830566406e-01) (203, -1.69660702347755432129e-01) (204, 2.41484507918357849121e-01) (205, 5.75774431228637695312e-01) (206, 6.11066222190856933594e-01) (207, 3.35147321224212646484e-01) (208, 6.02523267269134521484e-01) (209, 2.70909577608108520508e-01) (210, 6.38371825218200683594e-01) (211, -7.62020289897918701172e-01) (212, -1.49821090698242187500e+00) (213, -5.89738428592681884766e-01) (214, -1.87047147750854492188e+00) (215, -4.69446092844009399414e-01) (216, 1.70936629176139831543e-01) (217, 1.92537158727645874023e-01) (218, 5.94402134418487548828e-01) (219, 7.32508122920989990234e-01) (220, 3.88142913579940795898e-01) (221, 8.95635262131690979004e-02) (222, 5.97397506237030029297e-01) (223, 5.72871685028076171875e-01) (224, 5.63307404518127441406e-01) (225, -4.79341894388198852539e-01) (226, -9.17183578014373779297e-01) (227, 2.30416469275951385498e-02) (228, 3.82620990276336669922e-01) (229, 1.07139915227890014648e-01) (230, 1.24928742647171020508e-01) (231, 1.92218393087387084961e-01) (232, 2.06902936100959777832e-01) (233, 3.27968150377273559570e-01) (234, -4.38945703208446502686e-02) (235, -5.69483339786529541016e-02) (236, -8.87250661849975585938e-01) (237, 9.83337759971618652344e-02) (238, -1.01634310558438301086e-02) (239, -1.89590811729431152344e-01) (240, 2.66166239976882934570e-01) (241, 2.73156821727752685547e-01) (242, 7.63764083385467529297e-02) (243, 9.60775017738342285156e-02) (244, -3.71797978878021240234e-01) (245, -4.48254883289337158203e-01) (246, -4.37121838331222534180e-01) (247, -1.62171274423599243164e-01) (248, -1.72841072082519531250e-01) (249, -1.78525793552398681641e+00) (250, -1.21226418018341064453e+00) (251, -8.00628811120986938477e-02) (252, 2.25299552083015441895e-01) (253, 5.57950615882873535156e-01) (254, -5.04670500755310058594e-01) (255, -4.95456784963607788086e-01) (256, -3.29834491014480590820e-01) (257, -3.91999900341033935547e-01) (258, -7.82110452651977539062e-01) (259, -7.30733752250671386719e-01) (260, 1.18919759988784790039e-01) (0, -7.57825188338756561279e-03) (1, -5.34081816673278808594e-01) (2, -1.17184273898601531982e-01) (3, -2.09158375859260559082e-01) (4, 6.44995123147964477539e-02) (5, 2.20788806676864624023e-01) (6, 2.98041582107543945312e-01) (7, 1.28333687782287597656e-01) (8, 1.32622465491294860840e-01) (9, -3.98183055222034454346e-02) (10, 9.73030030727386474609e-02) (11, 1.33440542221069335938e+00) (12, 2.11090475320816040039e-01) (13, 2.04342603683471679688e-01) (14, 1.01251311600208282471e-01) (15, 1.27798110246658325195e-01) (16, 1.28305330872535705566e-01) (17, 1.12240046262741088867e-01) (18, 1.17491349577903747559e-01) (19, 2.53449231386184692383e-01) (20, 9.64669063687324523926e-02) (21, 8.22583734989166259766e-02) (22, 1.64255172014236450195e-01) (23, 8.84879902005195617676e-02) (24, -1.79788768291473388672e-02) (25, 1.51992633938789367676e-01) (26, 1.11459039151668548584e-01) (27, 3.27426232397556304932e-02) (28, 7.20025971531867980957e-02) (29, 7.38350003957748413086e-02) (30, 2.41850361227989196777e-01) (31, 2.55101680755615234375e-01) (32, 2.04958155751228332520e-01) (33, 2.29924216866493225098e-01) (34, 1.63851305842399597168e-02) (35, 1.56329855322837829590e-01) (36, 1.40586867928504943848e-01) (37, 1.80862709879875183105e-01) (38, -3.98469157516956329346e-03) (39, 1.14484496414661407471e-01) (40, 4.85203377902507781982e-02) (41, 3.99853847920894622803e-02) (42, 9.53601896762847900391e-02) (43, 2.30328708887100219727e-01) (44, 2.23820582032203674316e-01) (45, 1.62854492664337158203e-01) (46, 1.16382680833339691162e-01) (47, -1.08981886878609657288e-02) (48, 1.24168470501899719238e-01) (49, 8.91862362623214721680e-02) (50, 1.58390462398529052734e-01) (51, 3.57673279941082000732e-02) (52, 2.73970011621713638306e-02) (53, 1.16148933768272399902e-01) (54, 2.05798417329788208008e-01) (55, 9.40500348806381225586e-02) (56, 3.43021098524332046509e-03) (57, -4.74157810211181640625e-01) (58, -1.22405147552490234375e+00) (59, -2.15597257018089294434e-01) (60, -4.22888547182083129883e-01) (61, -4.38441902399063110352e-01) (62, 9.73337069153785705566e-02) (63, 9.31770801544189453125e-02) (64, -3.70074659585952758789e-02) (65, 5.10942153632640838623e-02) (66, 9.48414504528045654297e-02) (67, 2.34130978584289550781e-01) (68, 2.09294289350509643555e-01) (69, -3.74270975589752197266e-02) (70, -2.18335598707199096680e-01) (71, -4.76692676544189453125e-01) (72, -1.97137430310249328613e-01) (73, -4.76237118244171142578e-01) (74, -3.13636243343353271484e-01) (75, -3.99926334619522094727e-01) (76, 1.20957456529140472412e-01) (77, -2.19732969999313354492e-02) (78, 8.67919400334358215332e-02) (79, 1.76989689469337463379e-01) (80, 3.73219966888427734375e-01) (81, 1.12385228276252746582e-01) (82, 5.70401176810264587402e-02) (83, 1.07097392901778221130e-03) (84, 3.21608297526836395264e-02) (85, -2.46149033308029174805e-01) (86, -2.82944649457931518555e-01) (87, -4.02753144502639770508e-01) (88, -4.40084338188171386719e-01) (89, -1.06565251946449279785e-01) (90, -3.77270393073558807373e-02) (91, 4.57698702812194824219e-02) (92, 1.04857780039310455322e-01) (93, 2.31837153434753417969e-01) (94, -9.99640151858329772949e-02) (95, -7.25532248616218566895e-02) (96, 1.00103281438350677490e-02) (97, -2.29221761226654052734e-01) (98, 6.39063641428947448730e-02) (99, -3.79175335168838500977e-01) (100, -4.19872552156448364258e-01) (101, -4.73685622215270996094e-01) (102, -8.27008485794067382812e-02) (103, 1.96339208632707595825e-02) (104, -6.27910196781158447266e-02) (105, 1.44343366846442222595e-02) (106, 1.76421165466308593750e-01) (107, 1.76939785480499267578e-01) (108, -2.10234224796295166016e-02) (109, 1.09660424292087554932e-01) (110, 1.54844790697097778320e-01) (111, 1.86265945434570312500e-01) (112, 2.79335025697946548462e-02) (113, 1.08052939176559448242e-01) (114, 7.78476223349571228027e-02) (115, 1.47416949272155761719e-01) (116, 2.89524532854557037354e-03) (117, -1.18635855615139007568e-01) (118, 1.53414472937583923340e-01) (119, -1.54756903648376464844e-01) (120, -3.50015014410018920898e-01) (121, 3.08977179229259490967e-02) (122, 1.66652441024780273438e-01) (123, 1.12452074885368347168e-01) (124, 1.62728875875473022461e-01) (125, 2.57724195718765258789e-01) (126, 1.26046955585479736328e-01) (127, 1.20495975017547607422e-01) (128, 1.24764949083328247070e-01) (129, 1.60463199019432067871e-01) (130, -4.57960925996303558350e-02) (131, 2.31002196669578552246e-01) (132, 3.08715254068374633789e-02) (133, -8.28558672219514846802e-03) (134, 2.69051432609558105469e-01) (135, 1.55287936329841613770e-01) (136, 1.72853410243988037109e-01) (137, 1.45543143153190612793e-01) (138, 2.62356281280517578125e-01) (139, 8.82160738110542297363e-02) (140, -1.72077659517526626587e-02) (141, 1.66874498128890991211e-01) (142, 8.84203165769577026367e-02) (143, 5.66418707370758056641e-01) (144, 1.01876288652420043945e-01) (145, 8.09002369642257690430e-02) (146, 9.54880788922309875488e-02) (147, 1.99212044477462768555e-01) (148, 1.25224500894546508789e-01) (149, 1.26147493720054626465e-01) (150, -2.05895379185676574707e-01) (151, 1.84665530920028686523e-01) (152, 1.60118997097015380859e-01) (153, -3.60697269439697265625e-01) (154, 2.22589626908302307129e-01) (155, 9.67220515012741088867e-02) (156, -1.02645695209503173828e-01) (157, -4.82131019234657287598e-02) (158, -2.46088691055774688721e-02) (159, -6.05922117829322814941e-02) (160, 1.71677261590957641602e-01) (161, 1.81977361440658569336e-01) (162, 2.04720348119735717773e-01) (163, -1.43715649843215942383e-01) (164, -3.14074277877807617188e-01) (165, 1.00916758179664611816e-01) (166, 1.90429136157035827637e-01) (167, 7.10502341389656066895e-02) (168, 7.61724859476089477539e-02) (169, 7.99547359347343444824e-02) (170, -8.24096500873565673828e-02) (171, -5.76083958148956298828e-02) (172, -1.06141142547130584717e-01) (173, -1.20814085006713867188e+00) (174, -1.63561329245567321777e-01) (175, -1.93716928362846374512e-01) (176, -1.62156388163566589355e-01) (177, -5.85812985897064208984e-01) (178, -3.86417329311370849609e-01) (179, 1.12620390951633453369e-01) (180, 1.26504778861999511719e-01) (181, 1.83872148394584655762e-01) (182, -6.33733987808227539062e-01) (183, 2.33631916344165802002e-02) (184, -3.73139344155788421631e-02) (185, -5.72530403733253479004e-02) (186, -1.31489574909210205078e+00) (187, -3.06500583887100219727e-01) (188, -4.16021555662155151367e-01) (189, -4.63971704244613647461e-01) (190, -3.64971458911895751953e-01) (191, -8.93405914306640625000e-01) (192, 1.35053545236587524414e-01) (193, 3.03247831761837005615e-02) (194, 1.40583813190460205078e-01) (195, -3.91018599271774291992e-01) (196, 1.99415758252143859863e-02) (197, -2.90125515311956405640e-02) (198, -1.63075372576713562012e-01) (199, -1.22392010688781738281e+00) (200, -7.02226638793945312500e-01) (201, -6.79439246654510498047e-01) (202, -5.74771821498870849609e-01) (203, -4.85596865415573120117e-01) (204, 6.31418302655220031738e-02) (205, -8.40123556554317474365e-03) (206, 7.52964392304420471191e-02) (207, -9.79806296527385711670e-03) (208, 1.78661376237869262695e-01) (209, -4.70227189362049102783e-02) (210, 2.10002198815345764160e-01) (211, 1.01754903793334960938e-01) (212, 3.45212593674659729004e-02) (213, 6.96154907345771789551e-02) (214, 2.70953059196472167969e-01) (215, -1.90100237727165222168e-01) (216, -5.39804669097065925598e-03) (217, 1.69784054160118103027e-01) (218, -1.40308113768696784973e-02) (219, 5.12700490653514862061e-02) (220, -3.10806870460510253906e-01) (221, 2.12595745921134948730e-01) (222, 7.33028799295425415039e-02) (223, 8.92817527055740356445e-02) (224, 2.19416886568069458008e-01) (225, 1.11206062138080596924e-01) (226, 2.49274969100952148438e-01) (227, 2.23081648349761962891e-01) (228, 6.10109977424144744873e-02) (229, 2.93698329478502273560e-02) (230, 1.16461023688316345215e-01) (231, 1.53843045234680175781e-01) (232, 3.77953164279460906982e-02) (233, 1.57047614455223083496e-01) (234, 1.06511987745761871338e-01) (235, 2.49842748045921325684e-01) (236, 2.11428374052047729492e-01) (237, 1.27391666173934936523e-01) (238, 2.50624716281890869141e-01) (239, 1.59454405307769775391e-01) (240, 2.24766924977302551270e-01) (241, 2.41322994232177734375e-01) (242, 2.00446113944053649902e-01) (243, 1.88081413507461547852e-01) (244, 1.42578497529029846191e-01) (245, 1.09854437410831451416e-01) (246, 2.41963878273963928223e-01) (247, 1.15856878459453582764e-01) (248, 1.63776278495788574219e-01) (249, 1.52378112077713012695e-01) (250, 1.22649736702442169189e-01) (251, 6.98063597083091735840e-02) (252, 1.97763338685035705566e-01) (253, 1.36700838804244995117e-01) (254, 2.06999945640563964844e+00) (255, 4.85965633392333984375e+00) (256, 4.17563229799270629883e-01) (257, -1.72090679407119750977e-01) (258, -9.34035032987594604492e-02) (259, 9.15214195847511291504e-02) (260, 1.05324335396289825439e-01) (0, 5.43046534061431884766e-01) (1, 4.41011667251586914062e-01) (2, 3.63255202770233154297e-01) (3, 6.00231826305389404297e-01) (4, 5.49739122390747070312e-01) (5, 5.52823781967163085938e-01) (6, 6.26978039741516113281e-01) (7, 6.33811831474304199219e-01) (8, -1.57281130552291870117e-01) (9, -3.63348633050918579102e-01) (10, -2.69626956433057785034e-02) (11, -5.51607012748718261719e-02) (12, -8.09103369712829589844e-01) (13, -1.13666959106922149658e-01) (14, -1.15461260080337524414e-01) (15, -1.13874371163547039032e-03) (16, -1.23144350945949554443e-01) (17, -3.72392237186431884766e-02) (18, -3.45308221876621246338e-02) (19, -8.46133381128311157227e-02) (20, 5.98358213901519775391e-02) (21, -1.82970259338617324829e-02) (22, 7.62648805975914001465e-02) (23, -4.39352989196777343750e-02) (24, 7.22343996167182922363e-02) (25, 2.06432715058326721191e-01) (26, -1.02693676948547363281e-01) (27, 1.49492416530847549438e-02) (28, 7.75685459375381469727e-02) (29, -7.81437233090400695801e-02) (30, -9.14176106452941894531e-02) (31, 6.05477429926395416260e-02) (32, -4.62316237390041351318e-02) (33, 2.73981341160833835602e-03) (34, 4.04131636023521423340e-02) (35, 1.50599628686904907227e-02) (36, 6.84331879019737243652e-02) (37, 4.55418080091476440430e-02) (38, -2.92883533984422683716e-02) (39, -1.62467658519744873047e-01) (40, 8.50567370653152465820e-02) (41, 1.01819850504398345947e-01) (42, -2.52535324543714523315e-02) (43, 7.04032406210899353027e-02) (44, -5.47078177332878112793e-02) (45, -3.89808304607868194580e-02) (46, 4.35550846159458160400e-02) (47, 1.47061124444007873535e-02) (48, 5.40173724293708801270e-02) (49, -9.45805981755256652832e-02) (50, 6.35768696665763854980e-02) (51, 4.20630387961864471436e-02) (52, -1.86758697032928466797e-01) (53, 6.54741562902927398682e-03) (54, 3.14971953630447387695e-02) (55, -1.01621784269809722900e-01) (56, 6.11985661089420318604e-02) (57, -1.43588677048683166504e-01) (58, 5.50528407096862792969e-01) (59, 6.49597883224487304688e-01) (60, 4.16663169860839843750e-01) (61, 4.83479708433151245117e-01) (62, 5.83566009998321533203e-01) (63, 5.68147003650665283203e-01) (64, 5.77956974506378173828e-01) (65, -2.18593299388885498047e-01) (66, -7.74488598108291625977e-02) (67, 4.30436283349990844727e-02) (68, 7.71417468786239624023e-02) (69, 2.24744156002998352051e-02) (70, 4.33919671922922134399e-03) (71, -5.72327040135860443115e-02) (72, 4.06763374805450439453e-01) (73, 4.21169519424438476562e-01) (74, 5.93578040599822998047e-01) (75, 6.13463580608367919922e-01) (76, 5.32655954360961914062e-01) (77, 5.04715740680694580078e-01) (78, -1.71736001968383789062e-01) (79, -5.55133298039436340332e-02) (80, 4.30999370291829109192e-03) (81, 6.85619488358497619629e-02) (82, 8.18601772189140319824e-02) (83, -1.26892641186714172363e-01) (84, -8.97024497389793395996e-02) (85, 6.65189474821090698242e-02) (86, 7.19886183738708496094e-01) (87, 4.99859422445297241211e-01) (88, 5.56086957454681396484e-01) (89, 3.12553286552429199219e-01) (90, 3.28759789466857910156e-01) (91, -1.24249964952468872070e-01) (92, -7.47133269906044006348e-02) (93, 3.72778959572315216064e-02) (94, 9.15835872292518615723e-02) (95, -4.55959886312484741211e-02) (96, 1.20811194181442260742e-01) (97, 1.57807674258947372437e-02) (98, 4.18631806969642639160e-02) (99, 7.78893649578094482422e-01) (100, 5.41890084743499755859e-01) (101, 5.84252595901489257812e-01) (102, 4.19833719730377197266e-01) (103, 5.11776089668273925781e-01) (104, -9.15779322385787963867e-02) (105, -2.34161298722028732300e-02) (106, 3.49149256944656372070e-02) (107, -6.47188723087310791016e-02) (108, 7.48141035437583923340e-02) (109, 7.82211869955062866211e-02) (110, -3.08180060237646102905e-02) (111, -3.73277924954891204834e-02) (112, 3.03198117762804031372e-02) (113, -1.06552660465240478516e-01) (114, 6.38154149055480957031e-01) (115, 2.86773860454559326172e-01) (116, 3.72413128614425659180e-01) (117, -1.50144577026367187500e-01) (118, -4.01980988681316375732e-02) (119, 2.68267448991537094116e-02) (120, 1.89324710518121719360e-02) (121, -7.95513577759265899658e-03) (122, -5.59910461306571960449e-02) (123, 8.64356607198715209961e-02) (124, -1.10643476247787475586e-01) (125, -1.03896051645278930664e-01) (126, 7.53791928291320800781e-02) (127, 1.15650489926338195801e-01) (128, 6.63884058594703674316e-02) (129, 4.00421798229217529297e-01) (130, -1.73254515975713729858e-02) (131, -3.57292182743549346924e-02) (132, -8.24914574623107910156e-02) (133, 8.89147445559501647949e-03) (134, -5.75599744915962219238e-02) (135, 2.95227970927953720093e-02) (136, -9.19148400425910949707e-02) (137, 2.17100437730550765991e-02) (138, 8.38622674345970153809e-02) (139, 8.93074497580528259277e-02) (140, 4.00452464818954467773e-02) (141, -7.74480998516082763672e-02) (142, -8.27682912349700927734e-02) (143, -6.33131787180900573730e-02) (144, -8.54426845908164978027e-02) (145, -5.29011674225330352783e-02) (146, 1.40906304121017456055e-01) (147, -2.20095720142126083374e-02) (148, 6.13664090633392333984e-01) (149, 7.78033852577209472656e-01) (150, 4.26216483116149902344e-01) (151, -1.39798417687416076660e-01) (152, -2.00685467571020126343e-02) (153, -2.02428698539733886719e-02) (154, -1.03369630873203277588e-01) (155, -4.95327301323413848877e-02) (156, 5.56936323642730712891e-01) (157, 9.29280817508697509766e-02) (158, 4.25860762596130371094e-01) (159, -5.43189886957406997681e-03) (160, 6.61384224891662597656e-01) (161, 7.28693008422851562500e-01) (162, 7.65020906925201416016e-01) (163, 8.27925622463226318359e-01) (164, 4.11643832921981811523e-01) (165, -6.55646994709968566895e-02) (166, 4.50896099209785461426e-03) (167, 6.08626790344715118408e-02) (168, -9.80080515146255493164e-02) (169, 5.40244460105895996094e-01) (170, 4.59788218140602111816e-02) (171, 6.86906158924102783203e-01) (172, 6.65783584117889404297e-01) (173, 7.75104761123657226562e-01) (174, 7.10927426815032958984e-01) (175, 7.80815839767456054688e-01) (176, 6.01519882678985595703e-01) (177, -5.22948466241359710693e-02) (178, 5.88083803653717041016e-01) (179, 7.96121060848236083984e-02) (180, 3.73932942748069763184e-02) (181, -6.74082264304161071777e-02) (182, 6.97626709938049316406e-01) (183, 5.57880163192749023438e-01) (184, 6.43474638462066650391e-01) (185, 5.67251801490783691406e-01) (186, 6.22161686420440673828e-01) (187, 6.39120936393737792969e-01) (188, 6.46754026412963867188e-01) (189, 5.51653265953063964844e-01) (190, 2.89416074752807617188e-01) (191, 6.87838256359100341797e-01) (192, 9.82396677136421203613e-02) (193, -1.04018047451972961426e-01) (194, -6.01199045777320861816e-02) (195, 7.75586962699890136719e-01) (196, 5.58451116085052490234e-01) (197, 6.96045160293579101562e-01) (198, 8.15668880939483642578e-01) (199, 5.61580300331115722656e-01) (200, 6.51202082633972167969e-01) (201, 5.28535604476928710938e-01) (202, 4.06215459108352661133e-01) (203, 5.62106192111968994141e-01) (204, -3.98633778095245361328e-02) (205, -4.79797646403312683105e-02) (206, -1.08568891882896423340e-01) (207, -3.05797811597585678101e-02) (208, 5.46828806400299072266e-01) (209, -1.52235701680183410645e-01) (210, -1.25811785459518432617e-01) (211, -1.32976815104484558105e-01) (212, -5.40000349283218383789e-02) (213, -3.22851762175559997559e-02) (214, 2.74047460407018661499e-02) (215, 7.97822177410125732422e-02) (216, -3.34243327379226684570e-02) (217, -4.03457246720790863037e-02) (218, 6.80608004331588745117e-02) (219, -6.86818584799766540527e-02) (220, 1.22871644794940948486e-01) (221, -1.14288255572319030762e-01) (222, 6.88957944512367248535e-02) (223, 6.27277791500091552734e-02) (224, -9.25679281353950500488e-02) (225, -9.35275033116340637207e-02) (226, 1.82059593498706817627e-02) (227, -4.13396991789340972900e-02) (228, 6.60287812352180480957e-02) (229, -4.40537855029106140137e-02) (230, -3.58947999775409698486e-02) (231, 1.14838946610689163208e-02) (232, 4.21441793441772460938e-02) (233, -2.08390243351459503174e-02) (234, 5.54727911949157714844e-01) (235, -1.13140102475881576538e-02) (236, -6.97481706738471984863e-02) (237, -3.99909578263759613037e-02) (238, -7.31366872787475585938e-02) (239, -1.38791380450129508972e-02) (240, -5.02686239778995513916e-02) (241, -2.59270556271076202393e-02) (242, -6.49150609970092773438e-02) (243, 1.20239881798624992371e-02) (244, 6.16576075553894042969e-02) (245, -7.23615959286689758301e-02) (246, -2.59691774845123291016e-02) (247, 6.40573084354400634766e-01) (248, 4.19215202331542968750e-01) (249, -1.22838221490383148193e-01) (250, -1.46010175347328186035e-01) (251, -4.30278815329074859619e-02) (252, -3.35495211184024810791e-02) (253, 6.92400485277175903320e-02) (254, -5.90478554368019104004e-02) (255, -3.79128493368625640869e-02) (256, 7.80998170375823974609e-01) (257, 7.86048710346221923828e-01) (258, -2.42337118834257125854e-02) (259, 1.10659077763557434082e-01) (260, 6.64927735924720764160e-02) (0, 1.03445684909820556641e+00) (1, 6.12274646759033203125e-01) (2, 5.99892318248748779297e-01) (3, 5.53580939769744873047e-01) (4, -1.87868639826774597168e-01) (5, -2.77392864227294921875e-01) (6, 4.49611127376556396484e-01) (7, 4.76067841053009033203e-01) (8, 4.02843177318572998047e-01) (9, 5.99716126918792724609e-01) (10, 5.68760573863983154297e-01) (11, -3.08794736862182617188e-01) (12, 1.45741835236549377441e-01) (13, 5.95960199832916259766e-01) (14, 6.18294954299926757812e-01) (15, -1.21943868696689605713e-01) (16, -2.39835068583488464355e-01) (17, 3.88547211885452270508e-01) (18, 4.64735299348831176758e-01) (19, 4.15022701025009155273e-01) (20, 3.43877166509628295898e-01) (21, 4.37506228685379028320e-01) (22, 6.51323258876800537109e-01) (23, 4.67096507549285888672e-01) (24, 4.78745192289352416992e-01) (25, 2.60504096746444702148e-01) (26, 6.20908796787261962891e-01) (27, 7.09665358066558837891e-01) (28, 4.51628148555755615234e-01) (29, 3.29020351171493530273e-01) (30, 3.85305404663085937500e-01) (31, 3.75086963176727294922e-01) (32, 2.91037529706954956055e-01) (33, 2.04827934503555297852e-01) (34, 6.64536356925964355469e-01) (35, 5.37990450859069824219e-01) (36, 5.64934968948364257812e-01) (37, 5.89092969894409179688e-01) (38, 4.27285224199295043945e-01) (39, -6.38453364372253417969e-02) (40, -1.16771407425403594971e-01) (41, 3.20373296737670898438e-01) (42, 3.79944920539855957031e-01) (43, 3.05246949195861816406e-01) (44, 2.17103034257888793945e-01) (45, 5.23717999458312988281e-01) (46, 6.73270404338836669922e-01) (47, 6.12008631229400634766e-01) (48, 6.32262408733367919922e-01) (49, 6.38377904891967773438e-01) (50, 6.60227715969085693359e-01) (51, 4.20240968465805053711e-01) (52, -2.07094311714172363281e-01) (53, -2.03441128134727478027e-01) (54, -2.52587825059890747070e-01) (55, 3.90432327985763549805e-01) (56, 3.40857863426208496094e-01) (57, 3.35900872945785522461e-01) (58, 5.66956281661987304688e-01) (59, 6.08108043670654296875e-01) (60, 6.82848811149597167969e-01) (61, 5.23697078227996826172e-01) (62, 5.67681491374969482422e-01) (63, 6.23338878154754638672e-01) (64, 5.52660763263702392578e-01) (65, -3.11580717563629150391e-01) (66, -2.20155552029609680176e-01) (67, -2.56204843521118164062e-01) (68, 3.67191553115844726562e-01) (69, 3.20505440235137939453e-01) (70, -7.05957040190696716309e-02) (71, 5.64780414104461669922e-01) (72, 4.88524794578552246094e-01) (73, 6.62706673145294189453e-01) (74, 6.51200115680694580078e-01) (75, 5.82698464393615722656e-01) (76, -1.52034595608711242676e-01) (77, 6.05492353439331054688e-01) (78, -2.96097368001937866211e-01) (79, -2.65266150236129760742e-01) (80, 4.41368550062179565430e-01) (81, 3.11465650796890258789e-01) (82, 5.66011853516101837158e-02) (83, 1.30439072847366333008e-01) (84, 1.36402621865272521973e-01) (85, 4.84120994806289672852e-01) (86, 7.18299984931945800781e-01) (87, 5.87786018848419189453e-01) (88, 7.21202611923217773438e-01) (89, -2.92503029108047485352e-01) (90, 7.02239215373992919922e-01) (91, -2.56661176681518554688e-01) (92, -3.18855345249176025391e-01) (93, 2.69172608852386474609e-01) (94, 2.66378700733184814453e-01) (95, 2.74103194475173950195e-01) (96, 1.87369212508201599121e-01) (97, 1.70897349715232849121e-01) (98, 6.73702478408813476562e-01) (99, 6.57028853893280029297e-01) (100, 6.91786229610443115234e-01) (101, 5.46648740768432617188e-01) (102, -4.05480384826660156250e-01) (103, -5.27098216116428375244e-02) (104, -2.47427195310592651367e-01) (105, 3.56582820415496826172e-01) (106, 2.16898709535598754883e-01) (107, 3.70857000350952148438e-01) (108, 2.17285066843032836914e-01) (109, 3.92911583185195922852e-01) (110, 2.75680154561996459961e-01) (111, 6.94213032722473144531e-01) (112, 6.43725574016571044922e-01) (113, 2.52234280109405517578e-01) (114, 2.63953000307083129883e-01) (115, -4.10266995429992675781e-01) (116, -2.18249052762985229492e-01) (117, -3.61842125654220581055e-01) (118, 2.39943087100982666016e-01) (119, 1.94677695631980895996e-01) (120, 6.38309657573699951172e-01) (121, 2.49571740627288818359e-01) (122, 4.11502748727798461914e-01) (123, 2.04447522759437561035e-01) (124, 2.55465865135192871094e-01) (125, 2.60607957839965820312e-01) (126, 2.85986959934234619141e-01) (127, 2.59812623262405395508e-01) (128, -2.02636331319808959961e-01) (129, -2.51608222723007202148e-01) (130, 1.70049145817756652832e-01) (131, 2.27124959230422973633e-01) (132, 2.88828939199447631836e-01) (133, 2.06990361213684082031e-01) (134, 5.79322993755340576172e-01) (135, 3.26099425554275512695e-01) (136, 3.54233354330062866211e-01) (137, 3.53326290845870971680e-01) (138, 3.23162436485290527344e-01) (139, 3.69848638772964477539e-01) (140, 3.10236364603042602539e-01) (141, 4.41135078668594360352e-01) (142, 4.26047593355178833008e-01) (143, 3.54465276002883911133e-01) (144, 3.53533178567886352539e-01) (145, 2.33785897493362426758e-01) (146, 2.66311347484588623047e-01) (147, 4.75111544132232666016e-01) (148, 4.00558680295944213867e-01) (149, 3.37679237127304077148e-01) (150, 2.65256136655807495117e-01) (151, 6.06295406818389892578e-01) (152, 6.36466920375823974609e-01) (153, 5.03117263317108154297e-01) (154, 3.83588582277297973633e-01) (155, 4.10636961460113525391e-01) (156, 2.47493028640747070312e-01) (157, 2.95198649168014526367e-01) (158, 2.53101885318756103516e-01) (159, 3.57407629489898681641e-01) (160, -3.32896113395690917969e-01) (161, -2.59027808904647827148e-01) (162, 2.77568042278289794922e-01) (163, 4.34147208929061889648e-01) (164, 6.27694845199584960938e-01) (165, 5.83343148231506347656e-01) (166, 5.82993090152740478516e-01) (167, 2.80828535556793212891e-01) (168, 3.80769819021224975586e-01) (169, 3.37190330028533935547e-01) (170, 2.33346372842788696289e-01) (171, 2.09787636995315551758e-01) (172, 3.21643054485321044922e-01) (173, 2.05075860023498535156e-01) (174, 2.05611959099769592285e-01) (175, 2.99139320850372314453e-01) (176, 5.99951684474945068359e-01) (177, 5.45343935489654541016e-01) (178, 5.67932724952697753906e-01) (179, 5.03702580928802490234e-01) (180, 5.93816041946411132812e-01) (181, 6.05840146541595458984e-01) (182, 5.79955875873565673828e-01) (183, 2.10193976759910583496e-01) (184, 2.99414575099945068359e-01) (185, 6.68963849544525146484e-01) (186, 1.87923431396484375000e-01) (187, 6.93858921527862548828e-01) (188, 6.72434329986572265625e-01) (189, 5.98133146762847900391e-01) (190, 6.54446363449096679688e-01) (191, 5.06317436695098876953e-01) (192, 6.49338185787200927734e-01) (193, 6.81323885917663574219e-01) (194, 5.41805624961853027344e-01) (195, 5.82682251930236816406e-01) (196, 2.30156838893890380859e-01) (197, 3.10836344957351684570e-01) (198, 3.11042815446853637695e-01) (199, 1.77571460604667663574e-01) (200, 4.19723004102706909180e-01) (201, 6.85615897178649902344e-01) (202, 5.24757087230682373047e-01) (203, 5.39405763149261474609e-01) (204, 4.62240904569625854492e-01) (205, 5.54458379745483398438e-01) (206, 6.58988833427429199219e-01) (207, 5.90002596378326416016e-01) (208, 6.04072332382202148438e-01) (209, -2.91676104068756103516e-01) (210, -2.53653794527053833008e-01) (211, 4.35240775346755981445e-01) (212, 4.43565756082534790039e-01) (213, 4.76576596498489379883e-01) (214, 1.99672549962997436523e-01) (215, 2.76441603899002075195e-01) (216, 6.56340181827545166016e-01) (217, 5.07653415203094482422e-01) (218, 6.00288987159729003906e-01) (219, 3.95377606153488159180e-01) (220, 3.76211285591125488281e-01) (221, 5.87189257144927978516e-01) (222, 4.37425255775451660156e-01) (223, 3.03654789924621582031e-01) (224, 3.03438782691955566406e-01) (225, 2.95595020055770874023e-01) (226, 3.74325126409530639648e-01) (227, 4.00176078081130981445e-01) (228, 3.43522131443023681641e-01) (229, 2.22391664981842041016e-01) (230, 2.75263577699661254883e-01) (231, 5.65394580364227294922e-01) (232, 2.84050494432449340820e-01) (233, 3.22370857000350952148e-01) (234, 6.38368248939514160156e-01) (235, 5.61360239982604980469e-01) (236, 5.06295561790466308594e-01) (237, 3.34663450717926025391e-01) (238, 3.81693065166473388672e-01) (239, 3.18515777587890625000e-01) (240, 4.00659978389739990234e-01) (241, 2.09156438708305358887e-01) (242, 2.28085204958915710449e-01) (243, 3.11055719852447509766e-01) (244, 1.91693976521492004395e-01) (245, 2.85045981407165527344e-01) (246, 2.89545983076095581055e-01) (247, -3.98788526654243469238e-02) (248, -1.45089194178581237793e-01) (249, 4.58363562822341918945e-01) (250, 4.37934637069702148438e-01) (251, 4.75475013256072998047e-01) (252, 2.58126854896545410156e-01) (253, 3.52682948112487792969e-01) (254, 1.93529188632965087891e-01) (255, 2.38107904791831970215e-01) (256, 3.16127121448516845703e-01) (257, 2.97180503606796264648e-01) (258, 3.77158820629119873047e-01) (259, 2.64301925897598266602e-01) (260, 3.52096945047378540039e-01) (0, 7.26225018501281738281e-01) (1, 8.50671112537384033203e-01) (2, 1.58436998724937438965e-01) (3, 1.36008009314537048340e-01) (4, 4.92042936384677886963e-02) (5, -5.51897510886192321777e-02) (6, 5.90838082134723663330e-02) (7, -7.89286047220230102539e-02) (8, -2.90996104478836059570e-01) (9, -2.24720224738121032715e-01) (10, -4.17446866631507873535e-02) (11, -1.95099096745252609253e-02) (12, -2.45863512158393859863e-01) (13, 2.58711036294698715210e-02) (14, -2.99349799752235412598e-02) (15, 8.01031813025474548340e-02) (16, 1.54647203162312507629e-02) (17, 8.91168862581253051758e-02) (18, 1.38214156031608581543e-01) (19, -2.45732888579368591309e-02) (20, 5.41348792612552642822e-02) (21, 9.88932847976684570312e-02) (22, -7.01514035463333129883e-02) (23, -8.10675844550132751465e-02) (24, 5.08909784257411956787e-02) (25, 3.36234495043754577637e-02) (26, 1.01283706724643707275e-01) (27, 6.18127472698688507080e-02) (28, -2.59011834859848022461e-02) (29, -4.27984446287155151367e-02) (30, -3.80958570167422294617e-03) (31, 2.73326262831687927246e-02) (32, -1.90270747989416122437e-02) (33, -9.10605490207672119141e-03) (34, -1.52884772978723049164e-03) (35, 3.17846611142158508301e-02) (36, -2.06443108618259429932e-02) (37, 2.85349041223526000977e-01) (38, 1.87397822737693786621e-01) (39, -4.08626021817326545715e-03) (40, -2.54760552197694778442e-02) (41, -8.87869521975517272949e-02) (42, -7.10987001657485961914e-02) (43, -8.02344083786010742188e-03) (44, 3.70262898504734039307e-02) (45, -1.90237425267696380615e-02) (46, -4.52648214995861053467e-02) (47, 1.16143792867660522461e-01) (48, -3.32684069871902465820e-02) (49, 1.41094610095024108887e-01) (50, 1.38821989297866821289e-01) (51, 4.62230518460273742676e-02) (52, 1.46355643868446350098e-01) (53, 2.72865127772092819214e-03) (54, 3.76766592264175415039e-01) (55, 1.58795163035392761230e-01) (56, 5.31065054237842559814e-02) (57, 3.26582677662372589111e-02) (58, 1.73758044838905334473e-01) (59, 1.29953458905220031738e-01) (60, 6.52036517858505249023e-02) (61, -4.82843555510044097900e-02) (62, 1.44930705428123474121e-01) (63, 1.04457110166549682617e-01) (64, 3.48720327019691467285e-02) (65, 5.43573535978794097900e-02) (66, 5.80054596066474914551e-02) (67, 1.74288675189018249512e-01) (68, -5.48898540437221527100e-02) (69, 1.24422580003738403320e-01) (70, 1.30189716815948486328e-01) (71, 1.17582485079765319824e-01) (72, 3.01933050155639648438e-01) (73, 1.38616740703582763672e-01) (74, 8.69311839342117309570e-02) (75, 2.50874627381563186646e-02) (76, 1.33855700492858886719e-01) (77, 2.00502187013626098633e-01) (78, 5.32364584505558013916e-02) (79, 9.13280178792774677277e-04) (80, 1.94373369216918945312e-01) (81, -7.72025883197784423828e-02) (82, 7.67346769571304321289e-02) (83, -5.63980937004089355469e-01) (84, 2.58699029684066772461e-01) (85, 1.46483391523361206055e-01) (86, 2.05716148018836975098e-01) (87, 6.58300444483757019043e-02) (88, 5.07251992821693420410e-02) (89, 3.96407842636108398438e-02) (90, -5.61164878308773040771e-03) (91, 9.91715397685766220093e-03) (92, 1.02657452225685119629e-01) (93, 1.00401163101196289062e-01) (94, 5.92289082705974578857e-02) (95, 9.39116850495338439941e-02) (96, 2.12212987244129180908e-02) (97, -3.02626974880695343018e-02) (98, 5.74561767280101776123e-03) (99, 6.36126697063446044922e-02) (100, 1.33845210075378417969e-01) (101, 1.39947026968002319336e-01) (102, 1.19870565831661224365e-01) (103, 1.34998649358749389648e-01) (104, 8.97090509533882141113e-02) (105, 1.13292865455150604248e-01) (106, 1.22530132532119750977e-01) (107, 5.89256249368190765381e-02) (108, 5.11788669973611831665e-03) (109, 4.03348281979560852051e-02) (110, 1.13964997231960296631e-01) (111, 1.32082760334014892578e-01) (112, 5.71094006299972534180e-02) (113, 1.73470657318830490112e-02) (114, -7.01951095834374427795e-03) (115, 5.62092512845993041992e-02) (116, 4.97702658176422119141e-02) (117, 1.45888850092887878418e-01) (118, 1.26774534583091735840e-01) (119, -8.51591825485229492188e-02) (120, -1.73619985580444335938e-02) (121, 5.45590221881866455078e-02) (122, -2.37229652702808380127e-02) (123, 1.32417470216751098633e-01) (124, 8.43517556786537170410e-02) (125, 1.19621559977531433105e-01) (126, -4.58371499553322792053e-03) (127, -7.44783505797386169434e-02) (128, -5.07239662110805511475e-02) (129, 7.74205327033996582031e-02) (130, 2.09873631596565246582e-01) (131, 2.51530557870864868164e-01) (132, 6.12516179680824279785e-02) (133, 3.38719114661216735840e-02) (134, 1.05691879987716674805e-01) (135, 6.28342851996421813965e-02) (136, 1.30590856075286865234e-01) (137, -1.42154218629002571106e-02) (138, 2.34564747661352157593e-02) (139, -7.10316002368927001953e-02) (140, 2.55698896944522857666e-02) (141, -2.05095373094081878662e-02) (142, -2.28457927703857421875e-01) (143, 8.78224670886993408203e-02) (144, -8.54490976780652999878e-03) (145, 3.05587309412658214569e-03) (146, 8.18140953779220581055e-02) (147, -3.54866385459899902344e-02) (148, -2.88963317871093750000e-02) (149, 1.45684495568275451660e-01) (150, -2.65121031552553176880e-02) (151, 5.20533137023448944092e-02) (152, 5.92784956097602844238e-02) (153, -2.91221123188734054565e-02) (154, 1.72071859240531921387e-01) (155, -2.11149275302886962891e-01) (156, -6.87000304460525512695e-02) (157, 1.01299971342086791992e-01) (158, -2.40069746971130371094e-01) (159, -1.51749253273010253906e-01) (160, 1.30591586232185363770e-01) (161, 1.04541532695293426514e-01) (162, 1.92194923758506774902e-01) (163, 5.88030666112899780273e-02) (164, 1.04870218783617019653e-02) (165, 1.09856396913528442383e-01) (166, -8.18855464458465576172e-02) (167, -8.16472768783569335938e-02) (168, 8.06985944509506225586e-02) (169, 5.04646785557270050049e-02) (170, -4.61365543305873870850e-02) (171, -3.86613421142101287842e-02) (172, 1.24682681635022163391e-02) (173, 2.31031879782676696777e-01) (174, 1.02820269763469696045e-01) (175, 1.45742610096931457520e-01) (176, 2.33640700578689575195e-01) (177, -1.76319610327482223511e-02) (178, -7.35368533059954643250e-03) (179, 7.77926445007324218750e-02) (180, -6.93306550383567810059e-02) (181, -2.34383288770914077759e-02) (182, -2.55838455632328987122e-03) (183, 8.37207362055778503418e-02) (184, 5.89700648561120033264e-03) (185, 5.34899085760116577148e-02) (186, 1.84636533260345458984e-01) (187, 2.31195703148841857910e-01) (188, 2.08133205771446228027e-01) (189, 6.85636937618255615234e-01) (190, 1.17358587682247161865e-01) (191, 5.02187944948673248291e-03) (192, 7.76289254426956176758e-02) (193, 1.11869163811206817627e-01) (194, 1.30909517407417297363e-01) (195, 1.16390481591224670410e-01) (196, 6.86382278800010681152e-02) (197, -1.05160333216190338135e-01) (198, 1.07816793024539947510e-01) (199, 1.06795981526374816895e-01) (200, 1.97408869862556457520e-01) (201, 1.99788838624954223633e-01) (202, 8.95832180976867675781e-01) (203, -2.08871047943830490112e-02) (204, 3.81325511261820793152e-03) (205, -2.29520606808364391327e-04) (206, 1.40692712739109992981e-02) (207, 1.15343675017356872559e-01) (208, 3.41515988111495971680e-02) (209, -1.96064516901969909668e-01) (210, -1.60458341240882873535e-01) (211, -3.62471789121627807617e-01) (212, 7.19637870788574218750e-02) (213, 6.81690275669097900391e-02) (214, -1.44620342180132865906e-02) (215, 1.07288017868995666504e-01) (216, -1.59116368740797042847e-02) (217, 6.49197697639465332031e-02) (218, -6.33219778537750244141e-02) (219, 5.02107851207256317139e-02) (220, 9.35646519064903259277e-02) (221, 1.57586559653282165527e-01) (222, -4.36807423830032348633e-02) (223, -3.32104004919528961182e-02) (224, 5.04781194031238555908e-02) (225, 9.27091911435127258301e-02) (226, -3.52052226662635803223e-02) (227, 7.13060237467288970947e-03) (228, 1.40943393111228942871e-01) (229, 1.20319269597530364990e-01) (230, 1.02761402726173400879e-01) (231, 5.58020174503326416016e-02) (232, 1.19019664824008941650e-01) (233, 6.60207718610763549805e-02) (234, 1.27770066261291503906e-01) (235, -2.97546051442623138428e-02) (236, 1.12809754908084869385e-01) (237, 1.42484724521636962891e-01) (238, 1.41561254858970642090e-01) (239, -1.83601975440979003906e-02) (240, 4.50634397566318511963e-02) (241, 3.79490107297897338867e-02) (242, 7.40923210978507995605e-02) (243, 1.48646021261811256409e-02) (244, -3.69663275778293609619e-02) (245, 8.29624235630035400391e-02) (246, 1.02617174386978149414e-01) (247, 8.15218780189752578735e-03) (248, 6.17322102189064025879e-02) (249, 1.50857836008071899414e-01) (250, 1.34587600827217102051e-01) (251, -1.96722447872161865234e-02) (252, 7.86623656749725341797e-02) (253, 1.49206176400184631348e-01) (254, 4.88402247428894042969e-02) (255, 7.77362808585166931152e-02) (256, 1.28819555044174194336e-01) (257, 1.45520746707916259766e-01) (258, 2.28014722466468811035e-01) (259, 1.37462049722671508789e-01) (260, 1.55543899163603782654e-02) (0, -1.33821070194244384766e-02) (1, -5.49626290798187255859e-01) (2, -5.75708091259002685547e-01) (3, -6.20617747306823730469e-01) (4, 2.79452446848154067993e-02) (5, 1.70550733804702758789e-01) (6, 3.36649298667907714844e-01) (7, 3.25550049543380737305e-01) (8, 2.25963488221168518066e-01) (9, 1.57958045601844787598e-01) (10, 1.08148097991943359375e-01) (11, 3.94471138715744018555e-01) (12, 1.48078727722167968750e+00) (13, 2.72610753774642944336e-01) (14, -7.11642265319824218750e-01) (15, 6.48843273520469665527e-02) (16, 8.32676440477371215820e-02) (17, 2.16550976037979125977e-01) (18, 1.93004414439201354980e-01) (19, 1.06698945164680480957e-01) (20, 1.51663005352020263672e-01) (21, 3.09434205293655395508e-01) (22, 2.86168903112411499023e-02) (23, 1.33947491645812988281e-01) (24, 2.53925025463104248047e-01) (25, 1.14506411552429199219e+00) (26, 1.64565533399581909180e-01) (27, 1.42047271132469177246e-01) (28, 9.06979143619537353516e-02) (29, 9.79843139648437500000e-02) (30, 3.18721905350685119629e-02) (31, 6.33794963359832763672e-02) (32, 2.12179273366928100586e-01) (33, 1.16381049156188964844e-01) (34, 2.52827972173690795898e-01) (35, 3.16770702600479125977e-01) (36, 2.56770312786102294922e-01) (37, -1.12427450716495513916e-01) (38, 7.61232599616050720215e-02) (39, 1.21056921780109405518e-01) (40, 2.12887004017829895020e-01) (41, -1.96722894906997680664e-02) (42, 4.29830588400363922119e-02) (43, 3.33316177129745483398e-02) (44, 2.75658637285232543945e-01) (45, 2.36407414078712463379e-01) (46, 2.31236428022384643555e-01) (47, 1.64000481367111206055e-01) (48, 2.39057186990976333618e-02) (49, 9.24958139657974243164e-02) (50, -6.54494404792785644531e-01) (51, 2.10821971297264099121e-01) (52, 6.45149707794189453125e-01) (53, 2.78481155633926391602e-01) (54, 1.17779791355133056641e-01) (55, 1.92732557654380798340e-01) (56, 2.60348230600357055664e-01) (57, 3.12589436769485473633e-01) (58, 1.12279519438743591309e-01) (59, 1.63663640618324279785e-01) (60, -1.01981759071350097656e-02) (61, 1.05720721185207366943e-01) (62, 5.90283572673797607422e-02) (63, 1.02638438344001770020e-01) (64, -8.45854431390762329102e-02) (65, 5.91823816299438476562e-01) (66, 1.08128435909748077393e-01) (67, 1.63046687841415405273e-01) (68, 1.69332414865493774414e-01) (69, 3.00655037164688110352e-01) (70, 5.06882183253765106201e-02) (71, 1.70104622840881347656e-01) (72, -3.89006398618221282959e-02) (73, 1.87324583530426025391e-02) (74, 7.78245851397514343262e-02) (75, 7.05312117934226989746e-02) (76, -1.36598071549087762833e-03) (77, -1.05730816721916198730e-01) (78, 1.07226634025573730469e+00) (79, 1.49600818753242492676e-01) (80, 1.84068098664283752441e-01) (81, 3.06838154792785644531e-01) (82, -1.28697380423545837402e-01) (83, -1.89972686767578125000e+00) (84, 1.53463616967201232910e-01) (85, 3.71006899513304233551e-03) (86, 1.46645233035087585449e-01) (87, 9.61311906576156616211e-02) (88, 8.53249281644821166992e-02) (89, 1.42410993576049804688e-01) (90, 6.43267259001731872559e-02) (91, 2.90528357028961181641e-01) (92, 1.76575079560279846191e-01) (93, 1.77489534020423889160e-01) (94, 2.93031632900238037109e-01) (95, 