FANN_FLO_2.1
num_layers=5
learning_rate=0.700000
connection_rate=1.000000
network_type=0
learning_momentum=0.000000
training_algorithm=2
train_error_function=1
train_stop_function=0
cascade_output_change_fraction=0.010000
quickprop_decay=-0.000100
quickprop_mu=1.750000
rprop_increase_factor=1.200000
rprop_decrease_factor=0.500000
rprop_delta_min=0.000000
rprop_delta_max=50.000000
rprop_delta_zero=0.100000
cascade_output_stagnation_epochs=12
cascade_candidate_change_fraction=0.010000
cascade_candidate_stagnation_epochs=12
cascade_max_out_epochs=150
cascade_min_out_epochs=50
cascade_max_cand_epochs=150
cascade_min_cand_epochs=50
cascade_num_candidate_groups=2
bit_fail_limit=3.49999994039535522461e-01
cascade_candidate_limit=1.00000000000000000000e+03
cascade_weight_multiplier=4.00000005960464477539e-01
cascade_activation_functions_count=10
cascade_activation_functions=3 5 7 8 10 11 14 15 16 17 
cascade_activation_steepnesses_count=4
cascade_activation_steepnesses=2.50000000000000000000e-01 5.00000000000000000000e-01 7.50000000000000000000e-01 1.00000000000000000000e+00 
layer_sizes=261 101 101 101 11 
scale_included=0
neurons (num_inputs, activation_function, activation_steepness)=(0, 0, 0.00000000000000000000e+00) (0, 0, 0.00000000000000000000e+00) (0, 0, 0.00000000000000000000e+00) (0, 0, 0.00000000000000000000e+00) (0, 0, 0.00000000000000000000e+00) (0, 0, 0.00000000000000000000e+00) (0, 0, 0.00000000000000000000e+00) (0, 0, 0.00000000000000000000e+00) (0, 0, 0.00000000000000000000e+00) (0, 0, 0.00000000000000000000e+00) (0, 0, 0.00000000000000000000e+00) (0, 0, 0.00000000000000000000e+00) (0, 0, 0.00000000000000000000e+00) (0, 0, 0.00000000000000000000e+00) (0, 0, 0.00000000000000000000e+00) (0, 0, 0.00000000000000000000e+00) (0, 0, 0.00000000000000000000e+00) (0, 0, 0.00000000000000000000e+00) (0, 0, 0.00000000000000000000e+00) (0, 0, 0.00000000000000000000e+00) (0, 0, 0.00000000000000000000e+00) (0, 0, 0.00000000000000000000e+00) (0, 0, 0.00000000000000000000e+00) (0, 0, 0.00000000000000000000e+00) (0, 0, 0.00000000000000000000e+00) (0, 0, 0.00000000000000000000e+00) (0, 0, 0.00000000000000000000e+00) (0, 0, 0.00000000000000000000e+00) (0, 0, 0.00000000000000000000e+00) (0, 0, 0.00000000000000000000e+00) (0, 0, 0.00000000000000000000e+00) (0, 0, 0.00000000000000000000e+00) (0, 0, 0.00000000000000000000e+00) (0, 0, 0.00000000000000000000e+00) (0, 0, 0.00000000000000000000e+00) (0, 0, 0.00000000000000000000e+00) (0, 0, 0.00000000000000000000e+00) (0, 0, 0.00000000000000000000e+00) (0, 0, 0.00000000000000000000e+00) (0, 0, 0.00000000000000000000e+00) (0, 0, 0.00000000000000000000e+00) (0, 0, 0.00000000000000000000e+00) (0, 0, 0.00000000000000000000e+00) (0, 0, 0.00000000000000000000e+00) (0, 0, 0.00000000000000000000e+00) (0, 0, 0.00000000000000000000e+00) (0, 0, 0.00000000000000000000e+00) (0, 0, 0.00000000000000000000e+00) (0, 0, 0.00000000000000000000e+00) (0, 0, 0.00000000000000000000e+00) (0, 0, 0.00000000000000000000e+00) (0, 0, 0.00000000000000000000e+00) (0, 0, 0.00000000000000000000e+00) (0, 0, 0.00000000000000000000e+00) (0, 0, 0.00000000000000000000e+00) (0, 0, 0.00000000000000000000e+00) (0, 0, 0.00000000000000000000e+00) (0, 0, 0.00000000000000000000e+00) (0, 0, 0.00000000000000000000e+00) (0, 0, 0.00000000000000000000e+00) (0, 0, 0.00000000000000000000e+00) (0, 0, 0.00000000000000000000e+00) (0, 0, 0.00000000000000000000e+00) (0, 0, 0.00000000000000000000e+00) (0, 0, 0.00000000000000000000e+00) (0, 0, 0.00000000000000000000e+00) (0, 0, 0.00000000000000000000e+00) (0, 0, 0.00000000000000000000e+00) (0, 0, 0.00000000000000000000e+00) (0, 0, 0.00000000000000000000e+00) (0, 0, 0.00000000000000000000e+00) (0, 0, 0.00000000000000000000e+00) (0, 0, 0.00000000000000000000e+00) (0, 0, 0.00000000000000000000e+00) (0, 0, 0.00000000000000000000e+00) (0, 0, 0.00000000000000000000e+00) (0, 0, 0.00000000000000000000e+00) (0, 0, 0.00000000000000000000e+00) (0, 0, 0.00000000000000000000e+00) (0, 0, 0.00000000000000000000e+00) (0, 0, 0.00000000000000000000e+00) (0, 0, 0.00000000000000000000e+00) (0, 0, 0.00000000000000000000e+00) (0, 0, 0.00000000000000000000e+00) (0, 0, 0.00000000000000000000e+00) (0, 0, 0.00000000000000000000e+00) (0, 0, 0.00000000000000000000e+00) (0, 0, 0.00000000000000000000e+00) (0, 0, 0.00000000000000000000e+00) (0, 0, 0.00000000000000000000e+00) (0, 0, 0.00000000000000000000e+00) (0, 0, 0.00000000000000000000e+00) (0, 0, 0.00000000000000000000e+00) (0, 0, 0.00000000000000000000e+00) (0, 0, 0.00000000000000000000e+00) (0, 0, 0.00000000000000000000e+00) (0, 0, 0.00000000000000000000e+00) (0, 0, 0.00000000000000000000e+00) (0, 0, 0.00000000000000000000e+00) (0, 0, 0.00000000000000000000e+00) (0, 0, 0.00000000000000000000e+00) (0, 0, 0.00000000000000000000e+00) (0, 0, 0.00000000000000000000e+00) (0, 0, 0.00000000000000000000e+00) (0, 0, 0.00000000000000000000e+00) (0, 0, 0.00000000000000000000e+00) (0, 0, 0.00000000000000000000e+00) (0, 0, 0.00000000000000000000e+00) (0, 0, 0.00000000000000000000e+00) (0, 0, 0.00000000000000000000e+00) (0, 0, 0.00000000000000000000e+00) (0, 0, 0.00000000000000000000e+00) (0, 0, 0.00000000000000000000e+00) (0, 0, 0.00000000000000000000e+00) (0, 0, 0.00000000000000000000e+00) (0, 0, 0.00000000000000000000e+00) (0, 0, 0.00000000000000000000e+00) (0, 0, 0.00000000000000000000e+00) (0, 0, 0.00000000000000000000e+00) (0, 0, 0.00000000000000000000e+00) (0, 0, 0.00000000000000000000e+00) (0, 0, 0.00000000000000000000e+00) (0, 0, 0.00000000000000000000e+00) (0, 0, 0.00000000000000000000e+00) (0, 0, 0.00000000000000000000e+00) (0, 0, 0.00000000000000000000e+00) (0, 0, 0.00000000000000000000e+00) (0, 0, 0.00000000000000000000e+00) (0, 0, 0.00000000000000000000e+00) (0, 0, 0.00000000000000000000e+00) (0, 0, 0.00000000000000000000e+00) (0, 0, 0.00000000000000000000e+00) (0, 0, 0.00000000000000000000e+00) (0, 0, 0.00000000000000000000e+00) (0, 0, 0.00000000000000000000e+00) (0, 0, 0.00000000000000000000e+00) (0, 0, 0.00000000000000000000e+00) (0, 0, 0.00000000000000000000e+00) (0, 0, 0.00000000000000000000e+00) (0, 0, 0.00000000000000000000e+00) (0, 0, 0.00000000000000000000e+00) (0, 0, 0.00000000000000000000e+00) (0, 0, 0.00000000000000000000e+00) (0, 0, 0.00000000000000000000e+00) (0, 0, 0.00000000000000000000e+00) (0, 0, 0.00000000000000000000e+00) (0, 0, 0.00000000000000000000e+00) (0, 0, 0.00000000000000000000e+00) (0, 0, 0.00000000000000000000e+00) (0, 0, 0.00000000000000000000e+00) (0, 0, 0.00000000000000000000e+00) (0, 0, 0.00000000000000000000e+00) (0, 0, 0.00000000000000000000e+00) (0, 0, 0.00000000000000000000e+00) (0, 0, 0.00000000000000000000e+00) (0, 0, 0.00000000000000000000e+00) (0, 0, 0.00000000000000000000e+00) (0, 0, 0.00000000000000000000e+00) (0, 0, 0.00000000000000000000e+00) (0, 0, 0.00000000000000000000e+00) (0, 0, 0.00000000000000000000e+00) (0, 0, 0.00000000000000000000e+00) (0, 0, 0.00000000000000000000e+00) (0, 0, 0.00000000000000000000e+00) (0, 0, 0.00000000000000000000e+00) (0, 0, 0.00000000000000000000e+00) (0, 0, 0.00000000000000000000e+00) (0, 0, 0.00000000000000000000e+00) (0, 0, 0.00000000000000000000e+00) (0, 0, 0.00000000000000000000e+00) (0, 0, 0.00000000000000000000e+00) (0, 0, 0.00000000000000000000e+00) (0, 0, 0.00000000000000000000e+00) (0, 0, 0.00000000000000000000e+00) (0, 0, 0.00000000000000000000e+00) (0, 0, 0.00000000000000000000e+00) (0, 0, 0.00000000000000000000e+00) (0, 0, 0.00000000000000000000e+00) (0, 0, 0.00000000000000000000e+00) (0, 0, 0.00000000000000000000e+00) (0, 0, 0.00000000000000000000e+00) (0, 0, 0.00000000000000000000e+00) (0, 0, 0.00000000000000000000e+00) (0, 0, 0.00000000000000000000e+00) (0, 0, 0.00000000000000000000e+00) (0, 0, 0.00000000000000000000e+00) (0, 0, 0.00000000000000000000e+00) (0, 0, 0.00000000000000000000e+00) (0, 0, 0.00000000000000000000e+00) (0, 0, 0.00000000000000000000e+00) (0, 0, 0.00000000000000000000e+00) (0, 0, 0.00000000000000000000e+00) (0, 0, 0.00000000000000000000e+00) (0, 0, 0.00000000000000000000e+00) (0, 0, 0.00000000000000000000e+00) (0, 0, 0.00000000000000000000e+00) (0, 0, 0.00000000000000000000e+00) (0, 0, 0.00000000000000000000e+00) (0, 0, 0.00000000000000000000e+00) (0, 0, 0.00000000000000000000e+00) (0, 0, 0.00000000000000000000e+00) (0, 0, 0.00000000000000000000e+00) (0, 0, 0.00000000000000000000e+00) (0, 0, 0.00000000000000000000e+00) (0, 0, 0.00000000000000000000e+00) (0, 0, 0.00000000000000000000e+00) (0, 0, 0.00000000000000000000e+00) (0, 0, 0.00000000000000000000e+00) (0, 0, 0.00000000000000000000e+00) (0, 0, 0.00000000000000000000e+00) (0, 0, 0.00000000000000000000e+00) (0, 0, 0.00000000000000000000e+00) (0, 0, 0.00000000000000000000e+00) (0, 0, 0.00000000000000000000e+00) (0, 0, 0.00000000000000000000e+00) (0, 0, 0.00000000000000000000e+00) (0, 0, 0.00000000000000000000e+00) (0, 0, 0.00000000000000000000e+00) (0, 0, 0.00000000000000000000e+00) (0, 0, 0.00000000000000000000e+00) (0, 0, 0.00000000000000000000e+00) (0, 0, 0.00000000000000000000e+00) (0, 0, 0.00000000000000000000e+00) (0, 0, 0.00000000000000000000e+00) (0, 0, 0.00000000000000000000e+00) (0, 0, 0.00000000000000000000e+00) (0, 0, 0.00000000000000000000e+00) (0, 0, 0.00000000000000000000e+00) (0, 0, 0.00000000000000000000e+00) (0, 0, 0.00000000000000000000e+00) (0, 0, 0.00000000000000000000e+00) (0, 0, 0.00000000000000000000e+00) (0, 0, 0.00000000000000000000e+00) (0, 0, 0.00000000000000000000e+00) (0, 0, 0.00000000000000000000e+00) (0, 0, 0.00000000000000000000e+00) (0, 0, 0.00000000000000000000e+00) (0, 0, 0.00000000000000000000e+00) (0, 0, 0.00000000000000000000e+00) (0, 0, 0.00000000000000000000e+00) (0, 0, 0.00000000000000000000e+00) (0, 0, 0.00000000000000000000e+00) (0, 0, 0.00000000000000000000e+00) (0, 0, 0.00000000000000000000e+00) (0, 0, 0.00000000000000000000e+00) (0, 0, 0.00000000000000000000e+00) (0, 0, 0.00000000000000000000e+00) (0, 0, 0.00000000000000000000e+00) (0, 0, 0.00000000000000000000e+00) (0, 0, 0.00000000000000000000e+00) (0, 0, 0.00000000000000000000e+00) (0, 0, 0.00000000000000000000e+00) (0, 0, 0.00000000000000000000e+00) (0, 0, 0.00000000000000000000e+00) (0, 0, 0.00000000000000000000e+00) (0, 0, 0.00000000000000000000e+00) (0, 0, 0.00000000000000000000e+00) (0, 0, 0.00000000000000000000e+00) (0, 0, 0.00000000000000000000e+00) (0, 0, 0.00000000000000000000e+00) (0, 0, 0.00000000000000000000e+00) (261, 5, 5.00000000000000000000e-01) (261, 5, 5.00000000000000000000e-01) (261, 5, 5.00000000000000000000e-01) (261, 5, 5.00000000000000000000e-01) (261, 5, 5.00000000000000000000e-01) (261, 5, 5.00000000000000000000e-01) (261, 5, 5.00000000000000000000e-01) (261, 5, 5.00000000000000000000e-01) (261, 5, 5.00000000000000000000e-01) (261, 5, 5.00000000000000000000e-01) (261, 5, 5.00000000000000000000e-01) (261, 5, 5.00000000000000000000e-01) (261, 5, 5.00000000000000000000e-01) (261, 5, 5.00000000000000000000e-01) (261, 5, 5.00000000000000000000e-01) (261, 5, 5.00000000000000000000e-01) (261, 5, 5.00000000000000000000e-01) (261, 5, 5.00000000000000000000e-01) (261, 5, 5.00000000000000000000e-01) (261, 5, 5.00000000000000000000e-01) (261, 5, 5.00000000000000000000e-01) (261, 5, 5.00000000000000000000e-01) (261, 5, 5.00000000000000000000e-01) (261, 5, 5.00000000000000000000e-01) (261, 5, 5.00000000000000000000e-01) (261, 5, 5.00000000000000000000e-01) (261, 5, 5.00000000000000000000e-01) (261, 5, 5.00000000000000000000e-01) (261, 5, 5.00000000000000000000e-01) (261, 5, 5.00000000000000000000e-01) (261, 5, 5.00000000000000000000e-01) (261, 5, 5.00000000000000000000e-01) (261, 5, 5.00000000000000000000e-01) (261, 5, 5.00000000000000000000e-01) (261, 5, 5.00000000000000000000e-01) (261, 5, 5.00000000000000000000e-01) (261, 5, 5.00000000000000000000e-01) (261, 5, 5.00000000000000000000e-01) (261, 5, 5.00000000000000000000e-01) (261, 5, 5.00000000000000000000e-01) (261, 5, 5.00000000000000000000e-01) (261, 5, 5.00000000000000000000e-01) (261, 5, 5.00000000000000000000e-01) (261, 5, 5.00000000000000000000e-01) (261, 5, 5.00000000000000000000e-01) (261, 5, 5.00000000000000000000e-01) (261, 5, 5.00000000000000000000e-01) (261, 5, 5.00000000000000000000e-01) (261, 5, 5.00000000000000000000e-01) (261, 5, 5.00000000000000000000e-01) (261, 5, 5.00000000000000000000e-01) (261, 5, 5.00000000000000000000e-01) (261, 5, 5.00000000000000000000e-01) (261, 5, 5.00000000000000000000e-01) (261, 5, 5.00000000000000000000e-01) (261, 5, 5.00000000000000000000e-01) (261, 5, 5.00000000000000000000e-01) (261, 5, 5.00000000000000000000e-01) (261, 5, 5.00000000000000000000e-01) (261, 5, 5.00000000000000000000e-01) (261, 5, 5.00000000000000000000e-01) (261, 5, 5.00000000000000000000e-01) (261, 5, 5.00000000000000000000e-01) (261, 5, 5.00000000000000000000e-01) (261, 5, 5.00000000000000000000e-01) (261, 5, 5.00000000000000000000e-01) (261, 5, 5.00000000000000000000e-01) (261, 5, 5.00000000000000000000e-01) (261, 5, 5.00000000000000000000e-01) (261, 5, 5.00000000000000000000e-01) (261, 5, 5.00000000000000000000e-01) (261, 5, 5.00000000000000000000e-01) (261, 5, 5.00000000000000000000e-01) (261, 5, 5.00000000000000000000e-01) (261, 5, 5.00000000000000000000e-01) (261, 5, 5.00000000000000000000e-01) (261, 5, 5.00000000000000000000e-01) (261, 5, 5.00000000000000000000e-01) (261, 5, 5.00000000000000000000e-01) (261, 5, 5.00000000000000000000e-01) (261, 5, 5.00000000000000000000e-01) (261, 5, 5.00000000000000000000e-01) (261, 5, 5.00000000000000000000e-01) (261, 5, 5.00000000000000000000e-01) (261, 5, 5.00000000000000000000e-01) (261, 5, 5.00000000000000000000e-01) (261, 5, 5.00000000000000000000e-01) (261, 5, 5.00000000000000000000e-01) (261, 5, 5.00000000000000000000e-01) (261, 5, 5.00000000000000000000e-01) (261, 5, 5.00000000000000000000e-01) (261, 5, 5.00000000000000000000e-01) (261, 5, 5.00000000000000000000e-01) (261, 5, 5.00000000000000000000e-01) (261, 5, 5.00000000000000000000e-01) (261, 5, 5.00000000000000000000e-01) (261, 5, 5.00000000000000000000e-01) (261, 5, 5.00000000000000000000e-01) (261, 5, 5.00000000000000000000e-01) (261, 5, 5.00000000000000000000e-01) (0, 5, 0.00000000000000000000e+00) (101, 5, 5.00000000000000000000e-01) (101, 5, 5.00000000000000000000e-01) (101, 5, 5.00000000000000000000e-01) (101, 5, 5.00000000000000000000e-01) (101, 5, 5.00000000000000000000e-01) (101, 5, 5.00000000000000000000e-01) (101, 5, 5.00000000000000000000e-01) (101, 5, 5.00000000000000000000e-01) (101, 5, 5.00000000000000000000e-01) (101, 5, 5.00000000000000000000e-01) (101, 5, 5.00000000000000000000e-01) (101, 5, 5.00000000000000000000e-01) (101, 5, 5.00000000000000000000e-01) (101, 5, 5.00000000000000000000e-01) (101, 5, 5.00000000000000000000e-01) (101, 5, 5.00000000000000000000e-01) (101, 5, 5.00000000000000000000e-01) (101, 5, 5.00000000000000000000e-01) (101, 5, 5.00000000000000000000e-01) (101, 5, 5.00000000000000000000e-01) (101, 5, 5.00000000000000000000e-01) (101, 5, 5.00000000000000000000e-01) (101, 5, 5.00000000000000000000e-01) (101, 5, 5.00000000000000000000e-01) (101, 5, 5.00000000000000000000e-01) (101, 5, 5.00000000000000000000e-01) (101, 5, 5.00000000000000000000e-01) (101, 5, 5.00000000000000000000e-01) (101, 5, 5.00000000000000000000e-01) (101, 5, 5.00000000000000000000e-01) (101, 5, 5.00000000000000000000e-01) (101, 5, 5.00000000000000000000e-01) (101, 5, 5.00000000000000000000e-01) (101, 5, 5.00000000000000000000e-01) (101, 5, 5.00000000000000000000e-01) (101, 5, 5.00000000000000000000e-01) (101, 5, 5.00000000000000000000e-01) (101, 5, 5.00000000000000000000e-01) (101, 5, 5.00000000000000000000e-01) (101, 5, 5.00000000000000000000e-01) (101, 5, 5.00000000000000000000e-01) (101, 5, 5.00000000000000000000e-01) (101, 5, 5.00000000000000000000e-01) (101, 5, 5.00000000000000000000e-01) (101, 5, 5.00000000000000000000e-01) (101, 5, 5.00000000000000000000e-01) (101, 5, 5.00000000000000000000e-01) (101, 5, 5.00000000000000000000e-01) (101, 5, 5.00000000000000000000e-01) (101, 5, 5.00000000000000000000e-01) (101, 5, 5.00000000000000000000e-01) (101, 5, 5.00000000000000000000e-01) (101, 5, 5.00000000000000000000e-01) (101, 5, 5.00000000000000000000e-01) (101, 5, 5.00000000000000000000e-01) (101, 5, 5.00000000000000000000e-01) (101, 5, 5.00000000000000000000e-01) (101, 5, 5.00000000000000000000e-01) (101, 5, 5.00000000000000000000e-01) (101, 5, 5.00000000000000000000e-01) (101, 5, 5.00000000000000000000e-01) (101, 5, 5.00000000000000000000e-01) (101, 5, 5.00000000000000000000e-01) (101, 5, 5.00000000000000000000e-01) (101, 5, 5.00000000000000000000e-01) (101, 5, 5.00000000000000000000e-01) (101, 5, 5.00000000000000000000e-01) (101, 5, 5.00000000000000000000e-01) (101, 5, 5.00000000000000000000e-01) (101, 5, 5.00000000000000000000e-01) (101, 5, 5.00000000000000000000e-01) (101, 5, 5.00000000000000000000e-01) (101, 5, 5.00000000000000000000e-01) (101, 5, 5.00000000000000000000e-01) (101, 5, 5.00000000000000000000e-01) (101, 5, 5.00000000000000000000e-01) (101, 5, 5.00000000000000000000e-01) (101, 5, 5.00000000000000000000e-01) (101, 5, 5.00000000000000000000e-01) (101, 5, 5.00000000000000000000e-01) (101, 5, 5.00000000000000000000e-01) (101, 5, 5.00000000000000000000e-01) (101, 5, 5.00000000000000000000e-01) (101, 5, 5.00000000000000000000e-01) (101, 5, 5.00000000000000000000e-01) (101, 5, 5.00000000000000000000e-01) (101, 5, 5.00000000000000000000e-01) (101, 5, 5.00000000000000000000e-01) (101, 5, 5.00000000000000000000e-01) (101, 5, 5.00000000000000000000e-01) (101, 5, 5.00000000000000000000e-01) (101, 5, 5.00000000000000000000e-01) (101, 5, 5.00000000000000000000e-01) (101, 5, 5.00000000000000000000e-01) (101, 5, 5.00000000000000000000e-01) (101, 5, 5.00000000000000000000e-01) (101, 5, 5.00000000000000000000e-01) (101, 5, 5.00000000000000000000e-01) (101, 5, 5.00000000000000000000e-01) (101, 5, 5.00000000000000000000e-01) (0, 5, 0.00000000000000000000e+00) (101, 5, 5.00000000000000000000e-01) (101, 5, 5.00000000000000000000e-01) (101, 5, 5.00000000000000000000e-01) (101, 5, 5.00000000000000000000e-01) (101, 5, 5.00000000000000000000e-01) (101, 5, 5.00000000000000000000e-01) (101, 5, 5.00000000000000000000e-01) (101, 5, 5.00000000000000000000e-01) (101, 5, 5.00000000000000000000e-01) (101, 5, 5.00000000000000000000e-01) (101, 5, 5.00000000000000000000e-01) (101, 5, 5.00000000000000000000e-01) (101, 5, 5.00000000000000000000e-01) (101, 5, 5.00000000000000000000e-01) (101, 5, 5.00000000000000000000e-01) (101, 5, 5.00000000000000000000e-01) (101, 5, 5.00000000000000000000e-01) (101, 5, 5.00000000000000000000e-01) (101, 5, 5.00000000000000000000e-01) (101, 5, 5.00000000000000000000e-01) (101, 5, 5.00000000000000000000e-01) (101, 5, 5.00000000000000000000e-01) (101, 5, 5.00000000000000000000e-01) (101, 5, 5.00000000000000000000e-01) (101, 5, 5.00000000000000000000e-01) (101, 5, 5.00000000000000000000e-01) (101, 5, 5.00000000000000000000e-01) (101, 5, 5.00000000000000000000e-01) (101, 5, 5.00000000000000000000e-01) (101, 5, 5.00000000000000000000e-01) (101, 5, 5.00000000000000000000e-01) (101, 5, 5.00000000000000000000e-01) (101, 5, 5.00000000000000000000e-01) (101, 5, 5.00000000000000000000e-01) (101, 5, 5.00000000000000000000e-01) (101, 5, 5.00000000000000000000e-01) (101, 5, 5.00000000000000000000e-01) (101, 5, 5.00000000000000000000e-01) (101, 5, 5.00000000000000000000e-01) (101, 5, 5.00000000000000000000e-01) (101, 5, 5.00000000000000000000e-01) (101, 5, 5.00000000000000000000e-01) (101, 5, 5.00000000000000000000e-01) (101, 5, 5.00000000000000000000e-01) (101, 5, 5.00000000000000000000e-01) (101, 5, 5.00000000000000000000e-01) (101, 5, 5.00000000000000000000e-01) (101, 5, 5.00000000000000000000e-01) (101, 5, 5.00000000000000000000e-01) (101, 5, 5.00000000000000000000e-01) (101, 5, 5.00000000000000000000e-01) (101, 5, 5.00000000000000000000e-01) (101, 5, 5.00000000000000000000e-01) (101, 5, 5.00000000000000000000e-01) (101, 5, 5.00000000000000000000e-01) (101, 5, 5.00000000000000000000e-01) (101, 5, 5.00000000000000000000e-01) (101, 5, 5.00000000000000000000e-01) (101, 5, 5.00000000000000000000e-01) (101, 5, 5.00000000000000000000e-01) (101, 5, 5.00000000000000000000e-01) (101, 5, 5.00000000000000000000e-01) (101, 5, 5.00000000000000000000e-01) (101, 5, 5.00000000000000000000e-01) (101, 5, 5.00000000000000000000e-01) (101, 5, 5.00000000000000000000e-01) (101, 5, 5.00000000000000000000e-01) (101, 5, 5.00000000000000000000e-01) (101, 5, 5.00000000000000000000e-01) (101, 5, 5.00000000000000000000e-01) (101, 5, 5.00000000000000000000e-01) (101, 5, 5.00000000000000000000e-01) (101, 5, 5.00000000000000000000e-01) (101, 5, 5.00000000000000000000e-01) (101, 5, 5.00000000000000000000e-01) (101, 5, 5.00000000000000000000e-01) (101, 5, 5.00000000000000000000e-01) (101, 5, 5.00000000000000000000e-01) (101, 5, 5.00000000000000000000e-01) (101, 5, 5.00000000000000000000e-01) (101, 5, 5.00000000000000000000e-01) (101, 5, 5.00000000000000000000e-01) (101, 5, 5.00000000000000000000e-01) (101, 5, 5.00000000000000000000e-01) (101, 5, 5.00000000000000000000e-01) (101, 5, 5.00000000000000000000e-01) (101, 5, 5.00000000000000000000e-01) (101, 5, 5.00000000000000000000e-01) (101, 5, 5.00000000000000000000e-01) (101, 5, 5.00000000000000000000e-01) (101, 5, 5.00000000000000000000e-01) (101, 5, 5.00000000000000000000e-01) (101, 5, 5.00000000000000000000e-01) (101, 5, 5.00000000000000000000e-01) (101, 5, 5.00000000000000000000e-01) (101, 5, 5.00000000000000000000e-01) (101, 5, 5.00000000000000000000e-01) (101, 5, 5.00000000000000000000e-01) (101, 5, 5.00000000000000000000e-01) (101, 5, 5.00000000000000000000e-01) (0, 5, 0.00000000000000000000e+00) (101, 5, 5.00000000000000000000e-01) (101, 5, 5.00000000000000000000e-01) (101, 5, 5.00000000000000000000e-01) (101, 5, 5.00000000000000000000e-01) (101, 5, 5.00000000000000000000e-01) (101, 5, 5.00000000000000000000e-01) (101, 5, 5.00000000000000000000e-01) (101, 5, 5.00000000000000000000e-01) (101, 5, 5.00000000000000000000e-01) (101, 5, 5.00000000000000000000e-01) (0, 5, 0.00000000000000000000e+00) 
connections (connected_to_neuron, weight)=(0, 2.26307344436645507812e+00) (1, 2.23019218444824218750e+00) (2, -9.40855592489242553711e-02) (3, 1.17443645000457763672e+00) (4, -1.16517961025238037109e-01) (5, -3.83435994386672973633e-01) (6, -5.09036004543304443359e-01) (7, 2.88638919591903686523e-01) (8, 5.18394529819488525391e-01) (9, 4.21630263328552246094e-01) (10, -8.44793677330017089844e-01) (11, 6.82212768554687500000e+02) (12, 5.48148192465305328369e-02) (13, 6.34887099266052246094e-01) (14, -4.43088233470916748047e-01) (15, -1.76363855600357055664e-01) (16, -2.35126346349716186523e-01) (17, -3.02495192736387252808e-02) (18, -2.74724699556827545166e-02) (19, -3.99735063314437866211e-01) (20, 2.84389346837997436523e-01) (21, 2.76713430881500244141e-01) (22, 1.22837746143341064453e+00) (23, 3.35487246513366699219e-01) (24, 2.11797043681144714355e-01) (25, 4.18748855590820312500e-01) (26, -7.24687457084655761719e-01) (27, -2.02708188444375991821e-02) (28, 2.25632786750793457031e-01) (29, 3.46724033355712890625e-01) (30, 1.11644744873046875000e-01) (31, 8.19285139441490173340e-02) (32, 3.42317759990692138672e-01) (33, 2.90731221437454223633e-01) (34, -2.19907220453023910522e-02) (35, 3.75045210123062133789e-01) (36, 4.04530435800552368164e-01) (37, 1.57501533627510070801e-01) (38, 1.55969008803367614746e-01) (39, -2.73025035858154296875e+00) (40, 5.21445982158184051514e-02) (41, 6.46391436457633972168e-02) (42, 2.40741431713104248047e-01) (43, 4.18070405721664428711e-02) (44, 3.91104757785797119141e-01) (45, 3.09991240501403808594e-01) (46, 1.75771620124578475952e-02) (47, -1.87508203089237213135e-02) (48, 6.47807195782661437988e-02) (49, 4.10723388195037841797e-01) (50, 2.18496590852737426758e-01) (51, 1.58241003751754760742e-01) (52, -9.63292658329010009766e-01) (53, -1.38615107536315917969e+00) (54, -1.91723719239234924316e-01) (55, -2.59644061326980590820e-01) (56, 4.71102058887481689453e-01) (57, -8.42897117137908935547e-01) (58, 2.37844347953796386719e+00) (59, -6.84596419334411621094e-01) (60, -7.01869666576385498047e-01) (61, -5.23488819599151611328e-01) (62, -3.54920357465744018555e-01) (63, -1.55215514823794364929e-02) (64, -2.80013918876647949219e-01) (65, -3.77956509590148925781e+00) (66, -2.59330654144287109375e+00) (67, -2.30570927262306213379e-01) (68, 4.15649026632308959961e-01) (69, 4.76831734180450439453e-01) (70, 3.70111539959907531738e-02) (71, -2.11758255958557128906e-01) (72, 1.70177757740020751953e-01) (73, -1.78792104125022888184e-01) (74, -4.97224241495132446289e-01) (75, -4.51915651559829711914e-01) (76, -1.40649795532226562500e-01) (77, -1.89359664916992187500e-01) (78, -3.23170542716979980469e-01) (79, -3.22557955980300903320e-01) (80, -2.23546504974365234375e-01) (81, 3.73129308223724365234e-01) (82, 4.77912425994873046875e-01) (83, 3.01865607500076293945e-01) (84, -4.32709515094757080078e-01) (85, 5.69840788841247558594e-01) (86, 3.07479798793792724609e-02) (87, 2.01216340065002441406e-01) (88, -2.57932275533676147461e-01) (89, -6.30158364772796630859e-01) (90, -1.62176266312599182129e-01) (91, -5.41273891925811767578e-01) (92, -2.06282764673233032227e-01) (93, -2.04699546098709106445e-01) (94, 5.10522603988647460938e-01) (95, -8.44168961048126220703e-01) (96, -1.56740739941596984863e-01) (97, 3.56283575296401977539e-01) (98, 3.70582789182662963867e-01) (99, 4.08119738101959228516e-01) (100, -3.56597751379013061523e-01) (101, -4.79732096195220947266e-01) (102, -3.10900390148162841797e-01) (103, -3.01208615303039550781e-01) (104, -6.07784867286682128906e-01) (105, -3.78442704677581787109e-01) (106, -2.47297555208206176758e-01) (107, 3.80806207656860351562e-01) (108, 1.70971497893333435059e-01) (109, 1.62490054965019226074e-01) (110, 6.61038219928741455078e-01) (111, 1.01720845699310302734e+00) (112, 3.91793072223663330078e-01) (113, 3.98671001195907592773e-01) (114, -2.32047796249389648438e-01) (115, -2.74393975734710693359e-01) (116, -7.05518186092376708984e-01) (117, -4.75767582654953002930e-01) (118, -4.27079617977142333984e-01) (119, -2.42238685488700866699e-01) (120, 2.22873255610466003418e-01) (121, -1.90003648400306701660e-01) (122, -2.20665797591209411621e-01) (123, 3.86695712804794311523e-02) (124, 1.53369915485382080078e+00) (125, 1.17110562324523925781e+00) (126, 4.61678087711334228516e-01) (127, -1.99256345629692077637e-01) (128, -2.51373112201690673828e-01) (129, -2.57966428995132446289e-01) (130, -5.31286835670471191406e-01) (131, -7.93740451335906982422e-02) (132, -2.39069387316703796387e-01) (133, -1.37026548385620117188e-01) (134, -2.86044806241989135742e-01) (135, -6.94007694721221923828e-01) (136, 1.04553915560245513916e-01) (137, 9.35511142015457153320e-02) (138, 9.21718105673789978027e-02) (139, 3.08101952075958251953e-01) (140, 1.75910234451293945312e-01) (141, 4.93397921323776245117e-01) (142, 4.18123930692672729492e-01) (143, -9.74601686000823974609e-01) (144, -2.56606966257095336914e-01) (145, 4.58004087209701538086e-01) (146, 1.14074066281318664551e-01) (147, 6.89886510372161865234e-02) (148, -4.42285329103469848633e-01) (149, -2.51233625411987304688e+00) (150, -1.72665452957153320312e+00) (151, 4.11785468459129333496e-02) (152, -1.05010151863098144531e+00) (153, -2.80704021453857421875e-01) (154, -2.93018221855163574219e-01) (155, 4.11113739013671875000e-01) (156, -4.07939314842224121094e-01) (157, 1.97171084582805633545e-02) (158, -1.91094249486923217773e-01) (159, 5.87567985057830810547e-01) (160, 2.73228049278259277344e-01) (161, 6.11953027546405792236e-02) (162, -7.14146792888641357422e-01) (163, 3.15702259540557861328e-01) (164, 3.73911172151565551758e-01) (165, -6.61609590053558349609e-01) (166, -6.70248031616210937500e-01) (167, -1.00185424089431762695e-01) (168, -2.89004683494567871094e-01) (169, 4.99322921037673950195e-01) (170, -1.95186987519264221191e-01) (171, -4.85148914158344268799e-02) (172, 2.96225929260253906250e+00) (173, 3.74210238456726074219e-01) (174, 3.61108362674713134766e-01) (175, 7.90254592895507812500e-01) (176, 3.89113962650299072266e-01) (177, -2.75128483772277832031e-01) (178, -1.23291623592376708984e+00) (179, -7.31650292873382568359e-01) (180, -5.87879754602909088135e-02) (181, 4.77314740419387817383e-03) (182, -1.73379623889923095703e+00) (183, -2.79468357563018798828e-01) (184, -2.22260683774948120117e-01) (185, -1.80750951170921325684e-01) (186, -9.32944659143686294556e-03) (187, 3.31980884075164794922e-01) (188, 4.76340621709823608398e-01) (189, 7.96450853347778320312e-01) (190, -1.57894983887672424316e-01) (191, -1.81234896183013916016e+00) (192, -6.77960872650146484375e-01) (193, -2.33023241162300109863e-01) (194, -2.86639451980590820312e-01) (195, -3.48883867263793945312e+00) (196, -3.95329855382442474365e-02) (197, -1.52044892311096191406e-01) (198, -1.55359029769897460938e-01) (199, 4.04118448495864868164e-01) (200, 3.32717329263687133789e-01) (201, 1.06549811363220214844e+00) (202, 3.14114272594451904297e-01) (203, 3.26689392328262329102e-01) (204, -1.22413873672485351562e+00) (205, -7.51636385917663574219e-01) (206, -2.09296807646751403809e-01) (207, -2.42196068167686462402e-01) (208, -1.45401453971862792969e+00) (209, 6.27564847469329833984e-01) (210, 1.03026640415191650391e+00) (211, 1.66040194034576416016e+00) (212, 1.77615082263946533203e+00) (213, 5.87892651557922363281e-01) (214, -7.28896439075469970703e-01) (215, 4.60962265729904174805e-01) (216, -1.07601583003997802734e+00) (217, -4.70138460397720336914e-01) (218, -6.71377241611480712891e-01) (219, 3.30555826425552368164e-01) (220, -1.90129053592681884766e+00) (221, 2.03780770301818847656e-01) (222, 1.30425840616226196289e-01) (223, 2.54321128129959106445e-01) (224, 1.61676481366157531738e-01) (225, 4.03013139963150024414e-01) (226, 5.10633885860443115234e-01) (227, 8.30783098936080932617e-02) (228, 9.56582799553871154785e-02) (229, -4.56816047430038452148e-01) (230, -2.66995280981063842773e-01) (231, 4.77263092994689941406e-01) (232, 3.78433257341384887695e-01) (233, 5.28417766094207763672e-01) (234, -3.48082603886723518372e-03) (235, -6.70579373836517333984e-02) (236, -8.70323538780212402344e-01) (237, -4.11700516939163208008e-01) (238, 2.71125249564647674561e-02) (239, 2.59337484836578369141e-01) (240, 1.38361930847167968750e-01) (241, 1.45942211151123046875e-01) (242, 2.81117558479309082031e-01) (243, 3.47027808427810668945e-01) (244, 2.88684576749801635742e-01) (245, 7.00663864612579345703e-01) (246, 1.55700719356536865234e+00) (247, 4.32695746421813964844e-01) (248, 1.38638451695442199707e-01) (249, 2.33428820967674255371e-01) (250, -1.16187646985054016113e-01) (251, 7.04117491841316223145e-02) (252, 6.98121666908264160156e-01) (253, 1.54321352019906044006e-02) (254, 4.64780151844024658203e-01) (255, 1.59566193819046020508e-01) (256, -2.89873957633972167969e-01) (257, -1.68326228857040405273e-01) (258, 2.80660033226013183594e-01) (259, 3.45726758241653442383e-01) (260, 3.88390928506851196289e-01) (0, 6.72843790054321289062e+00) (1, 3.78402042388916015625e+00) (2, 6.05315208435058593750e-01) (3, 4.68280822038650512695e-01) (4, 5.66400229930877685547e-01) (5, 4.71923679113388061523e-01) (6, 4.42204356193542480469e-01) (7, 8.18903625011444091797e-01) (8, 5.30383777618408203125e+00) (9, 3.94793480634689331055e-01) (10, 4.88116562366485595703e-01) (11, 1.18601646423339843750e+01) (12, 1.43777862191200256348e-01) (13, -5.95095300674438476562e+00) (14, -1.28261432647705078125e+01) (15, 1.46372452378273010254e-01) (16, 2.78753608465194702148e-01) (17, 2.92612880468368530273e-01) (18, 3.42073947191238403320e-01) (19, 2.86297738552093505859e-01) (20, 3.29593151807785034180e-01) (21, 4.63871091604232788086e-01) (22, -4.33306675404310226440e-03) (23, -1.47224456071853637695e-01) (24, -5.56926441192626953125e+00) (25, -8.44299793243408203125e+00) (26, 3.17395031452178955078e-01) (27, 2.92982041835784912109e-01) (28, 2.02143922448158264160e-01) (29, 2.75039523839950561523e-01) (30, 2.20080703496932983398e-01) (31, 2.68336504697799682617e-01) (32, 3.66881936788558959961e-01) (33, 2.77158200740814208984e-01) (34, 1.09191618859767913818e-01) (35, 1.26755729317665100098e-01) (36, 2.21661180257797241211e-01) (37, 2.35554978251457214355e-01) (38, 2.35513877868652343750e+00) (39, -9.57589223980903625488e-02) (40, -5.98814964294433593750e+00) (41, -8.57812389731407165527e-02) (42, -7.36923277378082275391e-01) (43, 3.02934557199478149414e-01) (44, 3.61170291900634765625e-01) (45, 2.12546870112419128418e-01) (46, 2.15683162212371826172e-01) (47, 2.76519298553466796875e-01) (48, 1.41391128301620483398e-01) (49, 2.29510337114334106445e-01) (50, 1.46988496184349060059e-01) (51, 9.64659690856933593750e-01) (52, 1.32396474480628967285e-01) (53, -1.15877091884613037109e+00) (54, -1.02737307548522949219e-01) (55, 1.95965915918350219727e-01) (56, 3.55524122714996337891e-02) (57, 2.81715482473373413086e-01) (58, -4.04015509411692619324e-03) (59, -8.85440595448017120361e-03) (60, 1.35826930403709411621e-01) (61, 1.51157855987548828125e-01) (62, 4.14157807826995849609e-01) (63, 4.50166076421737670898e-01) (64, 3.09942692518234252930e-01) (65, 1.79313287138938903809e-01) (66, -4.59581524133682250977e-01) (67, -3.27083617448806762695e-02) (68, 7.92463198304176330566e-02) (69, -4.48110280558466911316e-03) (70, 2.06303969025611877441e-02) (71, -5.90707242488861083984e-01) (72, -1.30647256970405578613e-01) (73, -4.19858172535896301270e-02) (74, 2.01424300670623779297e-01) (75, 1.05721406638622283936e-01) (76, 2.25571528077125549316e-01) (77, 2.76739746332168579102e-01) (78, -8.88257846236228942871e-03) (79, 2.69762389361858367920e-02) (80, 8.23994129896163940430e-02) (81, 4.06061857938766479492e-01) (82, 2.37950816750526428223e-01) (83, -5.77882707118988037109e-01) (84, -1.94285166263580322266e+00) (85, -1.42610239982604980469e+00) (86, 2.53944844007492065430e-01) (87, 2.37762928009033203125e-01) (88, 1.41921445727348327637e-01) (89, 3.69521617889404296875e-01) (90, 3.51870149374008178711e-01) (91, 6.78302794694900512695e-02) (92, 6.77245855331420898438e-02) (93, 5.88011369109153747559e-02) (94, 1.97903782129287719727e-01) (95, 2.02944442629814147949e-01) (96, 1.84463081359863281250e+01) (97, 1.71259844303131103516e+00) (98, 2.09006339311599731445e-01) (99, 3.05883258581161499023e-01) (100, 1.24866060912609100342e-01) (101, 1.01597964763641357422e-01) (102, 1.55790656805038452148e-01) (103, 2.33005508780479431152e-01) (104, 3.28898523002862930298e-03) (105, 8.65712091326713562012e-02) (106, 1.08905769884586334229e-01) (107, 1.12951569259166717529e-01) (108, 9.45065319538116455078e-02) (109, 2.32994318008422851562e-01) (110, 1.64140373468399047852e-01) (111, 3.64200890064239501953e-01) (112, 1.56132861971855163574e-01) (113, 1.59187287092208862305e-01) (114, 2.27780833840370178223e-01) (115, 2.55939871072769165039e-01) (116, 1.49615675210952758789e-01) (117, 1.60012003034353256226e-02) (118, -6.70420704409480094910e-03) (119, 1.48493021726608276367e-01) (120, 1.34152233600616455078e-01) (121, 2.16391652822494506836e-01) (122, 4.85280156135559082031e-01) (123, 1.06363964080810546875e+00) (124, 3.98261249065399169922e-01) (125, 2.23288506269454956055e-01) (126, -5.45154884457588195801e-03) (127, 2.06543371081352233887e-01) (128, 1.55044183135032653809e-01) (129, 2.87385493516921997070e-01) (130, 9.81806963682174682617e-02) (131, -7.03701227903366088867e-02) (132, 1.99787214398384094238e-01) (133, 1.85717672109603881836e-01) (134, 1.21089644730091094971e-01) (135, 2.10543572902679443359e-01) (136, 4.10660207271575927734e-01) (137, 2.22019851207733154297e-01) (138, 4.10731434822082519531e-01) (139, 5.51357530057430267334e-02) (140, 2.13290117681026458740e-02) (141, 1.87626451253890991211e-01) (142, -4.58396583795547485352e-01) (143, -1.08982585370540618896e-01) (144, 1.15004181861877441406e-01) (145, 7.93708041310310363770e-02) (146, 1.75656884908676147461e-01) (147, 1.61952242255210876465e-01) (148, 2.37014606595039367676e-01) (149, 1.43575258553028106689e-02) (150, 3.56944084167480468750e-01) (151, 1.75293013453483581543e-01) (152, 1.37774586677551269531e-01) (153, 6.33161365985870361328e-02) (154, -1.69411599636077880859e-02) (155, -3.88436578214168548584e-02) (156, 3.91293597221374511719e+00) (157, 1.11421150207519531250e+02) (158, 2.00244865417480468750e+01) (159, 2.84216791391372680664e-01) (160, -4.72937679290771484375e+00) (161, -1.18998372554779052734e+00) (162, -1.30919384956359863281e+00) (163, -2.23532587289810180664e-01) (164, 5.12472912669181823730e-02) (165, 1.72611206769943237305e-01) (166, 1.21300622820854187012e-01) (167, 2.86275781691074371338e-02) (168, 2.03974768519401550293e-01) (169, 3.02277779579162597656e+00) (170, 1.49058980941772460938e+01) (171, 2.57614254951477050781e+00) (172, 3.98052811622619628906e+00) (173, 1.07270288467407226562e+00) (174, 2.34831756591796875000e+02) (175, 2.75053158402442932129e-02) (176, -1.61777827888727188110e-02) (177, 1.28105118870735168457e-01) (178, -1.64003055542707443237e-02) (179, -4.15640264749526977539e-01) (180, 1.54169842600822448730e-01) (181, 7.37528204917907714844e-02) (182, 3.78895711898803710938e+00) (183, 1.11699161529541015625e+01) (184, 4.32447433471679687500e+00) (185, 8.69672679901123046875e+00) (186, 5.71419858932495117188e+00) (187, 8.38328308105468750000e+02) (188, 1.58988356590270996094e-01) (189, -2.37389821559190750122e-02) (190, -7.70645737648010253906e-02) (191, -3.47915679216384887695e-01) (192, -1.16959273815155029297e-01) (193, 1.90460219979286193848e-01) (194, 1.33212482929229736328e+00) (195, -2.24995088577270507812e+00) (196, 5.61873321533203125000e+01) (197, 1.66462373733520507812e+00) (198, 1.04243263244628906250e+02) (199, 1.50000000000000000000e+03) (200, 5.58508709073066711426e-02) (201, -7.07161650061607360840e-02) (202, -3.31175886094570159912e-02) (203, 8.44114646315574645996e-03) (204, 9.18428748846054077148e-02) (205, 2.89772190153598785400e-02) (206, 4.17038869857788085938e+00) (207, 7.48975634574890136719e-01) (208, 2.29681238532066345215e-01) (209, 3.52183341979980468750e+00) (210, 2.27980256080627441406e+00) (211, 2.97949905395507812500e+01) (212, 1.05345152318477630615e-01) (213, 2.50389009714126586914e-01) (214, -2.95517623424530029297e-01) (215, -9.08773019909858703613e-02) (216, 1.91573500633239746094e-01) (217, 6.53564631938934326172e-02) (218, 2.67231047153472900391e-01) (219, 1.62770712375640869141e+00) (220, 6.75063252449035644531e-01) (221, 4.36147540807723999023e-01) (222, 2.25508272647857666016e-01) (223, 3.65325391292572021484e-01) (224, 4.73898857831954956055e-01) (225, 3.18734884262084960938e-01) (226, 3.89846771955490112305e-01) (227, 4.27543073892593383789e-01) (228, 2.49350696802139282227e-01) (229, 3.32779854536056518555e-01) (230, 1.18665538728237152100e-01) (231, 2.89520502090454101562e-01) (232, 3.81503641605377197266e-01) (233, 3.98112148046493530273e-01) (234, 2.75015264749526977539e-01) (235, 3.56077224016189575195e-01) (236, 3.48318815231323242188e-01) (237, 4.58379417657852172852e-01) (238, 4.69582647085189819336e-01) (239, 3.39853137731552124023e-01) (240, 4.35096830129623413086e-01) (241, 4.13752079010009765625e-01) (242, 2.51592487096786499023e-01) (243, 3.68544101715087890625e-01) (244, 2.84296244382858276367e-01) (245, 1.18995830416679382324e-01) (246, 1.24537482857704162598e-01) (247, 1.81666627526283264160e-01) (248, 2.89298176765441894531e-01) (249, 2.03146219253540039062e-01) (250, 1.69556349515914916992e-01) (251, 2.27699920535087585449e-01) (252, 3.76727521419525146484e-01) (253, 3.10249298810958862305e-01) (254, 4.17187690734863281250e-01) (255, 3.72432678937911987305e-01) (256, 1.53891697525978088379e-01) (257, 1.16451404988765716553e-01) (258, 2.14051976799964904785e-02) (259, 1.15712426602840423584e-01) (260, 3.34385246038436889648e-01) (0, 2.26313018798828125000e+02) (1, -2.42983306884765625000e+02) (2, 7.37058043479919433594e-01) (3, 5.69461822509765625000e-01) (4, -1.30813736468553543091e-02) (5, 3.05738113820552825928e-02) (6, -8.66534709930419921875e-02) (7, -4.03820686042308807373e-02) (8, -6.59308284521102905273e-02) (9, 6.92891061305999755859e-01) (10, 6.13802254199981689453e-01) (11, -4.18293905258178710938e+00) (12, -2.22430706024169921875e-01) (13, -1.94772750139236450195e-01) (14, -1.66613087058067321777e-01) (15, -1.44867122173309326172e-01) (16, -1.19193121790885925293e-01) (17, -1.43933817744255065918e-01) (18, -4.72698882222175598145e-02) (19, -4.30039800703525543213e-02) (20, -1.19348108768463134766e-01) (21, -5.49825606867671012878e-03) (22, -1.44678354263305664062e-01) (23, -8.37011039257049560547e-02) (24, -1.36207848787307739258e-01) (25, -1.52967214584350585938e-01) (26, -2.81638473272323608398e-01) (27, -7.54932314157485961914e-02) (28, -8.54008793830871582031e-02) (29, -1.37067049741744995117e-01) (30, -1.45399019122123718262e-01) (31, -1.59572690725326538086e-01) (32, -1.17145761847496032715e-01) (33, 2.89446301758289337158e-03) (34, -7.02461078763008117676e-02) (35, 1.05333526153117418289e-03) (36, -6.74000009894371032715e-02) (37, -3.31400074064731597900e-02) (38, -1.22296340763568878174e-01) (39, -2.96574211120605468750e+00) (40, -8.64598751068115234375e-02) (41, -7.95447602868080139160e-02) (42, 3.31378802657127380371e-02) (43, -1.37361451983451843262e-01) (44, -7.57727399468421936035e-02) (45, -1.70261755585670471191e-01) (46, -1.36445164680480957031e-01) (47, -5.83698861300945281982e-02) (48, -1.39987647533416748047e-01) (49, -2.75234449654817581177e-02) (50, -1.51389926671981811523e-01) (51, -1.01617529988288879395e-01) (52, -6.75841569900512695312e-02) (53, -1.06012962758541107178e-01) (54, 1.06069361791014671326e-02) (55, 1.80309154093265533447e-02) (56, -1.15730084478855133057e-01) (57, 6.33625507354736328125e-01) (58, 6.49440884590148925781e-01) (59, 5.00977039337158203125e-01) (60, 6.83426380157470703125e-01) (61, -8.78634750843048095703e-02) (62, -1.63153901696205139160e-01) (63, -6.80286530405282974243e-03) (64, -1.46978184580802917480e-01) (65, -8.23790282011032104492e-02) (66, -1.38254715129733085632e-02) (67, -6.94150337949395179749e-03) (68, -7.82931894063949584961e-02) (69, 1.98240461759269237518e-03) (70, 6.67113184928894042969e-01) (71, 6.29849195480346679688e-01) (72, 4.98440891504287719727e-01) (73, -5.08339554071426391602e-02) (74, 1.33293485268950462341e-02) (75, 1.71068916097283363342e-03) (76, -4.66633662581443786621e-02) (77, 2.49938108026981353760e-04) (78, -8.22623223066329956055e-02) (79, 3.85104585438966751099e-03) (80, 1.55245000496506690979e-02) (81, -3.24330441653728485107e-02) (82, -1.40301585197448730469e-01) (83, 3.64236116409301757812e-01) (84, 6.55296266078948974609e-01) (85, 6.58271551132202148438e-01) (86, 2.82869059592485427856e-02) (87, -9.65758711099624633789e-02) (88, 6.31835833191871643066e-02) (89, -1.24924711883068084717e-01) (90, -1.33464515209197998047e-01) (91, -8.20379033684730529785e-02) (92, -8.13137516379356384277e-02) (93, -9.67551991343498229980e-02) (94, -8.44664052128791809082e-02) (95, -5.43281771242618560791e-02) (96, 7.35148608684539794922e-01) (97, 7.20227301120758056641e-01) (98, 5.90783715248107910156e-01) (99, 7.15598404407501220703e-01) (100, 4.21401392668485641479e-03) (101, -2.44407765567302703857e-02) (102, -2.89546642452478408813e-02) (103, -1.36179506778717041016e-01) (104, -1.56303048133850097656e-01) (105, -8.23621302843093872070e-02) (106, 3.78106944262981414795e-02) (107, 1.40114827081561088562e-02) (108, -8.27258974313735961914e-02) (109, -5.79940117895603179932e-02) (110, -4.47332262992858886719e-02) (111, 5.75822889804840087891e-02) (112, -2.00078263878822326660e-03) (113, -7.30069056153297424316e-02) (114, -1.19427286088466644287e-01) (115, -3.04812733083963394165e-02) (116, -1.20701931416988372803e-01) (117, -1.50628775358200073242e-01) (118, 3.74635541811585426331e-03) (119, -1.12216584384441375732e-01) (120, -9.87027585506439208984e-02) (121, 4.60991226136684417725e-02) (122, 2.12389370426535606384e-03) (123, 1.37542467564344406128e-02) (124, 6.17267265915870666504e-02) (125, 2.68308771774172782898e-03) (126, 4.08521480858325958252e-02) (127, -1.76992118358612060547e-02) (128, -3.39328423142433166504e-02) (129, 7.28285834193229675293e-02) (130, -1.09024249017238616943e-01) (131, -1.15197330713272094727e-01) (132, -2.63881124556064605713e-02) (133, -9.26975235342979431152e-02) (134, 6.26921355724334716797e-01) (135, 7.22862958908081054688e-01) (136, 6.93534135818481445312e-01) (137, -1.34515717625617980957e-01) (138, -1.07866689562797546387e-01) (139, 8.61403159797191619873e-03) (140, -6.18887357413768768311e-02) (141, -4.37638610601425170898e-02) (142, -7.27307330816984176636e-03) (143, -1.23459115624427795410e-01) (144, -1.48332878947257995605e-01) (145, 6.44600838422775268555e-02) (146, 3.46008427441120147705e-02) (147, -1.16422675549983978271e-01) (148, -1.51765212416648864746e-01) (149, 7.20966279506683349609e-01) (150, 6.87329649925231933594e-01) (151, -1.24073036015033721924e-01) (152, -5.40044531226158142090e-02) (153, 1.86887197196483612061e-02) (154, -2.64355610124766826630e-03) (155, -5.46835623681545257568e-02) (156, 3.60982179641723632812e-01) (157, -3.82871087640523910522e-03) (158, -1.07318654656410217285e-01) (159, -1.25229835510253906250e-01) (160, 7.50182801857590675354e-03) (161, -6.04113843291997909546e-03) (162, -8.19913968443870544434e-02) (163, -1.08441755175590515137e-01) (164, -1.13044977188110351562e-02) (165, -5.09243533015251159668e-02) (166, 2.87037398666143417358e-02) (167, -6.21816255152225494385e-02) (168, -2.38242112100124359131e-02) (169, 3.49645107984542846680e-01) (170, -3.87537598609924316406e-01) (171, 9.28659886121749877930e-02) (172, 4.79915700852870941162e-02) (173, 3.79826501011848449707e-02) (174, -8.75969156622886657715e-02) (175, 4.18679119320586323738e-04) (176, 6.36508703231811523438e-01) (177, -1.60029977560043334961e-01) (178, 2.71767061203718185425e-02) (179, 4.08312380313873291016e-02) (180, 2.08224188536405563354e-02) (181, -1.15006551146507263184e-01) (182, 2.53851985931396484375e+00) (183, -1.00797235965728759766e-01) (184, 1.34170725941658020020e-01) (185, 9.37727689743041992188e-02) (186, 3.01180384121835231781e-03) (187, -4.02644351124763488770e-02) (188, 6.54054343700408935547e-01) (189, 5.14961123466491699219e-01) (190, -4.87819463014602661133e-02) (191, 3.91033217310905456543e-02) (192, -7.65535049140453338623e-03) (193, 3.14402990043163299561e-02) (194, -1.20243370532989501953e-01) (195, 9.98098731040954589844e-01) (196, -1.15035772323608398438e-01) (197, 6.82712942361831665039e-02) (198, 6.60955831408500671387e-02) (199, 4.20989915728569030762e-02) (200, -1.69771730899810791016e-01) (201, 6.32741391658782958984e-01) (202, -1.04327976703643798828e+00) (203, 7.30443358421325683594e-01) (204, -2.97303702682256698608e-02) (205, -1.01439498364925384521e-01) (206, -4.33032922446727752686e-02) (207, -8.04582312703132629395e-02) (208, -1.15902818739414215088e-01) (209, -7.13449530303478240967e-03) (210, -1.35898053646087646484e-01) (211, 2.04770267009735107422e-02) (212, -6.78217709064483642578e-02) (213, -2.06382691860198974609e-01) (214, -1.85058459639549255371e-01) (215, -6.90729141235351562500e-01) (216, 6.05101976543664932251e-03) (217, -2.41959188133478164673e-03) (218, 7.63033106923103332520e-02) (219, -1.30446195602416992188e-01) (220, -8.40084329247474670410e-02) (221, -5.20166642963886260986e-02) (222, 7.19729214906692504883e-02) (223, -3.26066301204264163971e-03) (224, -9.92400124669075012207e-02) (225, -1.34069159626960754395e-01) (226, 4.46205772459506988525e-03) (227, -9.68388244509696960449e-02) (228, 5.87488487362861633301e-02) (229, -1.87730174511671066284e-02) (230, -1.03502728044986724854e-01) (231, 7.85426571965217590332e-02) (232, -1.02861240506172180176e-01) (233, 1.25856865197420120239e-02) (234, 2.18299273401498794556e-02) (235, 2.08295732736587524414e-02) (236, 7.31663033366203308105e-03) (237, -1.29758566617965698242e-01) (238, -1.38325124979019165039e-01) (239, -1.31436973810195922852e-01) (240, -4.34655807912349700928e-02) (241, -1.14657178521156311035e-01) (242, 6.45011737942695617676e-02) (243, 7.36063569784164428711e-02) (244, 6.49549305438995361328e-01) (245, 7.87279844284057617188e-01) (246, -8.91662910580635070801e-02) (247, 6.61999434232711791992e-02) (248, -1.86745431274175643921e-02) (249, -1.03685468435287475586e-01) (250, -1.66260600090026855469e-01) (251, 2.00310088694095611572e-02) (252, -3.53578962385654449463e-02) (253, 5.81328272819519042969e-02) (254, 1.25310393050312995911e-02) (255, 7.41094708442687988281e-01) (256, 7.55922675132751464844e-01) (257, 7.69327402114868164062e-01) (258, 8.16330611705780029297e-01) (259, 6.04300022125244140625e-01) (260, -1.42262354493141174316e-01) (0, 4.41776663064956665039e-02) (1, -1.41732931137084960938e-01) (2, -1.15392766892910003662e-01) (3, 1.09308183193206787109e-01) (4, 2.28654574602842330933e-02) (5, 3.58711108565330505371e-02) (6, -5.35012688487768173218e-03) (7, 1.58073548227548599243e-02) (8, 8.74045118689537048340e-02) (9, 7.93195247650146484375e-01) (10, 6.94816887378692626953e-01) (11, 5.79375386238098144531e-01) (12, 2.51980376243591308594e+00) (13, -1.62538304924964904785e-01) (14, -1.61218374967575073242e-01) (15, -1.04688324034214019775e-01) (16, -1.74071881920099258423e-02) (17, -8.27297717332839965820e-02) (18, -9.20463353395462036133e-02) (19, 3.66253443062305450439e-02) (20, -8.19791108369827270508e-02) (21, -1.08295537531375885010e-01) (22, -6.50201290845870971680e-02) (23, 2.19944864511489868164e-01) (24, -1.09871111810207366943e-01) (25, 3.29709425568580627441e-02) (26, -9.23983603715896606445e-02) (27, -1.35963886976242065430e-01) (28, 3.34518775343894958496e-02) (29, -5.81732429563999176025e-02) (30, -1.22515641152858734131e-01) (31, -2.33739614486694335938e-02) (32, -4.41370047628879547119e-02) (33, -2.68595218658447265625e-02) (34, -1.59249641001224517822e-02) (35, -8.55288654565811157227e-02) (36, -3.51952761411666870117e-02) (37, -8.57081413269042968750e-02) (38, -7.08401128649711608887e-02) (39, -1.02505780756473541260e-01) (40, 5.26679940521717071533e-02) (41, -1.44256837666034698486e-02) (42, -3.12833040952682495117e-02) (43, -8.58206748962402343750e-02) (44, 7.68275419250130653381e-03) (45, -1.97410583496093750000e-02) (46, -1.66607826948165893555e-01) (47, 8.51961690932512283325e-03) (48, -1.15435801446437835693e-01) (49, -6.93610608577728271484e-02) (50, -2.30948124080896377563e-02) (51, -6.07522875070571899414e-02) (52, -2.07547783851623535156e+00) (53, -4.38937507569789886475e-02) (54, -6.32144957780838012695e-02) (55, -1.61172002553939819336e-01) (56, 4.11826297640800476074e-02) (57, -1.24190729111433029175e-02) (58, 1.08425304293632507324e-01) (59, -6.39260485768318176270e-02) (60, -9.13929715752601623535e-02) (61, -6.95378519594669342041e-03) (62, -4.50151525437831878662e-02) (63, -2.82311928458511829376e-03) (64, -1.39245837926864624023e-01) (65, -3.13777208328247070312e+00) (66, -8.54675471782684326172e-02) (67, -5.42092844843864440918e-02) (68, -1.03400446474552154541e-01) (69, -1.87616586685180664062e-01) (70, 4.12228107452392578125e-02) (71, 4.62013855576515197754e-02) (72, -6.57810345292091369629e-02) (73, -1.75000168383121490479e-02) (74, -2.73436605930328369141e-02) (75, 1.13181374035775661469e-03) (76, -5.53235299885272979736e-02) (77, -2.26452071219682693481e-02) (78, -9.21772718429565429688e-02) (79, -3.94828245043754577637e-02) (80, 1.00502856075763702393e-02) (81, 2.35157385468482971191e-02) (82, 3.14907371997833251953e-01) (83, 5.11265844106674194336e-02) (84, 3.44263832084834575653e-03) (85, -1.52422800660133361816e-01) (86, -5.84466494619846343994e-02) (87, -5.82236349582672119141e-02) (88, -1.13244727253913879395e-01) (89, -8.93574021756649017334e-03) (90, 5.74502460658550262451e-02) (91, -8.14945548772811889648e-02) (92, -9.58704948425292968750e-02) (93, -9.40653681755065917969e-02) (94, 4.86016348004341125488e-02) (95, 2.46258139610290527344e-01) (96, -1.81349441409111022949e-01) (97, 3.04964482784271240234e-01) (98, -1.43178150057792663574e-01) (99, -4.07645329833030700684e-02) (100, 2.61827558279037475586e-02) (101, -1.27269148826599121094e-01) (102, -3.86537574231624603271e-02) (103, -3.27040627598762512207e-02) (104, -2.18176826834678649902e-01) (105, -1.61063820123672485352e-01) (106, -1.65067240595817565918e-01) (107, 5.30367940664291381836e-02) (108, -1.02900306228548288345e-03) (109, -4.85529936850070953369e-02) (110, -2.26025786250829696655e-02) (111, 6.42220984445884823799e-05) (112, -9.65443402528762817383e-02) (113, -1.08017951250076293945e-01) (114, 2.27606799453496932983e-02) (115, 4.86530922353267669678e-02) (116, -4.28712218999862670898e-02) (117, -1.13917373120784759521e-01) (118, -1.35851636528968811035e-01) (119, -7.66627192497253417969e-02) (120, 1.16120660677552223206e-02) (121, -1.06254152953624725342e-01) (122, 3.84296216070652008057e-02) (123, -6.56151175498962402344e-02) (124, -1.77726037800312042236e-02) (125, 2.83854324370622634888e-02) (126, -3.80020178854465484619e-02) (127, 3.86155769228935241699e-02) (128, -1.58351752907037734985e-02) (129, -4.98572960495948791504e-02) (130, -6.94794654846191406250e-02) (131, -3.79832051694393157959e-02) (132, -7.61572048068046569824e-02) (133, 2.69531458616256713867e-02) (134, 5.01294657588005065918e-02) (135, -1.61785200238227844238e-01) (136, 7.45599716901779174805e-02) (137, -1.24805182218551635742e-01) (138, -1.15051470696926116943e-01) (139, -3.16448137164115905762e-02) (140, -4.65715453028678894043e-02) (141, -4.92143146693706512451e-02) (142, -2.62021213769912719727e-01) (143, -1.88581049442291259766e-02) (144, -6.70348154380917549133e-03) (145, 2.74888053536415100098e-02) (146, -6.60828128457069396973e-02) (147, 6.70211464166641235352e-02) (148, 1.00055029615759849548e-02) (149, -7.28474929928779602051e-02) (150, -9.00993496179580688477e-02) (151, 4.52851643785834312439e-03) (152, 1.00413253530859947205e-02) (153, -5.31574636697769165039e-02) (154, 8.27832240611314773560e-03) (155, -1.63096293807029724121e-01) (156, 5.62772899866104125977e-02) (157, 2.18179211020469665527e-01) (158, -1.57831609249114990234e-01) (159, 2.02514939010143280029e-02) (160, -3.94945107400417327881e-02) (161, -1.03514626622200012207e-01) (162, -2.08469092845916748047e-01) (163, -3.03663372993469238281e-01) (164, -9.60496142506599426270e-02) (165, -1.02577313780784606934e-01) (166, -5.73632866144180297852e-02) (167, -1.16839140653610229492e-01) (168, -1.07698194682598114014e-01) (169, 2.29307606816291809082e-01) (170, 2.83209145069122314453e-01) (171, 2.82415360212326049805e-01) (172, 3.29083561897277832031e-01) (173, -7.83261656761169433594e-02) (174, -1.59932851791381835938e-01) (175, -1.30214467644691467285e-01) (176, -1.15852735936641693115e-01) (177, -1.33525636047124862671e-02) (178, -3.90276983380317687988e-02) (179, -6.02468959987163543701e-02) (180, -1.60510048270225524902e-01) (181, 4.02337722480297088623e-02) (182, 3.49508881568908691406e-01) (183, 3.16506415605545043945e-01) (184, -9.14771184325218200684e-02) (185, 2.90016531944274902344e-01) (186, 4.07235696911811828613e-02) (187, -1.28323733806610107422e-01) (188, 1.55046321451663970947e-02) (189, 3.58980178833007812500e-01) (190, -1.17952950298786163330e-01) (191, -1.82064510881900787354e-02) (192, -5.95305636525154113770e-02) (193, -1.28805324435234069824e-01) (194, 4.90283034741878509521e-03) (195, 2.70950347185134887695e-01) (196, -5.50848320126533508301e-02) (197, 5.80812133848667144775e-02) (198, -2.77884043753147125244e-02) (199, -3.88426929712295532227e-02) (200, -1.41039729118347167969e-01) (201, 5.21773844957351684570e-02) (202, 1.75482586026191711426e-01) (203, 1.84959754347801208496e-01) (204, 8.56826920062303543091e-03) (205, -9.12405475974082946777e-02) (206, -3.91620881855487823486e-02) (207, -1.25221550464630126953e-01) (208, 4.69965897500514984131e-02) (209, 4.75785471498966217041e-02) (210, -1.13295175135135650635e-01) (211, 2.08779089152812957764e-02) (212, 7.53267994150519371033e-03) (213, -1.51220142841339111328e-01) (214, -1.14262633025646209717e-01) (215, -3.96337918937206268311e-03) (216, 4.35902029275894165039e-02) (217, -4.63043674826622009277e-02) (218, -1.21171034872531890869e-01) (219, 1.55018089571967720985e-04) (220, -5.63012622296810150146e-02) (221, -5.19704222679138183594e-01) (222, -1.33751362562179565430e-01) (223, -7.09136202931404113770e-02) (224, -4.63369339704513549805e-02) (225, 2.91051510721445083618e-02) (226, -1.45442739129066467285e-01) (227, 5.36901913583278656006e-02) (228, 2.02458687126636505127e-02) (229, 2.35386043787002563477e-02) (230, -6.23272806406021118164e-02) (231, -1.23229436576366424561e-01) (232, 3.39118950068950653076e-02) (233, -4.66784313321113586426e-02) (234, -1.35125890374183654785e-01) (235, -9.06076580286026000977e-02) (236, -7.44275972247123718262e-02) (237, -2.08756010979413986206e-02) (238, -3.21921333670616149902e-02) (239, -7.73518532514572143555e-02) (240, -5.22065982222557067871e-02) (241, 2.94981058686971664429e-02) (242, -1.23095452785491943359e-01) (243, -1.12502612173557281494e-01) (244, 6.56778365373611450195e-02) (245, -3.50953936576843261719e-02) (246, -1.12489946186542510986e-01) (247, -1.55183728784322738647e-02) (248, -2.35714460723102092743e-03) (249, -1.42124727368354797363e-01) (250, -9.56102907657623291016e-02) (251, -8.57452303171157836914e-02) (252, -3.23829688131809234619e-02) (253, -5.82164991647005081177e-03) (254, 5.88489174842834472656e-02) (255, 6.65034279227256774902e-02) (256, -5.01447878777980804443e-02) (257, -9.88593250513076782227e-02) (258, -4.55754734575748443604e-02) (259, -1.78004577755928039551e-01) (260, 4.72367927432060241699e-02) (0, 3.81543576717376708984e-01) (1, -1.14051747322082519531e+00) (2, -1.55050620436668395996e-01) (3, -4.63964752852916717529e-02) (4, -6.37288242578506469727e-02) (5, -3.63783687353134155273e-02) (6, -3.95364165306091308594e-02) (7, -2.87197619676589965820e-01) (8, -1.91250771284103393555e-01) (9, 1.11686833202838897705e-01) (10, -1.05728697776794433594e+00) (11, 8.52548629045486450195e-02) (12, 4.51381117105484008789e-01) (13, -2.30322610586881637573e-02) (14, 1.62128619849681854248e-02) (15, 1.22860826551914215088e-01) (16, -1.01246647536754608154e-01) (17, -1.79124344140291213989e-02) (18, 1.93927921354770660400e-02) (19, -3.21890078485012054443e-02) (20, -1.87698677182197570801e-02) (21, -2.47239485383033752441e-01) (22, -6.01986162364482879639e-02) (23, 7.38703645765781402588e-03) (24, -4.70542088150978088379e-02) (25, 1.22610203921794891357e-01) (26, 7.16421604156494140625e-02) (27, -6.45536789670586585999e-03) (28, 1.21894098818302154541e-01) (29, -5.88347129523754119873e-02) (30, -3.61341051757335662842e-02) (31, -3.80839332938194274902e-02) (32, -1.16317635402083396912e-02) (33, 1.08453638851642608643e-01) (34, 7.41247460246086120605e-02) (35, 4.80099990963935852051e-02) (36, -5.09499348700046539307e-02) (37, 1.15025073289871215820e-01) (38, 4.34308797121047973633e-02) (39, 3.61617170274257659912e-02) (40, -1.64156183600425720215e-02) (41, 8.28230008482933044434e-02) (42, -1.20957307517528533936e-02) (43, 9.75430607795715332031e-02) (44, -3.89960557222366333008e-02) (45, 9.47567746043205261230e-02) (46, 9.53765735030174255371e-02) (47, 3.77110503613948822021e-02) (48, -5.17414472997188568115e-02) (49, 7.51404538750648498535e-02) (50, -2.53087412565946578979e-02) (51, 1.20427213609218597412e-01) (52, -1.30632907152175903320e-01) (53, -1.12682115286588668823e-02) (54, -2.89758499711751937866e-02) (55, 9.83374863862991333008e-02) (56, 1.27804744988679885864e-02) (57, -4.30220998823642730713e-02) (58, 5.78889906406402587891e-01) (59, -3.61246950924396514893e-02) (60, -7.26318210363388061523e-02) (61, -2.36775968223810195923e-02) (62, 6.23916462063789367676e-03) (63, -1.17198470979928970337e-02) (64, -5.85932806134223937988e-02) (65, -2.75974154472351074219e-01) (66, 1.08542293310165405273e-01) (67, -5.43312430381774902344e-02) (68, 1.08293198049068450928e-01) (69, 1.98089685291051864624e-02) (70, 7.58355975151062011719e-01) (71, 6.12311780452728271484e-01) (72, -8.15664902329444885254e-02) (73, -5.50272949039936065674e-02) (74, -8.40837731957435607910e-02) (75, -2.87261698395013809204e-02) (76, 1.12171091139316558838e-01) (77, 9.30668264627456665039e-02) (78, 7.41680040955543518066e-02) (79, 1.31672069430351257324e-01) (80, 1.87239013612270355225e-02) (81, 8.85792374610900878906e-02) (82, 1.22703537344932556152e-01) (83, 6.44548654556274414062e-01) (84, 5.84199965000152587891e-01) (85, -9.09797176718711853027e-02) (86, -6.35024979710578918457e-02) (87, -1.51093062013387680054e-02) (88, -5.46213686466217041016e-02) (89, -2.85908654332160949707e-02) (90, 3.43384109437465667725e-02) (91, -5.76776005327701568604e-02) (92, 2.85814851522445678711e-02) (93, 1.07862100005149841309e-01) (94, -3.77712864428758621216e-03) (95, 4.60706241428852081299e-02) (96, 1.33562758564949035645e-01) (97, 8.83747998159378767014e-04) (98, 2.61852536350488662720e-02) (99, 6.33630976080894470215e-02) (100, 1.52239417657256126404e-02) (101, 2.29500345885753631592e-02) (102, -7.24457725882530212402e-02) (103, 3.95345389842987060547e-02) (104, 9.16127935051918029785e-02) (105, -6.74171820282936096191e-02) (106, 5.91828897595405578613e-02) (107, 3.37462909519672393799e-02) (108, 1.16217143833637237549e-01) (109, 2.26236004382371902466e-02) (110, 2.38602161407470703125e-02) (111, 6.61039957776665687561e-03) (112, -2.22788248211145401001e-02) (113, -2.19627004116773605347e-02) (114, 6.25442788004875183105e-02) (115, -1.87741313129663467407e-02) (116, -3.27192172408103942871e-02) (117, 3.29072214663028717041e-02) (118, 5.88589012622833251953e-02) (119, -6.03992538526654243469e-03) (120, 1.24306522309780120850e-01) (121, -2.98112817108631134033e-02) (122, 1.64115075021982192993e-02) (123, 1.76919326186180114746e-02) (124, -4.11042124032974243164e-02) (125, 8.73573794960975646973e-02) (126, 1.11566409468650817871e-01) (127, -4.96551021933555603027e-02) (128, 1.16791859269142150879e-01) (129, 1.37892002239823341370e-02) (130, 1.02499529719352722168e-01) (131, 5.28485514223575592041e-02) (132, 1.18067488074302673340e-01) (133, 1.05687059462070465088e-01) (134, -6.00089989602565765381e-02) (135, 2.18038000166416168213e-02) (136, 1.22728995978832244873e-01) (137, 8.59763547778129577637e-02) (138, 1.11294060945510864258e-01) (139, 7.38890022039413452148e-02) (140, -1.87640096992254257202e-02) (141, 7.15507427230477333069e-03) (142, -3.34861874580383300781e-02) (143, 6.44955858588218688965e-02) (144, 7.66734331846237182617e-02) (145, 9.45034995675086975098e-02) (146, 6.85405507683753967285e-02) (147, 8.98176431655883789062e-02) (148, 3.43315936625003814697e-02) (149, -4.26430590450763702393e-02) (150, -7.90482908487319946289e-02) (151, -1.70896183699369430542e-02) (152, -1.01394262164831161499e-02) (153, 2.34495978802442550659e-02) (154, 1.04049578309059143066e-01) (155, 3.23326028883457183838e-02) (156, 1.34371966123580932617e-01) (157, 9.55856814980506896973e-02) (158, 3.60072553157806396484e-02) (159, -2.21941601485013961792e-02) (160, -5.23415021598339080811e-02) (161, -1.70283969491720199585e-02) (162, 2.04067025333642959595e-02) (163, -7.99667462706565856934e-02) (164, -9.81833972036838531494e-03) (165, 7.29366466403007507324e-02) (166, 4.20350767672061920166e-02) (167, -8.59170220792293548584e-03) (168, 4.72064949572086334229e-02) (169, 9.14426207542419433594e-01) (170, -2.66736373305320739746e-02) (171, 7.91364237666130065918e-02) (172, 9.85551699995994567871e-02) (173, -1.26354396343231201172e-02) (174, -3.01872361451387405396e-02) (175, 1.59996387083083391190e-03) (176, 1.05478070676326751709e-01) (177, 7.42278620600700378418e-02) (178, -4.48498390614986419678e-02) (179, 3.54553088545799255371e-02) (180, 1.33955478668212890625e-01) (181, -3.48152257502079010010e-02) (182, 1.11598980426788330078e+00) (183, 2.02390942722558975220e-02) (184, 5.77143132686614990234e-02) (185, 9.17035043239593505859e-02) (186, 1.01698808372020721436e-01) (187, 6.23038783669471740723e-02) (188, 6.12734794616699218750e-01) (189, 6.63552761077880859375e-01) (190, 1.20679073035717010498e-01) (191, 4.78621087968349456787e-02) (192, 9.46124121546745300293e-02) (193, 4.41908277571201324463e-02) (194, 5.64902089536190032959e-02) (195, 9.46503281593322753906e-01) (196, -2.61426204815506935120e-04) (197, -4.10030111670494079590e-02) (198, 3.07318940758705139160e-03) (199, 2.70004440099000930786e-02) (200, 5.90061366558074951172e-01) (201, 6.35782003402709960938e-01) (202, 6.29615366458892822266e-01) (203, -2.59352177381515502930e-02) (204, 5.18586523830890655518e-02) (205, 6.57302662730216979980e-02) (206, 5.90022616088390350342e-02) (207, 5.68490959703922271729e-02) (208, -4.02350872755050659180e-01) (209, 7.51428306102752685547e-02) (210, -4.82441484928131103516e-02) (211, 4.33120131492614746094e-02) (212, 9.54353585839271545410e-02) (213, 9.17308777570724487305e-02) (214, 4.59389798343181610107e-02) (215, 2.53672129474580287933e-03) (216, 2.41565033793449401855e-02) (217, 6.39923885464668273926e-02) (218, 1.40658557415008544922e-01) (219, -4.53388765454292297363e-02) (220, -5.25480695068836212158e-02) (221, 9.23183038830757141113e-02) (222, 1.00341096520423889160e-01) (223, 9.20891985297203063965e-02) (224, 2.06284038722515106201e-03) (225, -4.89037781953811645508e-02) (226, 8.51980820298194885254e-02) (227, 4.38157021999359130859e-02) (228, -2.88143474608659744263e-02) (229, -4.24856357276439666748e-02) (230, -2.23545497283339500427e-03) (231, 6.90970942378044128418e-02) (232, 2.99901794642210006714e-02) (233, 1.07229709625244140625e-01) (234, 8.64720493555068969727e-02) (235, -7.83235803246498107910e-02) (236, 1.91671904176473617554e-02) (237, 2.41555608808994293213e-02) (238, 4.83885668218135833740e-02) (239, 9.80866253376007080078e-02) (240, -4.28593344986438751221e-02) (241, 5.77672533690929412842e-02) (242, -2.28363256901502609253e-02) (243, 1.11063309013843536377e-01) (244, 4.30489145219326019287e-02) (245, 1.20502769947052001953e-01) (246, -4.06889505684375762939e-02) (247, -2.53729820251464843750e-02) (248, 6.41404241323471069336e-02) (249, -3.68249379098415374756e-02) (250, -5.46211153268814086914e-02) (251, 4.81215491890907287598e-02) (252, 1.22242212295532226562e-01) (253, 8.40044617652893066406e-02) (254, 6.04695174843072891235e-03) (255, -1.00142387673258781433e-02) (256, 8.05504396557807922363e-02) (257, -2.59111989289522171021e-02) (258, -3.59415635466575622559e-02) (259, 6.75287470221519470215e-02) (260, -1.51956425979733467102e-02) (0, -7.72999572753906250000e+02) (1, -2.78711490631103515625e+01) (2, 9.97971892356872558594e-01) (3, 1.42825648188591003418e-01) (4, 3.41198623180389404297e-01) (5, 3.83498400449752807617e-01) (6, 2.70609736442565917969e-01) (7, 6.58825278282165527344e-01) (8, 4.75564658641815185547e-01) (9, -2.53393054008483886719e-01) (10, -1.50000000000000000000e+03) (11, -5.36875200271606445312e+00) (12, -1.30104809999465942383e-01) (13, -1.48104846477508544922e-01) (14, -5.18519699573516845703e-01) (15, -2.20046901702880859375e+00) (16, 6.35496139526367187500e-01) (17, 5.16399741172790527344e-01) (18, 5.90154111385345458984e-01) (19, 2.57347166538238525391e-01) (20, 3.70231807231903076172e-01) (21, 1.81609138846397399902e-01) (22, 5.56204199790954589844e-01) (23, 1.30060106515884399414e-01) (24, -2.29086837768554687500e+01) (25, -2.61683011054992675781e+00) (26, -5.64673691987991333008e-02) (27, -4.47260998189449310303e-02) (28, -1.75170764327049255371e-01) (29, -1.57474905252456665039e-01) (30, 4.47236210107803344727e-01) (31, 4.55732822418212890625e-01) (32, 5.75778961181640625000e-01) (33, 5.88962376117706298828e-01) (34, 3.15248996019363403320e-01) (35, 3.32357197999954223633e-01) (36, 4.58914279937744140625e-01) (37, -5.86823105812072753906e-01) (38, 4.30120468139648437500e-01) (39, -4.70093041658401489258e-01) (40, -2.04761698842048645020e-01) (41, 4.53378766775131225586e-01) (42, 5.11707067489624023438e-01) (43, 5.92536211013793945312e-01) (44, -1.72702610492706298828e-01) (45, 6.12047731876373291016e-01) (46, 7.51091897487640380859e-01) (47, 5.09702026844024658203e-01) (48, 3.59326392412185668945e-01) (49, 4.79983717203140258789e-01) (50, 3.04525405168533325195e-01) (51, 6.07030093669891357422e-01) (52, 5.45108579099178314209e-02) (53, 3.79255920648574829102e-01) (54, 3.47441136837005615234e-01) (55, 4.86834585666656494141e-01) (56, 2.52562820911407470703e-01) (57, 2.48536363244056701660e-01) (58, -7.03668355941772460938e-01) (59, -4.86735552549362182617e-01) (60, 5.05766332149505615234e-01) (61, 2.52946436405181884766e-01) (62, 2.40507647395133972168e-01) (63, 3.43282967805862426758e-01) (64, 1.66793704032897949219e+00) (65, 5.25009334087371826172e-01) (66, 3.64723175764083862305e-01) (67, 4.44143027067184448242e-01) (68, 5.69258868694305419922e-01) (69, 4.33277696371078491211e-01) (70, 5.21512866020202636719e-01) (71, -6.52527809143066406250e-02) (72, -2.75578111410140991211e-01) (73, 5.13031065464019775391e-01) (74, 8.79306942224502563477e-02) (75, 5.50903737545013427734e-01) (76, 5.52250623703002929688e-01) (77, 9.35922622680664062500e+00) (78, 5.62796831130981445312e-01) (79, 4.91009175777435302734e-01) (80, 4.12312328815460205078e-01) (81, 4.53643858432769775391e-01) (82, 6.17127239704132080078e-01) (83, 2.22904539108276367188e+00) (84, -5.64606904983520507812e-01) (85, -8.02199721336364746094e-01) (86, 5.51234245300292968750e-01) (87, 8.60003590583801269531e-01) (88, 3.21994036436080932617e-01) (89, 4.13238793611526489258e-01) (90, 2.59484231472015380859e-01) (91, 7.59238541126251220703e-01) (92, 5.31999945640563964844e-01) (93, 4.89544987678527832031e-01) (94, 6.19663536548614501953e-01) (95, 5.50027072429656982422e-01) (96, -7.27292180061340332031e-01) (97, 2.37971186637878417969e+00) (98, -1.81380674242973327637e-01) (99, 4.00926738977432250977e-01) (100, 6.81005537509918212891e-01) (101, 4.11367774009704589844e-01) (102, -9.02309939265251159668e-02) (103, -2.03358486294746398926e-01) (104, 7.87871003150939941406e-01) (105, 5.03573238849639892578e-01) (106, 1.00603508949279785156e+00) (107, 5.18988418579101562500e+00) (108, 6.40802383422851562500e-01) (109, 1.32579874992370605469e+00) (110, -1.31947904825210571289e-01) (111, -2.46282219886779785156e-01) (112, 7.43848919868469238281e-01) (113, 6.88854515552520751953e-01) (114, 5.75613498687744140625e-01) (115, 4.65621590614318847656e-01) (116, 4.10320580005645751953e-01) (117, 7.30408489704132080078e-01) (118, 4.09571290016174316406e-01) (119, 8.72636616230010986328e-01) (120, 6.89264416694641113281e-01) (121, 6.66162014007568359375e-01) (122, 8.39941442012786865234e-01) (123, 1.78525333404541015625e+01) (124, 1.19754135131835937500e+02) (125, 7.91029334068298339844e-01) (126, 3.81579577922821044922e-01) (127, 4.26862984895706176758e-01) (128, 4.73861843347549438477e-01) (129, 5.74567615985870361328e-01) (130, -6.79059982299804687500e-01) (131, 8.78574550151824951172e-01) (132, 1.12934195995330810547e+00) (133, 5.89033067226409912109e-01) (134, 2.77730137109756469727e-01) (135, 5.35280525684356689453e-01) (136, 5.09201765060424804688e-01) (137, 5.99025368690490722656e-01) (138, 6.16472244262695312500e-01) (139, 2.32022672891616821289e-01) (140, 5.61554133892059326172e-01) (141, 6.21738195419311523438e-01) (142, -3.57935518026351928711e-01) (143, -4.60186672210693359375e+00) (144, 1.68570995330810546875e+00) (145, 9.97137308120727539062e-01) (146, 7.25342512130737304688e-01) (147, 3.80434632301330566406e-01) (148, 5.15161991119384765625e-01) (149, -1.56401898711919784546e-02) (150, 5.53211346268653869629e-02) (151, 6.39176964759826660156e-01) (152, 5.24380624294281005859e-01) (153, 6.18816316127777099609e-01) (154, 5.63595235347747802734e-01) (155, 3.48252683877944946289e-01) (156, 3.89175720214843750000e+01) (157, 8.87727050781250000000e+02) (158, 1.45768750000000000000e+03) (159, 3.01296424865722656250e+00) (160, 5.27984261512756347656e-01) (161, -5.75666856765747070312e+00) (162, -2.25776233673095703125e+01) (163, 1.67378973960876464844e+00) (164, 7.14672088623046875000e-01) (165, 5.95723152160644531250e-01) (166, 4.84930425882339477539e-01) (167, 4.47629511356353759766e-01) (168, 3.46656709909439086914e-01) (169, 4.12991237640380859375e+00) (170, 1.17910594940185546875e+01) (171, 6.98820257186889648438e+00) (172, 1.50000000000000000000e+03) (173, -5.66202163696289062500e+00) (174, 9.60851982235908508301e-02) (175, 2.93454438447952270508e-01) (176, 1.96117126464843750000e+02) (177, 3.22523078918457031250e+01) (178, 6.61187648773193359375e-01) (179, 5.86882472038269042969e-01) (180, 3.79810065031051635742e-01) (181, 3.95122110843658447266e-01) (182, 5.90884780883789062500e+01) (183, 2.67336964607238769531e+00) (184, 6.92145729064941406250e+00) (185, 8.26423889160156250000e+02) (186, 4.58742284774780273438e+00) (187, 2.30057571411132812500e+02) (188, 1.10390501022338867188e+01) (189, 1.20923490524291992188e+01) (190, 4.77946013212203979492e-01) (191, 4.94408339262008666992e-01) (192, 4.87520247697830200195e-01) (193, 3.68568599224090576172e-01) (194, 6.75344228744506835938e-01) (195, 3.53077545166015625000e+01) (196, 3.13827789306640625000e+02) (197, 8.68089675903320312500e-01) (198, 1.83674331665039062500e+02) (199, 1.01489739990234375000e+03) (200, 1.31164360046386718750e+00) (201, 2.94360780715942382812e+00) (202, -9.81514081358909606934e-02) (203, 6.08581304550170898438e-01) (204, 5.84617197513580322266e-01) (205, 4.95303392410278320312e-01) (206, 5.75672864913940429688e-01) (207, 4.84689384698867797852e-01) (208, 3.67921328544616699219e+00) (209, 3.80976562500000000000e+01) (210, 2.25991020202636718750e+01) (211, 1.27141250610351562500e+02) (212, 9.99375045299530029297e-01) (213, 3.27646493911743164062e-01) (214, -6.55035853385925292969e-01) (215, -5.15741296112537384033e-02) (216, 4.95881706476211547852e-01) (217, 6.89814507961273193359e-01) (218, 1.17992210388183593750e+00) (219, 1.35839509963989257812e+00) (220, 4.44181293249130249023e-01) (221, 5.80917477607727050781e-01) (222, 4.25596684217453002930e-02) (223, 1.33595839142799377441e-02) (224, -1.24018236994743347168e-01) (225, 5.73627889156341552734e-01) (226, 5.63579678535461425781e-01) (227, 2.85945147275924682617e-01) (228, 3.25981289148330688477e-01) (229, 3.52879256010055541992e-01) (230, 4.23637360334396362305e-01) (231, 2.72866368293762207031e-01) (232, 4.25111770629882812500e-01) (233, 2.63021379709243774414e-01) (234, -2.38359153270721435547e-01) (235, -5.27997091412544250488e-02) (236, -1.74383714795112609863e-01) (237, -1.22545473277568817139e-01) (238, -1.45122274756431579590e-01) (239, -5.84534890949726104736e-02) (240, -2.37495694309473037720e-02) (241, -9.32721495628356933594e-02) (242, 3.42025816440582275391e-01) (243, 2.67186611890792846680e-01) (244, 2.62260913848876953125e-01) (245, -5.58131575584411621094e-01) (246, -7.82344639301300048828e-02) (247, -1.30125164985656738281e+00) (248, -4.54922281205654144287e-02) (249, -2.42792114615440368652e-01) (250, -7.61026024818420410156e-01) (251, -2.55403909832239151001e-02) (252, -1.75786569714546203613e-01) (253, -7.30548128485679626465e-02) (254, -1.63508787751197814941e-01) (255, -2.82520502805709838867e-01) (256, -5.55303335189819335938e-01) (257, -4.78787511587142944336e-01) (258, -6.51283562183380126953e-01) (259, -8.85092556476593017578e-01) (260, 6.10843658447265625000e-01) (0, -4.49697875976562500000e+00) (1, -8.70105922222137451172e-01) (2, -4.35848265886306762695e-01) (3, -1.03328132629394531250e+00) (4, -5.51268085837364196777e-02) (5, -7.73724734783172607422e-01) (6, 2.26807236671447753906e-01) (7, -2.27206051349639892578e-02) (8, 4.81192082166671752930e-01) (9, -2.91181755065917968750e+01) (10, 2.26887971162796020508e-01) (11, 2.78288173675537109375e+00) (12, -1.18000423908233642578e+00) (13, 8.98386955261230468750e-01) (14, -1.54047757387161254883e-02) (15, -2.22797528840601444244e-03) (16, -1.21008362621068954468e-02) (17, 3.43567207455635070801e-02) (18, -1.71459671109914779663e-02) (19, -1.18645234033465385437e-02) (20, -6.27997592091560363770e-02) (21, -5.00939004123210906982e-02) (22, 1.45481899380683898926e-01) (23, 6.60085082054138183594e-01) (24, -5.86211800575256347656e-01) (25, 5.44085167348384857178e-02) (26, 1.34374853223562240601e-02) (27, -1.04350810870528221130e-02) (28, -5.44631220400333404541e-02) (29, 1.36227840557694435120e-02) (30, -1.86675563454627990723e-02) (31, -7.91015941649675369263e-03) (32, -6.83759748935699462891e-02) (33, -1.03239931166172027588e-01) (34, 2.39098910242319107056e-02) (35, -5.14643266797065734863e-02) (36, -7.85517096519470214844e-02) (37, -1.92121982574462890625e-01) (38, -1.98774740099906921387e-01) (39, 9.86693948507308959961e-02) (40, -2.93368883430957794189e-02) (41, 5.82195855677127838135e-02) (42, 8.08082148432731628418e-02) (43, 5.47850653529167175293e-02) (44, -8.96512269973754882812e-02) (45, -6.93731904029846191406e-02) (46, -7.07956925034523010254e-02) (47, -1.91441997885704040527e-02) (48, 9.44837778806686401367e-02) (49, -5.01488521695137023926e-03) (50, -1.75642028450965881348e-01) (51, -7.80640095472335815430e-02) (52, -6.88023492693901062012e-02) (53, 1.55048206448554992676e-01) (54, 6.52764260768890380859e-01) (55, 1.60780787467956542969e-01) (56, 6.85431882739067077637e-02) (57, 4.67777252197265625000e-01) (58, 1.14172494411468505859e+00) (59, -1.29082292318344116211e-01) (60, 8.02524328231811523438e-01) (61, 1.85355737805366516113e-01) (62, 1.16284430027008056641e-01) (63, -4.14413027465343475342e-02) (64, 5.14911375939846038818e-02) (65, -4.52489703893661499023e-02) (66, -1.18456609547138214111e-01) (67, 9.47492867708206176758e-02) (68, 1.50166861712932586670e-02) (69, -5.51957972347736358643e-02) (70, 3.44555258750915527344e-01) (71, 9.33149814605712890625e-01) (72, -5.96303604543209075928e-02) (73, -7.57190492004156112671e-03) (74, 1.68392628431320190430e-01) (75, 2.01869308948516845703e-02) (76, -5.42093999683856964111e-02) (77, -1.31426632404327392578e-01) (78, -5.52053391933441162109e-01) (79, -1.31631433963775634766e-01) (80, 8.83054211735725402832e-02) (81, 4.97292205691337585449e-02) (82, 1.88762456178665161133e-01) (83, 2.23324313759803771973e-01) (84, 8.60352158546447753906e-01) (85, 3.81752580404281616211e-01) (86, -1.75103038549423217773e-01) (87, -3.15972089767456054688e-01) (88, 2.78638117015361785889e-02) (89, 1.37219652533531188965e-01) (90, 8.18819403648376464844e-02) (91, 1.60366997122764587402e-01) (92, 5.71918338537216186523e-02) (93, 6.25625550746917724609e-02) (94, -6.58658295869827270508e-02) (95, -1.15184403955936431885e-01) (96, 2.41530522704124450684e-01) (97, -6.86503201723098754883e-02) (98, 2.81109847128391265869e-02) (99, 5.16803860664367675781e-02) (100, 1.36187717318534851074e-01) (101, 4.26745638251304626465e-02) (102, 2.87412852048873901367e-01) (103, 6.46885216236114501953e-01) (104, 4.21640723943710327148e-02) (105, 1.29457907751202583313e-02) (106, -3.16745080053806304932e-02) (107, -2.73192450404167175293e-02) (108, -3.94427701830863952637e-02) (109, -1.70268654823303222656e-01) (110, -1.28313954919576644897e-02) (111, -1.96656715124845504761e-02) (112, -2.84767784178256988525e-02) (113, -7.74950534105300903320e-02) (114, -2.34530687332153320312e-01) (115, 1.04940511286258697510e-01) (116, -8.74746590852737426758e-02) (117, 1.99231177568435668945e-01) (118, -9.48408320546150207520e-02) (119, -1.19328580796718597412e-01) (120, -1.13538466393947601318e-02) (121, -1.86404123902320861816e-01) (122, -2.59065538644790649414e-01) (123, -1.14735171198844909668e-01) (124, 2.21154354512691497803e-02) (125, -1.27268120646476745605e-01) (126, -7.14352428913116455078e-02) (127, -5.15919029712677001953e-02) (128, -1.03103019297122955322e-01) (129, -1.81143581867218017578e-02) (130, 4.53379228711128234863e-02) (131, 4.55683879554271697998e-02) (132, -1.12702064216136932373e-01) (133, -1.49983093142509460449e-01) (134, -3.93083691596984863281e-02) (135, -1.08081504702568054199e-01) (136, -1.27773419022560119629e-01) (137, -5.57417646050453186035e-02) (138, 2.65375133603811264038e-02) (139, -1.34898245334625244141e-01) (140, 2.01658606529235839844e-02) (141, -6.53234869241714477539e-02) (142, 1.31996178627014160156e+00) (143, 2.85163372755050659180e-01) (144, 4.34902384877204895020e-02) (145, -1.64540424942970275879e-01) (146, -9.15473222732543945312e-01) (147, -1.87014356255531311035e-01) (148, 7.90492817759513854980e-02) (149, -1.15437304973602294922e+00) (150, -1.05872871354222297668e-02) (151, 1.18580209091305732727e-02) (152, -1.33170723915100097656e-01) (153, -4.31748516857624053955e-02) (154, -3.78937162458896636963e-02) (155, -3.67087591439485549927e-03) (156, 1.75641751289367675781e+00) (157, -2.65252124518156051636e-02) (158, -4.97936345636844635010e-02) (159, 3.24910879135131835938e-01) (160, -6.25023066997528076172e-01) (161, -1.27404615283012390137e-01) (162, -2.01826483011245727539e-01) (163, 9.88694801926612854004e-02) (164, 6.32606521248817443848e-02) (165, -6.13454915583133697510e-02) (166, 3.42070311307907104492e-02) (167, -1.72597989439964294434e-02) (168, 1.24491853639483451843e-02) (169, 3.11912608146667480469e+00) (170, 3.54275882244110107422e-01) (171, 1.48921176791191101074e-01) (172, 2.23592460155487060547e-01) (173, 3.83528292179107666016e-01) (174, -1.23404049873352050781e+00) (175, 2.84039247781038284302e-02) (176, 9.36933979392051696777e-02) (177, 2.97917816787958145142e-02) (178, -9.89696942269802093506e-03) (179, 2.30226404964923858643e-02) (180, 4.92202444002032279968e-03) (181, 2.96901851892471313477e-01) (182, 4.34609222412109375000e+00) (183, -3.40507104992866516113e-02) (184, 9.37470123171806335449e-02) (185, 5.51793396472930908203e-01) (186, 6.45974993705749511719e-01) (187, 6.87576174736022949219e-01) (188, 1.40321003273129463196e-02) (189, 3.38732033967971801758e-01) (190, -7.07019269466400146484e-02) (191, -1.09479844570159912109e-01) (192, 5.25087565183639526367e-02) (193, -1.38162598013877868652e-01) (194, 2.56423782557249069214e-02) (195, 5.29516124725341796875e+00) (196, -4.72986288368701934814e-02) (197, 1.67263269424438476562e-01) (198, 1.45361617207527160645e-01) (199, 4.75720286369323730469e-01) (200, 5.85284680128097534180e-02) (201, 1.59160807728767395020e-01) (202, 2.37051635980606079102e-01) (203, -7.61953145265579223633e-02) (204, -6.84838369488716125488e-03) (205, 1.06413729488849639893e-01) (206, 2.22246907651424407959e-02) (207, -5.20881175994873046875e-01) (208, 7.38207697868347167969e-02) (209, 1.12964130938053131104e-01) (210, -3.81257496774196624756e-02) (211, 1.06773301959037780762e-01) (212, -1.71175580471754074097e-02) (213, -1.44312947988510131836e-01) (214, -1.82713955640792846680e-01) (215, -2.71122217178344726562e-01) (216, -9.98830497264862060547e-02) (217, 9.33316443115472793579e-03) (218, 1.36935442686080932617e-01) (219, -1.47118762135505676270e-01) (220, -1.36522197723388671875e+00) (221, 1.59428447484970092773e-01) (222, 1.50640323758125305176e-01) (223, 7.27731883525848388672e-02) (224, 9.19354930520057678223e-02) (225, -1.50260310620069503784e-02) (226, 5.42427487671375274658e-02) (227, -1.51560632511973381042e-02) (228, -1.34382590651512145996e-01) (229, -2.12771873921155929565e-02) (230, 4.55093570053577423096e-02) (231, 2.28864438831806182861e-02) (232, -5.47885932028293609619e-02) (233, -2.66288936138153076172e-01) (234, 1.71729311347007751465e-01) (235, -4.21402864158153533936e-02) (236, 5.55720590054988861084e-02) (237, 1.19382645934820175171e-02) (238, 6.07393942773342132568e-02) (239, -5.20426779985427856445e-03) (240, -8.75668898224830627441e-02) (241, -1.62914723157882690430e-01) (242, 9.76034998893737792969e-02) (243, 1.38660386204719543457e-01) (244, 4.62246716022491455078e-01) (245, 4.61306385695934295654e-02) (246, 1.31223127245903015137e-01) (247, 1.77178275585174560547e+00) (248, 3.38857956230640411377e-02) (249, 5.63587993383407592773e-02) (250, -6.32580602541565895081e-04) (251, 3.78875397145748138428e-02) (252, -7.56323114037513732910e-02) (253, -1.44022181630134582520e-01) (254, -6.06186911463737487793e-02) (255, 4.42817918956279754639e-02) (256, 9.89306688308715820312e-01) (257, -1.08102217316627502441e-01) (258, 8.11564207077026367188e-01) (259, 3.21525484323501586914e-01) (260, 1.12039834260940551758e-01) (0, -1.29259071350097656250e+01) (1, 1.73534706234931945801e-01) (2, -2.08548411726951599121e-01) (3, 3.56040298938751220703e-01) (4, 3.70591253042221069336e-01) (5, 3.11205506324768066406e-01) (6, 2.61682391166687011719e-01) (7, 3.96137505769729614258e-01) (8, 3.84286522865295410156e-01) (9, 5.61377406120300292969e-01) (10, -2.30855965614318847656e+00) (11, -9.99929130077362060547e-01) (12, 4.94563996791839599609e-01) (13, 8.26440751552581787109e-01) (14, -8.55370163917541503906e-02) (15, 5.33392205834388732910e-02) (16, 4.59276735782623291016e-02) (17, -7.98579305410385131836e-02) (18, 7.26349279284477233887e-02) (19, -1.07775151729583740234e-01) (20, 2.00946211814880371094e-01) (21, 2.37068444490432739258e-01) (22, -2.60522663593292236328e-01) (23, -1.32159292697906494141e-01) (24, -3.73396068811416625977e-01) (25, -8.75463783740997314453e-01) (26, 7.63311803340911865234e-01) (27, 4.29497174918651580811e-02) (28, 9.22491997480392456055e-02) (29, -8.04612785577774047852e-02) (30, 2.16678261756896972656e-01) (31, 2.49735757708549499512e-01) (32, 2.42904439568519592285e-01) (33, 1.60358458757400512695e-01) (34, 2.39927038550376892090e-01) (35, 2.10836485028266906738e-01) (36, 2.24454089999198913574e-01) (37, 2.42219582200050354004e-01) (38, 1.64745807647705078125e-01) (39, -4.25143194198608398438e+00) (40, -1.89190506935119628906e-02) (41, 1.06051176786422729492e-01) (42, 1.59259010106325149536e-02) (43, 1.91568955779075622559e-01) (44, 1.87298536300659179688e-01) (45, 3.36901545524597167969e-01) (46, 1.14167593419551849365e-01) (47, 2.75304734706878662109e-01) (48, 2.78077006340026855469e-01) (49, 3.04172545671463012695e-01) (50, 2.72295266389846801758e-01) (51, 1.75734519958496093750e-01) (52, 2.74901807308197021484e-01) (53, 4.24574881792068481445e-01) (54, 4.41368192434310913086e-01) (55, 3.17825287580490112305e-01) (56, 2.79246032238006591797e-01) (57, 2.90760517120361328125e-01) (58, 3.58467906713485717773e-01) (59, 4.04099375009536743164e-01) (60, 2.92183905839920043945e-01) (61, 1.59478411078453063965e-01) (62, 3.31155389547348022461e-01) (63, 4.13139253854751586914e-01) (64, 3.25496703386306762695e-01) (65, 1.70728713274002075195e-01) (66, 3.19407820701599121094e-01) (67, 2.57323503494262695312e-01) (68, 4.06351387500762939453e-01) (69, 3.89940261840820312500e-01) (70, 4.42655503749847412109e-01) (71, 3.97951871156692504883e-01) (72, 4.04831111431121826172e-01) (73, 5.14179002493619918823e-03) (74, 1.60254329442977905273e-01) (75, 2.65737235546112060547e-01) (76, 2.90041595697402954102e-01) (77, 2.87551730871200561523e-01) (78, 3.43309789896011352539e-01) (79, 2.52603888511657714844e-01) (80, 1.86612635850906372070e-01) (81, 4.40570950508117675781e-01) (82, 1.96988359093666076660e-01) (83, 7.65849530696868896484e-01) (84, -1.20818175375461578369e-01) (85, 2.09938213229179382324e-01) (86, -3.98971401154994964600e-02) (87, 2.19392284750938415527e-01) (88, 1.10920101404190063477e-01) (89, 3.00369799137115478516e-01) (90, 3.72110962867736816406e-01) (91, 3.52614998817443847656e-01) (92, 3.54415714740753173828e-01) (93, 1.58930271863937377930e-01) (94, 3.46266031265258789062e-01) (95, 1.26022174954414367676e-01) (96, 4.31229233741760253906e-01) (97, 6.39702677726745605469e-01) (98, 4.48989182710647583008e-01) (99, -1.15194171667098999023e-01) (100, 2.50747293233871459961e-01) (101, 1.32514521479606628418e-01) (102, 2.75685906410217285156e-01) (103, 3.21979612112045288086e-01) (104, 3.58780622482299804688e-01) (105, 3.46376508474349975586e-01) (106, 2.85472214221954345703e-01) (107, 4.19002383947372436523e-01) (108, 4.15538758039474487305e-01) (109, 3.52104753255844116211e-01) (110, 3.74565005302429199219e-01) (111, -6.03103414177894592285e-02) (112, 1.64769172668457031250e-01) (113, 1.93571761250495910645e-01) (114, 4.38014984130859375000e-01) (115, 3.51858019828796386719e-01) (116, 3.96014899015426635742e-01) (117, 2.83455640077590942383e-01) (118, 2.74346232414245605469e-01) (119, 4.07773494720458984375e-01) (120, 3.46094936132431030273e-01) (121, 4.10430133342742919922e-01) (122, 2.71909594535827636719e-01) (123, 2.15275660157203674316e-01) (124, 3.74062210321426391602e-01) (125, 1.14580862224102020264e-01) (126, 2.89886713027954101562e-01) (127, 2.84660696983337402344e-01) (128, 2.13330179452896118164e-01) (129, 2.08690822124481201172e-01) (130, 2.83120274543762207031e-01) (131, 3.85764569044113159180e-01) (132, 3.37712347507476806641e-01) (133, 3.17213058471679687500e-01) (134, 3.41976612806320190430e-01) (135, 2.01390221714973449707e-01) (136, 1.79295912384986877441e-01) (137, 2.61982947587966918945e-01) (138, 1.11142314970493316650e-01) (139, 4.01307493448257446289e-01) (140, 2.95103996992111206055e-01) (141, 2.33392611145973205566e-01) (142, 3.87866824865341186523e-01) (143, 9.89296138286590576172e-01) (144, 3.37275713682174682617e-01) (145, 4.24178242683410644531e-01) (146, 2.56566017866134643555e-01) (147, 3.52953732013702392578e-01) (148, -3.93006086349487304688e-01) (149, -6.42225146293640136719e-01) (150, -6.83613836765289306641e-01) (151, 2.60993212461471557617e-01) (152, 2.64510691165924072266e-01) (153, 3.54681342840194702148e-01) (154, 4.09087657928466796875e-01) (155, 2.42214635014533996582e-01) (156, 1.94403040409088134766e+00) (157, 2.92391717433929443359e-01) (158, 3.08529078960418701172e-01) (159, 3.64195048809051513672e-01) (160, -2.33159258961677551270e-01) (161, -1.37178063392639160156e-01) (162, -4.72603499889373779297e-01) (163, -6.76621794700622558594e-01) (164, 3.03382933139801025391e-01) (165, 3.39881658554077148438e-01) (166, 2.95147418975830078125e-01) (167, 4.33983385562896728516e-01) (168, 4.23316150903701782227e-01) (169, 3.15524339675903320312e-01) (170, 4.28819715976715087891e-01) (171, 2.96067237854003906250e-01) (172, 3.26685369014739990234e-01) (173, 2.89390116930007934570e-01) (174, 3.21598947048187255859e-01) (175, 3.09397727251052856445e-01) (176, 6.80592879652976989746e-02) (177, 3.07067871093750000000e-01) (178, 4.32675063610076904297e-01) (179, 4.36015605926513671875e-01) (180, 2.74781763553619384766e-01) (181, 2.49904632568359375000e-01) (182, 4.48357194662094116211e-01) (183, 3.29922795295715332031e-01) (184, 3.74745935201644897461e-01) (185, 3.89351934194564819336e-01) (186, 5.73871331289410591125e-03) (187, -1.42549499869346618652e-01) (188, 2.96168655157089233398e-01) (189, 4.03804108500480651855e-02) (190, 2.74196535348892211914e-01) (191, 3.24994027614593505859e-01) (192, 2.93702900409698486328e-01) (193, 2.68917769193649291992e-01) (194, 3.46714794635772705078e-01) (195, 3.08777511119842529297e-01) (196, 5.94905197620391845703e-01) (197, 4.12331104278564453125e-01) (198, 2.94507175683975219727e-01) (199, 2.97943115234375000000e-01) (200, -7.51176252961158752441e-02) (201, -7.37862884998321533203e-02) (202, 2.67999529838562011719e-01) (203, 3.11281740665435791016e-01) (204, 4.17187958955764770508e-01) (205, 3.56304347515106201172e-01) (206, 2.53899931907653808594e-01) (207, 3.76671731472015380859e-01) (208, 3.49193841218948364258e-01) (209, 2.18612933158874511719e+00) (210, 1.37515199184417724609e+00) (211, 1.95570983886718750000e+01) (212, -6.38775005936622619629e-02) (213, 1.45993595942854881287e-02) (214, -6.99402093887329101562e-01) (215, 2.24092572927474975586e-01) (216, 2.44766682386398315430e-01) (217, 3.52651149034500122070e-01) (218, 4.32678788900375366211e-01) (219, 4.19393658638000488281e-01) (220, 3.25389683246612548828e-01) (221, 4.97218281030654907227e-01) (222, 2.32438698410987854004e-01) (223, 4.48994845151901245117e-01) (224, 3.56883436441421508789e-01) (225, 7.65566378831863403320e-02) (226, 9.01629179716110229492e-02) (227, 2.86417603492736816406e-01) (228, 4.48972880840301513672e-01) (229, 2.70748168230056762695e-01) (230, 2.74874478578567504883e-01) (231, 3.85533720254898071289e-01) (232, 2.95733511447906494141e-01) (233, 1.88378691673278808594e-01) (234, 1.27182388678193092346e-02) (235, 2.99758881330490112305e-01) (236, 2.97311276197433471680e-01) (237, 2.07922995090484619141e-01) (238, 3.45551669597625732422e-01) (239, 1.34087920188903808594e-01) (240, 2.79221981763839721680e-01) (241, 3.36376756429672241211e-01) (242, 4.05880957841873168945e-01) (243, 3.00021678209304809570e-01) (244, 3.49788218736648559570e-01) (245, 5.50853490829467773438e-01) (246, 7.18948066234588623047e-01) (247, -2.50146210193634033203e-01) (248, 7.82892405986785888672e-02) (249, -5.31413078308105468750e-01) (250, -5.53044557571411132812e-01) (251, 3.34740847349166870117e-01) (252, 2.45260044932365417480e-01) (253, 4.39721167087554931641e-01) (254, 4.18055117130279541016e-01) (255, 4.46765780448913574219e-01) (256, 7.84659907221794128418e-02) (257, 2.05982312560081481934e-01) (258, 9.93240892887115478516e-01) (259, 6.93144679069519042969e-01) (260, 2.74383157491683959961e-01) (0, -1.84464192390441894531e+00) (1, 8.07717418670654296875e+00) (2, 8.24649453163146972656e-01) (3, -1.24029374122619628906e+00) (4, -5.73165118694305419922e-02) (5, 1.55674412846565246582e-01) (6, -3.87117475271224975586e-01) (7, 2.71026134490966796875e-01) (8, 1.37801241874694824219e+00) (9, -4.48165931701660156250e+01) (10, 1.13303108215332031250e+01) (11, -6.24033153057098388672e-01) (12, -5.67509114742279052734e-01) (13, 3.94442558288574218750e-01) (14, 2.08396330475807189941e-01) (15, 2.10488364100456237793e-01) (16, 1.86953008174896240234e-01) (17, 2.11820363998413085938e-01) (18, 7.28306993842124938965e-02) (19, -1.33200949057936668396e-02) (20, -3.11659336090087890625e-01) (21, -1.34476780891418457031e+00) (22, -2.32624094933271408081e-02) (23, 4.75032925605773925781e-01) (24, 1.30248561501502990723e-01) (25, -1.76251277327537536621e-01) (26, 1.41174748539924621582e-01) (27, 3.35273385047912597656e-01) (28, 9.55665111541748046875e-02) (29, 2.21552371978759765625e-01) (30, 1.04447305202484130859e-01) (31, 1.45003780722618103027e-01) (32, -1.74877598881721496582e-01) (33, 3.51297040469944477081e-03) (34, 2.16388925909996032715e-01) (35, 1.14867120981216430664e-01) (36, 2.37915769219398498535e-01) (37, 1.13140478730201721191e-01) (38, 7.39219263195991516113e-02) (39, 1.84181034564971923828e-01) (40, 2.35961318016052246094e-01) (41, 1.25541418790817260742e-01) (42, 5.12380413711071014404e-02) (43, 2.14739143848419189453e-01) (44, 5.09389750659465789795e-02) (45, -5.11810556054115295410e-02) (46, 2.47888356447219848633e-01) (47, 7.31140449643135070801e-02) (48, 8.68092104792594909668e-02) (49, 2.53196775913238525391e-01) (50, 6.52873814105987548828e-02) (51, 4.76665236055850982666e-02) (52, -9.16655510663986206055e-02) (53, -2.16862261295318603516e-01) (54, -4.16509956121444702148e-01) (55, -3.88027280569076538086e-01) (56, -4.94070559740066528320e-01) (57, 1.57135128974914550781e-02) (58, -3.48071289062500000000e+00) (59, -3.26851725578308105469e-01) (60, 1.66213661432266235352e-01) (61, 1.78836718201637268066e-01) (62, 6.65689259767532348633e-02) (63, 2.69399851560592651367e-01) (64, 2.44536995887756347656e-01) (65, -6.84196531772613525391e-01) (66, -2.47782754898071289062e+00) (67, -1.70666968822479248047e+00) (68, 4.09422099590301513672e-01) (69, -5.85715949535369873047e-01) (70, 1.54224127531051635742e-01) (71, 6.49952650070190429688e-01) (72, 3.56052458286285400391e-01) (73, 1.44682064652442932129e-01) (74, 1.93619266152381896973e-01) (75, 1.62149101495742797852e-01) (76, 2.31155052781105041504e-01) (77, 1.23505219817161560059e-01) (78, -1.18582606315612792969e-01) (79, 8.43840651214122772217e-03) (80, -3.89803498983383178711e-01) (81, 4.37749736011028289795e-03) (82, -3.34891200065612792969e-01) (83, 3.93939673900604248047e-01) (84, 5.27989864349365234375e-01) (85, 1.45749479532241821289e-01) (86, 4.19231727719306945801e-02) (87, 6.87566213309764862061e-03) (88, -7.76813458651304244995e-03) (89, 2.98462986946105957031e-01) (90, 3.95320415496826171875e-01) (91, -6.84308767318725585938e+00) (92, -3.05293262004852294922e-01) (93, -9.39191818237304687500e-01) (94, -3.69443446397781372070e-01) (95, -4.59563314914703369141e-01) (96, -5.53322881460189819336e-02) (97, 7.79901266098022460938e-01) (98, 8.36580991744995117188e-01) (99, 7.34349489212036132812e-01) (100, 2.20431894063949584961e-01) (101, 1.51546552777290344238e-01) (102, -1.39022529125213623047e-01) (103, -2.23366692662239074707e-01) (104, -4.04311895370483398438e-01) (105, -5.03941476345062255859e-01) (106, -5.54653525352478027344e-01) (107, -1.46291160583496093750e+00) (108, -9.81731414794921875000e-02) (109, -7.74913132190704345703e-01) (110, -5.75759224593639373779e-02) (111, -1.18870936334133148193e-01) (112, 1.38042956590652465820e-01) (113, 5.06290346384048461914e-02) (114, -2.37220898270606994629e-01) (115, 1.27610070630908012390e-02) (116, -2.44266599416732788086e-01) (117, 3.01544547080993652344e-01) (118, 5.83702623844146728516e-01) (119, -3.69802057743072509766e-01) (120, -4.34550583362579345703e-01) (121, -1.08306169509887695312e-01) (122, -3.27838137745857238770e-02) (123, -3.99495847523212432861e-02) (124, 2.14245304465293884277e-01) (125, 8.79263877868652343750e-02) (126, -1.10317453742027282715e-01) (127, -1.21122457087039947510e-01) (128, -5.46879649162292480469e-01) (129, -5.22398538887500762939e-02) (130, 7.80563568696379661560e-04) (131, -1.50271624326705932617e-01) (132, -4.69149887561798095703e-01) (133, -4.26808714866638183594e-01) (134, -7.79140293598175048828e-02) (135, 9.90381911396980285645e-02) (136, 1.73364073038101196289e-01) (137, 1.00826278328895568848e-01) (138, 7.75734856724739074707e-02) (139, -6.01019375026226043701e-02) (140, -4.71226125955581665039e-01) (141, -3.34226191043853759766e-01) (142, -1.19993829727172851562e+00) (143, 4.17874127626419067383e-01) (144, -4.90164846181869506836e-01) (145, -1.40668287873268127441e-01) (146, -4.75012451410293579102e-01) (147, -1.19859911501407623291e-01) (148, 7.60195851325988769531e-02) (149, 8.59758853912353515625e-02) (150, 2.90838573127985000610e-02) (151, 2.50780463218688964844e-01) (152, -1.17739565670490264893e-01) (153, -3.35878521203994750977e-01) (154, -4.97386902570724487305e-01) (155, -1.00132040679454803467e-02) (156, -1.28020787239074707031e+00) (157, 7.70568490028381347656e-01) (158, -3.88258218765258789062e-01) (159, -3.73000860214233398438e-01) (160, 1.54860809445381164551e-01) (161, 5.36516085267066955566e-02) (162, -1.29846796393394470215e-01) (163, 9.25489366054534912109e-02) (164, 1.98131233453750610352e-01) (165, 2.05482646822929382324e-01) (166, -3.11855584383010864258e-01) (167, -2.14690327644348144531e-01) (168, -1.15640453994274139404e-01) (169, -3.93461078405380249023e-01) (170, 3.26169133186340332031e-01) (171, -3.37452679872512817383e-01) (172, -5.81832788884639739990e-03) (173, 2.10923373699188232422e-01) (174, 1.63705244660377502441e-01) (175, 1.24965496361255645752e-01) (176, 1.18918931484222412109e+00) (177, 9.32339355349540710449e-02) (178, -6.39751702547073364258e-02) (179, -3.35621923208236694336e-01) (180, -1.81785345077514648438e-01) (181, -3.79743576049804687500e-01) (182, 5.33160150051116943359e-01) (183, -2.87673056125640869141e-01) (184, -9.43807065486907958984e-02) (185, 3.34588740952312946320e-03) (186, 1.68237835168838500977e-01) (187, 1.17594897747039794922e-01) (188, 8.52030217647552490234e-02) (189, 5.13871252536773681641e-01) (190, 1.79066419601440429688e-01) (191, -3.15787017345428466797e-01) (192, -3.37191730737686157227e-01) (193, -2.77223378419876098633e-01) (194, 6.33576661348342895508e-02) (195, -1.91432595252990722656e-01) (196, -9.58248227834701538086e-02) (197, -3.35984793491661548615e-03) (198, 7.28072971105575561523e-02) (199, 8.06587785482406616211e-02) (200, 8.39389562606811523438e-02) (201, 2.29870066046714782715e-01) (202, -1.91698575019836425781e+00) (203, 1.32646426558494567871e-01) (204, -3.68307024240493774414e-01) (205, -4.42677676677703857422e-01) (206, -2.92621582746505737305e-01) (207, -2.96098619699478149414e-01) (208, 